#include <float.h>
#include <math.h>
#include <stdbool.h>
#include <stdint.h>
#include <string.h>
#include<stdio.h>
#define MAX(X,Y) ( X > Y ? X : Y)
#define MIN(X,Y) ( X < Y ? X : Y)
#define CLIP(X,L) ( MAX(MIN(X,L), -L) )
#define BINARISE(X) ( X>=0? 1:-1)
#define RELU(X) MAX(0,X)
#define HARD_SIGMOID(X) MAX( 0 , MIN( 1 ,((X+1)/2) ) )

#define INPUT_LAYER_SIZE_ROW 50
#define INPUT_LAYER_SIZE_COL 784

#define SECOND_LAYER_SIZE_ROW 50
#define SECOND_LAYER_SIZE_COL 50

#define IMAGE_SIZE 784
#define GAMMA 0.5

/* layer_1_MatMul*/
static const float tensor_layer_1_MatMul_weights[INPUT_LAYER_SIZE_ROW][784] =
{
    {0.018301f, -0.015865f, -0.007025f, 0.016662f, -0.033724f, 0.021317f, -0.007449f, 0.018068f, 0.004863f, -0.004474f, 0.009804f, 0.00166f, 0.217604f, 0.368812f, 0.229123f, 0.108259f, 0.005075f, -0.000244f, 0.031119f, 0.011013f, -0.013402f, -0.021671f, -0.006088f, -0.015506f, -0.011546f, 0.001609f, 0.021189f, 0.019311f, -0.035014f, 0.022039f, 0.009876f, 0.033776f, 0.003473f, -0.139969f, -0.170712f, -0.124874f, -0.27216f, -0.260572f, -0.224985f, -0.550369f, -0.369535f, -0.509531f, -0.346982f, -0.584132f, -0.202916f, -0.216361f, -0.632417f, -0.260862f, -0.125325f, -0.247784f, -0.37088f, -0.363261f, 0.019278f, -0.008783f, 0.035472f, 0.028527f, -0.001774f, -0.02394f, -0.098311f, -0.22997f, -0.329181f, 0.077119f, -0.337216f, -0.454198f, -0.57788f, -0.480647f, -0.85117f, -0.968026f, -0.973179f, -1.0f, -1.0f, -1.0f, -0.965625f, -0.923682f, -0.82863f, -0.519411f, 0.100811f, -0.022452f, -0.296779f, -0.290187f, -0.055792f, -0.160124f, 0.002071f, -0.006187f, 0.020874f, -0.020785f, 0.078965f, -0.209002f, -0.139827f, -0.180041f, -0.327463f, -0.434173f, -0.400948f, -0.83361f, -0.944542f, -0.93966f, -0.867669f, -0.993265f, -1.0f, -0.904088f, -0.830542f, -0.86163f, -0.505908f, -0.490846f, -0.770479f, -0.216954f, 0.34037f, 0.177495f, -0.114753f, 0.219146f, 0.043233f, 0.026576f, 0.033763f, -0.106742f, 0.106875f, 0.395671f, 0.781511f, -0.206808f, -0.285398f, 0.098222f, 0.26244f, 0.207806f, -0.212332f, -0.24116f, -0.343594f, -0.739898f, -0.655208f, -0.419218f, -0.312185f, -0.248691f, -0.183489f, -0.1507f, 0.080062f, -0.004705f, -0.186925f, -0.279431f, -0.706937f, -0.163787f, -0.014685f, -0.144932f, -0.016466f, -0.00426f, -0.177351f, -0.285829f, -0.652023f, -0.608704f, -0.296858f, 0.114419f, 0.097823f, 0.144685f, -0.187754f, -0.052181f, -0.390143f, -0.547506f, -0.712748f, -0.450602f, -0.439613f, -0.500109f, -0.293883f, -0.338585f, -0.294217f, -0.366379f, -0.015355f, -0.175606f, -0.732134f, -0.431234f, -0.3288f, -0.03304f, -0.028563f, -0.051782f, -0.528913f, -0.422124f, -0.635942f, -0.224071f, -0.124087f, -0.158427f, -0.009301f, 0.182026f, 0.197077f, 0.331481f, 0.225203f, 0.405652f, 0.234891f, 0.026357f, 0.005868f, 0.221457f, 0.026062f, -0.051701f, 0.008458f, 0.081286f, 0.241982f, -0.099542f, -0.665217f, -0.559511f, -0.504972f, -0.296915f, -0.116168f, -0.357606f, -0.422564f, -0.188532f, -0.272216f, -0.242538f, -0.293142f, -0.261896f, 0.307294f, 0.41417f, 0.400239f, 0.352064f, 0.388499f, 0.388394f, 0.053561f, 0.043368f, 0.051138f, 0.115052f, -0.142722f, -0.035789f, -0.18408f, -0.010708f, 0.179836f, -0.172905f, -0.743468f, -0.24691f, -0.202661f, 0.038653f, -0.124488f, -0.335758f, -0.086973f, -0.121994f, -0.174536f, 0.029478f, -0.161411f, -0.1408f, 0.272633f, 0.267418f, 0.216412f, -0.058666f, -0.501431f, -0.362408f, -0.132387f, -0.048309f, -0.067805f, -0.23349f, -0.283886f, -0.426392f, -0.160694f, -0.007319f, -0.009987f, -0.156955f, 0.015366f, -0.396011f, -0.111374f, -0.000628f, -0.52741f, -0.476217f, -0.400598f, 0.058221f, 0.290313f, 0.471881f, 0.343735f, 0.071158f, 0.141563f, -0.121601f, -0.391053f, -0.542613f, -0.704497f, -0.403177f, -0.284712f, -0.079944f, -0.087058f, -0.273694f, -0.304516f, -0.380309f, -0.106037f, 0.212361f, 0.041438f, -0.172254f, 0.35984f, -0.193062f, -0.016129f, -0.693598f, -0.441383f, -0.507005f, -0.336126f, 0.015388f, 0.430044f, 0.485389f, 0.315803f, 0.020349f, -0.13804f, -0.267348f, -0.490032f, -0.151449f, 0.335175f, 0.358513f, 0.109938f, 0.454851f, 0.439414f, 0.003249f, -0.283507f, -0.284409f, 0.055912f, 0.290221f, 0.341578f, 0.457442f, 0.919655f, 0.499582f, -0.078514f, -0.504443f, -0.341475f, -0.05099f, -0.417424f, 0.028226f, 0.687636f, 0.578883f, 0.404968f, 0.174749f, 0.007148f, 0.230869f, 0.426777f, 0.851102f, 0.963932f, 0.999955f, 0.654089f, 0.840656f, 0.917348f, 0.859226f, -0.069148f, 0.118025f, -0.069552f, -0.134657f, 0.03164f, 0.168678f, 0.678921f, 0.307482f, 0.07311f, 0.248023f, -0.206659f, 0.056908f, -0.147361f, 0.520568f, 0.999052f, 0.978753f, 0.577707f, 0.41883f, 0.33874f, 0.445004f, 0.707287f, 0.96042f, 0.861515f, 0.793964f, 0.159413f, 0.904104f, 0.965709f, 0.562519f, -0.269216f, -0.0251f, -0.052487f, -0.24021f, -0.229506f, -0.55617f, -0.460543f, -0.312708f, 0.370002f, -0.123933f, 0.024361f, 0.181733f, -0.250766f, 0.767299f, 0.998915f, 0.983046f, 0.896388f, 0.444977f, 0.321146f, 0.397453f, 0.644026f, 0.872088f, 0.602851f, -0.01494f, -0.334765f, 0.201016f, 0.66288f, -0.198472f, -0.309239f, 0.154564f, 0.087736f, 0.377646f, -0.220049f, -1.0f, -0.99956f, -0.650584f, -0.341108f, -0.15889f, -0.143973f, 0.246714f, -0.029545f, 0.331103f, 0.999679f, 0.973919f, 0.601416f, 0.20005f, -0.090674f, -0.023901f, 0.296378f, 0.630751f, 0.518468f, -0.306339f, -0.812622f, -0.380322f, 0.348312f, 0.039601f, 0.247797f, 0.449518f, 0.32159f, -0.102998f, -0.312463f, -1.0f, -1.0f, -1.0f, -0.968206f, -0.229276f, -0.015019f, -0.04354f, -0.122288f, 0.53205f, 0.869526f, 0.1243f, 0.154557f, -0.119493f, -0.217294f, -0.202719f, 0.102389f, 0.446948f, 0.203969f, -0.49756f, -0.90163f, -0.346541f, 0.213563f, 0.342476f, 0.450208f, 0.3928f, -8.7e-05f, -0.161258f, -0.115076f, -0.680847f, -1.0f, -1.0f, -0.81699f, -0.340469f, 0.141745f, -0.19844f, -0.311494f, 0.485753f, 0.018353f, -0.043907f, -0.1113f, -0.045924f, -0.175347f, -0.222423f, 0.083089f, 0.115582f, 0.027998f, -0.362303f, -0.597787f, 0.063068f, 0.121075f, -0.027314f, 0.224796f, 0.365183f, 0.192233f, -0.145241f, -0.024159f, -0.421958f, -1.0f, -0.999726f, -0.989577f, -0.347571f, -0.034305f, -0.282001f, -0.441626f, 0.216622f, -0.14154f, -0.068281f, -0.166016f, -0.1571f, -0.105541f, -0.421034f, -0.214881f, -0.360781f, -0.296272f, -0.165296f, 0.08466f, 0.11113f, -0.121185f, -0.273881f, -0.005458f, 0.306888f, 0.452135f, 0.001268f, -0.034304f, -0.533329f, -1.0f, -0.999841f, -0.740795f, -0.101929f, -0.391714f, -0.581743f, -0.280203f, 0.029686f, -0.072242f, -0.071104f, -0.072643f, -0.020627f, -0.219456f, -0.639629f, -0.974579f, -0.97727f, -0.83618f, -0.280834f, -0.003644f, -0.255897f, -0.423058f, -0.367425f, -0.205928f, -0.138338f, 0.155998f, -0.163449f, -0.040833f, -0.490924f, -0.91374f, -0.631249f, 0.075255f, -0.169498f, -0.184798f, -0.118836f, 0.417459f, 0.247421f, -0.35666f, -0.279926f, -0.329295f, -0.406992f, -0.526493f, -0.709447f, -0.825624f, -0.915729f, -0.942488f, -0.718201f, -0.827394f, -0.77085f, -0.198171f, -0.208981f, -0.073531f, 0.067894f, 0.058811f, 0.011779f, -0.228102f, -0.313039f, -0.523824f, -0.296633f, 0.063231f, -0.182939f, -0.015847f, -0.018305f, 0.181835f, 0.028411f, -0.39174f, -0.351465f, -0.659761f, -0.75336f, -0.517405f, -0.499117f, -0.76025f, -0.833013f, -0.962119f, -0.980386f, -0.644091f, -0.29184f, 0.014029f, -0.187236f, 0.172787f, 0.249606f, 0.084893f, 0.270545f, 0.254629f, 0.069781f, -0.235831f, -0.035661f, -0.174556f, -0.054621f, 0.029857f, -0.497821f, 0.068401f, 0.10636f, 0.16209f, -0.188196f, -0.711994f, -0.599535f, -0.23838f, -0.235389f, -0.358817f, -0.632577f, -0.991931f, -0.893868f, -0.523168f, -0.202618f, 0.061367f, -0.243259f, -0.022837f, 0.120617f, 0.148462f, 0.279459f, 0.514081f, 0.2734f, 0.188996f, 0.285597f, 0.206668f, 0.114919f, 0.026222f, -0.314594f, -0.317653f, 0.04124f, 0.189121f, -0.36001f, -0.414004f, -0.152192f, 0.02329f, 0.414043f, 0.16154f, -0.090477f, -0.542561f, -0.77076f, -0.564842f, -0.092553f, 0.096932f, -0.10882f, 0.131589f, 0.183562f, 0.258641f, 0.254849f, 0.625032f, 0.332853f, 0.489915f, 0.470666f, 0.485176f, 0.15206f, 0.022651f, 0.015705f, -0.299417f, -0.217431f, -0.408785f, -0.453163f, -0.225351f, 0.160179f, 0.106314f, 0.237845f, 0.211357f, 0.067674f, -0.252814f, -0.273284f, -0.233583f, -0.07572f, -0.077768f, -0.194518f, 0.321978f, 0.469764f, 0.626654f, 0.370959f, 0.435378f, 0.207632f, -0.062651f, -0.006952f, 0.412698f, -0.004107f, -0.033188f, 0.006521f, -0.191032f, -0.4333f, -0.257368f, 0.002988f, 0.307085f, 0.588143f, 0.418711f, 0.451947f, 0.589005f, 0.336354f, 0.070675f, -0.092072f, 0.022631f, 0.013491f, 0.042854f, 0.103414f, 0.742117f, 1.0f, 0.992408f, 0.884156f, 0.461117f, 0.434465f, -0.108237f, -0.213858f, -0.03375f, 0.025039f, -0.022879f, -0.020922f, -0.031001f, -0.361365f, 0.522248f, 0.980712f, 0.937457f, 0.900364f, 0.974299f, 0.997278f, 0.90925f, 0.599887f, 0.615849f, 0.453717f, 0.56968f, 0.372699f, -0.160259f, -0.092092f, 0.390801f, 0.658361f, 0.753413f, 0.996829f, 1.0f, 0.797764f, 0.400837f, 0.067101f, -0.047684f, -0.013907f, 0.002294f, -0.013821f, 0.033522f, 0.077712f, 0.121178f, -0.114357f, -0.484245f, -0.838919f, -0.654543f, -0.65854f, -0.728632f, -0.33013f, -0.503115f, -0.611592f, -0.607267f, -0.914645f, -0.966943f, -1.0f, -0.35015f, -0.029157f, 0.300824f, 0.631091f, 0.715271f, 0.585505f, 0.191701f, 0.158004f, -0.012566f, 0.028192f, 0.027126f, 0.022687f, -0.015029f, -0.007175f, -0.166724f, -0.411785f, -0.771258f, -0.971784f, -0.974321f, -0.944177f, -0.702175f, -0.360092f, -0.141023f, -0.275485f, -0.848696f, -1.0f, -0.983758f, -1.0f, -0.27267f, 0.120918f, -0.118884f, -0.257332f, -0.098104f, -0.170655f, -0.017135f, 0.006658f, -0.004215f, 0.002383f},
    {-0.027352f, -0.022421f, -0.030902f, -0.025653f, 0.029924f, 0.013285f, -0.034044f, -0.005944f, 0.002883f, 0.019096f, 0.03314f, 0.008641f, 0.161901f, 0.208158f, 0.139816f, -0.00833f, 0.008244f, 0.032983f, 0.022444f, 0.035555f, -0.016076f, -0.004452f, 0.007384f, 0.02873f, -0.032813f, -0.017523f, 0.005197f, -0.020626f, 0.013358f, -0.002418f, -0.009238f, 0.019171f, -0.017473f, -0.047125f, -0.240993f, -0.177115f, 0.027391f, 0.161526f, 0.203992f, 0.244473f, 0.187327f, 0.309643f, 0.865359f, 0.735956f, 0.210359f, -0.01302f, 0.085397f, -0.091989f, 0.005187f, 0.134802f, 0.362923f, 0.203415f, 0.031911f, -0.034493f, -0.008339f, 0.027714f, 0.015467f, -0.017802f, 0.140175f, -0.062844f, 0.063507f, 0.12533f, -0.069159f, 0.255539f, 0.448905f, 0.310835f, 0.401057f, 0.330318f, 0.007678f, -0.296262f, -0.28005f, -0.082169f, -0.030495f, -0.288021f, -0.137931f, -0.381255f, -0.390903f, -0.326427f, -0.258621f, -0.392182f, -0.409005f, -0.283512f, -0.011054f, -0.029864f, 0.00786f, 0.022256f, 0.234735f, 0.188256f, 0.153244f, 0.154587f, 0.125461f, 0.033389f, -0.232989f, -0.160831f, -0.121132f, -0.093052f, -0.084753f, -0.486857f, -0.199165f, -0.024655f, -0.114646f, -0.053729f, -0.105177f, -0.349699f, -0.267857f, 0.019512f, 0.269166f, 0.238083f, 0.015277f, -0.004867f, -0.000787f, -0.019895f, -0.016919f, -0.109183f, -0.128319f, -0.352108f, -0.025109f, 0.389232f, 0.214964f, 0.293872f, 0.252867f, 0.062544f, 0.51673f, 0.675322f, 0.510905f, 0.061891f, 0.236171f, 0.398199f, 0.184379f, -0.081566f, 0.091135f, 0.285058f, -0.011164f, -0.113085f, -0.115087f, -0.162995f, 0.33067f, 0.335789f, 0.227053f, 0.014768f, 0.005649f, -0.033252f, -0.32694f, -0.169213f, 0.123996f, 0.007039f, 0.021477f, 0.065495f, -0.133012f, -0.103403f, -0.014859f, 0.117302f, -0.008106f, 0.076398f, 0.230124f, 0.042655f, 0.093794f, 0.291107f, 0.014798f, 0.134558f, 0.397109f, 0.204953f, 0.141496f, 0.282552f, -0.058314f, 0.087362f, -0.218255f, -0.253208f, 0.001512f, -0.012335f, -0.747351f, -0.16686f, -0.168502f, 0.025881f, -0.149054f, -0.255452f, -0.468902f, -0.358849f, -0.137547f, -0.180387f, 0.002096f, -0.072486f, -0.058549f, 0.095046f, -0.151365f, -0.056408f, 0.020348f, -0.115026f, 0.000672f, -0.188401f, -0.214454f, -0.161728f, -0.461017f, -0.359245f, -0.053344f, -0.084656f, -0.109472f, 0.337254f, -0.490342f, -0.295934f, -0.178851f, -0.162299f, -0.409603f, -0.267144f, -0.378085f, -0.002705f, -0.013445f, -0.05706f, 0.009091f, -0.187162f, -0.122108f, 0.096288f, -0.046056f, -0.337922f, -0.291801f, -0.270524f, -0.158187f, -0.297225f, -0.146409f, -0.285196f, -0.423723f, -0.188006f, 0.127432f, -0.182666f, -0.143578f, 0.056999f, -0.519351f, 0.100483f, -0.164171f, -0.456648f, -0.513916f, -0.093083f, -0.022459f, 0.211216f, 0.044403f, 0.186291f, -0.074603f, -0.208516f, -0.078012f, 0.128413f, 0.062736f, -0.167231f, -0.050739f, 0.069064f, 0.037053f, -0.045097f, 0.035287f, -0.184192f, 0.204974f, 0.201546f, 0.170088f, -0.062031f, -0.28421f, 0.053584f, -0.351957f, -0.137808f, -0.238824f, -0.446875f, -0.258892f, 0.061782f, 0.128368f, 0.265399f, 0.240582f, 0.059022f, -0.258647f, -0.065695f, 0.131302f, 0.028982f, 0.042706f, -0.215827f, -0.056683f, 0.175197f, 0.306233f, 0.119523f, 0.047468f, -0.035048f, 0.617277f, 0.755776f, 0.092404f, -0.135814f, -0.180398f, -0.079414f, -0.15033f, 0.084536f, 0.02439f, -0.246486f, -0.088931f, 0.017568f, 0.068282f, -0.091555f, -0.128263f, 0.069963f, 0.417016f, 0.981067f, 0.951924f, 0.871217f, 0.140954f, -0.363513f, -0.177728f, -0.022313f, -0.13119f, -0.247475f, -0.567442f, -0.161266f, 0.556123f, 0.664663f, 0.157529f, -0.117663f, -0.363308f, -0.345032f, -0.146114f, 0.085552f, -0.095764f, -0.223123f, 0.019869f, 0.018997f, 0.076535f, -0.201551f, -0.252321f, 0.294998f, 0.99047f, 1.0f, 0.995877f, 0.89535f, 0.233184f, -0.207635f, -0.450726f, -0.752573f, -0.823576f, -0.895497f, -0.999674f, -0.682938f, -0.012187f, 0.396953f, 0.076941f, 0.109596f, -0.1036f, -0.327502f, -0.54418f, -0.195974f, -0.183536f, -0.039446f, -0.096782f, -0.130364f, -0.053231f, -0.215703f, -0.182245f, 0.560736f, 0.959226f, 0.985398f, 0.949143f, 0.886307f, 0.435274f, -0.108206f, -0.441857f, -0.769526f, -0.910766f, -0.998157f, -1.0f, -0.800114f, -0.117451f, 0.109786f, -0.513145f, 0.151092f, 0.060898f, -0.267443f, -0.372716f, 0.020195f, -0.089009f, -0.009671f, -0.000191f, -0.276311f, -0.242991f, -0.579352f, -0.302392f, 0.204446f, 0.979275f, 1.0f, 1.0f, 1.0f, 0.625178f, 0.143792f, -0.00418f, -0.526128f, -0.439825f, -0.88542f, -0.895688f, -0.487936f, 0.094438f, -0.015279f, -0.132313f, -0.085038f, 0.160862f, -0.014187f, -0.157329f, 0.130743f, -0.172518f, -0.165261f, -0.371601f, -0.632845f, -0.663471f, -0.451409f, -0.595817f, -0.278192f, 0.430706f, 1.0f, 1.0f, 1.0f, 0.888865f, 0.438503f, 0.188375f, -0.128341f, 0.000202f, -0.256612f, -0.217361f, -0.171654f, 0.019187f, -0.314474f, -0.418821f, -0.421354f, -0.015654f, 0.080921f, 0.04063f, -0.092713f, -0.312715f, -0.401509f, -0.458723f, -0.54828f, -0.497005f, -0.662123f, -0.907768f, -0.723116f, -0.133921f, 0.174299f, 0.558152f, 0.599541f, 0.497284f, 0.213176f, 0.209438f, 0.014586f, -0.034037f, -0.051106f, 0.059445f, 0.056716f, -0.042661f, -0.499772f, -0.41606f, -0.205073f, -0.129342f, 0.298322f, 0.009483f, 0.267707f, -0.095972f, -0.233321f, -0.197736f, -0.47331f, -0.690833f, -0.945163f, -0.934679f, -0.919816f, -0.506248f, -0.279027f, 0.029725f, -0.063546f, 0.206279f, 0.268073f, 0.411141f, 0.37959f, 0.326043f, -0.123486f, 0.011998f, 0.019572f, -0.007953f, -0.454541f, -0.554247f, -0.238168f, 0.010264f, 0.241898f, -0.07444f, 0.824841f, 0.319327f, 0.330941f, 0.444936f, -0.061167f, -0.653281f, -1.0f, -1.0f, -0.981491f, -0.997718f, -1.0f, -0.708174f, -0.413454f, 0.126612f, 0.38363f, 0.678221f, 0.631368f, 0.185608f, 0.056617f, -0.154279f, -0.116901f, -0.077172f, -0.59681f, -0.488125f, -0.246085f, 0.326721f, 0.020836f, 0.077157f, 0.959348f, 0.808084f, 0.784947f, 0.609146f, -0.037937f, -0.38689f, -0.684081f, -1.0f, -0.835891f, -0.999099f, -0.730058f, -0.314211f, -0.399634f, 0.164721f, 0.432333f, 0.546569f, 0.61961f, 0.204701f, 0.113223f, -0.085644f, -0.370573f, -0.286788f, -0.25788f, -0.290054f, 0.143513f, 0.105334f, -0.518109f, 0.148104f, 0.755238f, 0.818713f, 0.826431f, 0.567782f, 0.145614f, 0.040759f, 0.017099f, -0.125462f, -0.391954f, -0.625441f, -0.157903f, -0.200691f, -0.129954f, 0.011501f, 0.246778f, 0.22249f, 0.420118f, 0.069121f, -0.195154f, -0.257402f, -0.254956f, -0.39039f, -0.131197f, -0.251217f, 0.106051f, -0.019666f, -0.221723f, 0.051948f, 0.42805f, 0.221969f, 0.389855f, 0.199388f, -0.02184f, 0.279267f, 0.028386f, 0.110331f, -0.04054f, -0.166644f, 0.139873f, -0.037851f, -0.134313f, 0.149048f, 0.490867f, 0.386686f, 0.118241f, -0.127796f, -0.288775f, -0.445241f, -0.36645f, -0.622082f, -0.342559f, -0.113053f, 0.075563f, 0.085941f, -0.157266f, 0.476014f, 0.171103f, -0.119165f, 0.023755f, 0.04664f, -0.061022f, 0.013335f, -0.212946f, 0.005651f, -0.064239f, -0.142864f, -0.126887f, -0.080681f, -0.028257f, 0.005337f, 0.264661f, 0.086574f, -0.08194f, -0.156954f, -0.144373f, -0.455513f, -0.389531f, -0.183026f, -0.415735f, -0.243978f, 0.108485f, 0.1029f, -0.187505f, 0.368591f, 0.168015f, -0.101779f, -0.37729f, -0.091335f, -0.2261f, -0.276793f, 0.035832f, 0.193068f, 0.348345f, 0.115767f, 0.234716f, 0.055559f, 0.045124f, 0.094515f, 0.263703f, 0.059573f, -0.153401f, -0.032445f, -0.029612f, -0.097108f, -0.056374f, 0.020857f, -0.193962f, -0.06987f, 0.16107f, 0.007465f, 0.031306f, 0.355473f, 0.385666f, 0.167598f, 0.061464f, 0.036338f, 0.089497f, 0.126724f, 0.085857f, 0.295948f, 0.369463f, 0.29198f, 0.276832f, 0.180113f, 0.147585f, -0.133939f, 0.138785f, -0.103974f, -0.333898f, 0.030093f, 0.101333f, 0.049313f, 0.01962f, -0.071897f, -0.090926f, -0.137447f, -0.000603f, 0.018424f, -0.030254f, -0.141971f, 0.425225f, 0.350553f, 0.281169f, 0.296485f, 0.19018f, -0.018491f, 0.134969f, -0.000995f, 0.139396f, 0.031521f, -0.020714f, -0.149972f, -0.292468f, -0.444278f, -0.601451f, -0.772071f, -0.548824f, -0.307089f, -0.164802f, -0.145185f, -0.031104f, -0.000645f, -0.009815f, 0.070394f, -0.035531f, -0.002472f, -0.006085f, -0.225696f, 0.171032f, 0.053219f, 0.055509f, 0.136726f, -0.171597f, -0.553952f, -0.089896f, -0.127175f, -0.327599f, -0.470209f, -0.801775f, -1.0f, -1.0f, -1.0f, -1.0f, -0.520586f, -0.318111f, -0.162325f, -0.202074f, -0.041416f, -0.266917f, -0.072578f, -0.049038f, 0.038097f, 0.004572f, -0.024557f, 0.024902f, 0.033375f, 0.030843f, -0.144861f, -0.123466f, -0.181109f, 0.099125f, 0.035148f, -0.225599f, -0.352379f, -0.429976f, -0.630467f, -0.822947f, -0.937949f, -1.0f, -0.928284f, -0.7707f, -0.445454f, -0.34244f, -0.061906f, -0.079002f, -0.063015f, -0.396203f, -0.176763f, 0.211993f, 0.022335f, 0.014905f, 0.014744f, 0.010054f, -0.027438f, -0.021591f, 0.094956f, 0.557437f, 0.251065f, 0.011301f, -0.019692f, -0.074347f, -0.095177f, 0.114661f, -0.044356f, -0.104123f, -0.406624f, -0.40882f, -0.413212f, -0.106355f, -0.122019f, -0.142141f, 0.011295f, 0.409769f, 0.56044f, 0.230469f, -0.035581f, -0.00291f, 0.001271f, -0.016671f},
    {0.028124f, -0.009526f, -0.034095f, -0.02137f, 0.0011f, -0.026623f, 0.008112f, 0.034697f, 0.001416f, -0.008844f, 0.033601f, 0.02632f, 0.08965f, 0.111677f, 0.240178f, 0.137026f, 0.00359f, 0.034692f, 0.001842f, -0.031916f, 0.019557f, 0.032007f, 0.029895f, 0.001639f, 0.006664f, 0.005734f, -0.014683f, -0.005257f, 0.02909f, 0.003598f, 0.033615f, -0.023762f, -0.091036f, -0.056441f, -0.091109f, -0.172429f, -0.427612f, -0.132077f, -0.170385f, -0.436027f, 0.058036f, 0.156349f, 0.056069f, -0.60879f, -0.63318f, -0.408262f, -0.595418f, -0.452638f, -0.365549f, 0.124391f, 0.216951f, 0.116197f, 0.001703f, -0.002809f, 0.012907f, 0.016626f, -0.017805f, -0.014113f, -0.175745f, -0.200234f, -0.178318f, -0.202357f, -0.426108f, -0.339583f, -0.345851f, -0.391034f, -0.325035f, -0.489045f, -0.104361f, 0.066973f, 0.00547f, -0.249718f, -0.65972f, -1.0f, -0.995297f, -1.0f, -0.886278f, -0.874438f, -0.187524f, -0.620425f, -0.126601f, 0.214893f, -0.020612f, 0.019469f, 0.032728f, -0.010912f, -0.368104f, -0.21796f, -0.471515f, 0.078527f, 0.10088f, 0.134883f, -0.030495f, 0.203416f, 0.141511f, -0.423867f, -0.280524f, 0.134432f, 0.055551f, -0.609079f, -0.958084f, -0.992185f, -0.987883f, -0.98285f, -0.970665f, 0.065902f, 0.898731f, 0.886541f, 0.7409f, 0.142532f, -0.319678f, -0.005025f, -0.010992f, 0.116595f, -0.370684f, -0.673645f, -0.286565f, 0.168874f, 0.2649f, -0.054484f, 0.062406f, 0.053434f, -0.349046f, -0.833902f, -0.882899f, -0.507132f, -0.042416f, -0.114815f, -0.17206f, -0.173986f, -0.25951f, -0.147025f, 0.093374f, 0.914323f, 1.0f, 1.0f, 1.0f, 0.8251f, 0.094664f, 0.245904f, -0.002153f, 0.016642f, -0.082436f, -0.039352f, -0.010284f, 0.225087f, -0.104217f, -0.057328f, 0.014603f, -0.159264f, -0.194716f, -0.206385f, -0.17384f, 0.086227f, 0.414254f, 0.282668f, 0.164023f, 0.137322f, 0.096187f, 0.243966f, 0.6002f, 0.619756f, 1.0f, 1.0f, 0.683809f, 0.589177f, -0.366367f, 0.015073f, 0.0052f, -0.006049f, -0.11764f, -0.46501f, -0.446373f, -0.31786f, -0.265212f, -0.032567f, -0.002437f, -0.010392f, -0.0886f, -0.186842f, 0.074455f, -0.149714f, -0.304804f, -0.063293f, -0.503475f, -0.670102f, -0.396596f, 0.107625f, 0.38277f, 0.297316f, 0.60572f, 0.821771f, 0.335718f, 0.31944f, 0.039426f, 0.262052f, 0.11656f, 0.341247f, 0.184272f, -0.314804f, -0.389509f, -0.252051f, 0.051463f, 0.074985f, -0.074207f, -0.142613f, -0.290292f, -0.067181f, 0.099719f, -0.28741f, -0.490839f, -0.626151f, -0.843538f, -0.763604f, -0.509334f, -0.089195f, 0.137201f, 0.058643f, -0.035508f, 0.246822f, 0.468058f, 0.478322f, 0.41127f, 0.323392f, 0.327751f, -0.008636f, 0.455601f, -0.124936f, -0.484678f, -0.410716f, 0.370987f, 0.155918f, -0.085089f, -0.227804f, -0.102806f, 0.184968f, 0.216022f, -0.099758f, -0.338169f, -0.761372f, -0.572371f, -0.511103f, -0.235041f, -0.053402f, -0.052388f, -0.182849f, -0.473716f, -0.086475f, 0.68083f, 0.389596f, 0.396724f, -0.026058f, 0.108055f, 0.137038f, 0.365078f, -0.064255f, -0.479927f, -0.22886f, 0.516123f, 0.181604f, -0.016239f, -0.236089f, 0.156924f, 0.28808f, 0.036747f, -0.01358f, -0.054463f, -0.090599f, -0.069372f, -0.133632f, 0.168806f, 0.123418f, -0.101492f, -0.503991f, -0.283698f, 0.291178f, 0.770392f, 0.932079f, 0.579265f, -0.700672f, 0.001154f, 0.548057f, -0.032666f, -0.45887f, -0.130797f, 0.292174f, 0.60732f, 0.230589f, 0.123241f, 0.025636f, -0.042013f, -0.033488f, 0.176271f, 0.847162f, 0.881634f, 0.184376f, -0.012426f, -0.145336f, 0.026355f, 0.107778f, -0.210949f, -0.40196f, 0.047502f, 0.793501f, 0.78633f, 0.663089f, 0.722835f, 0.028737f, -0.175044f, 0.331071f, -0.083555f, -0.766541f, -0.393768f, 0.528002f, 0.639191f, 0.210582f, 0.103045f, 0.012202f, -0.252531f, -0.502419f, 0.768173f, 1.0f, 0.855352f, -0.081334f, -0.242712f, -0.505601f, -0.25685f, -0.076571f, -0.242441f, -0.143814f, -0.190024f, 0.448714f, 0.798502f, 0.707112f, 0.929243f, 0.070414f, 0.110396f, 0.050219f, 0.17406f, -0.208653f, -0.622053f, 0.16177f, 0.471169f, 0.179152f, -0.020493f, -0.010939f, -0.461612f, -0.151921f, 1.0f, 0.943214f, 0.78375f, 0.141223f, -0.24029f, -0.424019f, -0.342696f, -0.18934f, -0.22133f, -0.069461f, -0.165266f, -0.115695f, 0.166105f, 0.795584f, 0.738229f, 0.113166f, -0.063403f, 0.020891f, 0.066077f, 0.057409f, -0.903413f, -0.186426f, 0.136841f, -0.171632f, -0.027071f, 0.062929f, -0.247284f, 0.632264f, 0.926259f, 0.661442f, 0.314394f, 0.13247f, -0.139923f, -0.444567f, -0.505219f, -0.23682f, 0.035438f, -0.08004f, -0.218892f, -0.057702f, 0.073168f, 0.990851f, 0.731266f, 0.047284f, 0.097165f, 0.536594f, 0.313195f, 0.137675f, -0.523906f, -0.295971f, 0.029899f, -0.188262f, 0.032179f, 0.001327f, -0.074876f, 0.815205f, 0.779039f, 0.305618f, 0.592217f, -0.106486f, -0.282898f, -0.319455f, -0.691953f, -0.245613f, -0.020047f, -0.166649f, -0.195705f, 0.204602f, 0.348004f, 0.925091f, 0.701033f, -0.232789f, -0.076468f, 0.248101f, -0.008767f, -0.421634f, -0.174005f, -0.268973f, -0.03194f, -0.122293f, -0.162312f, -0.040741f, -0.131418f, 0.465104f, 0.486534f, 0.184003f, 0.736294f, 0.026468f, -0.239665f, -0.276872f, -0.343038f, -0.314132f, -0.369683f, -0.34645f, -0.205071f, -0.018367f, 0.591657f, 0.890636f, 0.798621f, 0.101215f, -0.160509f, -0.397177f, -0.177317f, -0.527915f, -0.310543f, -0.051102f, 0.126766f, -0.138462f, -0.181576f, -0.051371f, -0.019489f, 0.553955f, 0.428138f, 0.175221f, 0.443658f, 0.438497f, 0.035913f, -0.27565f, -0.137792f, -0.6324f, -0.21214f, -0.04534f, -0.302927f, -0.064635f, 0.240241f, 0.50783f, 0.63715f, 0.528492f, 0.013028f, -0.119748f, 0.119566f, -0.574251f, -0.115078f, 0.089309f, 0.439946f, 0.287752f, 0.219286f, 0.195073f, 0.584628f, 0.962604f, 0.997333f, 0.803989f, 0.718301f, 0.491734f, 0.058144f, -0.287916f, -0.461827f, -0.446374f, -0.249155f, -0.335855f, -0.223725f, 0.144549f, 0.139398f, 0.107413f, 0.17176f, 0.322483f, -0.342803f, 0.061082f, 0.40686f, -0.585931f, -0.014087f, -0.19635f, 0.414646f, 0.647491f, 0.485618f, 0.669977f, 0.927559f, 0.970786f, 1.0f, 0.997917f, 0.68561f, 0.508247f, 0.34262f, -0.180355f, -0.089987f, -0.271442f, -0.147656f, -0.199338f, 0.134079f, 0.422789f, 0.595976f, -0.100019f, -0.322054f, 0.026471f, -0.225836f, -0.164174f, 0.659323f, -0.210376f, -0.196434f, -0.44611f, -0.045441f, 0.099778f, 0.358796f, 0.599211f, 0.735478f, 0.936609f, 1.0f, 0.26328f, -0.052488f, 0.109423f, 0.088361f, -0.126653f, -0.378311f, -0.469821f, -0.011666f, -0.026668f, 0.188857f, 0.57397f, 0.60391f, 0.045777f, -0.167827f, -0.290959f, -0.014578f, -0.135083f, 0.38387f, -0.014891f, -0.34254f, -0.306953f, -0.320382f, -0.119881f, -0.044886f, 0.257991f, 0.439792f, 0.193575f, 0.011689f, -0.322931f, -0.577976f, -0.265518f, -0.24162f, -0.055574f, -0.488578f, -0.554314f, -0.030627f, -0.070874f, -0.11514f, 0.462823f, 0.366809f, 0.106366f, 0.007279f, 0.016956f, -0.144535f, 0.016062f, 0.353458f, -0.166355f, -0.517899f, -0.017913f, -0.263246f, -0.169226f, -0.128639f, 0.31009f, 0.37643f, 0.126727f, 0.215063f, 0.06427f, 0.075476f, 0.012107f, 0.006303f, 0.40715f, 0.210674f, 0.278254f, 0.39581f, 0.186706f, 0.010141f, 0.037017f, 0.021543f, 0.189316f, -0.075254f, -0.045397f, -0.176855f, -0.234626f, 0.431829f, -0.417777f, -0.168812f, 0.261044f, 0.005542f, -0.136273f, -0.19399f, 0.034707f, 0.512233f, 0.616779f, 0.692631f, 0.737157f, 0.569847f, 0.506435f, 0.531832f, 0.699013f, 0.724099f, 0.929554f, 0.808855f, 0.730839f, 0.245537f, 0.057969f, 0.11575f, 0.338687f, 0.203787f, -0.097134f, 0.030577f, 0.021507f, 0.259543f, -0.444915f, -0.138836f, 0.168035f, 0.002535f, -0.17607f, -0.205132f, 0.041672f, 0.221921f, 0.441755f, 0.279638f, 0.053716f, 0.099734f, -0.069483f, 0.242339f, 0.275627f, 0.520189f, 0.768065f, 0.716376f, 0.467466f, -0.065307f, 0.201101f, 0.221794f, 0.551935f, 0.265709f, -0.019461f, 0.011132f, 0.033644f, -0.000292f, -0.309214f, -0.155931f, -0.451476f, -0.532704f, -0.480661f, -0.592259f, -0.289885f, -0.418812f, -0.304769f, -0.609421f, -0.743694f, -0.45047f, -0.844474f, -0.996792f, -0.820397f, -0.511485f, -0.03967f, 0.003895f, -0.256708f, -0.303712f, -0.256794f, 0.298405f, 0.606696f, 0.227209f, -0.000255f, -0.026002f, -0.014401f, -0.147801f, -0.18979f, -0.464382f, -0.827688f, -0.968607f, -0.953391f, -0.965396f, -0.650384f, -0.473132f, -0.869785f, -1.0f, -1.0f, -1.0f, -0.998068f, -0.999137f, -1.0f, -0.956809f, -0.980319f, -0.56847f, -0.89083f, -0.784602f, -0.195817f, 0.034113f, 0.13248f, 0.050758f, 0.005728f, -0.009918f, 0.011734f, 0.010745f, -0.071037f, -0.157605f, -0.200625f, -0.113882f, -0.243301f, -0.770372f, -0.580116f, -0.619469f, -0.596532f, -0.84832f, -1.0f, -1.0f, -0.99654f, -0.996126f, -0.923323f, -0.922108f, -0.739425f, -0.634486f, -0.758975f, -0.555133f, -0.201189f, -0.140736f, 0.236819f, -0.003132f, 0.031833f, -0.003691f, -0.021032f, 0.006542f, -0.01895f, 0.074082f, 0.236095f, -0.228651f, -0.238516f, -0.010708f, 0.11707f, -0.068767f, 0.026002f, -0.180574f, -0.248835f, -0.364434f, -0.157949f, 0.02805f, 0.830729f, -0.28787f, -0.456238f, -0.216435f, -0.372798f, -0.20683f, 0.080469f, 0.015892f, -0.014322f, 0.005383f, -0.033771f},
    {0.005526f, 0.030843f, 0.030827f, -0.000779f, 0.01274f, -0.006136f, -0.010233f, 0.000478f, -0.021012f, 0.014171f, 0.017301f, -0.00989f, -0.040734f, -0.103156f, -0.236914f, -0.190407f, 0.033699f, -0.033859f, -0.030319f, 0.000802f, 0.032797f, 0.00209f, 0.009705f, 0.004862f, -0.004479f, 0.025281f, 0.026009f, -0.020799f, -0.021597f, -0.027979f, -0.008894f, -0.001013f, -0.030282f, -0.090551f, 0.284274f, 0.145266f, 0.068619f, -0.13999f, -0.202876f, -0.26218f, -0.009234f, 0.100725f, -0.071671f, -0.134738f, -0.288215f, -0.831118f, -0.77747f, -0.352764f, -0.177273f, 0.205412f, 0.215265f, 0.233536f, 0.022162f, -0.027839f, -0.034471f, 0.003782f, 0.010162f, -0.02768f, 0.217139f, -0.206892f, -0.101339f, -0.213658f, -0.240692f, 0.051517f, -0.399631f, -0.421694f, -0.64684f, -0.454912f, -0.299678f, -0.607095f, -0.931256f, -0.478035f, -0.310623f, -0.838235f, -0.732932f, -0.730301f, -0.821556f, -0.538538f, -0.229154f, -0.384275f, -0.110058f, 0.024187f, 0.012249f, -0.011944f, -0.03102f, 0.005383f, 0.07669f, -0.414755f, -0.210894f, -0.044378f, -0.168005f, -0.022355f, -0.219411f, -0.353533f, -0.584018f, -0.560592f, -0.450365f, -0.686034f, -0.6884f, -0.441669f, -0.481046f, -0.927491f, -0.854281f, -0.740654f, -0.837999f, -0.863509f, -0.612963f, -0.471096f, -0.252368f, -0.02697f, -0.202131f, 0.00834f, 0.030763f, -0.115368f, -0.258593f, -0.471322f, -0.274226f, -0.03983f, -0.192116f, -0.061787f, 0.022127f, -0.237999f, -0.088916f, -0.275757f, -0.605768f, -0.58038f, -0.188102f, -0.074324f, -0.394036f, -0.549208f, -0.719977f, -0.727275f, -0.783988f, -0.790292f, -0.186538f, 0.484866f, 0.188568f, -0.022992f, -0.381766f, 0.280073f, -0.003965f, -0.011501f, 0.135498f, -0.526842f, -0.409771f, -0.089359f, -0.182635f, -0.091408f, -0.033239f, -0.169159f, 0.083404f, -0.08368f, -0.235063f, -0.311757f, -0.125975f, -0.116058f, -0.438241f, -0.338696f, -0.320702f, -0.469549f, -0.46949f, -0.226605f, 0.218439f, 0.182535f, 0.167513f, 0.160126f, -0.221521f, 0.032923f, -0.017543f, -0.191637f, -0.176618f, -0.360523f, -0.160679f, -0.005455f, -0.16697f, -0.204263f, -0.093371f, -0.1109f, 0.034261f, -0.033352f, 0.099327f, 0.240863f, 0.266452f, -0.007943f, -0.305512f, -0.111099f, -0.292711f, -0.198132f, -0.045978f, 0.220411f, 0.354946f, 0.134739f, -0.23599f, -0.162709f, 0.136523f, 0.261523f, 0.13308f, -0.313645f, -0.197808f, -0.292284f, -0.547389f, -0.327644f, -0.461248f, -0.162263f, -0.083336f, -0.104942f, -0.06832f, 0.217851f, 0.285282f, 0.043115f, -0.030553f, 0.052033f, 0.031669f, -0.100852f, -0.128181f, 0.082031f, 0.149609f, 0.193482f, 0.136087f, -0.018587f, -0.626945f, 0.006164f, 0.27124f, 0.191703f, 0.327333f, -0.126804f, -0.21563f, -0.672736f, -0.871469f, -0.390391f, -0.194285f, -0.12001f, -0.075747f, -0.096227f, 0.12699f, 0.252946f, 0.159098f, -0.063236f, 0.16235f, 0.083695f, 0.157571f, -0.14458f, 0.030037f, 0.195361f, 0.124019f, -0.014864f, -0.064715f, -0.020353f, -0.145435f, -0.245689f, 0.035613f, -0.163144f, -0.090409f, -0.325042f, -0.4004f, -0.978674f, -0.861374f, -0.127182f, 0.269545f, 0.136717f, -0.138829f, -0.047645f, 0.183831f, 0.098834f, 0.052016f, 0.206624f, 0.008357f, -0.183084f, -0.115888f, -0.095166f, 0.283793f, 0.232519f, -0.108582f, -0.264795f, 0.161558f, 0.49219f, 0.421706f, -0.263505f, 0.381725f, -0.676679f, -0.202922f, -0.155948f, -0.361291f, -0.951758f, -0.310552f, 0.426783f, 0.369435f, -0.011171f, -0.202303f, 0.032908f, -0.125369f, -0.120564f, 0.188671f, -0.017319f, -0.174475f, -0.005628f, 0.018463f, 0.1516f, 0.358897f, 0.119629f, -0.158646f, -0.263955f, 0.424497f, 0.788038f, 0.880801f, 0.78063f, 0.720872f, -0.197378f, -0.431015f, 0.037719f, -0.152744f, -0.397979f, 0.372018f, 0.753618f, 0.273093f, -0.074221f, -0.00691f, 0.070249f, -0.120744f, -0.127962f, 0.310557f, 0.493835f, 0.190253f, 0.050232f, 0.309273f, 0.096379f, 0.04914f, 0.025548f, -0.088867f, -0.094991f, 0.435556f, 0.306209f, 0.602672f, 0.923827f, 0.573347f, 0.160849f, 0.168062f, -0.216089f, -0.092674f, -0.153234f, 0.609436f, 0.862377f, 0.354959f, -0.03782f, -0.087531f, 0.061354f, -0.234403f, -0.085419f, 0.497376f, 0.476367f, -0.011254f, 0.04688f, 0.066772f, -0.167165f, -0.294273f, -0.254414f, -0.14506f, 0.099711f, 0.384186f, -0.35172f, -0.441041f, 0.890631f, 0.622298f, 0.324604f, -0.063405f, -0.017616f, -0.54371f, -0.169857f, 0.466068f, 0.721493f, 0.153207f, 0.024562f, -0.09406f, 0.23305f, 0.226064f, 0.389998f, 0.459662f, 0.045873f, -0.320796f, -0.298659f, -0.057032f, -0.442457f, -0.651745f, -0.342985f, -0.149894f, 0.165807f, 0.071399f, -0.314042f, -0.015253f, 0.788086f, 0.81127f, 0.006898f, 0.113532f, 0.15204f, -0.420279f, -0.066703f, 0.451812f, 0.362576f, 0.064394f, 0.05713f, 0.116874f, 0.548052f, 0.609161f, 0.721334f, 0.542237f, -0.132593f, -0.671358f, -0.409094f, -0.145765f, -0.453383f, -0.220843f, -0.026432f, 0.208207f, -0.037081f, -0.042113f, -0.012037f, 0.064729f, 0.61851f, 0.705765f, -0.373036f, 0.085771f, 0.153707f, -0.127401f, -0.189355f, 0.510661f, 0.112754f, 0.229591f, 0.182784f, 0.073536f, -0.040839f, 0.071598f, 0.078339f, -0.207698f, -0.837037f, -0.819751f, -0.199724f, -0.208668f, -0.544505f, 0.047388f, 0.205421f, 0.017699f, -0.250142f, -0.014717f, 0.03809f, 0.117887f, 0.58736f, 0.93229f, 0.119673f, -0.107265f, 0.154614f, 0.116321f, -0.267806f, 0.559787f, 0.349336f, 0.713444f, 0.700919f, 0.183072f, -0.260459f, -0.154088f, -0.103652f, -0.509753f, -0.921988f, -0.52036f, 0.115793f, 0.325732f, 0.126188f, -0.057327f, -0.000432f, 0.168f, 0.022187f, 0.270716f, 0.136084f, 0.054473f, 0.586072f, 0.988088f, 0.621585f, 0.002176f, 0.089561f, -0.068162f, -0.107046f, 0.507369f, 0.558345f, 0.99371f, 0.815748f, 0.731933f, 0.69842f, 0.456042f, 0.228692f, -0.028272f, -0.205473f, -0.106229f, 0.379544f, 0.44397f, 0.024635f, -0.14837f, -0.281945f, 0.071401f, 0.06464f, 0.168744f, 0.375026f, 0.486558f, 0.477887f, 0.891147f, 0.457514f, -0.333034f, -0.012799f, 0.139265f, -0.16166f, 0.474048f, 0.542286f, 0.99383f, 0.952313f, 0.962975f, 0.978404f, 0.980987f, 0.739272f, 0.719599f, 0.327004f, 0.179449f, 0.169764f, -0.02517f, -0.29796f, -0.280638f, -0.011343f, 0.010493f, -0.118696f, 0.321545f, 0.744028f, 0.898277f, 0.368882f, 0.258587f, 0.066924f, -0.172586f, 0.216483f, 0.03319f, -0.152727f, 0.14666f, 0.01199f, 0.328694f, 0.539355f, 0.973306f, 0.909393f, 0.717999f, 0.499927f, 0.222295f, -0.18707f, -0.395431f, -0.494639f, -0.330198f, -0.613717f, -0.181135f, -0.025266f, -0.19408f, -0.135445f, 0.213343f, 0.880675f, 0.923922f, 0.518408f, 0.18164f, -0.319626f, 0.004843f, 0.205959f, -0.013153f, -0.325452f, 0.079427f, 0.002511f, -0.127647f, -0.112337f, 0.011922f, -0.119038f, -0.175026f, -0.642595f, -1.0f, -1.0f, -1.0f, -0.885311f, -0.503568f, -0.292556f, 0.091767f, 0.200337f, -0.138019f, -0.132787f, 0.212617f, 0.689602f, 0.84172f, 0.535358f, 0.20292f, 0.07222f, -0.164505f, 0.600201f, -0.045007f, -0.1386f, -0.129092f, 0.182229f, 0.1245f, 0.059942f, -0.406469f, -0.761987f, -1.0f, -1.0f, -1.0f, -1.0f, -0.974648f, -0.886868f, -0.304857f, 0.145159f, 0.182912f, 0.276055f, 0.147271f, 0.312049f, 0.798059f, 0.976214f, 0.579799f, 0.335087f, 0.250009f, -0.059551f, -0.171653f, 0.120611f, -0.067866f, 0.134289f, 0.0901f, 0.158357f, 0.440911f, 0.302537f, 0.122388f, -0.308068f, -0.657975f, -0.669608f, -0.518136f, -0.359629f, -0.307101f, -0.292914f, 0.025049f, -0.062537f, 0.188957f, 0.300931f, 0.522428f, 0.854808f, 1.0f, 0.827175f, 0.384443f, 0.520581f, 0.087786f, -0.095523f, 0.034423f, 0.027537f, 0.033615f, -0.110118f, 0.339492f, 0.341307f, 0.281273f, 0.313518f, 0.112302f, -0.382863f, -0.555695f, -0.337846f, -0.398484f, -0.39568f, -0.437398f, -0.303623f, -0.14578f, -0.155176f, -0.011607f, 0.522103f, 1.0f, 1.0f, 0.564134f, 0.461754f, 0.300869f, 0.3494f, 0.298207f, 0.01828f, -0.006625f, -0.00195f, -0.187896f, -0.475692f, 0.00357f, 0.142704f, -0.045046f, 0.01805f, -0.244107f, -0.696627f, -0.683816f, -0.408281f, -0.481788f, -0.757374f, -0.723576f, -0.507194f, -0.637893f, -0.485721f, -0.135189f, 0.521102f, 0.911557f, 0.841204f, 0.636729f, 0.689562f, 0.407481f, 0.021288f, -0.13562f, 0.02841f, -0.003341f, -0.023668f, -0.138558f, 0.028571f, 0.197207f, 0.056224f, -0.365189f, -0.449818f, -0.679107f, -0.660782f, -0.710063f, -0.539873f, -0.477211f, -0.485849f, -0.185325f, -0.066911f, -0.407377f, -0.226378f, -0.279669f, -0.544611f, -0.464156f, -0.121619f, 0.115742f, 0.559025f, 0.343032f, 0.176721f, 0.063874f, 0.001537f, 0.005241f, 0.025889f, -0.033791f, -0.0629f, -0.023745f, -0.568438f, -0.750889f, -1.0f, -0.847993f, -0.670228f, -0.507161f, -0.403936f, -0.479158f, -0.626549f, -0.288962f, -0.41314f, -0.97501f, -0.999449f, -1.0f, -1.0f, -0.998682f, -0.440433f, 0.029625f, 0.15186f, 0.165057f, 0.176186f, 0.020605f, -0.011157f, 0.018332f, 0.010814f, -0.023032f, -0.007407f, -0.090622f, -0.513941f, -0.699709f, -0.373926f, -0.43312f, -0.509512f, -0.301311f, -0.617611f, -0.780878f, -0.382267f, 0.072798f, -0.50561f, -0.975603f, -1.0f, -0.583872f, -0.419817f, -0.573676f, -0.461181f, -0.07212f, -0.240768f, -0.015453f, 0.026008f, 0.030951f, 0.003262f},
    {0.000666f, -0.026997f, 0.02135f, -0.00984f, 0.003557f, -0.007083f, 0.012547f, 0.00852f, -0.008042f, -0.005542f, 8.4e-05f, -0.02811f, -0.066277f, -0.124414f, -0.212066f, -0.164575f, -0.003592f, 0.024842f, 0.003343f, 0.032824f, 0.007358f, 0.017026f, 0.005651f, -0.02004f, -0.033311f, -0.014004f, 0.028133f, 0.018449f, -0.011479f, -0.022027f, 0.035359f, 0.004061f, -0.112772f, -0.218074f, -0.254656f, -0.085852f, 0.255941f, -0.290588f, 0.002854f, 0.851657f, 0.812595f, 0.624706f, 0.583177f, 0.719267f, 0.57163f, 0.607519f, 0.009851f, -0.446076f, 0.272366f, 0.250215f, -0.152195f, -0.201958f, -0.027705f, 0.005106f, -0.015463f, 0.02525f, 0.031419f, -0.008188f, -0.187821f, -0.183673f, 0.121241f, 0.137759f, 0.438723f, 0.1359f, 0.359563f, 0.249965f, -0.291111f, -0.706544f, -0.952524f, -0.927173f, -0.734058f, -0.517298f, -0.102533f, 0.126875f, 0.150278f, -0.047005f, -0.02846f, 0.076356f, -0.0143f, -0.376099f, -0.279101f, -0.304332f, 0.025895f, -0.001291f, -0.018305f, 0.030785f, -0.097231f, -0.167916f, 0.650188f, -0.138098f, -0.215358f, -0.082772f, 0.222082f, -0.266897f, -0.03948f, -0.357772f, -0.409881f, -0.460941f, -0.522273f, -0.336019f, -0.385317f, -0.550682f, -0.230069f, -0.189565f, -0.247899f, -0.000682f, -0.269464f, -0.199822f, -0.237187f, -0.139208f, -0.128171f, 0.015815f, -0.03044f, 0.107725f, 0.276613f, 0.575617f, 0.269425f, -0.102836f, -0.062735f, 0.411161f, 0.161056f, 0.261042f, 0.006215f, -0.126926f, -0.181661f, -0.429481f, 0.011964f, 0.063701f, -0.029617f, -0.059899f, -0.146095f, 0.003575f, -0.021803f, -0.008092f, -0.360807f, -0.398003f, -0.176365f, 0.017277f, 0.365764f, 0.135521f, 0.022534f, -0.02768f, -0.062475f, -0.089892f, -0.300005f, -0.437134f, -0.182411f, 0.082747f, -0.124567f, 0.01613f, 0.210382f, 0.374267f, 0.315918f, 0.210339f, -0.124897f, -0.252732f, -0.292903f, -0.32799f, -0.454938f, -0.272348f, -0.073753f, -0.149753f, -0.300672f, -0.324241f, -0.018965f, 0.55527f, -0.119712f, -0.055161f, 0.001371f, 0.004798f, -0.117271f, -0.453281f, -0.839305f, -0.274185f, -0.214131f, -0.112007f, 0.0908f, 0.014685f, -0.040403f, 0.309688f, 0.508386f, 0.751185f, 0.349578f, 0.221938f, 0.26709f, 0.098823f, -0.111863f, -0.01233f, 0.173192f, 0.045735f, 0.244178f, 0.626132f, 0.902867f, 0.902884f, 0.116496f, -0.026374f, 0.095741f, 0.172126f, -0.308797f, -0.772344f, -0.24856f, 0.082461f, -0.000256f, 0.358055f, 0.484258f, 0.180581f, 0.135301f, 0.07821f, 0.113444f, 0.090305f, 0.16271f, 0.603476f, 0.755041f, 0.545422f, 0.247f, 0.001754f, -0.061758f, -0.096398f, -0.084768f, 0.497443f, 0.987624f, 0.964198f, 0.343177f, -0.177954f, 0.227759f, 0.018572f, -0.189249f, -0.336067f, -0.052867f, 0.301912f, 0.0686f, 0.386273f, 0.443203f, 0.370135f, -0.0897f, -0.059923f, -0.260296f, -0.199765f, 0.226433f, 0.379725f, 0.52846f, 0.414259f, 0.169502f, -0.07818f, -0.100241f, -0.104139f, 0.041132f, 0.701407f, 0.985988f, 0.97888f, 0.617203f, -0.003238f, 0.160957f, 0.41026f, -0.088302f, -0.232791f, -0.072432f, 0.260132f, -0.03394f, 0.235529f, 0.414011f, 0.396289f, 0.143691f, 0.11811f, -0.316794f, -0.243133f, -0.040347f, 0.317902f, 0.304555f, -0.027591f, -0.269174f, -0.516875f, -0.368493f, -0.028376f, 0.29272f, 0.93085f, 0.936249f, 0.998603f, 0.777433f, -0.618737f, 0.018742f, 0.25987f, -0.005865f, -0.649613f, 0.097561f, 0.011193f, 0.124449f, 0.196066f, 0.838401f, 0.772529f, 0.710934f, 0.35714f, -0.046969f, -0.138303f, -0.157104f, -0.174517f, -0.144753f, -0.558281f, -0.661315f, -0.753937f, -0.279014f, 0.126782f, 0.46372f, 0.888264f, 0.953208f, 1.0f, 0.973465f, -0.106056f, -0.382661f, -0.32117f, -0.289732f, -0.613904f, -0.140347f, 0.187368f, 0.349523f, 0.639441f, 0.839542f, 0.845922f, 0.858008f, 0.95896f, 0.430221f, -0.059852f, -0.281149f, -0.41503f, -0.503295f, -0.586928f, -0.86634f, -0.365426f, -0.124453f, -0.093143f, 0.042378f, 0.407387f, 0.90589f, 0.997676f, 0.98298f, 0.197013f, -0.292493f, -0.299028f, -0.069559f, -0.225568f, 0.219819f, 0.297942f, 0.354249f, 0.631625f, 0.837394f, 0.869481f, 0.990606f, 0.992624f, 0.313826f, 0.04505f, -0.288712f, -0.524928f, -0.424989f, -0.473255f, -0.44852f, 0.049198f, 0.087996f, -0.032912f, -0.357415f, -0.420763f, -0.188054f, 0.904127f, 0.900292f, 0.235936f, 0.104929f, -0.106958f, -0.154122f, 0.05675f, 0.231449f, 0.500511f, 0.33867f, 0.282246f, 0.837027f, 0.83403f, 0.95543f, 0.99701f, 0.992152f, 0.85626f, 0.48209f, 0.252907f, 0.0008f, -0.18534f, 0.093868f, 0.211178f, 0.233441f, 0.214331f, -0.317588f, -1.0f, -0.654407f, 0.257519f, 0.026975f, 0.413902f, 0.109202f, 0.422087f, -0.11962f, 0.078151f, 0.097054f, -0.030598f, -0.167338f, -0.204632f, 0.308713f, 0.793839f, 0.988629f, 0.993765f, 0.989882f, 0.995797f, 0.989446f, 0.466485f, 0.144546f, -0.058904f, 0.164134f, 0.274627f, 0.234505f, 0.354023f, -0.284105f, -1.0f, -0.569112f, -0.297071f, -0.224555f, 0.036302f, 0.111209f, 0.140027f, 0.293668f, 0.200512f, -0.233051f, -0.664938f, -0.942451f, -0.496795f, 0.097059f, 0.759251f, 0.92024f, 0.960108f, 0.920246f, 0.913927f, 0.609629f, 0.494372f, 0.282596f, -0.009095f, 0.025016f, -0.018063f, -0.008133f, 0.211819f, -0.178485f, -0.876499f, -0.536856f, -0.582255f, -0.52979f, -0.282839f, -0.128187f, 0.282861f, 0.011303f, 0.116735f, -0.690591f, -0.946139f, -1.0f, -0.413173f, -0.184931f, 0.307328f, 0.759797f, 0.912367f, 0.854593f, 0.748835f, 0.43672f, 0.462239f, 0.119192f, -0.104193f, -0.087791f, -0.163666f, -0.201691f, 0.000143f, 0.052887f, -0.334153f, -0.421071f, -0.58772f, -0.588692f, -0.239302f, 0.033542f, 0.325691f, -0.040219f, -0.118374f, -0.561825f, -0.581744f, -0.459474f, -0.345869f, -0.221039f, -0.235146f, -0.072072f, 0.104656f, 0.441677f, 0.473351f, 0.312126f, -0.039538f, -0.212087f, -0.087086f, 0.169835f, 0.057701f, -0.136886f, 0.022803f, 0.037667f, -0.202096f, -0.251725f, -0.664712f, -0.265364f, 0.073169f, -0.085883f, -0.319968f, -0.063418f, -0.35313f, -0.422338f, -0.318055f, -0.031152f, -0.297462f, -0.476491f, -0.618689f, -0.585035f, -0.359998f, -0.098426f, -0.030315f, 0.031629f, -0.351041f, -0.503811f, 0.039765f, 0.225429f, 0.084547f, -0.284434f, -0.007375f, 0.202936f, -0.163038f, -0.563419f, -0.495365f, -0.151948f, 0.054579f, -0.229503f, -0.410225f, 0.03739f, -0.235528f, -0.254118f, -0.156644f, 0.142227f, -0.150858f, -0.381075f, -0.62169f, -0.482405f, -0.524585f, -0.497746f, -0.445579f, -0.204388f, -0.394505f, -0.261115f, 0.033732f, 0.287533f, -0.028873f, -0.308486f, -0.016124f, 0.210596f, 0.136912f, -0.395067f, -0.273332f, -0.044748f, -0.134838f, 0.03237f, 0.020233f, 0.194667f, -0.102711f, -0.11816f, 0.053706f, 0.096892f, -0.057551f, -0.048358f, -0.049706f, 0.061945f, -0.285722f, -0.370894f, -0.155496f, -0.118424f, -0.117866f, -0.163946f, -0.068177f, 0.135994f, -0.108292f, -0.102596f, 0.161349f, 0.441419f, 0.150986f, -0.279757f, -0.076733f, -0.02342f, 0.06052f, 0.127242f, 0.303633f, 0.217306f, -0.035371f, 0.100169f, 0.046419f, -0.001948f, -0.023666f, -0.030738f, 0.070602f, 0.297367f, 0.136713f, -0.063408f, 0.06012f, 0.012756f, -0.116866f, -0.067778f, -0.176205f, -0.00424f, 0.088738f, 0.081023f, 0.370721f, 0.817888f, 0.184455f, -0.216798f, 0.227138f, -0.18763f, -0.038969f, 0.13835f, 0.294044f, 0.127749f, 0.067013f, -0.018496f, -0.082309f, 0.191346f, 0.123437f, 0.001883f, 0.103122f, 0.177496f, -0.115427f, -0.371401f, -0.159159f, 0.007525f, -0.03319f, -0.010612f, -0.154707f, -0.023345f, 0.269116f, 0.438264f, 0.890281f, 0.829272f, 0.512594f, 0.31171f, 0.309795f, 0.175154f, -0.047994f, 0.01344f, -0.018666f, -0.167095f, 0.032171f, -0.15493f, -0.446338f, 0.024192f, 0.080972f, 0.085378f, -0.124833f, 0.006832f, -0.03656f, -0.124766f, 0.208147f, 0.103291f, -0.086258f, -0.139612f, -0.193679f, 0.284556f, 0.657386f, 0.738239f, 1.0f, 0.927775f, 0.951653f, 0.6642f, 0.378445f, 0.511974f, -0.013394f, -0.013205f, 0.03361f, -0.070938f, -0.308489f, -0.105597f, -0.341764f, -0.407138f, -0.236105f, -0.063489f, 0.070362f, 0.051119f, 0.13868f, 0.18254f, 0.428659f, 0.391908f, 0.16825f, 0.222312f, 0.456498f, 0.775566f, 0.978002f, 1.0f, 0.975355f, 0.984337f, 0.8455f, 0.457781f, -0.150609f, -0.06998f, -0.008155f, 0.028996f, -0.034139f, 0.154821f, -0.173065f, -0.110709f, 0.047157f, -0.337879f, -0.504915f, -0.146345f, 0.245357f, 0.629115f, 0.537272f, 0.580784f, 0.774471f, 0.59557f, 0.12167f, 0.119602f, 0.518354f, 0.817218f, 0.890884f, 0.568573f, 0.527879f, 0.979716f, 0.931639f, 0.810049f, 0.155763f, 0.082373f, -0.020084f, -0.028141f, -0.023319f, 0.019688f, -0.034349f, 0.042086f, 0.003274f, -0.593741f, -0.911451f, -0.635484f, -0.658416f, -0.705566f, -0.295556f, -0.000787f, 0.254902f, 0.170212f, -0.756567f, -0.992161f, -0.518967f, -0.015093f, 0.249668f, 0.319352f, 0.136301f, 0.30781f, 0.208332f, 0.153763f, 0.055996f, 0.028406f, -0.0193f, -0.014176f, -0.017474f, -0.029669f, 0.013964f, -0.115792f, 0.105092f, 0.128108f, 0.184115f, -0.097114f, -0.338996f, 0.207647f, 0.268645f, 0.115609f, 0.016645f, 0.114459f, 0.031147f, -0.604336f, -1.0f, -0.167792f, -0.160977f, -0.321905f, 0.091187f, 0.145361f, -0.106078f, -0.01948f, -0.028246f, 0.01235f, -0.020315f},
    {0.035556f, -0.022448f, 0.017483f, -0.011104f, -0.029459f, -0.034924f, 0.015409f, -0.010994f, -0.023085f, 0.035142f, 0.020844f, 0.023413f, -0.169731f, -0.069129f, 0.22821f, 0.065588f, 0.017056f, -0.008791f, -0.008083f, -0.00384f, -0.014159f, -0.024589f, -0.004111f, -0.01288f, -0.011389f, -0.015715f, 0.016435f, -0.005907f, 0.027408f, 0.010364f, -0.011989f, 0.035433f, 0.008276f, 0.074984f, 0.34566f, 0.364439f, 0.487304f, 0.61356f, 0.012668f, -0.019231f, -0.174269f, -0.461346f, -0.155715f, 0.082629f, 0.201992f, 0.92226f, 0.479025f, 0.298229f, 0.207181f, 0.427623f, 0.399856f, 0.203897f, -0.035614f, -0.020447f, 0.004468f, 0.024128f, -0.029854f, 0.014699f, -0.190872f, -0.241001f, -0.285622f, -0.230427f, 0.442741f, 0.642557f, 0.82531f, 0.17036f, 0.077309f, -0.135509f, -0.48258f, -0.525397f, -0.033442f, -0.031398f, -0.10685f, 0.385978f, 0.488013f, -0.080512f, -0.740814f, -0.236194f, 0.205063f, -0.406399f, -0.200415f, -0.099296f, -0.028709f, -0.003018f, 0.020808f, -0.020169f, -0.370943f, 0.164325f, 0.007494f, 0.077848f, -0.110836f, 0.180793f, 0.009704f, -0.330992f, -0.457695f, -0.149409f, 0.200827f, -0.026878f, 0.094656f, 0.370387f, 0.060944f, 0.136084f, 0.324115f, 0.23321f, 0.418323f, 0.460429f, 0.490978f, 0.389642f, 0.019371f, -0.079667f, 0.146037f, 0.017596f, 0.016656f, -0.131858f, -0.363916f, -0.213844f, 0.637183f, 0.343695f, -0.070371f, 0.152558f, 0.064269f, -0.219222f, 0.074178f, 0.040848f, 0.154307f, -0.036613f, 0.031517f, 0.324037f, 0.152481f, 0.200924f, 0.324837f, 0.501679f, 0.657239f, 1.0f, 0.692158f, 0.296586f, 0.112242f, -0.104775f, -0.044074f, -0.10829f, 0.031514f, 0.010308f, -0.191229f, -0.188136f, 0.103461f, -0.187912f, -0.081256f, 0.120105f, 0.122909f, -0.026332f, 0.052502f, 0.080131f, 0.061249f, 0.02084f, 0.058149f, 0.243432f, 0.141133f, 0.021126f, -0.010082f, 0.425281f, 0.817973f, 0.737632f, 0.474535f, 0.125921f, -0.267094f, -0.168907f, -0.250372f, -0.086314f, 0.004467f, -0.136953f, -0.159544f, -0.276688f, 0.019405f, 0.187556f, 0.257261f, 0.041458f, 0.037485f, -0.154998f, -0.099526f, 0.076502f, 0.174202f, 0.137823f, 0.215021f, 0.332721f, 0.176929f, 0.090225f, 0.220642f, 0.318564f, 0.456048f, 0.22443f, 0.133926f, 0.004703f, -0.645026f, -0.615866f, -0.191117f, -0.121368f, 0.121512f, 0.481701f, -0.228804f, -0.265632f, -0.048656f, 0.124052f, 0.118898f, 0.016105f, 0.123024f, -0.065613f, -0.10453f, -0.183807f, 0.052392f, -0.244245f, -0.035078f, -0.046376f, -0.08722f, 0.155487f, 0.222644f, 0.064075f, 0.020067f, -0.077164f, -0.147996f, -0.373793f, -0.551428f, -0.53033f, 0.186465f, -0.192073f, 0.128479f, 0.450049f, -0.617839f, -0.580993f, -0.523272f, -0.187574f, -0.140547f, -0.147573f, 0.036154f, -0.053039f, -0.153556f, -0.122551f, -0.20844f, -0.14125f, -0.156562f, 0.015386f, 0.007048f, -0.027825f, -0.228473f, -0.233791f, -0.227444f, -0.191178f, -0.273862f, -0.383274f, -0.009427f, -0.032491f, 0.234499f, 0.02477f, 0.385652f, 0.209261f, -0.401913f, -0.73437f, -0.674927f, -0.362376f, -0.071436f, 0.024338f, 0.017733f, -0.241761f, 0.070275f, 0.035303f, 0.023967f, -0.067726f, -0.100985f, 0.015835f, -0.401214f, -0.991486f, -0.73417f, -0.581748f, -0.409415f, -0.451193f, -0.362027f, -0.553702f, -0.056554f, 0.229682f, 0.282883f, -0.247664f, 0.321769f, 0.037115f, -0.096838f, -0.232689f, -0.730852f, -0.387661f, -0.064283f, -0.021569f, -0.073119f, -0.306589f, -0.169694f, 0.019314f, 0.5327f, 0.609398f, 0.565743f, 0.387707f, -0.204005f, -0.902845f, -0.737815f, -0.761658f, -0.721069f, -0.742409f, -0.983573f, -0.973694f, -0.231141f, 0.276884f, 0.311725f, -0.08585f, 0.077116f, -0.317393f, -0.455489f, -0.141213f, -0.566607f, -0.315271f, 0.027646f, 0.087497f, -0.192545f, -0.234128f, 0.108359f, 0.412506f, 0.973818f, 1.0f, 1.0f, 0.971773f, 0.464408f, 0.132579f, 0.002455f, -0.470149f, -0.658751f, -1.0f, -1.0f, -0.993355f, -0.247955f, 0.225626f, -0.141797f, 0.018038f, -0.235714f, -0.417241f, -0.820928f, -0.256456f, -0.562386f, -0.204677f, 0.155046f, 0.17505f, -0.097643f, -0.133848f, 0.046888f, 0.655256f, 0.994985f, 0.99891f, 0.952418f, 0.926152f, 0.834277f, 0.681831f, 0.531926f, 0.167875f, -0.15386f, -1.0f, -1.0f, -0.87686f, -0.525727f, 0.08819f, 0.046277f, -0.106058f, -0.117491f, -0.168026f, -0.42066f, -0.303365f, -0.616898f, -0.238818f, 0.242183f, -0.105302f, -0.126346f, -0.268374f, -0.299511f, 0.21572f, 0.914893f, 1.0f, 0.999959f, 1.0f, 1.0f, 0.811767f, 0.900583f, 0.654543f, 0.165203f, -0.814139f, -0.79167f, -0.563892f, -0.184339f, -0.060279f, 0.040281f, -0.078869f, -0.151126f, -0.036154f, -0.326235f, -0.215684f, -0.271467f, -0.521757f, -0.099095f, -0.396339f, -0.439045f, -0.470493f, -0.59264f, -0.157321f, 0.008426f, 0.10399f, 0.210077f, 0.363489f, 0.825353f, 0.617087f, 0.44986f, 0.615481f, 0.380751f, -0.151196f, -0.195365f, -0.226713f, -0.151452f, -0.068281f, -0.302554f, -0.18834f, -0.237666f, 0.103117f, -0.302415f, -0.230296f, -0.415104f, -0.745436f, -0.317974f, -0.397799f, -0.599429f, -0.35678f, -0.550861f, -0.495176f, -0.440979f, -0.503589f, -0.263237f, 0.085409f, 0.201026f, 0.319409f, -0.011094f, 0.294936f, 0.53923f, 0.286268f, 0.429092f, 0.24667f, 0.304219f, 0.007372f, -0.246612f, -0.248207f, -0.131622f, 0.323823f, -0.210522f, 0.194589f, 0.022132f, -0.450368f, -0.359391f, -0.28279f, -0.739657f, -0.790191f, -0.84462f, -0.911819f, -0.986763f, -0.863127f, -0.435686f, -0.332891f, -0.215582f, 0.008752f, 0.105844f, 0.204171f, 0.459891f, 0.234762f, 0.271694f, 0.257015f, 0.365071f, -0.194615f, -0.657757f, -0.182803f, -0.035284f, 0.194003f, -0.045182f, 0.886128f, 0.161569f, 0.033633f, 0.158242f, -0.062267f, -0.588619f, -0.899762f, -0.852717f, -0.823758f, -1.0f, -1.0f, -0.533513f, -0.351132f, -0.117405f, 0.108523f, 0.237907f, 0.22407f, 0.244841f, 0.138471f, 0.470077f, 0.416434f, 0.252579f, -0.798278f, -0.548797f, -0.037788f, -0.138278f, -0.155554f, -0.005893f, 0.898818f, 0.535437f, 0.673161f, 0.414045f, 0.018917f, -0.302489f, -0.711454f, -0.737885f, -0.747592f, -0.923112f, -0.952904f, -0.391944f, -0.132439f, 0.036422f, 0.149037f, 0.194767f, 0.112099f, 0.069006f, 0.400279f, 0.697413f, 0.173039f, -0.188327f, -0.710069f, -0.448447f, -0.123551f, 0.117615f, -0.287087f, 0.138463f, 0.898303f, 0.802555f, 0.910266f, 0.553628f, 0.231989f, 0.005285f, -0.449508f, -0.594366f, -0.544231f, -0.588314f, -0.355834f, -0.103339f, -0.037467f, 0.047805f, 0.217708f, -0.116593f, -0.071274f, -0.048719f, 0.451123f, 0.484407f, 0.158379f, -0.216576f, -0.455825f, -0.430002f, -0.186272f, -0.0224f, -0.198055f, 0.021262f, 0.501864f, 0.532289f, 0.803421f, 0.5646f, 0.570011f, 0.627048f, 0.148712f, -0.034261f, -0.096745f, -0.133718f, -0.135957f, 0.077032f, -0.021655f, 0.095917f, -0.061326f, -0.38371f, -0.271009f, 0.185894f, 0.286059f, 0.286894f, 0.206434f, -0.244382f, -0.266879f, -0.284326f, 0.095615f, -0.081103f, -0.156199f, 0.086928f, -0.036841f, 0.171539f, 0.349707f, 0.382274f, 0.305867f, 0.392966f, 0.39356f, 0.311476f, 0.09976f, -0.017345f, 0.143717f, -0.075641f, 0.044919f, -0.146847f, -0.238438f, -0.353775f, -0.153476f, 0.2209f, 0.335546f, -0.010043f, -0.398548f, -0.626346f, -0.624739f, -0.404329f, 0.195868f, -0.132747f, -0.202069f, -0.091421f, -0.416516f, -0.305762f, -0.280356f, 0.041748f, -0.127893f, -0.110291f, 0.343504f, 0.450583f, 0.170186f, 0.017015f, 0.050129f, -0.080521f, -0.184969f, -0.146043f, 0.029032f, 0.036885f, 0.145592f, 0.428284f, 0.177841f, -0.088282f, -0.179182f, -0.422604f, -0.184958f, 0.129324f, 0.219877f, -0.028492f, 0.010943f, -0.368125f, -0.245947f, -0.458336f, -0.202946f, -0.055738f, -0.092961f, 0.074767f, 0.205381f, 0.107921f, 0.037461f, -0.042162f, -0.086034f, -0.23654f, -0.108314f, 0.02928f, 0.191298f, 0.109956f, 0.230197f, 0.034118f, 0.043261f, -0.199872f, -0.222065f, 0.167365f, 0.05153f, 0.08895f, 0.007114f, -0.003116f, -0.035623f, -0.053352f, -0.134629f, -0.101214f, 0.380123f, 0.339813f, 0.484604f, 0.410294f, 0.22053f, 0.087795f, 0.242229f, 0.374265f, 0.384757f, 0.311419f, 0.242113f, 0.310084f, 0.397429f, 0.065672f, -0.056024f, -0.042443f, -0.237138f, -0.075921f, 0.248185f, 0.091963f, 0.116529f, 0.18629f, 0.013626f, 0.029169f, -0.029014f, 0.22574f, -0.186236f, 0.321405f, 0.590873f, 0.459487f, 0.31802f, 0.262927f, 0.54604f, 0.321772f, 0.317635f, 0.201486f, 0.235052f, 0.106974f, -0.018686f, -0.006968f, -0.357588f, -0.328891f, -0.326028f, -0.208621f, -0.092362f, 0.442484f, 0.181305f, 0.066461f, 0.095991f, 0.051276f, 0.002864f, -0.035438f, -0.035092f, 0.005135f, 0.043988f, 0.01266f, -0.032007f, 0.193823f, 0.666273f, 0.101457f, -0.015619f, -0.442633f, -0.406608f, -0.541553f, -0.532598f, -0.753658f, -0.654526f, -0.35024f, -0.197829f, -0.247535f, -0.500347f, -0.481014f, -0.6571f, -0.337571f, 0.226642f, 0.087686f, -0.140696f, -0.019961f, 0.000988f, 0.007006f, -0.004976f, -0.032268f, -0.02129f, 0.091739f, 0.108168f, -0.289171f, -0.288259f, -0.060674f, 0.002363f, -0.048869f, 0.12619f, -0.003925f, 0.060666f, -0.165272f, -0.064172f, -0.27123f, -0.514964f, -0.38603f, -0.622828f, -0.398938f, -0.228599f, -0.151572f, 0.081832f, 0.002149f, 0.001786f, 0.020594f, -0.019363f},
    {0.000258f, 0.009766f, -0.002674f, -0.006573f, 0.017506f, 0.014853f, -0.02564f, -0.008753f, -0.021627f, 0.018572f, 0.005562f, 0.003638f, 0.194855f, 0.298031f, 0.246907f, 0.07154f, 0.019587f, 0.015522f, 0.031113f, -0.005404f, 0.004634f, -0.035133f, 0.029604f, 0.002639f, 0.011851f, -0.032448f, -0.005728f, 0.029786f, -0.017314f, 0.009856f, 0.020733f, 0.0193f, 0.105172f, 0.107411f, 0.120625f, 0.222261f, 0.096788f, 0.436785f, 0.270099f, -0.149522f, 0.039385f, 0.068736f, 0.055886f, -0.304282f, -0.511495f, 0.231129f, 0.002183f, -0.525997f, -0.51302f, 0.064994f, 0.323271f, 0.34008f, 0.010661f, 0.024353f, -0.01722f, 0.022808f, -0.007571f, 0.00063f, -0.25239f, -0.020406f, 0.106627f, -0.321004f, 0.099957f, 0.161827f, 0.306553f, 0.797593f, 0.974264f, 0.818601f, 0.989619f, 0.904165f, 0.892569f, 0.443325f, 0.075306f, 0.126885f, -0.152848f, -0.168993f, -0.341081f, 0.347811f, 0.675184f, 0.481382f, -0.107538f, -0.109805f, -0.011299f, -0.028758f, 0.015846f, 0.020855f, -0.094088f, 0.122461f, 0.291604f, 0.083791f, 0.313785f, -0.07321f, -0.077499f, 0.175474f, 0.132711f, 0.168065f, -0.500757f, -0.203478f, -0.005215f, -0.264267f, -0.47486f, -0.374868f, -0.189481f, 0.106045f, 0.441567f, 0.661701f, 0.748718f, 0.841048f, 0.398333f, -0.227587f, -0.161191f, -0.004549f, 0.004462f, -0.032519f, 0.359637f, 0.105354f, -0.246736f, -0.062142f, 0.003555f, -0.559027f, -0.436702f, -0.258279f, 0.054657f, -0.214697f, -0.567598f, -0.446663f, -0.192768f, -0.205442f, 0.05001f, -0.086221f, 0.026551f, 0.157693f, 0.387208f, 0.696459f, 0.885915f, 0.696554f, 0.374618f, 0.226193f, 0.239427f, 0.275873f, 0.007447f, -0.018821f, -0.038604f, 0.110471f, -0.333122f, -0.148151f, 0.003867f, -0.397052f, -0.308561f, -0.323697f, -0.326035f, -0.145809f, -0.023347f, 0.011883f, 0.152988f, 0.016085f, 0.082116f, 0.026187f, 0.081296f, 0.45096f, 0.689695f, 0.663846f, 0.975647f, 0.967174f, 0.769427f, 0.600339f, 0.02476f, 0.093826f, -0.034147f, 0.106829f, -0.121023f, -0.331895f, -0.298903f, -0.231478f, -0.280803f, -0.480785f, -0.417062f, -0.164238f, -0.11529f, -0.220359f, -0.072682f, -0.208834f, -0.532822f, -0.54413f, -1.0f, -1.0f, -0.59105f, 0.135006f, 0.388484f, 0.342733f, 0.744729f, 0.591664f, 0.328545f, 0.020916f, 0.155281f, 0.199157f, 0.121385f, 0.683488f, 0.513495f, -0.488458f, -0.583505f, -0.08737f, -0.055444f, -0.218967f, -0.261971f, 0.022846f, -0.052037f, -0.368099f, -0.068175f, -0.267933f, -0.842402f, -0.976774f, -0.983401f, -0.98737f, -0.853334f, -0.076162f, 0.105313f, 0.459736f, 0.470199f, 0.176063f, 0.121371f, 0.08718f, 0.433556f, 0.26446f, -0.011908f, 0.168974f, 0.051586f, -0.404373f, -0.227244f, -0.252068f, -0.060003f, -0.06027f, -0.225982f, 0.036097f, -0.032579f, -0.156894f, 0.177118f, -0.015441f, -0.735306f, -0.986926f, -0.903116f, -0.883117f, -0.776482f, -0.467642f, -0.257894f, 0.025235f, 0.035212f, -0.128347f, 0.509107f, 0.092645f, 0.042782f, 0.285306f, 0.288032f, 0.284342f, 0.019271f, -0.423713f, -0.202708f, -0.3282f, 0.001615f, -0.22981f, -0.337281f, -0.033298f, -0.057454f, 0.018029f, 0.140687f, -0.172899f, -0.810464f, -0.945859f, -0.680789f, -0.666436f, -0.714713f, -0.460082f, -0.293694f, -0.267668f, -0.033707f, 0.054618f, 0.182612f, -0.153989f, -0.221093f, -0.180187f, 0.149067f, 0.184191f, -0.299891f, -0.813666f, -0.505676f, -0.554893f, -0.127536f, -0.275169f, -0.345203f, -0.071805f, 0.127683f, 0.126177f, 0.643073f, 0.579805f, -0.0145f, -0.630563f, -0.723966f, -0.554199f, -0.410307f, -0.227958f, -0.400559f, -0.209166f, 0.057111f, 0.043804f, -0.412357f, -0.67491f, -0.5506f, -0.014398f, 0.16246f, -0.217802f, -0.312338f, -0.944456f, -0.95607f, -0.58796f, -0.048706f, -0.335204f, -0.156229f, 0.090158f, 0.417564f, 0.536931f, 0.994266f, 1.0f, 0.651562f, -0.154863f, -0.681046f, -0.575721f, -0.213462f, -0.012534f, 0.099516f, 0.487903f, 0.428591f, 0.641107f, 0.31266f, -0.150901f, -0.082806f, 0.031442f, 0.18304f, -0.02946f, -0.356936f, -0.77502f, -0.888382f, -0.484348f, -0.010737f, -0.153541f, -0.255229f, 0.122633f, 0.567237f, 0.838222f, 0.997695f, 1.0f, 0.997375f, 0.212713f, -0.162069f, -0.101161f, 0.103571f, -0.069852f, 0.352159f, 0.90256f, 0.937817f, 0.94381f, 0.679232f, -0.198473f, -0.409294f, -0.158441f, 0.054427f, 0.576059f, -0.065947f, -0.311437f, -0.885054f, -0.281458f, 0.071322f, -0.075252f, -0.230106f, 0.15378f, 0.138815f, 0.519313f, 0.985804f, 1.0f, 1.0f, 1.0f, 0.616476f, 0.177148f, -0.100774f, 0.055195f, 0.252109f, 0.540967f, 0.742488f, 0.691909f, 0.081242f, -0.630615f, -0.743531f, -0.035362f, 0.160177f, -0.042237f, -0.084993f, 0.474558f, -0.518754f, 0.047841f, -0.013098f, -0.136539f, -0.052154f, -0.260717f, -0.395409f, 0.094504f, 0.5927f, 1.0f, 1.0f, 1.0f, 0.409263f, -0.142718f, -0.46664f, -0.083226f, -0.097937f, 0.213854f, -0.212893f, 0.04125f, -0.198694f, -0.820952f, -1.0f, -0.086924f, -0.087823f, -0.079952f, -0.052048f, 0.010733f, -0.223065f, 0.019812f, 0.025919f, -0.091508f, -0.129464f, -0.255604f, -0.359993f, 0.141199f, 0.623421f, 1.0f, 1.0f, 0.274582f, 0.040791f, -0.291955f, -0.20452f, -0.3262f, -0.433517f, 0.033612f, -0.148448f, -0.17896f, -0.551534f, -0.889677f, -1.0f, -0.336858f, -0.189133f, -0.099475f, -0.250214f, -0.51875f, -0.607483f, 0.115301f, 0.12387f, -0.035717f, 0.006109f, 0.0006f, 0.315002f, 0.86726f, 0.967187f, 0.999795f, 0.727819f, 0.01876f, 0.011171f, -0.192117f, -0.061214f, -0.07812f, -0.18999f, -0.082658f, -0.056834f, 0.043232f, -0.481996f, -0.932752f, -1.0f, -0.445924f, 0.026879f, -0.0605f, -0.058326f, -0.562782f, -0.515325f, -0.016111f, -0.091333f, -0.114488f, 0.146357f, 0.182219f, 0.861039f, 0.952294f, 1.0f, 1.0f, 0.958665f, 0.027883f, -0.147808f, -0.106408f, -0.041109f, -0.077521f, 0.053182f, -0.080437f, -0.199956f, -0.099749f, -0.834052f, -0.999879f, -0.947028f, -0.133744f, 0.417522f, 0.146864f, 0.291952f, -0.552408f, -0.487516f, -0.324003f, -0.359635f, -0.044941f, 0.05091f, 0.373479f, 0.891963f, 0.962199f, 0.999978f, 1.0f, 0.32439f, 0.129526f, 0.06928f, -0.222795f, -0.124594f, -0.057905f, 0.03986f, -0.080106f, -0.158915f, -0.233224f, -0.955611f, -0.982679f, -0.109125f, 0.23894f, 0.039507f, -0.128578f, -0.089756f, -0.304981f, -0.721627f, -0.575035f, -0.567218f, -0.084952f, 0.198802f, 0.370923f, 0.933923f, 0.97471f, 0.990947f, 0.442764f, -0.174001f, -0.033305f, 0.03489f, -0.469035f, -0.443203f, -0.355094f, -0.031378f, -0.141956f, -0.258713f, -0.370774f, -0.351234f, -0.450965f, 0.055941f, 0.317233f, 0.001677f, -0.204365f, 0.107819f, -0.342566f, -1.0f, -0.770483f, -0.291223f, -0.074371f, -0.042099f, 0.152643f, 0.467778f, 0.468338f, 0.800621f, 0.446837f, 0.049134f, -0.015714f, -0.114642f, -0.142298f, -0.347794f, -0.242648f, 0.011131f, -0.289258f, -0.334612f, -0.365515f, -0.822089f, -0.548835f, -0.089223f, -0.007753f, 0.168042f, 0.593834f, -0.0176f, -0.372708f, -1.0f, -0.40472f, -0.19464f, 0.05024f, -0.018623f, 0.012652f, 0.113049f, -0.007893f, 0.433694f, 0.524871f, 0.419719f, -0.044289f, -0.201028f, -0.008635f, 0.014985f, -0.131617f, -0.002725f, -0.221213f, -0.352408f, -0.578753f, -0.307713f, 0.024391f, -0.242618f, -0.05129f, 0.182662f, 0.360402f, -0.104827f, -0.490481f, -1.0f, -0.078026f, -0.025911f, -0.165732f, -0.269124f, -0.107784f, -0.261999f, -0.128078f, 0.052507f, 0.286073f, 0.233418f, 0.164011f, 0.131541f, 0.302912f, 0.432714f, 0.373889f, 0.22259f, -0.046339f, -0.381776f, -0.471168f, 0.060314f, -0.103482f, 0.026268f, -0.098489f, -0.027501f, -0.008395f, -0.304065f, -0.669254f, -1.0f, -0.753259f, -0.303912f, -0.458489f, -0.319481f, 0.035768f, -0.166561f, 0.180045f, 0.034847f, 0.04179f, 0.034711f, 0.095116f, 0.319597f, 0.497396f, 0.49551f, 0.296282f, 0.003826f, -0.291066f, -0.104323f, -0.147922f, 0.330715f, -0.122551f, 0.319793f, -0.024527f, 0.010435f, 0.030854f, 0.08557f, -0.232321f, -0.979075f, -1.0f, -0.690856f, -0.562577f, -0.391876f, -0.221085f, -0.384549f, -0.39208f, -0.522155f, -0.668785f, -0.476091f, -0.449929f, -0.313219f, -0.454281f, -0.142478f, 0.083851f, 0.074618f, 0.045181f, 0.074333f, -0.089234f, -0.277565f, 0.306839f, 0.191379f, -0.012766f, -0.004285f, 0.0143f, -0.183443f, 0.117582f, -0.52186f, -1.0f, -1.0f, -0.999997f, -0.986778f, -0.972205f, -0.928646f, -0.953585f, -0.983752f, -0.985996f, -0.988035f, -0.970665f, -0.976698f, -0.539323f, -0.307094f, -0.101337f, 0.211828f, 0.190328f, 0.383477f, 0.220242f, 0.319167f, -0.058585f, 0.079115f, -0.016467f, 0.009086f, 0.000489f, 0.010325f, 0.057808f, 0.186919f, 0.204207f, -0.281881f, -0.730639f, -1.0f, -1.0f, -0.971265f, -0.781251f, -0.956172f, -0.946254f, -0.958535f, -0.841215f, -0.58759f, -0.320487f, 0.265169f, 0.775882f, 0.327552f, -0.105284f, -0.314769f, -0.362601f, 0.143459f, -0.220821f, 0.003807f, -0.020254f, 0.027968f, 0.017176f, 0.030687f, -0.016561f, 0.245207f, 0.588435f, 0.503494f, -0.128175f, -0.194767f, -0.101882f, -0.038311f, 0.227866f, 0.507216f, 0.134411f, 0.351375f, 0.083439f, 0.660025f, 0.709899f, 0.005548f, -0.072461f, 0.295636f, 0.147918f, 0.040261f, 0.321876f, 0.013285f, -0.002684f, 0.011095f, -0.018621f},
    {-0.035478f, 0.013156f, 0.01935f, 0.018944f, 0.029683f, -0.034761f, 0.010692f, 0.028431f, -0.018175f, 0.019981f, 0.018535f, 0.007674f, -0.099994f, 0.084817f, 0.270434f, 0.158386f, 0.014311f, 0.027285f, -0.026594f, -0.033158f, 0.013997f, -0.001427f, -0.016718f, -0.033297f, -0.022088f, 0.009722f, -0.0065f, -0.030964f, -0.003542f, -0.001735f, -0.033255f, 0.021483f, 0.093844f, 0.184935f, 0.084382f, 0.331175f, -0.108344f, -0.248282f, -0.15111f, 0.218253f, -0.028438f, -0.162812f, 0.446851f, 0.873582f, 0.19921f, -0.15008f, -0.115159f, 0.159848f, 0.218016f, 0.259193f, 0.17972f, 0.159167f, 0.005849f, 0.022102f, 0.027357f, -0.029884f, -0.015747f, -0.003138f, 0.200647f, -0.205703f, -0.25469f, 0.093914f, 0.069327f, 0.238365f, -0.16791f, -0.054473f, 0.27778f, 0.245113f, 0.240168f, -0.079214f, -0.485168f, -0.847909f, -0.795197f, -0.810745f, -0.720672f, -0.804859f, -0.734804f, -0.877211f, -1.0f, -0.341412f, 0.587877f, 0.441424f, 3.8e-05f, 0.027992f, 0.010893f, -0.033091f, 0.380209f, -0.17265f, -0.012706f, 0.122707f, 0.115007f, 0.101355f, 0.277584f, 0.416721f, 0.391844f, 0.450672f, 0.716502f, 0.651738f, 0.657281f, 0.20091f, -0.25125f, -0.465963f, -0.463018f, -0.141116f, 0.060491f, 0.371178f, 0.619043f, 0.540743f, 0.559342f, 0.023382f, -0.117128f, 0.008033f, -0.022203f, -0.171335f, -0.089744f, -0.444515f, 0.087196f, 0.437211f, 0.025251f, -0.043048f, 0.026282f, 0.243691f, -0.076124f, -0.189888f, -0.193937f, -0.198771f, -0.019484f, -0.106109f, 0.106247f, 0.052119f, 0.276101f, 0.64716f, 0.828817f, 0.954746f, 0.998215f, 0.523041f, 0.338784f, 0.132392f, -0.023851f, 0.118266f, -0.013095f, 0.007389f, -0.001383f, -0.385495f, 0.343862f, -0.091251f, -0.288137f, -0.259118f, -0.201773f, 0.062345f, 0.092035f, -0.038957f, 0.022575f, -0.258485f, -0.197252f, 0.052556f, 0.238177f, 0.14242f, 0.293807f, 0.877761f, 0.9944f, 1.0f, 1.0f, 0.591713f, 0.155125f, -0.024979f, -0.833567f, 0.007728f, 0.035651f, 0.129048f, -0.321468f, 0.153791f, -0.08625f, -0.071854f, -0.224653f, -0.416841f, 0.116286f, 0.027494f, 0.076466f, -0.024862f, 0.09184f, -0.101868f, -0.069902f, -0.027461f, 0.21518f, 0.02489f, 0.170952f, 0.624807f, 0.695934f, 0.487429f, 0.702172f, 0.472412f, -0.135674f, -0.264558f, -0.165522f, -0.066305f, 0.149058f, 0.716947f, -0.294702f, -0.038298f, 0.123937f, 0.120176f, -0.053199f, 0.147456f, 0.318864f, 0.169395f, 0.163505f, 0.312464f, 0.1536f, 0.008725f, -0.251144f, -0.275201f, 0.022625f, -0.126301f, 0.183911f, 0.155339f, 0.139827f, 0.089653f, 0.269953f, 0.227074f, -0.399421f, -0.244909f, -0.19218f, 0.044617f, 0.157723f, 0.636972f, -0.282663f, -0.287469f, 0.072249f, 0.178782f, 0.280189f, 0.461094f, 0.400983f, 0.334871f, 0.556016f, 0.54383f, 0.197836f, 0.068524f, -0.1246f, -0.372891f, -0.137035f, -0.027672f, -0.214035f, -0.286528f, -0.421529f, -0.361966f, -0.041171f, 0.103316f, -0.248583f, 0.089768f, 0.023021f, -0.050996f, 0.076583f, 0.071308f, -0.259529f, -0.355097f, -0.134386f, 0.326498f, 0.292254f, 0.262738f, 0.242551f, 0.414564f, 0.717757f, 0.479134f, 0.147744f, 0.058422f, -0.169252f, -0.646432f, -0.771529f, -0.71317f, -0.890628f, -0.917554f, -0.884679f, -0.968084f, -0.315727f, -0.016665f, 0.044202f, 0.590511f, 0.288436f, 0.066051f, -0.049359f, -0.222677f, 0.119078f, 0.055967f, 0.122637f, 0.541027f, 0.371635f, 0.237192f, 0.062691f, 0.037635f, 0.34964f, 0.245117f, 0.491351f, 0.571631f, 0.234541f, -0.335283f, -0.698708f, -1.0f, -1.0f, -1.0f, -0.90304f, -0.983507f, -0.88104f, -0.414589f, -0.401205f, 0.455373f, 0.242096f, 0.007535f, -0.379003f, 0.039124f, 0.219771f, 0.493295f, 0.735001f, 0.45177f, 0.06463f, 0.079611f, -0.02527f, -0.166243f, 0.222987f, 0.627131f, 0.751663f, 0.912587f, 0.724307f, -0.022228f, -0.414043f, -1.0f, -1.0f, -0.957973f, -0.964157f, -0.964974f, -0.92394f, -0.892258f, -0.574924f, 0.567079f, 0.234799f, -0.226927f, -0.070293f, 0.190583f, 0.079589f, 0.393756f, 0.4663f, -0.159763f, -0.269944f, -0.254338f, -0.005038f, -0.277381f, 0.021582f, 0.351076f, 0.46747f, 0.712175f, 0.405549f, 0.034894f, -0.246232f, -0.834038f, -1.0f, -0.696092f, -0.764219f, -1.0f, -0.984227f, -0.914524f, -0.608874f, 0.275332f, 0.286945f, -0.296312f, 0.031787f, 0.12626f, -0.187296f, 0.339452f, -0.094751f, -0.542962f, -0.478661f, -0.395891f, -0.198981f, -0.309229f, -0.491717f, -0.261235f, 0.194873f, 0.071625f, 0.003235f, 0.073043f, -0.206682f, -0.644221f, -0.742401f, -0.233767f, -0.065148f, -1.0f, -1.0f, -0.870533f, -0.168217f, 0.544017f, 0.653755f, 0.210184f, 0.119084f, 0.312413f, 0.172393f, -0.117518f, -0.349442f, -0.518538f, -0.481877f, -0.566477f, -0.499031f, -0.486318f, -0.442302f, 0.025491f, 0.158495f, -0.108626f, -0.016478f, 0.03294f, 0.288029f, -0.016069f, -0.289362f, -0.051154f, -0.004889f, -0.68744f, -0.997607f, -0.884139f, 0.187671f, 0.671328f, 0.433432f, 0.421856f, -0.043628f, 0.146123f, 0.213948f, -0.06358f, -0.320582f, -0.324653f, -0.392852f, -0.355593f, -0.041083f, -0.130303f, -0.13739f, 0.097865f, -0.024467f, -0.165006f, -0.079817f, 0.134924f, 0.413464f, 0.423741f, -0.037118f, -0.113209f, -0.034712f, -0.244881f, -0.568594f, -0.618396f, 0.373646f, 0.669506f, -0.162502f, 0.150407f, -0.155027f, 0.10508f, 0.215321f, 0.123113f, -0.082591f, -0.056149f, -0.232165f, -0.015516f, -0.109204f, 0.098059f, 0.2419f, 0.260945f, 0.012568f, -0.116259f, -0.164116f, 0.106295f, 0.525247f, 0.811386f, 0.405301f, 0.045138f, 0.014755f, -0.197431f, -0.36817f, -0.008336f, 0.828107f, 0.502849f, 0.572382f, 0.234046f, 0.031392f, -0.023344f, 0.201526f, 0.089449f, 0.17753f, 0.181698f, -0.085232f, 0.05076f, 0.162969f, 0.125966f, 0.138744f, 6e-05f, -0.069575f, -0.09353f, -0.490287f, -0.058483f, 0.325232f, 0.649429f, 0.737597f, 0.250473f, 0.208633f, -0.020765f, 0.028222f, 0.574824f, 0.988119f, 0.434293f, 0.684388f, 0.143906f, -0.316155f, 0.062065f, -0.261592f, -0.24894f, 0.281335f, 0.096391f, -0.24201f, -0.372579f, -0.007075f, -0.021576f, -0.154029f, -0.139812f, 0.407698f, 0.104111f, -0.385854f, -0.398433f, -0.030871f, 0.376245f, 0.474491f, 0.186687f, 0.269178f, 0.324635f, 0.42949f, 0.541136f, 0.767853f, -0.73903f, -0.560185f, 0.159934f, -0.19685f, -0.443945f, -0.223967f, -0.477872f, 0.365445f, 0.189138f, -0.207425f, -0.706465f, -0.500201f, -0.220038f, -0.056661f, -0.008993f, 0.229329f, 0.030884f, -0.482316f, -0.402469f, -0.257346f, -0.034998f, -0.032859f, 0.106653f, 0.357269f, 0.323487f, 0.480317f, 0.083527f, -0.231129f, -0.817287f, -0.617768f, 0.127367f, 0.013438f, -0.647663f, -0.426758f, -0.659989f, 0.011352f, -0.091724f, -0.237822f, -0.633685f, -0.379267f, 0.056402f, 0.019163f, -0.152652f, 0.039201f, 0.240419f, -0.171452f, -0.214122f, -0.393609f, -0.522864f, -0.121675f, 0.288247f, 0.601164f, 0.46968f, 0.107855f, -0.104617f, -1.0f, -0.931293f, -0.421002f, -0.033751f, -0.137567f, -0.775238f, -0.552485f, -0.496716f, 0.02537f, -0.21448f, -0.412737f, -0.666172f, -0.157355f, 0.261687f, 0.042076f, -0.03289f, 0.399548f, 0.648488f, 0.461061f, 0.097234f, 0.043999f, -0.121099f, 0.196083f, 0.581541f, 0.870276f, 0.545242f, 0.215559f, -0.137344f, -0.851372f, -0.394087f, -0.028824f, -0.210237f, -0.141344f, -0.414189f, -0.08269f, -0.307378f, 0.242517f, 0.106305f, 0.044086f, -0.401509f, -0.103596f, 0.323997f, 0.280132f, 0.105869f, 0.462378f, 0.878753f, 0.805705f, 0.694647f, 0.603949f, 0.32319f, 0.779554f, 0.864878f, 0.99307f, 0.862585f, 0.163896f, -0.308716f, -0.693249f, -0.12847f, -0.051969f, -0.186389f, 0.027947f, -0.022116f, 0.140854f, 0.143157f, 0.545383f, 0.465271f, 0.319346f, 0.144754f, 0.441967f, 0.317103f, -0.002803f, -0.00744f, -0.237452f, 0.254676f, 0.377784f, 0.534378f, 0.557103f, 0.823336f, 0.991064f, 0.870059f, 0.987538f, 0.88419f, 0.034947f, -0.371152f, 0.155732f, 0.486272f, -0.116506f, -0.014423f, -0.016694f, -0.00027f, -0.276594f, 0.226182f, 0.151321f, 0.272532f, 0.273167f, 0.386735f, 0.140817f, 0.135158f, 0.046578f, 0.387627f, 0.496967f, 0.510164f, 0.596466f, 0.495496f, 0.519136f, 0.656019f, 0.309625f, 0.085634f, 0.247445f, 0.346491f, -0.084733f, -0.184731f, 0.405283f, 0.248689f, -0.170299f, -0.005623f, -0.034267f, -8.2e-05f, 0.282729f, 0.256996f, -0.188043f, -0.294958f, 0.009451f, 0.076006f, -0.080911f, 0.084307f, 0.36001f, 0.562026f, 0.622059f, 0.553463f, 0.102295f, -0.133982f, -0.064576f, -0.097259f, -0.812411f, -0.828432f, -0.309368f, -0.013535f, -0.22466f, -0.12885f, -0.137401f, 0.097956f, -0.028437f, -0.007905f, -0.027562f, 0.015808f, -0.020361f, -0.013854f, -0.023085f, 0.209207f, 0.649443f, 0.53503f, 0.250836f, 0.035767f, 0.121326f, 0.022838f, -0.03511f, -0.398153f, -0.527986f, -0.758643f, -0.344635f, -0.921048f, -1.0f, -0.598395f, -0.088588f, 0.171431f, 0.134427f, -0.200216f, -0.14064f, 0.221118f, 0.008168f, -0.019439f, 0.011114f, 0.029594f, -0.030513f, 0.030633f, -0.269818f, -0.061669f, 0.471711f, 0.516592f, 0.182226f, 0.00565f, -0.131413f, -0.08007f, -0.067988f, 0.028615f, 0.126548f, -0.150076f, -0.00673f, -0.210086f, -0.150862f, -0.015848f, 0.095971f, 0.813671f, 0.702832f, 0.178464f, 0.005302f, -0.032292f, 0.031738f, 0.012051f},
    {0.01778f, 0.019575f, 0.011351f, -0.018606f, 0.021742f, 0.002646f, -0.017676f, 0.020296f, -0.001302f, 0.006334f, 0.02357f, 0.027258f, -0.158519f, -0.311339f, -0.199869f, -0.024294f, 0.013467f, 0.022486f, -0.010813f, -0.01672f, -0.008336f, 0.020755f, 0.028923f, -0.015264f, 0.018276f, 0.034456f, 0.025291f, 0.00303f, -0.006722f, 0.034905f, 0.012014f, -0.013398f, -0.01723f, -0.16209f, -0.211487f, -0.10255f, -0.218202f, -0.350296f, -0.528042f, -0.437681f, -0.167626f, -0.275054f, 0.204946f, 0.036615f, 0.160374f, 0.146836f, 0.283176f, 0.163235f, -0.114508f, -0.198297f, -0.137495f, -0.132811f, 0.029035f, -0.017298f, 0.02668f, -0.021439f, -0.029441f, 0.009512f, 0.061805f, 0.223792f, -0.220146f, 0.36887f, 0.308654f, 0.219219f, 0.454026f, -0.194818f, -0.609017f, -0.533134f, -0.401854f, -0.310248f, -0.46728f, -0.297942f, -0.537891f, -0.530089f, -0.184321f, -0.191192f, 0.289853f, -0.064238f, -0.228445f, -0.00149f, 0.579974f, 0.307854f, 0.027529f, 0.03022f, -0.003578f, -0.011979f, 0.240028f, 0.52505f, 0.525213f, 0.658506f, 0.633021f, 0.788789f, -0.02982f, -0.449664f, -0.767437f, -0.62582f, -0.112421f, -0.614501f, -0.916276f, -0.716358f, -1.0f, -0.988626f, -0.630466f, -0.720591f, -0.851642f, -0.453809f, -0.420946f, -0.176327f, -0.18772f, 0.693655f, 0.097105f, 0.032808f, -0.007532f, -0.043676f, 0.283566f, 0.817618f, 0.045315f, -0.2396f, -0.220453f, -0.271524f, -0.365795f, -0.553772f, -0.526047f, 0.046763f, 0.192838f, 0.023073f, -0.122256f, 0.066262f, -0.076696f, -0.070198f, -0.030065f, -0.371796f, -0.083192f, 0.179686f, 0.003711f, -0.46217f, -0.558546f, -0.285423f, 0.118085f, 0.12424f, -0.004665f, 0.028182f, -0.134952f, 0.268441f, -0.274419f, -0.320835f, -0.325339f, -0.253661f, -0.657153f, -0.945626f, -0.75418f, -0.123456f, -0.00777f, -0.166159f, -0.19268f, -0.177478f, -0.042478f, -0.002542f, -0.022278f, -0.437717f, -0.591573f, -0.529743f, -0.863207f, -0.847987f, -0.854588f, -0.235238f, -0.227855f, 0.077516f, 0.028653f, -0.172318f, -0.125888f, 0.027028f, -0.005351f, -0.351069f, -0.64051f, -0.26757f, -0.42447f, -0.849635f, -0.367231f, -0.141867f, 0.108297f, 0.24074f, 0.133899f, 0.052872f, 0.007336f, 0.151235f, 0.09398f, 0.089084f, -0.006575f, -0.361546f, -0.715151f, -0.748918f, -0.594916f, -0.511474f, -0.148542f, 0.023094f, 0.122911f, -0.344798f, -0.002285f, 0.274033f, -0.237291f, -0.84224f, -1.0f, -0.609657f, -0.578448f, -0.524714f, -0.093409f, -0.005471f, 0.67909f, 0.593101f, 0.162597f, 0.440676f, 0.280404f, 0.289147f, 0.264961f, 0.033126f, 0.239342f, -0.112417f, -0.191423f, -0.234456f, -0.330997f, -0.11077f, 0.308846f, -0.047662f, -0.047518f, -0.005768f, 0.551482f, 0.344872f, -0.027038f, -0.238024f, -0.725222f, -0.48191f, -0.279755f, -0.10196f, -0.213622f, 0.09853f, 0.330891f, 0.23827f, 0.159372f, 0.534329f, 0.218676f, 0.087107f, 0.020032f, -0.461061f, -0.083406f, -0.093378f, -0.200155f, -0.441513f, -0.171682f, -0.309692f, 0.176344f, -0.12457f, 0.094884f, 0.000157f, -0.093123f, 0.014308f, -0.044706f, -0.066362f, -0.300148f, -0.245534f, 0.169812f, 0.271489f, -0.005122f, 0.110109f, 0.106148f, -0.119178f, 0.214604f, 0.718737f, 0.656824f, 0.20539f, -0.221325f, -0.237123f, -0.095088f, 0.125636f, 0.015008f, -0.390206f, -0.306711f, -0.326807f, 0.04024f, 0.060491f, -0.025299f, 0.026426f, -0.052715f, -0.176889f, -0.123151f, -0.030339f, -0.033707f, 0.050163f, 0.289433f, 0.209288f, 0.043301f, -0.05426f, 0.24605f, 0.379281f, 0.949545f, 0.992642f, 0.998822f, 0.044333f, -0.062157f, -0.090509f, 0.238762f, 0.273686f, 0.229582f, -0.155861f, -0.580785f, -0.556664f, -0.437209f, 0.053222f, -0.094703f, 0.191913f, 0.179287f, 0.078294f, 0.228721f, 0.110478f, 0.220402f, 0.569081f, 0.504156f, 0.299892f, -0.095579f, 0.312018f, 0.714722f, 0.743801f, 1.0f, 1.0f, 1.0f, 0.173406f, 0.017268f, 0.164828f, 0.424732f, 0.33998f, 0.414796f, 0.12424f, -0.264353f, -0.194359f, -0.296434f, 0.196819f, -0.356031f, 0.4349f, 0.661342f, 0.921697f, 0.83694f, 0.469618f, 0.245788f, 0.37377f, 0.390391f, -0.029475f, -0.268656f, 0.097705f, 0.252024f, 0.383903f, 1.0f, 1.0f, 0.718624f, -0.055547f, 0.006985f, 0.237442f, 0.219082f, 0.366f, 0.665917f, 0.517347f, 0.008639f, -0.325591f, -0.589656f, 0.141572f, -0.058254f, 0.076794f, 0.511076f, 0.875139f, 0.968427f, 0.588286f, 0.306396f, 0.010027f, -0.096967f, -0.272899f, -0.415226f, -0.466495f, -0.242696f, 0.129944f, 1.0f, 0.886434f, 0.125227f, -0.179547f, 0.196588f, 0.56743f, 0.123973f, 0.26513f, 0.390945f, 0.205952f, -0.652901f, -0.564899f, -0.493213f, -0.122045f, 0.135488f, -0.017753f, 0.349914f, 0.799507f, 0.890941f, 0.316298f, 0.06162f, -0.196081f, -0.545512f, -0.708335f, -0.904424f, -0.755416f, -0.655464f, -0.085459f, 0.97926f, 0.432865f, 0.050554f, -0.10156f, 0.222477f, 0.145785f, -0.153911f, -0.041973f, -0.129208f, -0.516922f, -0.636304f, -0.58356f, -0.459864f, -0.162583f, 0.214855f, -0.069942f, -0.31046f, 0.794417f, 0.328993f, -0.147147f, -0.119124f, -0.188073f, -0.555588f, -0.682711f, -0.724121f, -0.624434f, -0.505797f, 0.033776f, 0.647615f, 0.166564f, 0.213572f, 0.188174f, 0.204704f, -0.034667f, -0.028284f, 0.23671f, -0.206562f, -0.609491f, -0.551776f, -0.546724f, -0.109315f, -0.715138f, 0.152093f, 0.127731f, -0.607331f, 0.526858f, 0.18763f, -0.050871f, 0.046828f, 0.027301f, -0.183549f, -0.188159f, -0.176075f, -0.44715f, -0.201699f, 0.37666f, 0.804704f, 0.674014f, 0.484249f, 0.026998f, -0.1511f, -0.192634f, -0.204786f, -0.27515f, -0.899138f, -0.935896f, -0.59523f, -0.564743f, -0.541214f, -0.344631f, 0.021126f, -0.087455f, -0.598921f, 0.181305f, 0.016215f, -0.071621f, 0.002105f, 0.140396f, 0.273f, 0.063404f, -0.036584f, -0.099344f, 0.19873f, 0.982045f, 0.999565f, 0.442245f, -0.145588f, -0.597008f, -0.144868f, -0.190641f, -0.294011f, -0.388257f, -0.844593f, -1.0f, -0.925929f, -0.795891f, -0.623908f, -0.368634f, -0.088275f, -0.39796f, -0.223175f, -0.196428f, -0.108068f, -0.278526f, -0.17407f, -0.082194f, -0.277381f, -0.463399f, -0.758188f, -0.31214f, -0.073715f, 1.0f, 0.997495f, 0.047556f, -0.701721f, -0.60286f, -0.223245f, -0.298279f, -0.33745f, -0.603984f, -0.557308f, -0.988067f, -0.826292f, 0.023466f, -0.018096f, -0.161729f, -0.177302f, -0.407543f, -0.259472f, -0.390948f, -0.416191f, -0.154966f, -0.064582f, -0.216262f, -0.381235f, -0.684318f, -0.679771f, -0.838718f, -0.391237f, 0.229652f, 0.683097f, -0.180842f, -0.559463f, -0.471595f, -0.130638f, -0.035198f, -0.299105f, -0.51689f, -0.34725f, -0.465788f, -0.428558f, 0.62714f, 0.099574f, 0.16197f, 0.030849f, -0.119002f, -0.5788f, -0.781386f, -0.714691f, -0.484127f, -0.479039f, -0.536946f, -0.445978f, -0.308028f, -0.540112f, -0.702058f, -0.254803f, 0.320211f, 0.342699f, -0.253396f, -0.266454f, -0.147831f, -0.031619f, -0.046058f, -0.328058f, -0.180378f, -0.226375f, -0.658011f, -0.327101f, 0.471633f, 0.16677f, -0.015094f, 0.10024f, -0.160245f, -0.4667f, -0.902545f, -0.852366f, -0.311812f, -0.060063f, -0.179671f, -0.00946f, -0.236114f, -0.330424f, -0.132333f, -0.142841f, 0.302804f, 0.218872f, 0.003354f, 0.08001f, -0.141999f, -0.079094f, -0.201941f, -0.236369f, -0.259664f, -0.733146f, -0.910371f, -0.455618f, -0.104927f, -0.034811f, -0.088103f, 0.154419f, -0.156099f, -0.321951f, -0.574622f, -1.0f, -0.629048f, 0.118521f, 0.101937f, -0.072524f, -0.449606f, -0.442479f, -0.237679f, -0.233705f, -0.23327f, 0.210329f, 0.254489f, 0.222509f, 0.180632f, -0.138862f, -0.506348f, -0.615098f, -0.634636f, -0.952778f, -0.749396f, 0.286838f, -0.125491f, -0.569176f, -0.099464f, -0.017426f, -0.022239f, -0.088561f, 0.158501f, -0.388723f, -0.515768f, -0.165483f, -0.191337f, -0.266518f, -0.535586f, -0.379618f, -0.553685f, -0.344326f, -0.010781f, 0.179533f, 0.350646f, 0.695192f, 0.398288f, -0.024292f, -0.348502f, -0.569131f, -0.990044f, -0.873811f, -0.692473f, -0.113477f, 0.079945f, 0.097438f, -0.009072f, -0.005619f, -0.001821f, 0.08723f, -0.077243f, -0.013454f, -0.126523f, 0.219992f, 0.277813f, 0.127592f, 0.096587f, 0.208717f, -0.198535f, -0.492943f, -0.392459f, 0.155838f, 0.646684f, 0.861413f, 0.373499f, 0.405588f, 0.288627f, -0.005712f, -0.311613f, -0.594624f, -0.817707f, -0.854563f, 0.048108f, 0.24137f, -0.006211f, -0.001793f, 0.010053f, 0.074581f, -0.284923f, 0.089407f, 0.414991f, 0.266354f, 0.757031f, 0.948054f, 0.835878f, 0.908127f, 0.215658f, -0.060909f, -0.112258f, 0.643858f, 0.944526f, 0.997225f, 0.716142f, 0.930111f, 0.628435f, 0.221619f, 0.293437f, 0.051195f, 0.100236f, 0.15081f, 0.127922f, 0.044723f, -0.004135f, -0.018526f, 0.004136f, -0.017293f, 0.044045f, 0.033979f, -0.595405f, -0.406247f, -0.833302f, -0.308762f, -0.358806f, -0.381881f, -0.000678f, 0.134953f, 0.246393f, 0.504671f, 0.388821f, -0.060575f, 0.153357f, 0.543035f, 0.529797f, 0.42674f, 0.685083f, 0.76331f, 0.450068f, 0.189716f, -0.144866f, 0.00303f, 0.026292f, 0.033636f, 0.030499f, 0.035343f, -0.026453f, -0.212039f, -0.15054f, -0.831652f, -1.0f, -0.983817f, -0.738733f, -0.446378f, -0.202751f, 0.14097f, 0.086775f, 0.359166f, 0.002266f, -0.093418f, -0.255937f, 0.283132f, 0.290045f, 0.030246f, 0.259632f, 0.726613f, 0.408576f, -0.024589f, 0.025266f, -0.004166f, 0.025197f},
    {0.030187f, -0.001232f, -0.018462f, -0.006246f, 0.01642f, 0.023064f, -0.023241f, -0.03113f, -0.029767f, 0.01373f, 0.021452f, 0.030298f, -0.100887f, -0.089649f, -0.236207f, -0.214077f, -0.027448f, 0.003836f, -0.01326f, 0.028722f, 0.02701f, 0.024762f, 0.026224f, -0.00317f, -0.001954f, 0.022707f, -0.030243f, 0.01712f, 0.023657f, -0.002217f, 0.008633f, -0.028033f, -0.022073f, -0.227699f, -0.505246f, -0.460869f, -0.616995f, -0.391516f, -0.385836f, -1.0f, -0.885292f, -1.0f, -0.831478f, 0.116062f, 0.086078f, -0.185004f, -0.21401f, -0.133213f, -0.165143f, -0.166759f, -0.23804f, -0.180307f, 0.004326f, 0.008486f, 0.002766f, 0.010287f, -0.035034f, -0.004426f, -0.190484f, 0.143496f, 0.37743f, -0.188354f, -0.741475f, -0.603303f, -0.864486f, -0.92213f, -1.0f, -1.0f, -1.0f, -1.0f, -1.0f, -1.0f, -0.966969f, -0.985787f, -0.653115f, -0.782716f, -0.602173f, -0.07243f, -0.008486f, 0.096792f, 0.145485f, 0.446582f, 0.019559f, 0.009354f, -0.035606f, -0.025564f, -0.303304f, -0.163818f, -0.375254f, -0.435661f, -0.586858f, -0.3628f, -0.344249f, -0.523485f, -0.682142f, -0.978785f, -0.977054f, -1.0f, -1.0f, -1.0f, -0.570809f, -0.412568f, -0.408703f, -0.54788f, -0.148529f, -0.092441f, -0.112709f, 0.154762f, -0.088199f, 0.343008f, 0.271403f, 0.001984f, 0.000532f, -0.063f, 0.040856f, -0.055383f, 0.520139f, 0.173117f, 0.01871f, 0.199352f, 0.219788f, 0.480893f, 0.220363f, 0.129218f, -0.094434f, -0.511445f, -0.805666f, -0.642061f, -0.163597f, -0.178493f, -0.373613f, -0.062571f, 0.071551f, 0.091388f, 0.058738f, -0.151451f, 0.046734f, -0.087556f, 0.15406f, 0.221849f, 0.017811f, 0.009677f, -0.172116f, 0.002339f, 0.351246f, 0.406882f, 0.476185f, 0.821496f, 0.921198f, 0.762823f, 0.483934f, 0.519213f, -0.025717f, -0.612512f, -0.588677f, -0.524707f, -0.470605f, -0.824714f, -0.772261f, -0.575464f, -0.332615f, -0.37897f, -0.21436f, -0.284223f, 0.024931f, -0.010749f, 0.140401f, 0.148597f, 0.007293f, -0.218418f, 0.119444f, 0.279371f, 0.208416f, 0.505009f, 0.832096f, 0.921988f, 0.634277f, 0.211008f, 0.395757f, 0.450076f, 0.18797f, 0.180982f, 0.02098f, -0.126244f, -0.037427f, 0.042607f, 0.058779f, 0.173465f, 0.164257f, -7.4e-05f, 0.140957f, -0.329119f, -0.351296f, -0.331909f, 0.058519f, -0.168548f, 0.171032f, -0.061101f, 0.374324f, 0.346716f, 0.484889f, 0.430314f, 0.501525f, 0.099029f, -0.116269f, -0.333398f, 0.044961f, 0.396775f, 0.329077f, 0.284797f, 0.026028f, -0.004728f, 0.056008f, -0.043422f, -0.015219f, -0.141187f, 0.003252f, 0.198868f, -0.081987f, -0.465655f, -0.832226f, -0.788859f, 0.149133f, -0.240745f, -0.035152f, -0.093469f, 0.302547f, 0.170326f, 0.219466f, 0.244903f, -0.078537f, -0.808253f, -0.828831f, -0.572186f, -0.042132f, 0.233519f, -0.001166f, 0.120684f, 0.016891f, 0.045793f, -0.043988f, -0.27993f, 0.097143f, -0.140839f, 0.175452f, 0.114152f, 0.029165f, -0.659829f, -0.979741f, -0.733081f, 0.255406f, 0.306343f, -0.088699f, -0.218504f, -0.005566f, -0.055791f, 0.075167f, 0.013008f, -0.571409f, -0.798416f, -0.519801f, -0.606516f, -0.269767f, 0.216093f, 0.192062f, 0.292457f, 0.210309f, 0.267004f, 0.151809f, 0.132218f, 0.347456f, 0.030724f, 0.029474f, 0.038886f, 0.105101f, -0.87233f, -0.976644f, -0.741964f, 0.060989f, 0.233342f, -0.190981f, -0.125269f, 0.571197f, 0.460151f, -0.342376f, -0.511211f, -0.650053f, -0.602638f, -0.630335f, -0.414916f, -0.048657f, 0.003169f, 0.065926f, -0.088672f, -0.769342f, -0.158718f, 0.446604f, 0.696207f, 0.140006f, -0.196205f, 0.063299f, 0.021852f, -0.136514f, -0.883682f, -0.977685f, -0.723817f, -0.370126f, 0.04027f, -0.293032f, -0.347875f, 0.619978f, 0.642636f, 0.232072f, -0.400457f, -0.589771f, -0.299676f, -0.409198f, -0.304006f, -0.169586f, -0.09291f, -0.335304f, -0.901978f, -0.869987f, 0.168487f, 0.955446f, 0.866096f, 0.025628f, -0.174113f, -0.053917f, -0.092465f, -0.33178f, -0.774241f, -0.834829f, -0.866238f, -0.125169f, 0.005768f, -0.146705f, 0.009769f, 0.483727f, 0.618974f, 0.53443f, -0.014145f, -0.467074f, -0.359522f, -0.274914f, -0.31906f, -0.212128f, 0.111941f, -0.246731f, -0.531539f, -0.429748f, 0.55797f, 0.882214f, 0.468243f, -0.054575f, -0.115327f, -0.05743f, -0.250689f, -0.458209f, -0.736414f, -0.534605f, 0.339773f, 0.728483f, 0.327898f, -0.04935f, 0.020252f, 0.394666f, 0.757213f, 0.766778f, -0.080487f, -0.27295f, -0.381663f, -0.535925f, -0.635875f, -0.18706f, 0.137562f, 0.01433f, -0.058419f, -0.266349f, 0.018106f, 0.47777f, -0.027104f, -0.02145f, 0.176062f, 0.273864f, 0.10303f, -0.164778f, -0.555416f, -0.027891f, 0.999176f, 1.0f, 0.49517f, -0.079071f, 0.328387f, 0.351063f, 0.737864f, 0.998256f, 0.035225f, -0.010455f, 0.206872f, -0.154372f, -0.337089f, -0.178853f, 0.026475f, 0.303566f, -0.313564f, -0.432068f, 0.011218f, 0.816125f, 0.428636f, 0.265228f, 0.442839f, 0.186851f, 0.078687f, 0.208986f, -0.035129f, -0.299055f, 0.851632f, 1.0f, 0.30188f, -0.009999f, 0.172592f, 0.523592f, 0.997004f, 0.99856f, 0.341588f, 0.403928f, 0.457172f, 0.433733f, 0.014671f, 0.199178f, 0.432543f, 0.136456f, -0.353059f, -0.497769f, 0.366954f, 0.985619f, 0.761135f, 0.111946f, -0.001266f, 0.003494f, 0.156368f, 0.161608f, 0.102315f, -0.081829f, 0.908732f, 0.988384f, 0.072995f, 0.170776f, 0.32178f, 0.496952f, 0.995534f, 0.864344f, 0.70929f, 0.654463f, 0.770211f, 0.618093f, 0.379709f, 0.504989f, 0.498f, 0.44455f, 0.333392f, 0.327912f, 0.917401f, 0.938763f, 0.654032f, -0.000534f, -0.039636f, 0.207529f, 0.328138f, 0.358823f, 0.073797f, 0.150947f, 0.957967f, 0.999318f, 0.298393f, 0.020772f, 0.176911f, 0.360923f, 0.999027f, 0.920107f, 0.654441f, 0.577054f, 0.589758f, 0.53587f, 0.376483f, 0.05813f, -0.222053f, 0.033099f, 0.388909f, 0.489061f, 0.849983f, 0.40225f, 0.003688f, -0.023746f, -0.063746f, 0.216174f, 0.109626f, 0.264836f, 0.424002f, 0.626628f, 0.927308f, 0.580861f, 0.158485f, -0.088772f, -0.121072f, 0.445405f, 1.0f, 0.845093f, 0.650622f, 0.364221f, 0.294806f, 0.058023f, -0.463671f, -0.785737f, -0.971849f, -0.595644f, -0.366528f, 0.128511f, 0.053401f, 0.028025f, -0.048238f, -0.030656f, 0.007853f, 0.037095f, -0.105175f, 0.365154f, 0.558492f, 1.0f, 1.0f, 0.355309f, 0.195034f, -0.20401f, -0.361046f, 0.2623f, 0.931646f, 0.764821f, 0.486566f, 0.248278f, -0.085217f, -0.462159f, -0.940214f, -0.976451f, -0.992878f, -0.816381f, -0.725617f, -0.358034f, -0.564493f, 0.16763f, 0.131961f, 0.105101f, 0.11507f, 0.33863f, 0.344293f, 0.39542f, 0.537829f, 1.0f, 0.960078f, 0.483173f, 0.035731f, 0.023653f, -0.378704f, -0.075542f, 0.623256f, 0.723145f, 0.014579f, -0.292475f, -0.403169f, -0.472225f, -0.909746f, -0.97921f, -0.874423f, -0.89228f, -0.966747f, -0.960482f, -0.667005f, 0.07127f, -0.221376f, -0.082079f, 0.051391f, 0.350705f, 0.305065f, 0.110949f, 0.19214f, 0.744718f, 0.89655f, 0.459819f, 0.074512f, -0.100715f, -0.123271f, 0.552011f, 0.392894f, 0.496298f, -0.116488f, -0.538224f, -0.407921f, -0.193312f, -0.377572f, -0.453751f, -0.062223f, -0.061287f, -0.38055f, -0.836354f, -0.485856f, -0.101485f, -0.488926f, -0.099384f, 0.02662f, 0.176848f, 0.125132f, -0.081808f, 0.03947f, 0.100707f, 0.178618f, -0.135719f, -0.065346f, -0.094913f, -0.016707f, 0.367246f, 0.281334f, 0.263141f, -0.320707f, -0.722274f, -0.451333f, -0.364977f, -0.360952f, -0.125539f, 0.109233f, 0.150869f, -0.414443f, -0.629075f, -0.211094f, -0.282501f, -0.411804f, -0.285142f, -0.187855f, 0.02098f, 0.062383f, 0.111889f, -0.003878f, -0.374124f, 0.138164f, -0.594153f, -0.081341f, -0.011826f, -0.018808f, 0.235247f, 0.519589f, 0.497867f, -0.369719f, -0.360031f, -0.162952f, -0.252932f, -0.383573f, -0.281665f, -0.337695f, -0.515032f, -0.521572f, -0.478412f, -0.627185f, -0.814536f, -0.887714f, -0.709527f, -0.339368f, 0.005003f, 0.467223f, 0.384294f, 0.11101f, -0.12435f, -0.031637f, -0.452598f, -0.008909f, 0.0271f, -0.026156f, 0.024398f, 0.709008f, 0.997128f, 0.732419f, 0.281483f, 0.239168f, 0.09631f, 0.014054f, 0.122306f, 0.005578f, -0.381467f, -0.191802f, -0.036465f, -0.291964f, -0.431769f, -0.669059f, -0.376693f, 0.029868f, 0.556235f, 0.984376f, 1.0f, 0.470052f, 0.008865f, 0.471446f, 0.043748f, 0.023318f, -0.010984f, 0.029283f, -0.049771f, -0.547095f, 0.713622f, 1.0f, 0.747893f, 0.486674f, 0.555199f, 0.493494f, 0.443989f, 0.203445f, 0.174109f, 0.399033f, 0.854827f, 0.360687f, -0.542419f, -0.762005f, -0.151149f, -0.059986f, 0.040165f, 0.157312f, 0.23553f, -0.144146f, -0.309948f, 0.138247f, 0.090267f, 0.002685f, -0.032956f, 0.019211f, 0.019395f, -0.053574f, 0.176873f, -0.318728f, -0.67259f, -0.993167f, -0.787827f, -0.76188f, -0.978579f, -0.97615f, -1.0f, -0.587442f, -0.234456f, -0.27923f, -0.715094f, -0.515214f, -0.299067f, -0.238433f, -0.153857f, -0.144924f, 0.088652f, -0.02052f, 0.15887f, -0.248233f, -0.021697f, 0.007836f, -0.024764f, 0.008256f, -0.003215f, -0.004114f, -0.206947f, -0.22089f, -0.136586f, 0.249397f, 0.01007f, -0.183148f, -0.502293f, -0.624887f, -0.460558f, -0.045639f, 0.285224f, 0.143974f, 0.223877f, 0.186539f, 0.113013f, 0.052128f, -0.668157f, -0.408826f, 0.28863f, 0.348811f, 0.033711f, 0.007106f, 0.003985f, -0.024674f},
    {0.030764f, 0.001588f, 0.027801f, 0.017933f, -0.031134f, 0.031913f, 0.000691f, 0.008631f, -0.02448f, 0.013989f, -0.010187f, -0.010508f, -0.04141f, -0.078028f, -0.228254f, -0.164105f, 0.021106f, 0.034319f, -0.005361f, 0.019886f, 0.016141f, -0.014684f, -0.030467f, 0.001401f, -0.01776f, -0.022041f, -0.024123f, -0.033932f, -0.022971f, -0.012158f, -0.002598f, 0.021114f, 0.00666f, 0.026273f, -0.307341f, -0.289152f, 0.390844f, 0.618187f, 0.311177f, -0.233276f, -0.240897f, -0.104549f, 0.173599f, 0.169374f, -0.150264f, -0.000462f, 0.540786f, 0.37112f, -0.03191f, -0.205681f, -0.137461f, -0.189159f, 0.019228f, -0.007751f, -0.026265f, 0.003107f, 0.017911f, -0.00919f, -0.185412f, -0.186817f, -0.110043f, 0.255212f, 0.352458f, -0.14689f, 0.587693f, 0.575922f, 0.069447f, -0.158716f, -0.020349f, 0.15518f, 0.391942f, 0.630445f, 0.588121f, 0.220525f, 0.076232f, -0.336284f, -0.260995f, -0.168442f, -0.306017f, -0.170168f, -0.005783f, -0.142201f, 0.001f, -0.001446f, -0.022047f, -0.001458f, 0.024755f, 0.216597f, 0.177367f, -0.221382f, 0.048837f, -0.290086f, 0.081613f, 0.385249f, 0.030216f, -0.0658f, -0.118203f, -0.334052f, -0.57631f, -0.396731f, -0.442737f, -0.554638f, 0.050502f, -0.348705f, -0.758321f, -0.709539f, -0.496655f, -0.382467f, -0.704934f, -0.241901f, 0.093944f, -0.016796f, -0.007437f, 0.065107f, 0.386191f, 0.585239f, 0.052925f, -0.507072f, -0.156381f, -0.248845f, -0.112879f, 0.10038f, 0.001694f, -0.097311f, 0.104625f, 0.162295f, -0.139434f, -0.317165f, -0.329344f, -0.315323f, -0.10586f, 0.045093f, 0.393302f, 0.534556f, 0.362184f, -0.184266f, -0.447273f, -0.276075f, 0.349878f, -0.034675f, -0.024212f, 0.023282f, 0.605291f, 0.025785f, -0.052651f, -0.173254f, -0.268227f, -0.163241f, -0.126253f, -0.034718f, -0.111534f, -0.007066f, 0.169018f, -0.247588f, -0.217898f, -0.004171f, -0.214436f, -0.200641f, -0.303874f, -0.201334f, 0.220136f, 0.270359f, -0.060913f, -0.725357f, -0.799626f, -0.56927f, -0.056378f, -0.078576f, 0.014246f, 0.067261f, 0.146188f, -0.132206f, -0.034775f, -0.178126f, -0.126966f, -0.230574f, -0.072622f, -0.059488f, -0.062126f, 0.00305f, -0.062549f, -0.447897f, -0.17881f, 0.048172f, 0.099908f, 0.24563f, 0.043739f, 0.147786f, 0.361106f, 0.247926f, -0.434647f, -0.783342f, -0.949272f, -0.965597f, -0.438855f, 0.23335f, 0.024745f, 0.176778f, 0.487693f, 0.073857f, 0.000934f, -0.044395f, 0.021314f, -0.183435f, -0.365348f, -0.641191f, -0.479521f, -0.431487f, -0.131071f, 0.016663f, 0.128664f, 0.449389f, 0.258454f, 0.095232f, 0.217959f, 0.183872f, 0.246143f, 0.18242f, -0.155049f, -0.465476f, -0.662183f, -0.967183f, -0.303588f, 0.23082f, -0.091342f, 0.054619f, 0.348251f, 0.090919f, 0.184524f, 0.299705f, 0.181619f, -0.067822f, -0.343398f, -0.39914f, -0.552185f, -0.380447f, -0.115928f, 0.095805f, -0.024887f, 0.193483f, 0.300671f, 0.203659f, -0.047904f, 0.0687f, 0.026552f, -0.072648f, -0.319349f, -0.32499f, -0.491231f, -0.886697f, -0.178401f, -0.014988f, 0.164808f, 0.24611f, 0.179018f, 0.027625f, 0.288873f, 0.179541f, -0.050461f, -0.113474f, -0.068031f, -0.273218f, -0.258033f, -0.092495f, 0.129915f, -0.014084f, -0.340662f, 0.001662f, 0.25102f, -0.053916f, -0.107771f, 0.174683f, 0.039893f, -0.124453f, -0.116033f, -0.052417f, -0.404498f, -0.653101f, -0.06104f, 0.018959f, 0.11083f, 0.145481f, 0.089839f, -0.18538f, -0.071346f, -0.108789f, -0.195577f, -0.219143f, 0.005383f, -0.046923f, -0.09919f, -0.100425f, 0.012134f, 0.006171f, 0.244911f, 0.213868f, 0.277949f, -0.208108f, -0.164485f, -0.067114f, -0.061924f, 0.078995f, 0.367512f, -0.05898f, -0.91439f, -0.768676f, -0.245294f, 0.195932f, 0.340043f, 0.341573f, -0.09958f, -0.108111f, -0.002862f, -0.045516f, -0.240983f, 0.228688f, 0.17232f, 0.040042f, 0.089634f, 0.282519f, 0.185522f, 0.187428f, 0.897072f, 0.837568f, 0.447854f, -0.067908f, 0.026186f, 0.255328f, 0.289064f, 0.441261f, 0.605018f, 0.286162f, -0.462967f, -0.578577f, -0.375686f, 0.171777f, 0.296927f, 0.582572f, 0.464662f, 0.427832f, 0.456127f, 0.33117f, 0.171132f, 0.047433f, 0.003056f, -0.012757f, -0.312303f, -0.205195f, -0.402275f, -0.37219f, 0.906317f, 0.792998f, 0.174894f, 0.109654f, 0.091532f, 0.29781f, 0.545111f, 0.784732f, 0.895596f, 0.529934f, -0.020391f, -0.770767f, -0.315759f, 0.313179f, 0.087386f, 0.209443f, 0.522683f, -0.068405f, 0.46074f, 0.285446f, 0.199705f, 0.046445f, 0.059473f, -0.328313f, -0.662164f, -0.856002f, -0.78227f, -0.471209f, 0.772254f, 0.439048f, 0.105516f, -0.105603f, -0.009516f, 0.504852f, 0.498069f, 0.726368f, 0.470538f, -0.026185f, -0.656893f, -0.29205f, -0.265469f, 0.011967f, -0.104563f, 0.00702f, 0.387729f, 0.048924f, -0.038379f, -0.012754f, 0.135615f, -0.173866f, -0.331944f, -0.998683f, -0.977309f, -0.931523f, -0.879459f, -0.563306f, 0.81858f, 0.40338f, 0.126766f, -0.325816f, 0.044496f, 0.124444f, -0.021222f, 0.127453f, -0.170569f, -0.426905f, -0.407227f, -0.035593f, -0.144675f, -0.089905f, -0.05838f, -0.035873f, 0.320643f, 0.167193f, -0.39022f, -0.374261f, -0.124392f, -0.436776f, -0.514356f, -0.905135f, -0.954527f, -0.906665f, -0.45452f, -0.009015f, 0.928235f, 0.321279f, 0.036647f, -0.180174f, -0.268837f, -0.236898f, -0.066732f, -0.004467f, -0.391234f, -0.616344f, -0.526376f, -0.757825f, -0.307397f, -0.008518f, 0.087216f, -0.292014f, -0.183282f, -0.011302f, -0.498092f, -0.668093f, -0.570475f, -0.667599f, -0.518234f, -0.884524f, -0.813618f, -0.014128f, 0.568822f, 0.519401f, 0.59748f, 0.271351f, -0.058252f, -0.505402f, -0.517292f, -0.168252f, -0.103266f, -0.177852f, -0.251294f, -0.414416f, -0.46706f, -0.492877f, -0.273438f, -0.08946f, 0.032039f, -0.259305f, -0.21474f, -0.328893f, -0.8109f, -1.0f, -1.0f, -0.98483f, -0.385119f, -0.43651f, 0.065616f, 1.0f, 1.0f, 0.623597f, 0.38182f, -0.054362f, -0.792552f, -0.928475f, -0.441846f, -0.16564f, 0.033878f, 0.262377f, 0.204226f, -0.006768f, -0.03564f, -0.121114f, -0.190967f, -0.064306f, 0.247807f, -0.300846f, -0.170648f, -0.564653f, -0.907707f, -0.994653f, -1.0f, -1.0f, -0.36806f, -0.05717f, 0.459341f, 1.0f, 1.0f, 0.394754f, -0.006804f, -0.700679f, -1.0f, -0.996947f, -0.31541f, -0.067443f, 0.139933f, 0.16279f, 0.116533f, 0.13733f, -0.085182f, 0.503552f, 0.190162f, -0.135724f, -0.194497f, -0.317164f, -0.240624f, -0.580213f, -0.859765f, -0.898656f, -0.943648f, -0.725461f, -0.459486f, -0.006584f, 0.576194f, 0.794974f, 0.436905f, -0.1477f, -0.449812f, -1.0f, -1.0f, -0.999781f, -0.476081f, 0.019243f, -0.054706f, 0.164793f, 0.500437f, 0.259368f, -0.048982f, 0.237009f, 0.004879f, -0.099678f, 0.035528f, -0.291023f, -0.262281f, -0.703923f, -0.802011f, -0.827621f, -0.792992f, -0.554191f, -0.148361f, 0.243043f, 0.442857f, 0.244982f, 0.153785f, 0.01225f, -0.393823f, -0.986271f, -0.99905f, -0.791234f, -0.152797f, -0.017966f, -0.06773f, 0.123703f, 0.330817f, -0.132541f, -0.426378f, 0.023988f, 0.292827f, 0.00965f, 0.173529f, 0.366641f, -0.008277f, -0.397788f, -0.656291f, -0.367718f, -0.320413f, -0.167063f, -0.039015f, 0.164619f, 0.11382f, 0.148404f, -0.080019f, 0.087178f, -0.261597f, -0.679586f, -0.679432f, -0.530851f, -0.080752f, -0.068378f, -0.118014f, 0.098269f, -0.0182f, -0.382451f, -0.594877f, -0.287209f, 0.162184f, -0.068536f, 0.149246f, 0.1177f, -0.196761f, -0.317918f, -0.456016f, 0.138946f, 0.174763f, 0.130267f, -0.083324f, -0.172366f, -0.135256f, 0.187809f, 0.192638f, 0.071683f, -0.128296f, -0.460845f, -0.721748f, -0.353428f, -0.139108f, -0.401956f, -0.078642f, -0.026466f, -0.223731f, -0.278079f, -0.305216f, -0.006111f, 0.12572f, -0.120174f, 0.023269f, 0.014382f, 0.026507f, -0.657136f, -0.659559f, -0.002075f, 0.424748f, 0.144865f, -0.186196f, -0.216198f, 0.107192f, 0.635244f, 0.906974f, 0.687317f, 0.256402f, -0.226847f, -0.36774f, -0.13084f, -0.231682f, -0.353883f, -0.164904f, -0.056452f, 0.156352f, 0.051829f, 0.078892f, 0.331664f, 0.320723f, 0.005595f, 0.034643f, -0.023071f, 0.185095f, -0.35902f, -0.259155f, -0.152793f, 0.184182f, 0.085368f, -0.150979f, -0.127756f, 0.234166f, 0.200477f, 0.433355f, 0.177228f, 0.092536f, 0.032725f, -0.13511f, 0.027344f, 0.318509f, 0.484425f, 0.186643f, 0.444472f, 0.46501f, 0.315272f, 0.147202f, 0.22435f, 0.053634f, -0.014042f, -0.0021f, 0.010706f, 0.227726f, -0.231048f, -0.000547f, 0.370922f, 0.165139f, 0.311896f, 0.606216f, 0.493306f, 0.862857f, 0.73397f, 0.506066f, 0.043717f, 0.103761f, -0.094818f, 0.062494f, 0.564315f, 0.824104f, 0.473479f, 0.321066f, 0.553629f, -0.03154f, -0.174561f, -0.400135f, -0.081757f, -0.06003f, 0.011422f, 0.008457f, 0.001726f, 0.008847f, -0.078526f, 0.128815f, -0.498736f, -0.256154f, -0.432224f, -0.009505f, 0.034924f, 0.408632f, 0.729919f, 0.533364f, 0.713749f, 0.661613f, 0.438101f, 0.459294f, 0.86412f, 0.776455f, 0.287956f, 0.400773f, 0.654614f, 0.427203f, 0.171786f, 0.100572f, -0.114251f, -0.00197f, 0.012981f, -0.023102f, 0.031761f, 0.006845f, -0.027595f, -0.170981f, -0.295981f, -0.821562f, -1.0f, -0.873903f, -0.291323f, -0.080733f, -0.075174f, 0.079262f, 0.123345f, 0.284487f, 0.320788f, 0.32005f, 0.267871f, 0.449557f, 0.487463f, 0.460781f, 0.376761f, 0.493106f, -0.085528f, 0.026212f, 0.001464f, -0.021244f, 0.0023f},
