#include <float.h>
#include <math.h>
#include <stdbool.h>
#include <stdint.h>
#include <string.h>
#include<stdio.h>
#define MAX(X,Y) ( X > Y ? X : Y)
#define MIN(X,Y) ( X < Y ? X : Y)
#define CLIP(X,L) ( MAX(MIN(X,L), -L) )
#define BINARISE(X) ( X>=0? 1:-1)
#define RELU(X) MAX(0,X)
#define HARD_SIGMOID(X) MAX( 0 , MIN( 1 ,((X+1)/2) ) )

#define INPUT_LAYER_SIZE_ROW 10
#define INPUT_LAYER_SIZE_COL 784

#define SECOND_LAYER_SIZE_ROW 10
#define SECOND_LAYER_SIZE_COL 10

#define IMAGE_SIZE 784
#define GAMMA 0.5

/* layer_1_MatMul*/
static const float tensor_layer_1_MatMul_weights[INPUT_LAYER_SIZE_ROW][784] =
{
    {0.017638f, -0.016527f, -0.007687f, 0.015999f, -0.034387f, 0.020655f, -0.008111f, 0.017406f, 0.004201f, -0.005137f, 0.009142f, 0.000998f, -0.131928f, -0.152672f, 0.081862f, 0.074326f, 0.004413f, -0.000906f, 0.030456f, 0.01035f, -0.014064f, -0.022334f, -0.00675f, -0.016169f, -0.012208f, 0.000946f, 0.020526f, 0.018648f, -0.035676f, 0.021376f, 0.009213f, 0.033113f, 0.134493f, 0.142345f, 0.570892f, 0.980384f, 0.742871f, 0.691029f, 0.678677f, -0.014064f, -0.297741f, -0.041284f, 0.618232f, 0.698057f, 0.433229f, 0.778829f, 0.692498f, 0.61007f, 0.912048f, 1.0f, 0.570286f, 0.333987f, 0.018616f, -0.009445f, 0.034809f, 0.027864f, -0.002436f, -0.024602f, 0.160375f, -0.104614f, 0.597497f, 0.261027f, 0.078443f, 0.170146f, -0.090864f, -0.207738f, -0.472513f, -0.090905f, -0.246815f, -0.077395f, -0.002551f, -0.026706f, -0.003763f, 0.135501f, -0.037337f, 0.342633f, 0.113203f, 0.200827f, 0.146424f, 0.282398f, 0.203044f, 0.612365f, 0.001408f, -0.00685f, 0.020212f, -0.021447f, 0.328486f, 0.411935f, -0.042623f, 0.348922f, 0.084931f, -0.236409f, -0.402079f, -0.484414f, -0.342568f, -0.304474f, -0.135947f, -0.337147f, -0.110184f, -0.069037f, -0.017868f, -0.221616f, -0.29811f, -0.393405f, 0.018643f, 0.292428f, 0.323435f, 0.004872f, 0.049714f, 0.844786f, 0.291039f, 0.025913f, 0.033101f, 0.030195f, 0.679635f, 0.42083f, -0.155501f, 0.080373f, 0.119734f, 0.179294f, 0.041663f, 0.068918f, 0.208149f, 0.380105f, 0.16012f, 0.162005f, 0.376932f, 0.463967f, 0.263602f, 0.368727f, 0.748351f, 0.926405f, 0.861921f, 0.631975f, 0.063278f, 0.068148f, 0.157389f, 0.81838f, 0.80433f, 0.116139f, -0.017129f, -0.004923f, 0.567876f, 0.274148f, 0.048986f, 0.181073f, 0.182979f, 0.223387f, 0.031047f, -0.323922f, -0.309863f, -0.055027f, -0.247803f, -0.282436f, -0.514973f, -0.498805f, -0.764957f, -0.926385f, -0.395566f, -0.067906f, -0.124882f, -0.261922f, -0.399385f, -0.22686f, 0.037726f, -0.08793f, 0.03234f, -0.066435f, -0.029225f, -0.163098f, 0.570222f, 0.98131f, 0.537989f, 0.393749f, 0.156713f, 0.342982f, 0.288308f, 0.164441f, 0.064062f, 0.311476f, 0.37261f, 0.483754f, 0.441906f, 0.123523f, -0.081012f, -0.310325f, -0.407614f, -0.432482f, -0.291739f, -0.261303f, -0.595295f, -0.972365f, -0.696412f, -0.460456f, -0.015088f, 0.084091f, 0.175966f, 0.462862f, 0.279058f, 0.824931f, 0.848919f, 0.355695f, 0.364356f, 0.323626f, 0.413336f, 0.070048f, 0.124183f, 0.407938f, 1.0f, 1.0f, 1.0f, 0.986991f, 0.938994f, 0.425268f, 0.011572f, 0.042866f, 0.102223f, 0.009626f, -0.189609f, -0.835162f, -0.904519f, -0.549157f, 0.048377f, -0.035868f, 0.284814f, -0.143105f, 0.174925f, 0.729938f, 0.456149f, 0.118032f, 0.008176f, -0.003654f, 0.037196f, -0.328969f, -0.198457f, -0.008514f, 0.27717f, 0.879058f, 0.931258f, 0.917479f, 0.799277f, 0.857469f, 0.207215f, -0.024267f, 0.095198f, -0.020698f, -0.383379f, -0.988873f, -0.998581f, -1.0f, 0.186579f, 0.044765f, 0.35544f, 0.077081f, 0.250785f, 0.276313f, -0.16409f, -0.481389f, -0.225369f, -0.37763f, -0.560001f, -0.839018f, -0.748418f, -0.746256f, -0.509068f, 0.074746f, 0.982166f, 0.945843f, 0.864201f, 0.871752f, 0.027541f, -0.051911f, -0.002468f, -0.083974f, -0.35918f, -0.768066f, -1.0f, -0.80577f, -0.05375f, 0.01554f, 0.003509f, -0.097531f, -0.329822f, 0.135801f, -0.491755f, -0.754645f, -0.53179f, -0.461938f, -0.834304f, -0.990891f, -0.991682f, -0.96474f, -0.984651f, -0.158075f, 0.993629f, 0.999599f, 0.984663f, 0.857258f, -0.079897f, 0.013591f, 0.018575f, -0.065031f, -0.003284f, -0.139726f, -0.234063f, -0.670263f, -0.221928f, 0.26658f, -0.044208f, 0.010402f, -0.022354f, 0.296529f, -0.175978f, -0.078401f, 0.011171f, -0.14224f, -0.56444f, -0.886687f, -0.936547f, -0.942103f, -0.993697f, 0.233375f, 1.0f, 1.0f, 1.0f, 0.593592f, 0.075466f, 0.102185f, 0.013241f, 0.052884f, 0.321985f, 0.242622f, 0.136511f, -0.205434f, -0.051851f, 0.481768f, 0.023074f, 0.555966f, 0.5725f, 0.349877f, 0.55588f, 0.585006f, 0.188207f, -0.010535f, -0.280073f, -0.395995f, -0.875064f, -0.959357f, -0.9854f, 0.945775f, 1.0f, 1.0f, 0.985298f, -0.00198f, 0.093074f, 0.056643f, 0.042809f, -0.111548f, 0.070429f, 0.048953f, 0.032787f, -0.172311f, 0.202985f, 0.320086f, -0.222613f, 0.352549f, 0.695051f, 0.585002f, 0.816424f, 0.334918f, 0.012913f, -0.059017f, -0.054985f, -0.518485f, -0.988519f, -0.98101f, -0.989344f, 0.943887f, 1.0f, 0.968107f, 0.118209f, -0.326996f, 0.177693f, -0.024453f, -0.047286f, 0.019943f, -0.109461f, -0.014394f, -0.001877f, -0.540053f, -0.523176f, 0.055736f, -0.126636f, -0.068227f, 0.662287f, 0.969253f, 0.492586f, 0.011684f, -0.266392f, -0.153379f, -0.129009f, -0.902462f, -0.998929f, -0.998035f, -0.99864f, 0.11669f, 0.929413f, 0.756606f, -0.113285f, -0.125881f, 0.055099f, -0.031611f, 0.045868f, -0.007763f, 0.17676f, 0.036644f, -0.105813f, -0.44688f, -0.451958f, -0.013226f, -0.171183f, -0.305058f, 0.319601f, 0.752729f, -0.002889f, -0.031313f, -0.054555f, -0.036938f, -0.20595f, -0.956692f, -0.99953f, -1.0f, -1.0f, -0.942113f, 0.20292f, 0.19238f, -0.213977f, 0.182212f, 0.10266f, 0.017638f, 0.006433f, 0.173298f, 0.08237f, 0.101473f, -0.326926f, -0.891646f, -0.55496f, -0.141859f, -0.1976f, 0.240262f, 0.447558f, 0.975352f, -0.180138f, 0.08616f, 0.124554f, 0.213486f, 0.00368f, -0.997658f, -1.0f, -1.0f, -1.0f, -0.910795f, 0.050617f, -0.171864f, -0.227999f, 0.044873f, 0.089588f, -0.049359f, -0.22907f, 0.019945f, 0.153953f, 0.114343f, -1.0f, -1.0f, -1.0f, -0.13866f, -0.034968f, 0.44903f, 0.253558f, 1.0f, -0.045617f, -0.111453f, -0.122213f, -0.070409f, 0.02238f, -0.947384f, -1.0f, -1.0f, -1.0f, -0.27199f, 0.089593f, -0.038562f, -0.331091f, 0.007531f, 0.006482f, 0.023991f, -0.155164f, -0.025595f, 0.050262f, -0.256338f, -1.0f, -1.0f, -1.0f, -0.472464f, 0.384324f, 0.19482f, 0.467017f, 0.877326f, -0.073556f, -0.068522f, -0.148482f, -0.43608f, -0.672745f, -0.998968f, -1.0f, -1.0f, -1.0f, -0.172361f, 0.044883f, 0.013068f, 0.005175f, 0.06588f, -0.121716f, 0.059693f, 0.026189f, -0.129276f, -0.108536f, -0.798265f, -1.0f, -1.0f, -0.547763f, 0.178484f, 0.068408f, 0.434461f, 0.875775f, 0.953259f, 0.131941f, -0.01888f, -0.038145f, -0.307024f, -0.79257f, -0.981057f, -1.0f, -1.0f, -0.924985f, -0.055521f, 0.064105f, -0.115769f, -0.055004f, -0.001243f, -0.021551f, 0.07329f, -0.080258f, 0.023969f, -0.179741f, -0.97427f, -0.992424f, -0.764222f, -0.037901f, 0.396988f, -0.016509f, 0.332821f, 0.198973f, 1.0f, 0.207088f, -0.004576f, -0.140109f, -0.181459f, -0.438201f, -0.728681f, -0.606134f, -0.356541f, -0.111008f, 0.069017f, 0.11661f, -0.0516f, -0.040822f, 0.029354f, -0.112736f, -0.086985f, 0.075829f, 0.124195f, -0.555232f, -1.0f, -0.801008f, -0.235335f, 0.269698f, 0.232369f, -0.126658f, 0.166628f, -0.056644f, 1.0f, 0.498416f, -0.243159f, -0.282596f, -0.096542f, -0.058008f, -0.070529f, -0.076981f, -0.035942f, -0.068353f, 0.029536f, 0.140161f, 0.021368f, -0.045826f, -0.071422f, 0.017979f, -0.126791f, 0.076436f, -0.216134f, -0.995002f, -1.0f, -0.112908f, -0.023859f, -0.186034f, -0.167344f, -0.129825f, 0.140662f, 0.297115f, 1.0f, 0.916013f, -0.036252f, -0.145659f, -0.085985f, 0.027679f, 0.067736f, -0.156828f, -0.243794f, -0.284704f, -0.014375f, 0.074862f, -0.007612f, 0.109233f, 0.228897f, -0.018175f, -0.284389f, -0.444715f, -0.942165f, -0.96665f, -0.535089f, 0.043467f, 0.435877f, 0.769916f, -0.165726f, 0.021988f, 0.015043f, 0.176093f, 0.930557f, 0.983403f, 0.898196f, 0.606029f, 0.717056f, 0.235159f, 0.210667f, 0.083697f, -0.011824f, -0.195453f, -0.007929f, -0.002206f, -0.101065f, 0.029348f, 0.447229f, 0.12378f, -0.616647f, -0.931454f, -0.950421f, -0.933768f, -0.645668f, 0.143454f, -0.090007f, 0.135522f, -0.004769f, -0.03385f, 0.005858f, 0.506263f, 0.977067f, 0.955198f, 1.0f, 0.962052f, 0.890889f, 0.769165f, 0.351009f, 0.276136f, -0.137497f, -0.200168f, 0.031857f, -0.064562f, -0.093495f, -0.036991f, 0.459718f, 0.230412f, 0.046682f, -0.136524f, 0.022898f, 0.135945f, 0.262857f, -0.216281f, -0.331632f, 0.142683f, 0.024376f, -0.023541f, -0.021584f, 0.185478f, 0.314726f, 0.98092f, 0.98204f, 0.944604f, 0.846795f, 0.919243f, 0.97135f, 0.999638f, 1.0f, 1.0f, 0.99501f, 0.983641f, 0.962195f, 0.948995f, 0.978234f, 1.0f, 0.998995f, 1.0f, 1.0f, 1.0f, 0.6987f, 0.192942f, 0.33316f, 0.241653f, -0.014569f, 0.001631f, -0.014484f, 0.03286f, 0.205367f, 0.204915f, 0.66761f, 0.760676f, 0.672678f, 0.523502f, 0.667184f, 0.849452f, 0.999934f, 0.939896f, 0.732459f, 0.871627f, 0.9798f, 1.0f, 1.0f, 1.0f, 1.0f, 0.996595f, 1.0f, 0.980904f, 0.217849f, 0.202407f, -0.132462f, -0.013228f, 0.02753f, 0.026464f, 0.022025f, -0.015691f, -0.007837f, -0.048883f, 0.181964f, 0.035175f, -0.248703f, -0.025239f, -0.187465f, -0.050782f, -0.644423f, -0.146203f, -0.105952f, -0.395955f, -0.476689f, 0.405793f, 0.692746f, 0.616874f, 0.988142f, 0.936129f, 0.92006f, 0.391492f, 0.229537f, -0.017778f, 0.006016f, -0.004858f, 0.00174f},
    {-0.027963f, -0.023032f, -0.031513f, -0.026264f, 0.029314f, 0.012675f, -0.034655f, -0.006555f, 0.002272f, 0.018485f, 0.032529f, 0.00803f, 0.166901f, 0.125819f, -0.085767f, -0.102861f, 0.007633f, 0.032372f, 0.021834f, 0.034944f, -0.016687f, -0.005063f, 0.006773f, 0.028119f, -0.033424f, -0.018134f, 0.004587f, -0.021237f, 0.012747f, -0.003029f, -0.009849f, 0.01856f, -0.087931f, 0.101642f, 0.512375f, 0.407036f, 0.742496f, 0.94209f, 0.776542f, 0.5478f, 0.861433f, 0.19272f, -0.015198f, 0.308577f, 0.507011f, 0.621789f, 0.541845f, 0.40151f, 0.316827f, 0.254923f, 0.339278f, 0.355341f, 0.031301f, -0.035104f, -0.00895f, 0.027103f, 0.014856f, -0.018412f, -0.169817f, -0.13608f, -0.153942f, 0.165598f, 0.056491f, 0.179442f, 0.971191f, 1.0f, 0.971409f, 0.991154f, 1.0f, 1.0f, 0.993341f, 0.946266f, 0.022788f, -0.250003f, -0.090206f, 0.474518f, 0.995665f, 0.503142f, 0.387708f, 0.511793f, 0.327362f, 0.231006f, -0.011665f, -0.030474f, 0.00725f, 0.021645f, -0.26594f, 0.315063f, -0.236892f, 0.222902f, 0.230087f, 0.234801f, 0.70303f, 1.0f, 0.860465f, 0.975736f, 1.0f, 0.937113f, 1.0f, 0.999576f, 0.699382f, 0.862757f, 0.946593f, 0.974106f, 0.990241f, 1.0f, 0.745382f, 0.372226f, 0.148642f, 0.443093f, 0.213871f, -0.020506f, -0.017529f, 0.077515f, -0.361222f, 0.453364f, -0.500261f, -0.160026f, -0.126401f, 0.073732f, 0.473329f, 0.29931f, 0.299934f, -0.000448f, -0.172111f, -0.111998f, 0.04028f, 0.009672f, -0.024099f, 0.067154f, 0.226927f, 0.325943f, -0.000232f, -0.055483f, 0.015925f, -0.137546f, -0.331859f, -0.19253f, -0.293455f, 0.38913f, 0.005038f, -0.033863f, -0.139369f, 0.094548f, -0.234123f, 0.031263f, -0.002493f, 0.281301f, 0.530823f, 0.487992f, -0.08168f, -0.518019f, -0.454941f, -0.658171f, -0.832783f, -0.863344f, -0.590206f, -0.374383f, -0.340343f, -0.461473f, -0.681782f, -0.785929f, -0.334224f, -0.162658f, -0.534684f, -0.30073f, 0.147602f, 0.224364f, 0.000901f, 0.21264f, -0.42519f, -0.060757f, -0.114048f, -0.061671f, -0.096909f, 0.131302f, -0.153391f, -0.088759f, -0.017588f, 0.007247f, 0.08331f, -0.133218f, -0.500137f, -0.145349f, 0.079061f, 0.127144f, 0.054201f, -0.003762f, -0.161642f, -0.453464f, -0.351483f, -0.099972f, -0.502777f, -0.281209f, 0.159615f, 0.472888f, -0.157146f, -0.115813f, 0.052712f, -0.096425f, -0.225975f, -0.420276f, -0.26055f, -0.286311f, -0.232018f, -0.023674f, 0.025517f, -0.088758f, -0.14609f, -0.04177f, -0.025778f, 0.002759f, 0.001923f, 0.028081f, -0.058738f, -0.045071f, 0.025473f, 0.007138f, -0.125462f, -0.456419f, -0.881136f, -1.0f, -0.917727f, -0.278636f, -0.406727f, 0.133694f, -0.458345f, -0.131416f, -0.038098f, -0.281872f, -0.237848f, -0.410935f, -0.114201f, -0.024924f, -0.036047f, -0.208018f, -0.178148f, -0.015939f, -0.625994f, -0.931213f, -0.819157f, -0.982565f, -0.81508f, -0.477708f, 0.061154f, 0.074111f, -0.022886f, -0.946239f, -1.0f, -1.0f, -1.0f, -0.333306f, -0.380706f, -0.159355f, -0.404978f, -0.330833f, -0.482755f, -0.43523f, -0.170769f, 0.019057f, -0.161703f, 0.09444f, 0.050119f, -0.173952f, -0.099732f, -0.731499f, -1.0f, -0.986987f, -0.98617f, -0.942303f, -0.889771f, -0.761342f, -0.341546f, -0.256551f, -0.521404f, -1.0f, -1.0f, -1.0f, -1.0f, 0.01384f, -0.129262f, -0.031506f, -0.052672f, -0.362688f, -0.794074f, -0.416288f, -0.142562f, -0.027727f, -0.035066f, 0.035297f, -0.118817f, 0.011338f, -0.105106f, -1.0f, -1.0f, -0.988449f, -0.975381f, -0.510126f, -0.58869f, -0.562602f, -0.32756f, -0.070131f, -0.789221f, -1.0f, -1.0f, -0.941529f, -0.999107f, -0.227681f, 0.098494f, -0.339701f, -0.786474f, -0.790295f, -0.9608f, -0.03136f, 0.018067f, 0.002254f, -0.086192f, 0.016913f, -0.111483f, 0.011408f, -0.067485f, -1.0f, -0.998958f, -0.999122f, 0.564887f, 0.966736f, 0.322666f, -0.009706f, 0.037164f, 0.228053f, -0.239548f, -1.0f, -1.0f, -0.985158f, -0.955807f, -0.052444f, 0.038968f, -0.60034f, -1.0f, -0.993195f, -0.823448f, -0.161697f, 0.412389f, 0.355698f, -0.055869f, 0.03065f, 0.262827f, 0.04679f, -0.006725f, -0.644285f, -0.995449f, 0.037774f, 0.980954f, 0.996882f, 0.909004f, 0.218719f, 0.018085f, 0.309307f, 0.417946f, 0.01372f, -0.207451f, -0.134126f, -0.721205f, 0.097244f, -0.16763f, -0.585536f, -1.0f, -0.988915f, -0.399335f, -0.058366f, 0.800743f, 0.775713f, 0.675748f, 0.803555f, 0.907223f, 0.672345f, 0.053017f, -0.098835f, -0.307683f, 0.810439f, 1.0f, 1.0f, 0.992075f, 0.469327f, 0.1599f, 0.489161f, 0.832005f, 0.740702f, 0.36759f, 0.875939f, 0.153356f, 0.551526f, -0.111988f, -0.106004f, -0.986159f, -0.440879f, 0.357402f, 0.017319f, 0.963342f, 0.997579f, 0.899189f, 1.0f, 0.998059f, 0.978362f, 0.966812f, 0.255645f, -0.028032f, 0.982759f, 1.0f, 1.0f, 0.914634f, 0.523588f, 0.173715f, 0.206348f, 0.576203f, 0.637339f, 0.437089f, 0.975374f, 0.279013f, 0.149949f, 0.006468f, 0.301636f, -0.333944f, 0.329129f, 0.762441f, -0.026066f, 1.0f, 1.0f, 1.0f, 1.0f, 1.0f, 1.0f, 0.99613f, 0.10366f, 0.004289f, 0.995738f, 1.0f, 1.0f, 0.931526f, 0.010305f, -0.135013f, 0.001274f, 0.389334f, 0.497501f, 0.512145f, 0.997169f, 0.471991f, -0.338013f, 0.204263f, -0.008134f, 0.226295f, 0.36482f, 0.456177f, 0.033105f, 0.821923f, 0.99994f, 0.963537f, 1.0f, 1.0f, 1.0f, 1.0f, -0.028788f, 0.339317f, 1.0f, 1.0f, 1.0f, 0.579323f, -0.134422f, -0.061324f, 0.003109f, 0.342291f, 0.348598f, 0.680166f, 1.0f, 0.945349f, -0.017476f, 0.009653f, -0.157795f, 0.114841f, 0.287107f, -0.039963f, -0.213766f, 0.128344f, 0.690093f, 0.87834f, 0.890934f, 1.0f, 1.0f, 0.681271f, 0.117415f, 0.65971f, 0.998358f, 1.0f, 0.503915f, 0.377935f, 0.042426f, 0.014684f, 0.045537f, 0.176565f, 0.52728f, 0.675619f, 1.0f, 0.873852f, 0.209359f, 0.063378f, 0.065336f, -0.280524f, 0.189871f, 0.121075f, -0.257758f, -0.199393f, -0.052974f, 0.100733f, 0.341164f, 1.0f, 0.765966f, 0.150246f, 0.00105f, 0.420298f, 0.360232f, 0.236354f, 0.155079f, 0.067761f, 0.056321f, 0.092317f, 0.044033f, 0.059228f, 0.133311f, 0.118026f, 1.0f, 0.092412f, -0.109798f, 0.051122f, 0.081431f, -0.599078f, -0.129459f, 0.190616f, 0.083847f, -0.119418f, -0.266827f, -0.450766f, -0.643824f, -0.219507f, -0.058303f, -0.025503f, -0.101473f, 0.073415f, 0.057818f, 0.192571f, 0.10379f, -0.077068f, 0.01527f, 0.120452f, 0.283326f, 0.165816f, -0.08824f, 0.170498f, 0.380764f, -0.662715f, -0.179606f, -0.020277f, 0.292577f, -0.212313f, -0.284192f, 0.011813f, -0.014327f, 0.101979f, 0.010372f, -0.473713f, -0.958042f, -0.970735f, -0.781075f, -0.244181f, 0.133141f, 0.140658f, 0.02022f, 0.445914f, 0.341435f, 0.153717f, 0.227872f, 0.046835f, 0.210127f, 0.094257f, -0.02061f, -0.103028f, 0.08253f, -0.172365f, 0.198797f, 0.110911f, -0.163434f, -0.062715f, -0.030959f, -0.282788f, -0.37069f, 0.006813f, 0.150477f, -0.219169f, -0.079864f, -0.308538f, -0.533088f, -0.18201f, -0.035038f, -0.083878f, -0.079852f, -0.028112f, 0.101786f, 0.182254f, 0.036651f, -0.230746f, 0.163901f, 0.087439f, 0.00319f, -0.197642f, -0.207496f, -0.080211f, -0.195913f, 0.129105f, -0.045761f, 0.515266f, 0.438453f, -0.031181f, -0.160701f, -0.137266f, -0.318003f, -0.210883f, 0.037371f, -0.048957f, -0.643002f, -1.0f, -0.984667f, -0.99604f, -1.0f, -1.0f, -0.377895f, -0.061451f, -0.072056f, -0.049169f, 0.467774f, 0.885181f, 0.642627f, 0.129231f, -0.965405f, -0.227659f, -0.174917f, 0.006855f, 0.030695f, 0.676468f, 0.392917f, -0.383505f, -0.265335f, 0.079382f, -0.071502f, 0.066621f, -0.031405f, -0.077658f, -1.0f, -0.987506f, -0.982756f, -0.982344f, -1.0f, -1.0f, -0.807036f, -0.150579f, 0.438389f, 0.965536f, 1.0f, 1.0f, 1.0f, 0.566822f, 0.11424f, 0.147464f, -0.001214f, 0.017813f, -0.030865f, 0.790393f, 0.9106f, 0.088144f, -0.114018f, -0.020285f, -0.09326f, -0.23357f, -0.205956f, -0.093706f, -0.058729f, -0.213901f, -0.454054f, -0.737669f, -0.952015f, -0.715171f, 0.149891f, 0.570801f, 0.976146f, 1.0f, 1.0f, 1.0f, 1.0f, 0.635947f, 0.563449f, 0.188263f, -0.036141f, -0.003083f, -0.006696f, 0.475264f, 0.519041f, 0.95107f, 0.929037f, 1.0f, 0.775649f, 0.117163f, -0.044947f, 0.049672f, -0.164301f, 0.052349f, -0.033672f, -0.531623f, -0.810427f, -0.254784f, 0.063826f, 0.335062f, 0.754714f, 1.0f, 1.0f, 0.959545f, 1.0f, 0.538807f, 0.289366f, 0.227052f, 0.003961f, -0.025167f, 0.024291f, 0.032764f, 0.165611f, 0.863883f, 0.633361f, 0.223999f, 0.15163f, -0.047547f, -0.690504f, -0.999786f, -0.924193f, -0.639722f, -0.730775f, -0.731306f, -1.0f, -1.0f, -1.0f, -1.0f, -0.998835f, -0.164979f, -0.137141f, -0.567104f, -0.295321f, -0.206882f, 0.110706f, 0.021724f, 0.014294f, 0.014133f, 0.009443f, -0.028048f, -0.022201f, 0.127964f, -0.100123f, -0.11258f, 0.08982f, -0.028334f, -0.033025f, -0.265614f, 0.480335f, 0.579563f, -0.139939f, 0.052139f, 0.201924f, -0.99536f, -1.0f, -1.0f, -0.860855f, -0.17262f, -0.364281f, -0.528369f, -0.288708f, -0.036184f, -0.003513f, 0.000669f, -0.017273f},
    {0.031065f, -0.006584f, -0.031154f, -0.018428f, 0.004041f, -0.023681f, 0.011054f, 0.037639f, 0.004358f, -0.005902f, 0.036543f, 0.029262f, -0.280365f, -0.304933f, -0.082795f, -0.107886f, 0.006531f, 0.037634f, 0.004784f, -0.028975f, 0.022498f, 0.034948f, 0.032837f, 0.00458f, 0.009605f, 0.008676f, -0.011742f, -0.002315f, 0.032032f, 0.00654f, 0.036556f, -0.020821f, -0.098445f, -0.296021f, -0.293457f, -0.414429f, -0.582403f, -0.864735f, -0.862322f, -0.92498f, -0.990642f, -0.892849f, -0.466245f, -0.695864f, -1.0f, -0.997024f, -0.755384f, -0.163118f, 0.36995f, -0.002791f, -0.356659f, -0.402338f, 0.004645f, 0.000132f, 0.015848f, 0.019567f, -0.014864f, -0.011172f, 0.161663f, -0.109391f, 0.098587f, -0.307535f, -0.507611f, -1.0f, -1.0f, -1.0f, -1.0f, -1.0f, -1.0f, -0.997726f, -1.0f, -0.860921f, -0.766415f, -0.39625f, -0.040534f, 0.043827f, 0.503949f, 0.045716f, -0.022569f, -0.084669f, 0.255855f, 0.412828f, -0.017671f, 0.02241f, 0.035669f, -0.007971f, 0.221236f, -0.31688f, -0.040897f, -0.531028f, -0.74329f, -1.0f, -1.0f, -1.0f, -1.0f, -1.0f, -1.0f, -1.0f, -0.999332f, -0.887862f, -0.811822f, -0.760501f, -0.085319f, 0.28106f, 0.423545f, 0.037012f, 0.412985f, -0.174001f, -0.076025f, 0.372809f, -0.240628f, -0.002083f, -0.00805f, 0.057575f, 0.247967f, 0.074676f, -0.104589f, -0.130896f, 0.315771f, 0.002689f, -0.039531f, -0.174979f, -0.19402f, -0.042178f, -0.06045f, -0.037235f, -0.087595f, -0.139275f, -0.03111f, -0.204356f, -0.137425f, -0.272268f, -0.162501f, 0.015051f, -0.071145f, -0.054954f, 0.278326f, 0.363206f, -0.378186f, -0.281486f, 0.000789f, 0.019584f, 0.51705f, -0.295631f, -0.19008f, 0.160125f, 0.16052f, -0.008456f, -0.245969f, -0.139497f, -0.526622f, -0.510825f, -0.3429f, -0.179377f, -0.005005f, -0.011681f, 0.053385f, 0.003396f, -0.202436f, -0.000895f, 0.015834f, -0.178074f, -0.18948f, -0.051252f, 0.247531f, 0.171302f, -0.630535f, 0.117929f, 0.008141f, 0.054833f, -0.098445f, -0.408317f, -0.122396f, 0.089122f, 0.146038f, -0.091669f, -0.345093f, 0.033993f, -0.130019f, 0.018792f, -0.057883f, -0.026614f, -0.052206f, -0.112949f, 0.020509f, 0.073926f, -0.03142f, 0.150224f, -0.040638f, 0.305196f, 0.159795f, 0.290939f, -0.264332f, -0.845646f, -0.993862f, -0.386282f, -0.178435f, -0.227221f, -0.258326f, -0.088671f, 0.023278f, 0.318263f, -0.049057f, 0.125598f, 0.155409f, 0.212472f, 0.301459f, 0.159824f, 0.10374f, -0.084059f, -0.467343f, -0.079085f, 0.049393f, -0.068044f, 0.029537f, -0.080809f, -0.093732f, -0.064076f, 0.127901f, 0.257935f, -0.517571f, -0.940544f, -0.948627f, -0.219474f, -0.40371f, -0.980952f, -0.204593f, 0.137826f, 0.013497f, 0.13932f, 0.229502f, 0.290408f, 0.344133f, 0.631152f, 0.438348f, -0.054783f, -0.447821f, -0.37987f, -0.443193f, -0.161743f, -0.182557f, -0.322326f, -0.2699f, -0.2098f, -0.196649f, 0.157f, 0.776021f, 0.563227f, -0.174243f, -0.960796f, -0.97534f, -0.137116f, -0.012412f, -0.385592f, 0.087668f, 0.064205f, -0.263351f, -0.015201f, 0.141182f, 0.131689f, 0.263578f, 0.066413f, 0.202743f, 0.243736f, 0.608893f, 0.012085f, -0.162024f, -0.037583f, -0.018183f, -0.002434f, -0.070465f, -0.015879f, 0.28986f, 0.888329f, 0.910111f, 0.969935f, 0.313132f, -0.496139f, -0.454489f, -0.2943f, -0.047747f, -0.684416f, 0.173841f, -0.145663f, 0.12287f, 0.139431f, 0.076014f, 0.100481f, 0.356867f, 0.620327f, 1.0f, 0.990073f, 0.941564f, 0.621944f, -0.518228f, -0.245281f, 0.536317f, 0.962676f, 0.900297f, 0.544785f, 0.473905f, 0.962053f, 0.991758f, 1.0f, 1.0f, 0.507984f, -0.352227f, 0.072356f, -0.148061f, -0.656224f, 0.574779f, 0.345819f, 0.430212f, 0.677012f, 0.453593f, 0.736761f, 0.898695f, 1.0f, 1.0f, 0.991132f, 0.924116f, 0.867667f, -0.679219f, -0.108353f, 0.989304f, 0.9809f, 0.971678f, 0.015139f, -0.043794f, 0.760333f, 0.867702f, 0.718426f, 0.974833f, 0.45561f, 0.286102f, 0.020481f, -0.254115f, 0.125039f, 0.748292f, 0.970441f, 0.999004f, 1.0f, 0.689695f, 0.640671f, 0.76407f, 1.0f, 1.0f, 1.0f, 0.963527f, 0.523476f, -0.702075f, 0.415308f, 1.0f, 0.99802f, 0.917539f, -0.076866f, -0.045674f, 0.412078f, 0.171551f, -0.143416f, -0.071596f, -0.146678f, 0.228477f, -0.28289f, 0.215837f, 0.680558f, 0.6332f, 1.0f, 1.0f, 0.984518f, 0.707351f, 0.190296f, 0.08405f, 0.496325f, 1.0f, 1.0f, 1.0f, 0.226784f, -0.837602f, 0.3719f, 0.999724f, 0.996994f, 0.904695f, -0.002121f, 0.330499f, 0.159417f, -0.327612f, -1.0f, -1.0f, -0.458406f, 0.285371f, 0.171268f, 0.133394f, 0.097761f, 0.642117f, 0.997882f, 0.981307f, 0.925501f, 0.509136f, -0.035322f, -0.182706f, -0.034995f, 0.239918f, 0.732353f, 0.575912f, -0.185823f, -0.822265f, 0.494729f, 0.996706f, 0.999377f, 0.594544f, 0.040361f, -0.141984f, -0.369151f, -0.625892f, -1.0f, -1.0f, -1.0f, 0.452824f, -0.137284f, 0.011993f, -0.098066f, 0.421138f, 0.923367f, 0.950023f, 0.302163f, 0.147986f, -0.045555f, -0.089468f, -0.188443f, -0.446247f, 0.109771f, 0.460626f, -0.267288f, -0.057975f, 0.982764f, 0.99214f, 0.994749f, 0.012018f, -0.312509f, -0.322962f, -0.278623f, -0.687015f, -1.0f, -1.0f, -1.0f, -0.241371f, 0.244792f, -0.177375f, -0.374543f, 0.536078f, 0.245384f, 0.321713f, 0.053179f, 0.057899f, 0.228774f, 0.62105f, 0.42539f, -0.022735f, 0.29211f, 0.877141f, 0.808566f, 0.234251f, 0.957861f, 0.963216f, 0.829983f, -0.431183f, -0.856325f, -0.501859f, -0.130574f, -0.601681f, -1.0f, -1.0f, -1.0f, 0.172993f, 0.343171f, 0.01597f, -0.226518f, -0.11966f, -0.71942f, -0.834134f, -0.012311f, -0.023124f, 0.154112f, 0.821885f, 0.874475f, 0.797831f, 0.786025f, 0.974203f, 0.834422f, 0.317203f, 0.940972f, 0.952461f, -0.047189f, -0.705678f, -1.0f, -0.723921f, -0.431553f, -0.635654f, -1.0f, -1.0f, -0.894402f, -0.208897f, -0.132383f, 0.35473f, 0.252216f, 0.025119f, -0.88356f, -1.0f, -0.422106f, -0.021828f, 0.060423f, -0.095005f, -0.012145f, -0.345772f, -0.204751f, -0.015711f, -0.256935f, -0.023856f, 0.008005f, -0.13767f, -0.324825f, -0.69593f, -0.537891f, -0.535542f, -0.494362f, -0.857672f, -0.959362f, -0.915836f, -0.328066f, 0.787846f, 0.172586f, 0.042034f, 0.340145f, 0.289509f, -0.658343f, -1.0f, -0.83032f, -0.467221f, -0.022277f, -0.567874f, -1.0f, -1.0f, -1.0f, -0.998514f, -1.0f, -0.298272f, -0.334635f, -0.03646f, -0.125008f, -0.12413f, -0.196812f, -0.401821f, -0.11443f, -0.431863f, -0.582646f, -0.606577f, 0.008473f, 0.555684f, 0.142098f, -0.011637f, 0.039762f, 0.382445f, -0.356596f, -1.0f, -0.699488f, -0.297424f, -0.151693f, -0.681814f, -0.908483f, -1.0f, -0.998498f, -0.891947f, -0.478702f, -0.085428f, -0.034509f, -0.030646f, -0.110138f, -0.010805f, 0.079749f, -0.133767f, -0.026199f, 0.121567f, -0.392871f, -0.786583f, -0.419808f, 0.088322f, 0.227292f, 0.167222f, 0.260525f, 0.278636f, -0.098775f, -0.758402f, -0.160342f, 0.158417f, -0.020106f, -0.05769f, -0.31714f, -0.185216f, -0.186233f, -0.0876f, -0.01373f, -0.109932f, -0.260038f, -0.24053f, -0.074592f, 0.002908f, -0.05185f, -0.433846f, -0.011647f, 0.205314f, -0.316072f, -0.693911f, -0.838341f, -0.688286f, 0.216641f, 0.134008f, 0.042029f, 0.062065f, -0.795314f, -0.738538f, -0.291324f, 0.04258f, -0.077266f, 0.045702f, -0.401678f, -0.08711f, 0.079444f, 0.345552f, 0.031656f, -0.004451f, 0.001134f, -0.151661f, -0.010531f, 0.002453f, -0.004768f, -0.303782f, -0.011786f, 0.06305f, 0.045668f, -0.136481f, -0.766974f, -0.474896f, 0.197627f, 0.033518f, 0.024448f, -0.058395f, -0.816342f, -0.997092f, -0.944928f, -0.794979f, -0.380202f, -0.335976f, -0.460409f, -0.346193f, -0.118098f, 0.000102f, -0.010248f, 0.47697f, 0.318709f, 0.118164f, 0.43151f, 0.969622f, 1.0f, 1.0f, 0.785557f, 0.466599f, 0.634713f, 0.430002f, -0.288252f, -0.072854f, -0.01652f, 0.014074f, 0.036586f, 0.413587f, -0.360525f, -0.164602f, -0.406494f, -0.052769f, 0.035216f, -0.097566f, -0.281574f, -0.147674f, -0.009026f, -0.477588f, -0.366503f, 0.125512f, 0.056684f, 0.414628f, 0.946506f, 1.0f, 1.0f, 1.0f, 0.998083f, 1.0f, 1.0f, 0.565261f, -0.077721f, -0.092654f, 0.002687f, -0.02306f, -0.011459f, 0.220982f, 0.325116f, 0.619555f, 1.0f, 1.0f, 0.978537f, 0.31558f, -0.144195f, -0.056131f, 0.052771f, -0.322939f, 0.156202f, 0.551145f, 0.206888f, 0.259142f, 0.983729f, 0.833306f, 0.885297f, 1.0f, 1.0f, 1.0f, 1.0f, 0.95196f, -0.065523f, -0.242104f, 0.00867f, -0.006976f, 0.014676f, 0.013686f, 0.142994f, 0.302398f, 0.777961f, 0.994633f, 0.538184f, -0.298854f, -0.486898f, -0.446381f, -0.50458f, -0.94873f, -0.974141f, -0.609391f, -0.412369f, -0.603814f, -0.196629f, 0.57708f, 0.814335f, 0.991251f, 1.0f, 0.996357f, 0.252406f, -0.206459f, 0.119156f, -0.000191f, 0.034774f, -0.00075f, -0.01809f, 0.009483f, -0.016008f, -0.136248f, 0.177867f, -0.193905f, -0.505156f, -0.294504f, -0.144441f, 0.293584f, -0.117216f, -0.481804f, -0.875967f, -0.64177f, -0.403379f, -0.049194f, 0.104293f, 0.288517f, 0.715925f, 0.431053f, 0.593427f, 0.231055f, -0.069544f, 0.018421f, -0.011793f, 0.007913f, -0.031242f},
    {0.006664f, 0.031981f, 0.031965f, 0.000359f, 0.013877f, -0.004998f, -0.009096f, 0.001616f, -0.019874f, 0.015309f, 0.018438f, -0.008752f, 0.134091f, 0.113779f, -0.079959f, -0.066068f, 0.034836f, -0.032722f, -0.029181f, 0.001939f, 0.033935f, 0.003228f, 0.010843f, 0.006f, -0.003342f, 0.026419f, 0.027146f, -0.019661f, -0.020459f, -0.026841f, -0.007756f, 0.000125f, -0.083041f, -0.195521f, 0.455649f, 0.929983f, 1.0f, 0.990171f, 0.629321f, 0.625804f, 0.88115f, 0.512392f, 0.167653f, 0.234476f, 0.514994f, 0.629295f, 0.291518f, 0.20315f, 0.226987f, 0.422486f, 0.585441f, 0.373337f, 0.0233f, -0.026701f, -0.033334f, 0.00492f, 0.0113f, -0.026543f, -0.109989f, 0.302712f, -0.223948f, 0.334641f, 0.209376f, 0.965986f, 1.0f, 1.0f, 1.0f, 0.998793f, 1.0f, 1.0f, 1.0f, 0.598982f, 0.407509f, -0.167334f, -0.427056f, -0.344841f, 0.02384f, 0.266945f, 0.530349f, 0.269154f, 0.105548f, 0.018029f, 0.013386f, -0.010807f, -0.029882f, 0.00652f, -0.393979f, 0.398842f, 0.521588f, 0.128187f, 0.369913f, 1.0f, 1.0f, 1.0f, 0.868572f, 0.706738f, 0.95435f, 0.660686f, 0.8796f, 0.94267f, 0.677344f, 0.765149f, 0.614687f, 0.806834f, 0.1829f, -0.03838f, 0.278894f, 0.36559f, 0.153689f, 0.016701f, 0.154103f, 0.009478f, 0.031901f, -0.039763f, -0.044424f, 0.18112f, 0.555413f, 0.493324f, 0.098529f, 0.191738f, 0.346093f, 0.075188f, 0.003506f, -0.040571f, 0.145458f, -0.021101f, 0.006031f, 0.157591f, 0.045034f, 0.298369f, -0.065451f, -0.207152f, -0.043725f, -0.066482f, -0.466591f, -0.680478f, -0.773932f, -0.155304f, 0.434082f, 0.480961f, -0.002828f, -0.010364f, 0.336104f, 0.197455f, 0.372941f, 0.568075f, -0.59731f, -0.061944f, -0.055996f, -0.290817f, -0.144225f, -0.001028f, -0.037431f, -0.037233f, 0.069187f, -0.048351f, 0.216737f, 0.483832f, 0.36859f, -0.086281f, 0.012679f, 0.199836f, -0.014177f, -0.710952f, -1.0f, -0.938114f, -0.109915f, 0.640981f, -0.016406f, -0.04002f, 0.191378f, 0.156244f, 0.108266f, -0.088972f, -0.225843f, -0.083119f, -0.207883f, -0.006119f, 0.060394f, 0.036112f, 0.000251f, 0.005318f, -0.104306f, 0.072743f, -0.066571f, 0.052106f, -0.221222f, 0.030133f, 0.008586f, 0.015875f, -0.024061f, -0.605215f, -0.949384f, -0.952143f, -0.530341f, 0.262064f, 0.173373f, -0.386976f, 0.74639f, 0.023606f, 0.341871f, 0.022316f, 0.025554f, -0.095135f, 0.130139f, 0.070266f, -0.016265f, -0.060604f, -0.036749f, -0.031873f, -0.072208f, 0.011316f, -0.000738f, -0.036421f, -0.046837f, -0.01731f, 0.160744f, 0.203046f, 0.297505f, -0.129516f, -0.847334f, -0.946572f, -0.557454f, 0.076447f, 0.380363f, 0.464103f, 0.917965f, 0.12105f, 0.277051f, -0.244402f, -0.073081f, -0.013657f, -0.106516f, 0.007499f, 0.014322f, 0.072991f, 0.05652f, 0.089167f, -0.011265f, -0.159016f, -0.017244f, -0.062131f, -0.004765f, -0.001213f, -0.10714f, 0.076773f, 0.155053f, -0.308567f, -0.977216f, -0.956969f, -0.794513f, 0.135295f, 0.565027f, 0.411284f, -0.016625f, -0.213014f, 0.027418f, -0.23505f, -0.033047f, 0.074944f, 0.014191f, -0.130844f, -0.197642f, -0.035768f, 0.023248f, 0.14789f, 0.029829f, -0.262297f, -0.00496f, -0.028645f, -0.15272f, -0.343805f, -0.387421f, -0.063897f, 0.033775f, -0.208604f, -0.96437f, -0.985111f, -0.697345f, -0.173231f, 0.546556f, 0.609076f, -0.102301f, -0.627115f, -0.162219f, 0.022681f, 0.179228f, 0.020113f, 0.023263f, -0.008132f, 0.044774f, 0.006886f, 0.164428f, 0.240285f, -0.033529f, -0.448583f, -0.095329f, 0.015275f, 0.00951f, -0.024493f, 0.177727f, 0.577826f, 0.954665f, 0.92111f, 0.171436f, -0.62829f, -0.403736f, 0.083707f, 0.44243f, 1.0f, 0.161815f, -0.543154f, -0.066966f, 0.022007f, 0.060941f, 0.151054f, 0.120018f, 0.241134f, -0.011584f, -0.339374f, 0.062016f, 0.288557f, 0.057871f, -0.02168f, -0.028449f, 0.143346f, 0.263043f, 0.61239f, 1.0f, 1.0f, 1.0f, 1.0f, 1.0f, 0.639005f, 0.576151f, -0.006915f, 0.402547f, 0.808335f, -0.02877f, 0.041415f, 0.118979f, -0.431905f, -0.22648f, -0.020206f, 0.114659f, -0.048692f, -0.780086f, -0.98464f, 0.01356f, 0.656529f, 0.987559f, 0.95093f, 0.119772f, 0.075107f, 0.1746f, 0.901847f, 1.0f, 1.0f, 1.0f, 1.0f, 0.96468f, 1.0f, 0.932993f, -0.419726f, 0.241624f, 0.255349f, 0.394292f, 0.44758f, -0.00164f, -0.928188f, -0.535656f, -0.245071f, 0.021164f, -0.710879f, -1.0f, -0.977459f, 0.43551f, 0.993813f, 0.996986f, 1.0f, 0.625692f, -0.282139f, -0.389689f, -0.142017f, -0.044642f, 0.482303f, 0.795821f, 0.339376f, 0.2674f, 0.722532f, 0.772198f, -0.065261f, 0.098381f, 0.437716f, 0.57559f, 0.464156f, -0.209734f, -0.986853f, -0.483569f, -0.276516f, -0.288366f, -0.982725f, -0.985885f, -0.524924f, 1.0f, 1.0f, 1.0f, 1.0f, 0.061884f, -0.952985f, -0.96199f, -0.881819f, -0.420928f, -0.260304f, 0.087114f, -0.155044f, -0.221591f, 0.955642f, 0.851804f, 0.098375f, 0.260908f, 0.331422f, -0.002996f, 0.426695f, -0.161165f, -0.551841f, -0.262148f, -0.085105f, -0.704505f, -0.975398f, -0.719612f, 1.0f, 1.0f, 1.0f, 1.0f, 1.0f, -0.965857f, -0.969019f, -0.98442f, -0.969676f, -0.334144f, -0.09149f, -0.049138f, -0.501871f, -0.333051f, 0.922309f, 0.548176f, 0.120186f, 0.190881f, 0.036987f, -0.511119f, -0.335038f, -0.174946f, -0.143261f, 0.036706f, -0.16835f, -0.680024f, -0.209181f, 1.0f, 1.0f, 1.0f, 1.0f, 0.948274f, -0.028391f, -0.981456f, -0.98532f, -0.887529f, -0.346704f, -0.006851f, -0.001016f, -0.037719f, -0.321991f, 0.242308f, 1.0f, 0.902391f, 0.217692f, 0.003313f, -0.396153f, -0.408121f, -1.0f, -0.200801f, -0.116986f, -0.291656f, -0.364602f, -0.030246f, 1.0f, 1.0f, 1.0f, 1.0f, 0.994233f, 0.911363f, -0.371976f, -0.484449f, -0.271888f, -0.030246f, -0.038055f, 0.036334f, 0.04824f, 0.006392f, 0.027586f, 0.724783f, 1.0f, 1.0f, 0.448951f, 0.085542f, -0.18411f, -0.199931f, -0.732642f, -0.262401f, -0.256495f, -0.854114f, -0.729241f, 0.579241f, 0.99509f, 1.0f, 1.0f, 1.0f, 0.998242f, 0.685175f, -0.013498f, 0.02308f, 0.012495f, 0.024699f, -0.340234f, -0.133791f, 0.022015f, -0.08014f, 0.291926f, 0.701511f, 0.99662f, 0.337376f, 0.469023f, 0.087233f, -0.055107f, -0.558883f, -0.834342f, -0.601271f, -0.465249f, -0.948129f, -0.702538f, 0.819993f, 0.994547f, 0.998328f, 1.0f, 1.0f, 0.73152f, -0.118725f, 0.059339f, 0.02351f, -0.089322f, -0.032961f, -0.220416f, -0.104012f, -0.142785f, -0.429642f, 0.115472f, 0.556104f, 0.991032f, 0.704923f, 0.357771f, 0.005981f, -0.212357f, -0.777915f, -1.0f, -0.939491f, -0.385419f, -0.566789f, -0.345256f, 0.255439f, 0.996832f, 0.99551f, 0.903463f, 0.82325f, -0.031518f, -0.006958f, 0.207938f, 0.026356f, -0.065278f, 0.108446f, 0.135632f, -0.001723f, -0.140818f, -0.231226f, 0.4822f, 0.647141f, 0.445156f, -0.024054f, 0.220753f, -0.161769f, 0.390475f, -0.425268f, -1.0f, -0.987485f, -0.250721f, -0.178559f, 0.013737f, -0.006258f, 0.256044f, 0.164798f, -0.08083f, -0.191724f, 0.0408f, 0.115586f, 0.022498f, -0.031033f, 0.234814f, 0.630299f, 0.415032f, 0.233677f, 0.134596f, 0.304551f, 0.62434f, 0.736395f, -0.098387f, -0.373808f, 0.180433f, -0.170066f, -0.083788f, -0.274869f, -1.0f, -0.993184f, -0.051891f, 0.657726f, 0.240372f, 0.136598f, -0.104561f, -0.333597f, -0.512894f, -0.238176f, 0.01137f, 0.096908f, -0.11435f, 0.135134f, 0.306655f, 0.459931f, 0.50448f, 0.971137f, 0.896855f, 0.814843f, 0.477169f, 0.152171f, 0.058879f, -0.258251f, 0.17034f, 0.03556f, 0.028675f, 0.440379f, -0.999642f, -0.977044f, -0.248193f, 0.719893f, 0.110194f, 0.101044f, 0.126222f, -0.037103f, 0.060239f, 0.132143f, 0.152516f, 0.018632f, 0.016005f, 0.003897f, 0.099019f, 0.365153f, 0.941884f, 1.0f, 0.939821f, 0.782697f, 0.272494f, 0.193149f, 0.472357f, 0.642067f, 0.019417f, -0.005488f, -0.000812f, 0.299109f, -0.479291f, -1.0f, -1.0f, -0.940752f, -0.814703f, -0.747427f, -0.428709f, -0.003017f, -0.023541f, 0.046338f, -0.106285f, 0.28244f, -0.00078f, -0.246738f, -0.003272f, 0.03547f, -0.280627f, 0.102344f, 0.645364f, 0.628951f, -0.075212f, -0.084301f, -0.223755f, -0.089152f, 0.029548f, -0.002203f, -0.022531f, -0.093495f, -0.234769f, -1.0f, -1.0f, -0.957846f, -0.880289f, -0.847603f, -0.875137f, -0.95453f, -0.988368f, -0.983446f, -0.893871f, -0.664446f, -0.813986f, -0.5903f, -0.203681f, -0.429783f, -0.396394f, -0.261492f, 0.031929f, -0.268527f, -0.222433f, -0.248045f, 0.222108f, 0.244221f, 0.002675f, 0.006379f, 0.027027f, -0.032653f, -0.183208f, -0.978236f, -0.999904f, -0.973602f, -0.883473f, -0.740406f, 0.202269f, 0.182905f, -0.11945f, 0.022041f, -0.06191f, -0.061683f, 0.04078f, -0.049656f, 0.157357f, -0.149183f, -0.130372f, -0.070037f, -0.310429f, -0.363254f, 0.433418f, 0.265065f, -0.085937f, 0.021743f, -0.010019f, 0.019469f, 0.011951f, -0.021895f, -0.00627f, 0.023953f, 0.100093f, -0.028387f, -0.020572f, 0.038177f, 0.204897f, 0.378715f, 0.528372f, 0.059979f, 0.205161f, 0.779028f, 0.930792f, 0.754205f, -0.022698f, 0.063112f, 0.686277f, 1.0f, 0.745138f, 0.126933f, -0.040871f, -0.014295f, 0.027166f, 0.032109f, 0.00442f},
    {0.00019f, -0.027473f, 0.020874f, -0.010316f, 0.00308f, -0.007559f, 0.012071f, 0.008044f, -0.008518f, -0.006018f, -0.000393f, -0.028587f, 0.25655f, 0.275914f, 0.107816f, 0.05322f, -0.004069f, 0.024366f, 0.002867f, 0.032347f, 0.006882f, 0.016549f, 0.005175f, -0.020517f, -0.033787f, -0.014481f, 0.027656f, 0.017973f, -0.011955f, -0.022503f, 0.034883f, 0.003585f, 0.074417f, 0.203498f, 0.587102f, 0.548099f, 0.598956f, 0.494942f, 0.607939f, 0.998873f, 1.0f, 1.0f, 0.918263f, 0.356604f, -0.083996f, -0.168249f, -0.052769f, 0.025644f, -0.138239f, -0.397799f, 0.207139f, 0.358746f, -0.028182f, 0.004629f, -0.015939f, 0.024774f, 0.030943f, -0.008664f, -0.144821f, 0.137058f, 0.714799f, 0.318448f, 0.262008f, 0.296105f, 0.268362f, -0.547289f, -0.493422f, 0.278291f, 0.278102f, -0.30126f, -0.191524f, -0.060511f, -0.505802f, -0.917978f, -0.962417f, -0.791364f, -0.98119f, -0.994423f, -1.0f, -0.799663f, -0.524399f, -0.265626f, 0.025419f, -0.001768f, -0.018781f, 0.030308f, 0.052042f, 0.054818f, 0.022644f, -0.218678f, 0.095308f, -0.041694f, -0.496167f, -1.0f, -0.971193f, -0.314786f, -0.082273f, 0.212345f, -0.10516f, -0.793287f, -0.877664f, -0.86896f, -0.975363f, -0.996134f, -1.0f, -1.0f, -1.0f, -0.989704f, -0.254467f, -0.303751f, -0.223992f, 0.015338f, -0.030917f, 0.041713f, 0.15309f, -0.042194f, -0.36571f, -0.571142f, -0.741907f, -0.956099f, -1.0f, -1.0f, -0.898767f, -0.834648f, -0.811664f, -0.505315f, -0.289992f, -0.118788f, 0.01788f, -0.222895f, -0.489925f, -0.692459f, -0.569454f, -0.11527f, -0.084504f, 0.020981f, 0.239322f, 0.142296f, -0.016722f, -0.410576f, 0.022057f, -0.028156f, -0.162387f, -0.147025f, -0.310748f, -0.795217f, -0.519472f, -0.584776f, -1.0f, -1.0f, -0.81452f, -0.438297f, -0.243594f, -0.091518f, -0.048842f, -0.036463f, -0.083733f, -0.288087f, -0.267983f, -0.289927f, -0.209897f, 0.19025f, -0.039896f, 0.21229f, 0.779315f, 1.0f, 0.501419f, 0.230453f, 0.000894f, 0.084293f, -0.286614f, -0.351183f, -0.719288f, -0.558122f, -0.276672f, -0.291497f, -0.502185f, -0.608499f, -0.113113f, -0.040041f, -0.055375f, 0.057425f, 0.031408f, -0.0053f, 0.088722f, -0.03478f, 0.008189f, 0.006791f, 0.009177f, 0.26066f, 0.577366f, 1.0f, 1.0f, 0.988078f, 0.784751f, 0.691056f, -0.077498f, -0.205069f, -0.362591f, -0.315665f, -0.94734f, -0.455581f, -0.021581f, 0.043393f, -0.214873f, 0.015169f, 0.118751f, 0.336301f, -0.043855f, 0.066228f, 0.310505f, -0.039709f, -0.00721f, -0.045493f, 0.032345f, 0.092854f, -0.001767f, 0.046699f, 0.695704f, 1.0f, 1.0f, 0.999418f, 0.822913f, 0.469978f, -0.405397f, 7e-06f, -0.027263f, 0.039476f, -1.0f, -0.392091f, -0.083293f, 0.086212f, 0.197921f, 0.041898f, -0.063506f, -0.070988f, -0.139666f, -0.021285f, -0.073314f, -0.007564f, 0.228262f, 0.372227f, 0.237429f, 0.772657f, 0.80641f, 0.630705f, 0.906237f, 0.995862f, 1.0f, 1.0f, 0.954273f, 0.392061f, -0.05964f, -0.129237f, 0.854171f, 0.399103f, -0.907736f, -0.061624f, -0.028589f, -0.012283f, 0.253442f, 0.085539f, -0.151088f, 0.060122f, 0.058062f, 0.161792f, -0.019597f, -0.007258f, 0.114334f, 0.45328f, 0.522713f, 0.921624f, 0.78149f, 0.658113f, 0.953607f, 0.991932f, 1.0f, 1.0f, 0.996798f, 0.18921f, 0.08711f, 0.036154f, 0.167329f, 0.06268f, -0.384804f, -0.011663f, -0.10938f, -0.05993f, -0.001425f, -0.061165f, -0.056854f, 0.174187f, 0.108499f, 0.320706f, 0.165317f, 0.00133f, -0.102816f, -0.094832f, -0.153125f, -0.184036f, -0.014588f, -0.338482f, 0.028347f, 0.890254f, 1.0f, 1.0f, 0.667336f, -0.03969f, 0.112949f, -0.005792f, -0.454062f, -0.624335f, -0.536579f, -0.142379f, 0.158061f, 0.130794f, 0.104808f, -0.191549f, -0.004636f, 0.201706f, 0.09013f, 0.038496f, -0.670971f, -0.97551f, -1.0f, -1.0f, -1.0f, -1.0f, -0.93806f, -0.750066f, -0.320862f, 0.301884f, 0.309003f, 0.16516f, 0.09077f, 0.130734f, -0.079935f, 0.054324f, -0.323808f, -0.575089f, -0.750902f, 0.092142f, 0.664825f, 0.284458f, 0.04756f, -0.203926f, 0.014496f, 0.322836f, 0.070797f, -0.313844f, -0.992099f, -1.0f, -1.0f, -1.0f, -1.0f, -1.0f, -0.832014f, -0.295033f, 0.433345f, 0.974407f, 0.428365f, -0.347716f, -0.25036f, 0.295024f, -0.025795f, 0.281121f, 0.212274f, -0.40651f, -0.851041f, 0.901233f, 0.804321f, 0.237849f, 0.010644f, -0.102676f, 0.307435f, 0.555901f, 0.144869f, -0.733035f, -1.0f, -1.0f, -1.0f, -1.0f, -1.0f, -0.907393f, -0.777369f, 0.308931f, 0.878314f, 1.0f, 1.0f, -0.3479f, 0.203545f, 0.416058f, -0.160802f, 0.721242f, -0.030685f, -0.865072f, -0.869575f, 0.782353f, 0.493234f, 0.107256f, 0.111853f, 0.394836f, 0.873284f, 0.255426f, -0.139483f, -0.725448f, -1.0f, -1.0f, -1.0f, -1.0f, -0.952813f, -0.889384f, -0.829089f, 0.212159f, 0.639853f, 1.0f, 1.0f, -0.539188f, 0.284607f, 0.540033f, -0.146926f, 0.313586f, 0.058681f, -1.0f, -0.685548f, 0.400094f, -0.025533f, 0.087161f, 0.126082f, 0.579203f, 0.470207f, -0.052429f, -0.779625f, -0.835962f, -0.9529f, -1.0f, -1.0f, -0.987747f, -0.889222f, -0.791726f, -0.56807f, -0.143519f, 0.239701f, 0.999108f, 1.0f, -0.398934f, -0.293925f, -0.258512f, -0.19495f, 0.102437f, 0.440663f, -0.763444f, -0.505225f, 0.300328f, -0.01193f, -0.003959f, -0.136912f, 0.068447f, 0.02921f, -0.484634f, -0.97592f, -0.894436f, -0.841594f, -0.989536f, -1.0f, -0.881573f, -0.559244f, -0.248517f, -0.223623f, -0.223396f, 0.064818f, 0.976531f, 0.867121f, -0.873214f, -0.805361f, -0.023164f, 0.033066f, -0.058431f, 0.314241f, -0.439943f, -0.063475f, 0.376631f, 0.434418f, 0.066692f, -0.002802f, -0.050694f, -0.267481f, -0.956524f, -1.0f, -0.88536f, -0.869303f, -0.827156f, -0.595831f, 0.049581f, 0.134947f, 0.042173f, -0.016534f, -0.050348f, -0.019204f, 0.535855f, 0.641882f, -1.0f, -0.423344f, 0.079603f, -0.161631f, -0.1795f, 0.385868f, -0.83442f, -0.116067f, 0.215757f, 0.812295f, 0.598584f, 0.287527f, 0.039132f, -0.347019f, -0.914434f, -0.993273f, -0.896031f, -0.581922f, -0.022284f, 0.130156f, 0.22718f, 0.071378f, -0.002993f, 0.038155f, 0.013269f, -0.12837f, 0.247202f, 0.483877f, -1.0f, -0.137829f, -0.262049f, -0.062752f, 0.079357f, 0.290651f, -0.844926f, -0.052251f, 0.042716f, 0.918238f, 0.957572f, 0.915476f, 0.824321f, 0.576171f, 0.083554f, -0.223794f, 0.001348f, 0.120383f, 0.09231f, 0.066315f, 0.073875f, -0.062865f, -0.031335f, 0.332454f, -0.247761f, -0.034957f, 0.393479f, -0.152516f, -0.941748f, -0.126384f, -0.065283f, 0.031894f, 0.096876f, 0.361498f, -0.606491f, -0.045517f, -0.040931f, 0.473156f, 0.54804f, 0.944169f, 0.965648f, 0.986211f, 0.797488f, 0.458158f, 0.218494f, 0.015916f, 0.106567f, -0.063f, 0.01358f, 0.005103f, 0.153914f, 0.064817f, 0.04097f, 0.365852f, -0.01583f, -0.357551f, -0.247403f, 0.494183f, -0.205305f, 0.123319f, 0.391971f, 0.205015f, -0.213522f, -0.035969f, 0.02221f, -0.022438f, 0.043027f, 0.257246f, 0.410821f, 0.514148f, 0.723472f, 0.102569f, -0.160076f, -0.028715f, 0.035388f, -0.196752f, -0.009663f, 0.017006f, -0.20597f, -0.057793f, 0.148052f, 0.543695f, -0.060765f, -0.245047f, 0.29599f, 0.514095f, 0.198645f, 0.13533f, 0.131145f, 1.0f, -0.164981f, -0.152303f, 0.281754f, -0.023609f, -0.052103f, -0.090238f, -0.049215f, -0.1551f, -0.063431f, 0.105679f, 0.203177f, 0.129019f, 0.02325f, -0.009949f, 0.09889f, 0.047059f, -0.005293f, 0.040965f, 0.070118f, 0.382689f, -0.237213f, 0.144425f, 0.057422f, 0.224064f, 0.213598f, 0.012964f, -0.019143f, 0.475524f, -0.072968f, -0.65993f, -0.255457f, -0.353913f, -0.030283f, -0.106035f, 0.267367f, 0.215434f, -0.084594f, -0.022033f, -0.044277f, 0.295732f, 0.290964f, 0.216786f, 0.187786f, -0.10915f, -0.097557f, 0.186418f, -0.124163f, -0.193732f, -0.153659f, 0.105112f, 0.171647f, 0.216113f, -0.01387f, -0.013681f, 0.033133f, 0.283767f, 0.195806f, -0.504817f, -1.0f, -0.711462f, -0.468346f, -0.333508f, -0.109782f, -0.222427f, -0.151743f, -0.210572f, 0.063022f, -0.006357f, -0.074586f, -0.120239f, -0.013631f, 0.085958f, 0.192443f, -0.098288f, -0.624729f, -0.131548f, -0.068154f, -0.137054f, -0.068786f, -0.374576f, -0.008631f, 0.02852f, -0.034615f, 0.27224f, 0.041777f, 0.218028f, -0.95567f, -0.954164f, -0.897687f, -0.991548f, -0.994716f, -0.993468f, -0.99746f, -0.99248f, -0.994157f, -0.903683f, -0.855493f, -0.777313f, -0.408835f, -0.211939f, -0.461508f, -0.351968f, -0.180901f, -0.07604f, -0.019678f, 0.15148f, -0.109374f, -0.206195f, -0.020561f, -0.028617f, -0.023795f, 0.019212f, 0.154065f, 0.2204f, -0.592589f, -0.852573f, -0.998705f, -0.995651f, -0.992821f, -1.0f, -1.0f, -0.995241f, -0.912221f, -0.928851f, -0.959213f, -1.0f, -0.985906f, -0.405321f, -0.44836f, -0.251583f, -0.24113f, -0.046408f, -0.082715f, 0.12844f, -0.077506f, 0.02793f, -0.019776f, -0.014653f, -0.01795f, -0.030145f, 0.013488f, -0.006383f, 0.078657f, -0.028844f, -0.084095f, -0.336207f, -0.312217f, -0.543017f, -0.366954f, -0.083128f, -0.576974f, -0.937682f, -0.994387f, -0.991495f, -0.763555f, -0.122286f, -0.238357f, 0.096787f, 0.547503f, 0.475099f, 0.33295f, -0.019993f, -0.028759f, 0.011837f, -0.020828f},

    {0.034773f, -0.023231f, 0.0167f, -0.011887f, -0.030242f, -0.035708f, 0.014626f, -0.011777f, -0.023869f, 0.034359f, 0.02006f, 0.022629f, 0.175171f, 0.142439f, -0.07042f, -0.032855f, 0.016273f, -0.009575f, -0.008867f, -0.004623f, -0.014942f, -0.025372f, -0.004894f, -0.013664f, -0.012172f, -0.016499f, 0.015652f, -0.00669f, 0.026624f, 0.009581f, -0.012773f, 0.03465f, 0.090949f, 0.143903f, -0.007796f, -0.146165f, 0.443868f, 0.61298f, 0.129593f, 0.050469f, 0.297107f, 0.551353f, 0.994675f, 1.0f, 1.0f, 0.948f, 1.0f, 1.0f, 1.0f, 0.658274f, 0.416382f, 0.287009f, -0.036397f, -0.021231f, 0.003684f, 0.023345f, -0.030637f, 0.013915f, -0.112356f, -0.020908f, 0.452948f, 0.24341f, -0.004814f, 0.237703f, 0.368721f, 0.474986f, 0.291178f, 0.060879f, -0.127204f, 0.195939f, 0.457366f, 0.570728f, 0.839678f, 1.0f, 1.0f, 0.900631f, 0.67292f, 0.548433f, 0.867988f, 0.558362f, 0.298062f, 0.071204f, -0.029492f, -0.003801f, 0.020025f, -0.020952f, 0.152402f, -0.185337f, -0.196217f, 0.44391f, -0.030616f, -0.025732f, 0.028064f, 0.043906f, 0.122229f, 0.177703f, 0.157668f, 0.289156f, 0.366002f, 0.291871f, 0.477597f, 0.815282f, 0.480967f, -0.076458f, 0.424738f, 0.955356f, 0.509765f, -0.06263f, -0.524394f, -0.356753f, 0.170722f, 0.016812f, 0.015872f, -0.045601f, 0.259636f, -0.1719f, 0.270741f, 0.238809f, -0.092065f, -0.046825f, -0.161786f, -0.214498f, -0.082684f, -0.134722f, -0.017641f, 0.000833f, 0.084401f, 0.008951f, 0.112787f, 0.234545f, 0.522683f, 0.552875f, 0.124931f, 0.723019f, 1.0f, 0.771225f, 0.54749f, 0.283004f, 0.344329f, 0.348992f, 0.03073f, 0.009524f, 0.005534f, 0.018085f, 0.179619f, 0.224757f, 0.04948f, 0.302528f, 0.190958f, 0.077451f, 0.059688f, 0.090268f, -0.166954f, -0.209684f, -0.045379f, 0.025627f, 0.021673f, -0.250076f, -0.00585f, 0.305219f, 0.307735f, 0.364361f, 0.95434f, 1.0f, 0.828281f, 0.636196f, 0.309829f, 0.191646f, 0.003684f, 0.03914f, -0.31711f, 0.233921f, 0.331856f, 0.10006f, 0.129319f, 0.100691f, 0.277385f, -0.056734f, -0.022234f, 0.340657f, 0.120485f, 0.017712f, 0.192926f, 0.006575f, 0.090255f, -0.073782f, 0.056668f, 0.071501f, 0.205971f, -0.075069f, -0.049062f, 0.707323f, 0.961174f, 0.254628f, -0.503309f, 0.396545f, 0.134693f, 0.438828f, -0.47699f, 0.174893f, 0.083647f, 0.002829f, 0.023281f, -0.045f, 0.027917f, -0.002867f, 0.008932f, 0.058029f, -0.072271f, 0.028464f, 0.019353f, -0.04257f, -0.083409f, 0.30003f, -0.033196f, -0.215616f, -0.088507f, -0.056863f, 0.005618f, 0.555241f, 0.957878f, 0.773707f, 0.645112f, 0.305542f, 0.342002f, -0.044742f, -0.787934f, -0.182389f, -0.063527f, 0.215435f, 0.020999f, -0.066334f, 0.01761f, 0.082767f, -0.018532f, 0.003514f, 0.124596f, -0.049116f, -0.02033f, -0.06396f, -0.017197f, 0.001836f, -0.154648f, -0.769221f, -0.618203f, -0.609186f, -0.685335f, 0.005655f, 0.998735f, 1.0f, 1.0f, 0.349888f, -0.159532f, -0.128642f, -0.328813f, -0.075163f, 0.086438f, 0.262327f, -0.085015f, -0.00952f, 0.033547f, 0.091065f, -0.14494f, -0.0219f, -0.240694f, 0.023807f, -0.060358f, -0.229973f, -0.481499f, -0.570049f, -0.899538f, -1.0f, -1.0f, -1.0f, -1.0f, -0.938895f, 0.447503f, 1.0f, 0.947821f, 0.490813f, -0.325899f, -0.136939f, 0.031329f, 0.13278f, 0.047352f, 0.201288f, -0.022716f, -0.056987f, -0.098995f, -0.156675f, -0.299356f, -0.236625f, 0.165809f, 0.677855f, 0.630229f, -0.041607f, -0.809206f, -0.988885f, -1.0f, -1.0f, -1.0f, -1.0f, -1.0f, -0.994761f, -0.595301f, 1.0f, 0.929958f, 0.65401f, 0.04923f, -0.265785f, -0.476334f, -0.134633f, 0.10773f, -0.167445f, -0.045398f, -0.309025f, -0.506973f, -0.037779f, -0.180643f, 0.260188f, 1.0f, 0.994739f, 0.674663f, 0.456084f, -0.051525f, -0.451407f, -1.0f, -1.0f, -1.0f, -1.0f, -1.0f, -1.0f, -0.630425f, 1.0f, 0.993962f, -0.028688f, 0.11342f, 0.05137f, -0.707338f, -0.498277f, -0.251797f, -0.004706f, 0.072504f, -0.197832f, -0.119393f, 0.125729f, 0.12238f, 0.679994f, 1.0f, 0.949902f, 0.643122f, 0.848776f, 1.0f, 0.985925f, 0.115089f, -1.0f, -1.0f, -1.0f, -1.0f, -0.99385f, -0.587333f, 0.796165f, 0.595242f, -0.078765f, -0.19861f, 0.264244f, -0.556426f, -0.675543f, -0.391455f, 0.250066f, 0.419206f, 0.349463f, 0.124558f, 0.032843f, 0.136483f, 0.711199f, 0.988724f, 0.894336f, 0.014129f, 0.076695f, 1.0f, 1.0f, 0.959842f, 0.321246f, -0.677637f, -1.0f, -0.992204f, -0.959444f, -0.215569f, 0.40784f, 0.486979f, -0.225153f, 0.131752f, -0.061553f, -0.503571f, -0.632631f, -0.151293f, 0.051612f, 0.027961f, 0.100976f, -0.120206f, -0.009661f, 0.028838f, 0.283519f, 0.475212f, -0.434806f, -0.917615f, -0.076886f, 0.976405f, 0.999558f, 0.978563f, 0.823351f, 0.181872f, -0.413905f, -0.941558f, -0.773438f, 0.242564f, 0.468479f, -0.130334f, -0.045055f, 0.022859f, -0.211222f, -0.424903f, 0.105926f, 0.089078f, -0.379502f, -0.610574f, -0.446628f, -0.146375f, -0.162645f, -0.208263f, -0.0498f, 0.073795f, -0.497134f, -0.713629f, -0.541488f, -0.013777f, 0.798219f, 0.968714f, 0.78819f, 0.320767f, 0.212154f, 0.244176f, -0.04456f, 0.220547f, 0.041355f, -0.285407f, -0.216559f, -0.155374f, -0.080438f, -0.07306f, 0.649236f, -0.274723f, -0.864164f, -0.999951f, -0.958105f, -1.0f, -1.0f, -1.0f, -1.0f, -0.810826f, -0.792883f, -0.688366f, -0.865207f, -0.865982f, 0.208885f, 0.890937f, 0.80964f, 0.560635f, 0.29623f, 0.56043f, 0.382837f, 0.182156f, -0.631852f, -0.539024f, -0.24265f, -0.036068f, -0.255883f, 0.088311f, 0.721859f, -0.372971f, -0.99237f, -0.848063f, -1.0f, -1.0f, -1.0f, -1.0f, -0.971733f, -0.969596f, -0.977257f, -0.988147f, -0.996135f, -0.873163f, -0.017278f, 0.377653f, 0.763352f, 0.674922f, 0.662559f, 0.331309f, 0.102649f, -0.238698f, -1.0f, -0.372841f, -0.197642f, -0.336353f, -0.251049f, 0.040032f, 0.834172f, 0.184151f, -0.61072f, -0.413443f, -0.91919f, -1.0f, -1.0f, -0.938891f, -0.946365f, -0.98503f, -0.992051f, -0.980713f, -0.620334f, -0.330535f, 0.051306f, 0.260976f, 0.358541f, 0.558505f, 0.683712f, 0.396637f, 0.026971f, -0.449353f, -0.984497f, -0.212389f, -0.005181f, -0.04195f, -0.062156f, 0.015732f, 0.67894f, 0.448667f, -0.077778f, 0.046154f, -0.376312f, -0.862347f, -1.0f, -0.94821f, -0.842671f, -0.808626f, -0.459039f, -0.366826f, 0.003692f, 0.187291f, 0.263392f, 0.134272f, 0.260754f, 0.348518f, 0.367872f, 0.040922f, 0.007242f, -0.431106f, -0.917354f, 0.323777f, 0.04051f, -0.023183f, 0.369307f, -0.321713f, 0.529878f, 0.330885f, 0.164056f, 0.184019f, -0.142821f, 0.025563f, -0.185787f, 0.01551f, 0.04903f, 0.176065f, 0.011823f, -0.241681f, -0.091496f, -0.022035f, -0.013883f, -0.001656f, -0.024411f, 0.25541f, 0.067886f, -0.149884f, -0.534694f, -0.962024f, -0.545439f, 0.44436f, 0.240186f, 0.122735f, 0.500647f, 0.00626f, 0.60599f, 0.483866f, -0.094169f, -0.058897f, -0.150917f, 0.114725f, 0.111909f, 0.217468f, 0.02801f, 0.126323f, 0.221723f, 0.062749f, 0.00875f, -0.148385f, -0.08409f, -0.193099f, 0.069948f, 0.49392f, 0.109021f, -0.361153f, -0.501695f, -0.624773f, 0.346912f, 0.54582f, -0.108495f, 0.068489f, -0.038876f, 0.106197f, 0.464014f, 0.439016f, 0.080014f, -0.279639f, -0.280049f, -0.434641f, -0.219548f, -0.039788f, -0.026634f, -0.186032f, 0.047964f, 0.037712f, 0.059908f, 0.071961f, -0.069491f, 0.038281f, 0.144497f, 0.055812f, -0.169596f, -0.452339f, -0.068822f, 0.177924f, -0.022197f, 0.52733f, -0.124127f, -0.029276f, 0.01016f, 0.226495f, 0.797567f, 0.768121f, 0.823974f, 0.368762f, 0.186357f, 0.054386f, -0.03216f, 0.063212f, 0.205107f, -0.013772f, -0.014216f, -0.133677f, -0.091063f, -0.10162f, 0.068087f, 0.063722f, -0.111722f, -0.167628f, -0.585154f, -0.902087f, 0.179789f, 0.139167f, -0.419936f, -0.172841f, 0.006331f, -0.0039f, -0.036406f, -0.300134f, -0.154869f, 0.733405f, 0.93082f, 0.940666f, 0.988608f, 1.0f, 1.0f, 1.0f, 0.725278f, 0.257925f, 0.226544f, -0.018995f, 0.019828f, 0.137186f, -0.027008f, -0.15422f, -0.192896f, -0.322726f, -0.482419f, -0.281317f, 0.552046f, 0.205096f, -0.432952f, -0.091947f, 0.012843f, 0.028385f, -0.029797f, 0.121294f, -0.13587f, 0.212079f, 0.319829f, 0.432647f, 0.733334f, 1.0f, 1.0f, 0.970268f, 0.810745f, 0.20705f, 0.127464f, 0.200827f, 0.203423f, -0.157572f, -0.73004f, -0.558814f, -0.581619f, -0.819705f, -0.968845f, -0.72153f, 0.192488f, 0.921469f, -0.141231f, -0.215449f, 0.002081f, -0.036222f, -0.035876f, 0.004352f, -0.121016f, 0.426858f, -0.205115f, 0.016187f, 0.332298f, 0.128277f, 0.504588f, 0.362268f, 0.10841f, -0.02202f, -0.105724f, -0.139613f, -0.256714f, -0.248633f, -0.760214f, -0.837148f, -0.554959f, -0.35104f, -0.546395f, -0.420884f, 0.469447f, -0.133951f, 0.07576f, -0.020744f, 0.000204f, 0.006222f, -0.005759f, -0.033051f, -0.022073f, 0.20026f, 0.360472f, 0.696397f, 0.987845f, 0.583348f, 0.541339f, -0.212418f, 0.120374f, -0.169796f, -0.018094f, 0.780192f, 0.898381f, 0.099652f, -0.285988f, -0.303614f, -0.273819f, -0.367888f, -0.017145f, 0.159758f, 0.351371f, 0.001704f, 0.00134f, 0.020148f, -0.019809f},
    {0.000197f, 0.009705f, -0.002736f, -0.006635f, 0.017444f, 0.014792f, -0.025702f, -0.008814f, -0.021689f, 0.018511f, 0.005501f, 0.003576f, 0.157128f, 0.099829f, -0.060803f, -0.085321f, 0.019526f, 0.01546f, 0.031051f, -0.005466f, 0.004572f, -0.035195f, 0.029542f, 0.002578f, 0.011789f, -0.03251f, -0.00579f, 0.029725f, -0.017376f, 0.009794f, 0.020672f, 0.019238f, 0.137557f, 0.117268f, 0.53947f, 0.155029f, 0.235919f, 0.076338f, 0.531559f, 0.642008f, 1.0f, 0.986122f, 0.789843f, 0.745785f, 0.362629f, 0.110411f, 0.069884f, 0.094763f, 0.042885f, -0.408488f, -0.017887f, 0.27302f, 0.0106f, 0.024291f, -0.017281f, 0.022747f, -0.007633f, 0.000568f, 0.106347f, 0.148297f, 0.519131f, 0.297163f, 0.262466f, -0.11232f, -0.822262f, -1.0f, -0.632742f, -0.47165f, -0.551391f, -0.70161f, -0.690904f, -0.912752f, -0.759628f, -0.035028f, -0.37825f, -0.348295f, -0.269339f, 0.406926f, 0.110066f, 0.091686f, 0.438097f, 0.547033f, -0.011361f, -0.02882f, 0.015784f, 0.020793f, 0.500954f, 0.069605f, 0.60033f, 0.104216f, 0.112175f, 0.157666f, -0.40719f, -0.310269f, -0.10348f, 0.291636f, 0.488014f, 0.842176f, 0.585264f, 0.195915f, 0.193543f, 0.160405f, 0.034444f, -0.157633f, -0.167607f, -0.667365f, -0.821817f, -0.929856f, -0.589492f, -0.33661f, -0.035242f, -0.004611f, 0.0044f, -0.082386f, 0.205699f, -0.010325f, 0.476108f, 0.556248f, 0.805021f, 0.886319f, 0.776232f, 0.894863f, 0.864336f, 0.937542f, 0.928933f, 0.886822f, 0.928992f, 0.999327f, 0.602721f, 0.068098f, -0.065665f, 0.163453f, -0.354759f, -0.906694f, -1.0f, -1.0f, -0.971289f, -0.550013f, 0.398759f, 0.380901f, 0.007385f, -0.018883f, 0.260508f, 0.186555f, 0.954004f, 0.846693f, 0.804235f, 0.773074f, 0.74683f, 0.75355f, 0.817257f, 0.892213f, 0.9425f, 0.966796f, 1.0f, 1.0f, 1.0f, 0.757268f, -0.021339f, -0.232861f, -0.803226f, -0.987088f, -1.0f, -1.0f, -1.0f, -0.621549f, 0.295713f, 0.500546f, -0.034208f, 0.067153f, 0.022254f, 0.454716f, 0.371568f, 0.114874f, 0.475785f, 0.138342f, 0.217516f, 0.493303f, 0.897368f, 0.987297f, 0.965284f, 1.0f, 1.0f, 1.0f, 1.0f, 1.0f, 0.741267f, 0.106091f, -0.114565f, -0.642979f, -1.0f, -1.0f, -1.0f, -0.84897f, 0.011399f, 0.454739f, 0.142458f, 0.49996f, -0.105163f, 0.401924f, -0.172217f, -0.561726f, 0.123382f, -0.312121f, -0.436188f, -0.063641f, -0.023758f, -0.002901f, 0.008993f, 0.146574f, 0.669861f, 0.634596f, 0.861484f, 0.919572f, 0.976567f, 0.87084f, 0.2158f, 0.06814f, -0.580674f, -1.0f, -1.0f, -1.0f, -0.018391f, 0.003578f, -0.030146f, 0.984711f, 0.001663f, -0.676494f, -0.650151f, -0.633672f, -0.298706f, -0.359117f, -0.244193f, -0.460992f, -0.602181f, -0.838186f, -0.580807f, -0.242318f, 0.37765f, 0.516604f, 0.716999f, 0.847637f, 0.658091f, 0.482109f, 0.461511f, 0.105588f, 0.075735f, -1.0f, -1.0f, -1.0f, -0.620017f, 0.134802f, 0.307257f, 0.27496f, -0.471501f, -0.829602f, -0.340294f, -0.370085f, -0.285666f, -0.78577f, -0.861002f, -0.888284f, -0.879954f, -0.952885f, -0.917101f, -0.61539f, 0.008249f, 0.428629f, 0.802487f, 0.940179f, 0.985785f, 0.870627f, 0.783386f, 0.210987f, 0.401628f, -0.883209f, -1.0f, -1.0f, -0.202038f, 0.61057f, 0.257813f, 0.143646f, -0.438588f, -0.279733f, -0.366483f, -0.089002f, -0.377358f, -0.785216f, -0.876476f, -0.973526f, -0.97883f, -0.90798f, -0.868734f, -0.912671f, -0.257405f, 0.027538f, 0.968591f, 0.928887f, 0.983894f, 0.980218f, 1.0f, 0.651002f, 0.887206f, 0.652893f, -1.0f, -1.0f, 0.007584f, 0.547276f, 0.250398f, 0.786947f, 0.058188f, 0.168265f, -0.075397f, 0.096517f, -0.488593f, -0.833162f, -0.901663f, -0.973758f, -0.977177f, -0.981931f, -0.995466f, -0.981348f, -0.947358f, -0.15106f, 0.601105f, 0.764105f, 0.908931f, 0.795879f, 0.886056f, 0.569885f, 0.868005f, 0.987862f, -0.052346f, -0.604718f, 0.380843f, 0.618979f, 0.052302f, 0.01695f, 0.563824f, 0.013942f, -0.369826f, -0.464578f, -0.713202f, -0.858039f, -0.841063f, -0.932029f, -0.976487f, -0.989649f, -0.998118f, -0.922121f, -0.889093f, -0.716427f, -0.21246f, -0.256272f, -0.25949f, 0.121427f, 0.309584f, 0.166047f, 0.245287f, 0.542294f, 0.505229f, 0.166141f, 0.865578f, 0.605983f, 0.231692f, 0.161862f, 0.572173f, -0.365389f, -0.848633f, -0.305379f, -0.531004f, -0.560843f, -0.534168f, -0.302254f, -0.289325f, -0.892908f, -0.969411f, -0.950144f, -0.976263f, -0.829846f, -0.113661f, -0.128686f, -0.386609f, -0.026194f, 0.140952f, 0.093727f, 0.037317f, 0.109748f, 0.241149f, 0.251901f, 0.69324f, 0.243278f, 0.160168f, -0.002529f, -0.211819f, -0.768382f, -0.81542f, 0.474989f, 0.002505f, -0.15008f, 0.073918f, 0.571056f, 0.568687f, 0.228542f, -0.050837f, -0.188077f, -0.546533f, -0.869663f, -0.046035f, -0.104177f, -0.370744f, -0.100841f, 0.209575f, 0.115222f, -0.032299f, 0.161948f, 0.020745f, -0.077573f, -0.029067f, 0.082347f, 0.205265f, -0.303264f, -0.068495f, -0.041706f, 0.175242f, 1.0f, 0.637747f, 0.172034f, 0.205396f, 0.413524f, 0.446574f, -0.022464f, -0.087812f, -0.014943f, -0.567554f, -0.735899f, -0.129541f, -0.00541f, -0.170838f, 0.188447f, -0.041208f, -0.028028f, -0.067794f, 0.209742f, 0.118665f, 0.182982f, 0.60537f, 0.377124f, 0.152252f, 0.209361f, 0.248917f, 0.970817f, 1.0f, 1.0f, 0.836608f, 0.164527f, 0.197046f, 0.114997f, 0.108996f, -0.202439f, -0.087155f, -0.166033f, -0.761884f, -0.943082f, -0.050235f, 0.186997f, 0.1181f, 0.102148f, 0.091696f, 0.078074f, -0.064082f, -0.021958f, 0.229045f, 0.623292f, 1.0f, 0.467852f, 0.026817f, 0.09263f, 0.541338f, 1.0f, 1.0f, 1.0f, 0.964231f, 0.416717f, 0.158095f, -0.00485f, -0.356169f, -0.4682f, -0.475419f, -0.810197f, -0.793678f, -0.734012f, -0.235547f, -0.089152f, 0.068997f, 0.013049f, -0.066581f, 0.059079f, -0.050005f, -0.037631f, 0.575033f, 0.857782f, 1.0f, 0.208244f, 0.263897f, -0.020392f, 0.584526f, 1.0f, 1.0f, 1.0f, 0.523338f, 0.236826f, 0.031635f, 0.023042f, -0.022211f, -0.215004f, -0.321098f, -0.36931f, -0.330912f, -0.285192f, -0.043483f, 0.007679f, -0.022103f, -0.108814f, -0.302561f, -0.238597f, -0.068109f, -0.282966f, 0.461667f, 0.871904f, 0.60019f, 0.144541f, -0.082418f, -0.16376f, 0.534878f, 1.0f, 1.0f, 1.0f, 0.443195f, 0.109102f, 0.06666f, 0.222559f, 0.302184f, 0.005207f, 0.145678f, 0.159885f, 0.09257f, 0.12741f, 0.025258f, 0.109746f, -0.007478f, -0.118879f, -0.160484f, 0.06238f, 0.074977f, -0.264659f, -0.017832f, 0.67201f, 0.364355f, 0.186743f, 0.001616f, -0.377645f, 0.169307f, 0.99674f, 0.979448f, 1.0f, 0.395776f, -0.018393f, 0.080938f, 0.245981f, 0.196182f, -0.012409f, -0.169447f, -0.017217f, 0.302635f, 0.346673f, 0.141874f, 0.035427f, -0.056302f, 0.332235f, 0.481934f, 0.6953f, 0.362604f, 0.153004f, 0.406947f, 0.092753f, -0.191857f, 0.214316f, -0.113488f, -0.455996f, 0.099788f, 0.88045f, 0.97635f, 1.0f, 0.360451f, 0.040561f, 0.06071f, 0.078617f, 0.018911f, -0.032677f, -0.007007f, -0.03228f, 0.000945f, 0.113495f, 0.147122f, 0.047234f, 0.195758f, 0.937246f, 0.838984f, 0.858666f, 0.616386f, 0.685858f, 0.728569f, 0.517673f, 0.353425f, 0.218716f, -0.097283f, -0.087948f, 0.416172f, 0.892616f, 0.956395f, 0.638351f, 0.5186f, 0.495467f, 0.159648f, 0.433914f, 0.547262f, 0.730031f, 0.557751f, 0.44643f, 0.24053f, 0.273219f, 0.018939f, 0.047785f, 0.313795f, 0.788741f, 1.0f, 1.0f, 0.914642f, 0.550213f, 0.142166f, 0.386102f, 0.282457f, 0.202736f, -0.027563f, -0.008457f, -0.062944f, 0.719893f, 0.784061f, 0.848053f, 0.33783f, 0.263079f, 0.017676f, 0.06682f, 0.101105f, 0.289273f, 0.164054f, -0.006202f, -0.052866f, 0.082643f, 0.024976f, 0.017102f, 0.191693f, 0.555951f, 0.356398f, 0.580424f, 0.92597f, 0.662783f, 0.335764f, 0.293899f, -0.043736f, -0.024588f, 0.010374f, 0.030792f, -0.305993f, -0.025325f, 0.035388f, 0.002503f, -0.002808f, -0.226366f, -0.047375f, -0.017828f, -0.100957f, 0.030339f, -0.005487f, 0.016906f, -0.035026f, 0.247694f, 0.156389f, -0.147685f, -0.513426f, -0.545933f, -0.57478f, -0.108602f, 0.320086f, 0.635432f, 0.660347f, 0.356982f, -0.10308f, -0.012827f, -0.004347f, 0.014238f, -0.162513f, -0.058994f, -0.398117f, -0.805059f, -0.92063f, -0.878948f, -0.593388f, -0.249346f, -0.036532f, -0.265841f, -0.708544f, -0.496587f, -0.288595f, -0.161215f, -0.018799f, -0.074804f, 0.005588f, 0.627042f, 0.468368f, 0.018232f, -0.000577f, 0.267783f, 0.482537f, -0.11084f, -0.208814f, -0.016529f, 0.009025f, 0.000427f, 0.010263f, 0.184161f, 1.0f, -0.131926f, -0.269093f, 0.271657f, 0.579958f, 0.098847f, 0.19902f, 0.038354f, -0.074523f, 0.12977f, 0.063721f, 0.199757f, 0.021415f, 0.414071f, 0.951717f, 1.0f, 1.0f, 0.979534f, 0.984317f, 0.413229f, 0.209972f, -0.132083f, 0.003745f, -0.020316f, 0.027906f, 0.017114f, 0.030626f, -0.016623f, 0.173457f, 0.365466f, 0.571161f, 0.980539f, 0.92427f, 0.90401f, 0.822317f, 0.320674f, -0.076413f, 0.31514f, -0.00363f, 0.220549f, 0.110514f, 0.598015f, 0.628519f, 0.176665f, 0.277554f, 0.57206f, 0.322171f, 0.267908f, 0.013147f, -0.002822f, 0.010956f, -0.018759f},
    {-0.036174f, 0.01246f, 0.018654f, 0.018248f, 0.028987f, -0.035457f, 0.009996f, 0.027735f, -0.018871f, 0.019285f, 0.01784f, 0.006978f, 0.103486f, 0.090044f, -0.052408f, -0.086291f, 0.013615f, 0.026589f, -0.02729f, -0.033854f, 0.013302f, -0.002123f, -0.017414f, -0.033993f, -0.022784f, 0.009026f, -0.007195f, -0.03166f, -0.004238f, -0.002431f, -0.03395f, 0.020787f, 0.143822f, 0.11582f, 0.287856f, -0.001368f, -0.519816f, -0.497763f, -0.137736f, -0.221065f, -0.389645f, -0.405107f, -0.28183f, -0.428778f, -0.006535f, -0.120068f, -0.07732f, 0.19325f, 0.659086f, 0.536213f, 0.053152f, -0.072168f, 0.005153f, 0.021406f, 0.026661f, -0.03058f, -0.016443f, -0.003834f, 0.136748f, 0.270333f, 0.169592f, -0.066206f, -0.103255f, -0.225825f, -0.770266f, -0.827902f, -0.642688f, -0.852816f, -0.976023f, -0.995114f, -0.982781f, -0.946022f, -0.930269f, -0.585503f, -0.427559f, -0.238247f, 0.140058f, 0.143398f, -0.006348f, -0.085142f, 0.330881f, 0.365921f, -0.000658f, 0.027297f, 0.010198f, -0.033787f, 0.25898f, 0.556634f, -0.091207f, -0.089337f, -0.129526f, -0.434188f, -0.545364f, -0.46103f, -0.320193f, -0.57393f, -0.628331f, -0.81472f, -0.897711f, -0.765454f, -0.305763f, -0.411871f, -0.332f, -0.248586f, -0.330491f, 0.002234f, 0.27058f, -0.085728f, 0.774916f, 0.784689f, 0.290191f, 0.007337f, -0.022899f, -0.088131f, 0.441269f, 0.058722f, -0.136064f, -0.133769f, -0.032758f, -0.237851f, -0.215936f, -0.313416f, 0.057868f, 0.463429f, 0.728063f, 0.559116f, 0.137689f, 0.03543f, 0.091798f, 0.127747f, 0.218176f, 0.006666f, -0.02005f, 0.066341f, 0.136982f, 0.182356f, 0.218628f, 0.417255f, 0.80632f, 0.349518f, -0.013791f, 0.006693f, 0.095709f, 0.276796f, -0.493814f, -0.450525f, -0.209219f, -0.365351f, -0.290146f, -0.037555f, 0.143587f, 0.209438f, -0.051082f, -0.290951f, -0.717427f, -1.0f, -1.0f, -0.928027f, -0.365499f, -0.117737f, -0.142074f, -0.100003f, -0.017384f, 0.026975f, 0.741457f, 0.274101f, 0.788946f, 0.238737f, 0.034955f, 0.033165f, 0.456728f, -0.63246f, -0.641226f, -0.267344f, 0.305862f, 0.050762f, 0.031934f, 0.090722f, -0.018912f, -0.14848f, 0.071129f, 0.154035f, 0.188098f, 0.094944f, 0.033386f, -0.048417f, -0.028347f, -0.165536f, -0.296044f, -0.194282f, -0.512782f, -0.640864f, -0.079799f, 0.607641f, 0.358797f, 0.416795f, -0.142683f, -0.149169f, 0.684326f, -0.280037f, 0.0186f, 0.20182f, 0.610363f, 0.095676f, 0.047095f, 0.052855f, 0.306059f, 0.987042f, 1.0f, 0.977225f, 1.0f, 1.0f, 1.0f, 0.867937f, 0.052707f, 0.162463f, 0.152786f, -0.017121f, -0.016347f, -0.58727f, -0.868046f, -0.091074f, 0.742757f, -0.069156f, -0.381129f, 0.015846f, 0.807815f, 0.233441f, -0.043721f, 0.066f, 0.553676f, 0.380231f, 0.43907f, 0.535256f, 0.996203f, 0.997961f, 0.947304f, 0.993363f, 1.0f, 0.994001f, 0.99941f, 0.78518f, 0.017557f, 0.014142f, 0.12446f, -0.045052f, -0.027859f, -0.545396f, -0.946326f, -0.9845f, -0.382792f, 0.127833f, 0.067591f, 0.121363f, 0.987673f, 0.447962f, 0.001718f, 0.280093f, 0.595259f, 0.459238f, 0.284786f, 0.841994f, 0.976797f, 0.984773f, 0.997941f, 1.0f, 1.0f, 0.996616f, 0.993909f, 0.549948f, 0.162933f, 0.130462f, -0.114849f, 0.004026f, -0.114154f, -0.451784f, -1.0f, -1.0f, -0.690222f, -0.126456f, 0.094871f, 0.012814f, 0.395804f, 0.128122f, -0.160101f, 0.285927f, 0.267329f, 0.130627f, 0.228667f, 0.642674f, 0.965585f, 0.999862f, 1.0f, 0.943289f, 0.420602f, 0.803239f, 0.877616f, 0.558271f, 0.564805f, 0.497719f, 0.278802f, 0.131452f, 0.105792f, -0.211102f, -1.0f, -0.999079f, -1.0f, -0.253385f, -0.127712f, -0.249453f, -0.122059f, 0.085761f, 0.116684f, 0.270267f, 0.051178f, 0.045705f, -0.01792f, -0.090604f, 0.002511f, -0.151505f, -0.647032f, -0.898296f, -0.993092f, -0.297535f, 0.379983f, 0.458882f, 0.414249f, 0.600936f, 0.381582f, 0.397489f, 0.357604f, -0.098739f, -0.228786f, -0.9986f, -0.811472f, -0.1322f, -0.022359f, 0.29213f, 0.473773f, 0.625661f, 0.468619f, 0.131166f, -0.089485f, 0.027942f, -0.274133f, -0.729244f, -1.0f, -0.947422f, -0.889564f, -0.917202f, -0.956047f, -0.752119f, 0.077519f, 0.078154f, 0.252934f, 0.33351f, 0.283612f, 0.24106f, -0.030113f, -0.441729f, -0.4794f, -0.162125f, 0.085093f, 0.643452f, -0.214148f, 0.277652f, 0.585088f, 0.710197f, 0.50355f, -0.155632f, -0.139486f, 0.002247f, -0.557235f, -1.0f, -1.0f, -0.9849f, -0.847167f, -0.88841f, -0.980563f, -0.575639f, 0.127771f, 0.024435f, 0.083777f, 0.173836f, -0.009311f, -0.010016f, -0.22425f, -0.50646f, -0.658303f, 0.306253f, 0.99142f, 0.387536f, -0.142713f, -0.164241f, 0.468448f, 0.47865f, 0.090367f, -0.428838f, -0.062111f, -0.086445f, -0.715522f, -1.0f, -1.0f, -1.0f, -0.949398f, -0.956742f, -1.0f, -0.478951f, 0.285111f, 0.402289f, 0.2613f, 0.010944f, -0.00266f, -0.102364f, -0.172899f, -0.762948f, -0.721578f, 0.451092f, 0.650623f, -0.267812f, 0.041765f, -0.2967f, 0.229565f, 0.29792f, -0.1317f, -0.344797f, 0.038012f, -0.156399f, -0.552803f, -1.0f, -0.732436f, -0.261013f, -0.809801f, -1.0f, -1.0f, -0.149595f, 0.687556f, 0.664332f, 0.004789f, 0.023053f, -0.009791f, 0.006134f, -0.319237f, -0.772113f, -0.520142f, 0.575303f, 0.5242f, 0.416016f, 0.186945f, -0.181259f, -0.094211f, -0.243941f, -0.297169f, -0.260615f, 0.101385f, 0.051932f, -0.193657f, -0.351583f, -0.358063f, -0.021417f, -0.331117f, -0.879563f, -0.725459f, 0.566852f, 0.955476f, 0.378008f, 0.017939f, -0.080556f, -0.142337f, -0.003234f, -0.175399f, -0.006429f, 0.405991f, 1.0f, 0.925856f, 0.538789f, 0.030697f, 0.248586f, -0.089612f, -0.634117f, -0.565694f, -0.091588f, -0.028241f, -0.054395f, -0.037535f, 0.198382f, -0.053825f, -0.013287f, 0.010158f, -0.176474f, -0.118232f, 0.667267f, 0.517349f, 0.098058f, -0.04659f, -0.009402f, 0.07538f, 0.025011f, 0.296194f, 0.962101f, 0.982527f, 1.0f, 1.0f, 0.680177f, 0.240776f, 0.307536f, -0.243372f, -0.504882f, 0.052562f, -0.010892f, -0.114437f, -0.259817f, -0.006753f, -0.053621f, 0.04008f, 0.152366f, 0.279662f, 0.203209f, 0.337676f, 0.435674f, -0.05865f, -0.054177f, 0.072476f, 0.149467f, 0.206419f, 0.213869f, 0.662191f, 0.955849f, 0.980166f, 1.0f, 1.0f, 0.871396f, -0.038719f, 0.293039f, -0.739039f, -0.766973f, -0.041951f, -0.088455f, -0.062274f, -0.002575f, -0.030968f, -0.062437f, 0.003262f, 0.021365f, 0.099245f, -0.048389f, -0.147254f, -0.050929f, -0.197675f, -0.177466f, -0.079402f, -0.00536f, 0.21418f, 0.019269f, 0.46545f, 0.994749f, 0.999772f, 1.0f, 0.995806f, 0.739936f, 0.012742f, -0.014032f, -0.749831f, -0.554474f, 0.199727f, 0.224897f, 0.027049f, 0.150427f, -0.064186f, -0.100076f, -0.133911f, -0.125421f, -0.2196f, -0.288828f, -0.25458f, -0.173064f, -0.220005f, -0.232373f, -0.245359f, -0.089689f, -0.147485f, -0.222855f, 0.246913f, 1.0f, 1.0f, 1.0f, 0.631617f, 0.20525f, 0.146048f, -0.259163f, -0.388745f, -0.771401f, 0.268741f, 0.005101f, -0.022983f, 0.01533f, 0.011929f, 0.023398f, 0.023797f, 0.011644f, -0.093611f, -0.187392f, -0.208277f, 0.006787f, -0.08099f, -0.200027f, -0.520462f, -0.44125f, -0.125067f, -0.133237f, 0.004017f, 0.912675f, 1.0f, 0.971021f, 0.321168f, 0.161249f, 0.140779f, 0.029139f, -0.428545f, -0.71386f, 0.049798f, -0.313317f, 0.037333f, 0.159215f, 0.144328f, 0.015804f, 0.020075f, -0.104138f, -0.021169f, -0.038534f, -0.140337f, -0.148956f, -0.527458f, -0.38775f, -0.615885f, -0.829886f, -0.526954f, -0.420685f, 0.048874f, 0.426987f, 0.495418f, 0.797026f, 0.252343f, 0.201738f, 0.027251f, -0.022812f, -0.300048f, -0.646394f, -0.093325f, -0.455481f, -0.186203f, 0.118927f, -0.211731f, -0.568205f, -0.280922f, -0.23612f, -0.100227f, -0.443806f, -0.633809f, -0.695175f, -0.630281f, -0.526743f, -0.880998f, -0.974365f, -0.572705f, -0.218836f, 0.519346f, 0.441434f, 0.311657f, 0.190703f, 0.244693f, -0.015119f, -0.01739f, -0.000965f, -0.121202f, -0.210896f, 0.386473f, -0.002541f, 0.202309f, 0.310749f, -0.151955f, -0.278748f, 0.023091f, 0.121008f, 0.386838f, 0.059474f, -0.1471f, -0.165489f, -0.207229f, 0.010286f, -0.062132f, -0.039067f, 0.341278f, 0.929644f, 0.901227f, 0.540484f, 0.670623f, 0.521201f, 0.406914f, -0.006319f, -0.034963f, -0.000778f, -0.020542f, 0.323333f, 0.417395f, 0.905937f, 0.986538f, 1.0f, 1.0f, 1.0f, 1.0f, 1.0f, 1.0f, 0.992877f, 0.971861f, 0.983354f, 1.0f, 1.0f, 1.0f, 1.0f, 1.0f, 1.0f, 1.0f, 0.769733f, 0.180522f, 0.378773f, 0.235693f, -0.008601f, -0.028258f, 0.015112f, -0.021056f, 0.196472f, 0.507571f, 0.697343f, 0.883019f, 0.946494f, 0.956895f, 0.944451f, 0.995903f, 1.0f, 0.994405f, 0.919683f, 0.953012f, 0.995371f, 1.0f, 1.0f, 1.0f, 1.0f, 1.0f, 1.0f, 1.0f, 0.354784f, 0.198832f, -0.097369f, 0.007472f, -0.020134f, 0.010418f, 0.028899f, -0.031209f, 0.029937f, 0.050948f, 0.210679f, 0.311196f, 0.139847f, 0.347906f, 0.116344f, 0.714865f, 0.171854f, 0.345545f, 0.25791f, 0.441384f, 0.221268f, 0.619006f, 0.939374f, 0.692002f, 0.925328f, 0.898113f, 1.0f, 0.577412f, 0.352439f, 0.004587f, -0.033007f, 0.031023f, 0.011336f},
    {0.018738f, 0.020533f, 0.012309f, -0.017648f, 0.0227f, 0.003604f, -0.016718f, 0.021254f, -0.000343f, 0.007292f, 0.024528f, 0.028216f, -0.305798f, -0.271705f, -0.082302f, -0.064487f, 0.014425f, 0.023444f, -0.009855f, -0.015761f, -0.007378f, 0.021713f, 0.029882f, -0.014306f, 0.019234f, 0.035414f, 0.02625f, 0.003989f, -0.005763f, 0.035863f, 0.012972f, -0.012439f, 0.11053f, 0.17137f, 0.115808f, -0.198916f, -0.232667f, -0.244514f, -0.039176f, -0.017302f, 0.102639f, 0.360965f, 0.127282f, 0.300161f, 0.852236f, 0.385634f, 0.030897f, 0.079978f, -0.106741f, 0.040817f, 0.52959f, 0.361455f, 0.029994f, -0.01634f, 0.027639f, -0.020481f, -0.028483f, 0.01047f, 0.135444f, 0.355228f, 0.775059f, 0.039507f, 0.159344f, -0.023225f, -0.51986f, -0.536641f, -0.362554f, -0.588678f, -1.0f, -1.0f, -0.71436f, -0.328173f, -0.278093f, -0.051477f, -0.070854f, -0.224702f, -0.189056f, -0.354725f, -0.005162f, 0.320933f, 0.520158f, 0.336394f, 0.028488f, 0.031178f, -0.00262f, -0.011021f, 0.061302f, -0.124148f, 0.576179f, 0.429092f, 0.386668f, 0.396764f, 0.380722f, 0.876375f, 1.0f, 0.652968f, 0.001016f, -0.206557f, -0.366613f, -0.307635f, -0.8964f, -0.982249f, -0.952153f, -0.82642f, -0.267609f, -0.006217f, -0.137638f, -0.272833f, 0.209478f, 0.118139f, 0.311596f, 0.033766f, -0.006574f, -0.025384f, 0.094605f, -0.131469f, 0.732563f, 0.710929f, 0.604938f, 0.958058f, 0.913883f, 1.0f, 1.0f, 1.0f, 0.870644f, 0.48086f, 0.07566f, -0.182381f, 0.052846f, -0.067312f, -0.011758f, -0.021433f, 0.014725f, -0.147426f, -0.402754f, 0.135329f, 0.626185f, 0.317733f, 0.434924f, -0.023373f, -0.003707f, 0.02914f, 0.308121f, 0.328632f, 0.048231f, 0.368604f, 0.622333f, 1.0f, 1.0f, 1.0f, 0.999749f, 0.968809f, 0.847276f, 0.963874f, 1.0f, 0.890721f, 0.64212f, 0.650995f, 0.430765f, 0.333341f, 0.086744f, -0.037127f, -0.351098f, -0.317294f, -0.344762f, -0.242605f, -0.14379f, -0.152586f, 0.029611f, -0.134366f, 0.173143f, 0.445095f, -0.03191f, 0.176803f, 0.439365f, 0.640298f, 1.0f, 0.826365f, 1.0f, 0.796924f, 0.887204f, 0.892253f, 0.644059f, 0.662976f, 0.478368f, -0.035495f, -0.027054f, -0.163786f, -0.135701f, -0.162761f, 0.166565f, 0.074131f, -0.359165f, -0.502962f, -0.226936f, 0.250787f, 0.144382f, 0.372753f, -0.100533f, 0.284104f, 0.000173f, -0.181728f, 0.012878f, 0.260935f, 0.376017f, 0.324125f, 0.196223f, 0.023969f, -0.015153f, -0.022727f, -0.126735f, -0.190481f, 0.03142f, -0.44608f, -0.350996f, -0.423064f, 0.016995f, 0.415075f, 0.950449f, 1.0f, 0.999705f, 0.894128f, -0.06888f, 0.521968f, 0.232561f, 0.410901f, -0.586292f, -0.598284f, 0.018059f, 0.014722f, 0.054246f, 0.058249f, 0.091388f, -0.025046f, -0.247454f, -0.145261f, -0.070345f, -0.075082f, -0.001969f, 0.019617f, 0.07132f, -0.12825f, 0.056506f, 0.004337f, 0.155046f, 1.0f, 1.0f, 1.0f, 1.0f, 1.0f, 0.650806f, 0.686681f, 0.142618f, 0.228402f, -0.977275f, -0.784335f, 0.262394f, 0.353993f, 0.080811f, -0.269101f, -0.259757f, -0.257288f, 0.003119f, 0.152419f, -0.133726f, -0.279295f, -0.037042f, -0.003501f, -0.047462f, 0.019378f, 0.115983f, 0.063625f, 0.604507f, 1.0f, 1.0f, 1.0f, 1.0f, 1.0f, 0.998322f, 0.569893f, 0.086958f, 0.052081f, -0.614314f, -0.214684f, 0.506248f, 0.343224f, -0.36297f, -0.836168f, -0.342248f, -0.043016f, 0.096505f, 0.308497f, 0.101995f, -0.003178f, -0.327309f, -0.635662f, 0.043025f, -0.009019f, 0.066906f, 0.226786f, 0.17821f, 0.072014f, 0.259365f, 0.682298f, 1.0f, 1.0f, 0.789107f, 0.684924f, 0.040245f, -0.032875f, 0.194759f, 0.014313f, 0.443692f, -0.83449f, -0.956674f, -0.991482f, -0.639646f, -0.019414f, -0.013217f, 0.477748f, 0.365501f, 0.021913f, -0.1326f, -0.079588f, 0.041359f, -0.013562f, -0.053543f, -0.02909f, -0.433972f, -1.0f, -1.0f, -0.997668f, -0.591794f, 1.0f, 0.709611f, 0.038187f, 0.188264f, 0.834247f, 0.577188f, -0.103273f, -0.250706f, -0.988916f, -0.994315f, -1.0f, -0.937384f, -0.467134f, -0.377427f, -0.057766f, 0.275903f, 0.42238f, 0.367761f, 0.315875f, 0.157766f, 0.017957f, -0.083156f, -0.002645f, -0.218356f, -1.0f, -1.0f, -0.998608f, -1.0f, -0.137871f, 0.605569f, -0.070375f, -0.224664f, 0.69196f, 0.835219f, -0.139193f, -0.818644f, -0.997789f, -1.0f, -1.0f, -0.923985f, -0.794264f, -0.824272f, -0.083988f, 0.579023f, 0.40433f, 0.523184f, -0.01676f, -0.081638f, -0.068764f, 0.001502f, 0.052487f, -0.005128f, -1.0f, -0.999703f, -1.0f, -1.0f, -0.199277f, 0.997525f, -0.206861f, 0.137501f, 0.243651f, 0.771713f, 0.045261f, -0.870599f, -0.998106f, -1.0f, -1.0f, -0.874064f, -0.81022f, -0.543475f, 0.423973f, 0.56758f, 0.947802f, 1.0f, 0.028615f, 0.031773f, 0.128731f, -0.124892f, 0.065268f, -0.20089f, -0.790806f, -0.967934f, -0.993926f, -1.0f, -0.204357f, 0.705122f, 0.02598f, 0.134852f, 0.301871f, 0.693161f, 0.992015f, -0.225379f, -1.0f, -1.0f, -1.0f, -0.73456f, -0.315161f, 0.180806f, 0.147691f, 0.292058f, 0.990956f, 0.932388f, 0.73137f, 0.4263f, -0.025494f, -0.199252f, -0.094207f, -0.366295f, -0.719018f, -0.940788f, -0.989616f, -0.999405f, 0.405372f, 0.654692f, 0.501621f, 0.146882f, 0.389851f, 0.70133f, 1.0f, 0.875261f, -0.133941f, -0.392747f, -0.707993f, -0.317475f, -0.000323f, 0.028383f, -0.392254f, -0.001242f, 0.451609f, 0.084684f, 0.674702f, 0.996713f, 0.623273f, 0.043253f, -0.121733f, -0.464368f, -0.35301f, -0.874635f, -0.962718f, -0.509634f, 1.0f, 1.0f, 0.379922f, 0.022084f, 0.267448f, 0.732138f, 1.0f, 1.0f, 0.996936f, 0.836719f, -0.198158f, -0.187412f, -0.237942f, -0.584625f, -0.62649f, -0.54154f, -0.442512f, -0.234551f, 0.509543f, 1.0f, 0.957849f, 0.186135f, -0.030049f, 0.008663f, 0.071913f, 0.045825f, -0.074738f, 0.872521f, 0.998077f, 1.0f, 0.662277f, 0.018106f, 0.213988f, 0.405939f, 1.0f, 1.0f, 0.999196f, 0.99021f, 0.86875f, 0.341387f, 0.002422f, -0.435097f, -0.421816f, -0.335287f, -0.258627f, -0.183397f, 0.011806f, 0.660057f, 0.842548f, 0.371443f, 0.005167f, 0.055284f, 0.261194f, 0.538701f, 0.666642f, 0.838909f, 0.96163f, 0.805563f, 0.083669f, 0.068281f, 0.15391f, 0.231989f, 1.0f, 1.0f, 1.0f, 1.0f, 1.0f, 1.0f, 0.770164f, 0.069157f, -0.183351f, 0.071859f, -0.006158f, -0.009881f, -0.106437f, 0.052024f, 0.107919f, 0.247883f, 0.043552f, 0.043111f, 0.376209f, 0.917329f, 0.902241f, 0.86618f, 0.982909f, 0.722878f, 0.061048f, 0.031807f, 0.423512f, -0.13439f, 0.969431f, 1.0f, 1.0f, 1.0f, 1.0f, 1.0f, 0.725555f, 0.022311f, 0.102095f, 0.269516f, 0.115068f, -0.244256f, -0.338074f, -0.28457f, -0.341362f, 0.033f, 0.46136f, 0.620199f, 0.887247f, 1.0f, 0.95175f, 0.986692f, 0.755112f, 0.081935f, 0.221109f, 0.10631f, 0.211385f, -0.287513f, 0.576266f, 0.841217f, 0.927515f, 1.0f, 0.991748f, 0.952803f, 0.193589f, -0.096875f, 0.177589f, 0.14318f, -0.014519f, -0.125688f, -0.351162f, -0.34726f, -0.2534f, 0.096111f, 0.974119f, 0.977144f, 0.957547f, 1.0f, 0.973129f, 0.995056f, 0.822902f, 0.129853f, -0.196264f, 0.16171f, -0.093747f, -0.283361f, 0.326357f, 0.198635f, 0.218271f, 0.645692f, 0.647142f, 0.193312f, 0.141893f, 0.251694f, 0.511129f, 0.38862f, 0.228516f, 0.102655f, -0.046133f, -0.169403f, -0.249251f, 0.392261f, 1.0f, 0.998367f, 0.99062f, 1.0f, 0.837675f, -0.073483f, -0.172862f, 0.180182f, -0.175544f, -0.016468f, -0.021281f, -0.276496f, -0.198441f, -0.2584f, -0.86537f, -0.337582f, -0.314988f, -0.42123f, -0.412231f, -0.385603f, -0.219489f, -0.05736f, 0.27531f, 0.191385f, 0.091749f, -0.003634f, 0.053258f, 0.42898f, 0.611149f, 0.559024f, 0.574378f, 0.667439f, 0.545843f, -0.184766f, -0.319688f, 0.082503f, -0.008114f, -0.00466f, -0.000862f, -0.198082f, -0.573119f, -0.852091f, -1.0f, -0.868237f, -0.241814f, 0.207623f, 0.081414f, 0.039197f, 0.101368f, -0.013457f, -0.052896f, -0.01349f, 0.392329f, 0.58778f, 0.321792f, 0.117557f, -0.195764f, -0.571565f, -0.278234f, -0.095691f, 0.364735f, 0.431467f, -0.068696f, -0.366727f, -0.005253f, -0.000835f, 0.011012f, 0.056259f, -0.558146f, -0.906039f, -0.795151f, -0.323387f, -0.149609f, -0.146013f, -0.296707f, -0.255977f, -0.027696f, 0.058842f, -0.140098f, 0.015683f, -0.037085f, 0.064445f, -0.072308f, -0.070911f, -0.212717f, -0.471273f, -0.528465f, -0.594422f, -0.266271f, -0.101143f, -0.374939f, -0.249983f, -0.003177f, -0.017567f, 0.005094f, -0.016335f, 0.143228f, -0.19888f, 0.226373f, 0.069955f, 0.171673f, 0.772025f, 0.975858f, 1.0f, 0.816162f, 0.963914f, 0.754498f, 0.043229f, -0.052648f, 0.01407f, 0.284321f, 0.143872f, 0.267221f, 0.046901f, 0.752899f, 0.657717f, 0.503459f, 0.284552f, 0.13557f, 0.003988f, 0.027251f, 0.034595f, 0.031457f, 0.036301f, -0.025495f, -0.048075f, 0.043473f, 0.579575f, 0.763442f, 0.772137f, 1.0f, 0.772528f, 0.71603f, 0.752468f, 0.782164f, 0.66088f, 0.547246f, 0.78987f, 0.839557f, 0.6086f, 0.012332f, 0.242822f, 0.423893f, 0.336053f, 0.26409f, -0.02798f, 0.021875f, -0.007558f, 0.021805f},
    {0.031043f, -0.000376f, -0.017606f, -0.00539f, 0.017276f, 0.02392f, -0.022385f, -0.030274f, -0.028911f, 0.014586f, 0.022308f, 0.031154f, -0.150214f, -0.12681f, 0.089749f, 0.071387f, -0.026592f, 0.004692f, -0.012404f, 0.029578f, 0.027866f, 0.025618f, 0.02708f, -0.002314f, -0.001098f, 0.023563f, -0.029387f, 0.017976f, 0.024513f, -0.001361f, 0.009489f, -0.027177f, 0.132504f, 0.093648f, 0.15173f, 0.545985f, 0.504387f, 0.571592f, 0.530527f, 0.024265f, -0.192761f, 0.181882f, 0.163023f, 0.085555f, 0.607187f, -0.141532f, -0.072418f, -0.106506f, 0.007935f, 0.092686f, 0.003534f, 0.233776f, 0.005182f, 0.009342f, 0.003622f, 0.011143f, -0.034178f, -0.00357f, -0.054526f, -0.246293f, 0.638486f, 0.789895f, 0.030906f, 0.101167f, 0.424153f, 0.576403f, 0.677825f, 0.398189f, 0.163091f, -0.001884f, -0.144478f, 0.090471f, 0.36389f, 0.374678f, 0.31492f, 0.295116f, 0.842853f, 0.558734f, 0.285f, 0.467277f, 0.037526f, -0.025286f, 0.020415f, 0.01021f, -0.03475f, -0.024708f, 0.034413f, 0.199008f, 0.774064f, 0.702681f, 0.358704f, 0.370001f, 0.550712f, 0.384694f, 0.292017f, 0.058911f, 0.207095f, 0.289891f, -0.14776f, -0.456555f, -0.36138f, -0.6303f, -0.581309f, -0.565425f, -0.500891f, -0.790821f, -0.769737f, -0.337408f, -0.386477f, -0.454303f, -0.18081f, 0.00284f, 0.001388f, 0.074697f, 0.12777f, -0.020024f, 0.971689f, 0.090892f, 0.098615f, -0.078549f, -0.228887f, 0.032386f, 0.054571f, 0.044282f, 0.057599f, 0.014642f, -0.003897f, -0.101273f, -0.02353f, -0.254199f, -0.527561f, -0.702012f, -0.674401f, -0.151312f, 0.208184f, 0.43466f, 0.548044f, 0.328831f, -0.117943f, -0.235324f, 0.018667f, 0.010533f, 0.078293f, 0.029342f, -0.096639f, -0.371713f, -0.345558f, -0.376649f, -0.276717f, -0.004822f, 0.10158f, 0.006054f, -0.325742f, -0.87991f, -0.736111f, -0.665116f, -0.235998f, -0.132037f, -0.277818f, -0.208609f, 0.060325f, 0.473916f, 0.74325f, 0.55533f, 0.275139f, 0.308829f, 0.402076f, 0.016863f, 0.008149f, 0.021618f, -0.186702f, -0.378841f, -0.669804f, -0.404994f, -0.602333f, -0.731348f, -0.370731f, -0.076943f, -0.034552f, -0.117443f, -0.309224f, 0.019446f, 0.910151f, 1.0f, 0.998491f, 0.982475f, 0.949175f, 0.835425f, 0.752554f, 0.5647f, 0.37021f, 0.528199f, 0.288618f, 0.194508f, -0.007582f, -0.126111f, 0.184821f, 0.329981f, 0.759924f, -0.55549f, -0.587238f, -0.201371f, -0.654081f, -0.387148f, -0.111885f, -0.16853f, -0.220045f, -0.034545f, 0.165052f, 0.995156f, 0.99099f, 0.998752f, 0.999033f, 0.986192f, 0.968674f, 0.861029f, 0.514331f, 0.279814f, -0.028507f, 0.323921f, 0.504274f, 0.46326f, 0.140679f, -0.180163f, 0.280411f, 0.511929f, 0.304875f, -0.099829f, -0.023493f, 0.003497f, -0.135203f, -0.002917f, -0.157493f, -0.165464f, -0.123297f, -0.003805f, 0.220261f, 0.979313f, 0.997827f, 1.0f, 0.984068f, 0.375489f, 0.052256f, 0.017444f, -0.38325f, -0.376451f, -0.376395f, 0.352978f, 1.0f, 1.0f, 0.662061f, -0.176643f, 0.467297f, 0.351122f, -0.026429f, -0.009785f, 0.043716f, 0.011289f, -0.125628f, -0.25793f, 0.077368f, 0.274559f, 0.086293f, 0.167976f, -0.077646f, 0.080325f, -0.117024f, -0.879646f, -0.908388f, -0.959803f, -1.0f, -0.929156f, -0.615376f, -0.39886f, 0.03012f, 0.900064f, 1.0f, 1.0f, 0.703542f, -0.14737f, 0.408949f, 0.695955f, 0.113542f, -0.361929f, -0.233384f, -0.25374f, -0.043474f, 0.232446f, 0.603052f, 0.974319f, 0.903135f, 0.739125f, 0.156743f, -0.30245f, -0.978884f, -0.976619f, -0.985014f, -1.0f, -1.0f, -0.571397f, -0.342551f, -0.068226f, 0.149976f, 0.690587f, 0.980802f, 1.0f, 1.0f, 0.341685f, 0.525795f, 0.628372f, 0.144771f, -0.216869f, -0.397738f, -0.278821f, 0.083482f, 0.684151f, 0.977184f, 0.987877f, 1.0f, 0.897455f, 0.443276f, 0.205902f, -0.511964f, -0.989933f, -0.981315f, -0.999625f, -0.611593f, -0.294634f, 0.09346f, -0.039101f, -0.034019f, 0.023307f, 0.241495f, 0.960046f, 1.0f, 0.055671f, 0.363025f, 0.032133f, 0.01676f, -0.18344f, -0.222352f, 0.04095f, -0.066125f, 0.331382f, 0.951879f, 0.982774f, 0.800232f, 0.848573f, 0.673261f, 0.732227f, 0.061368f, -0.372673f, -0.254789f, -0.095383f, 0.013476f, 0.127269f, 0.193675f, 0.201277f, -0.094183f, -0.438341f, -0.437988f, 0.365285f, 0.345868f, -0.708317f, 0.191367f, 0.072884f, 0.010316f, 0.02675f, 0.114563f, 0.128944f, -0.18104f, 0.227004f, 0.680754f, 0.704097f, 0.506644f, 0.516219f, 0.767694f, 0.642246f, 0.324183f, 0.118523f, 0.264171f, 0.162905f, -0.037555f, -0.001565f, -0.047941f, -0.259702f, -0.672229f, -0.97875f, -0.817164f, -0.03525f, 0.08152f, -0.228041f, -0.097792f, -0.246005f, -0.038796f, 0.05465f, 0.158812f, -0.122233f, -0.545455f, -0.144272f, -0.115934f, -0.007216f, 0.042127f, 0.186933f, 0.207138f, 0.477903f, 0.158688f, 0.08194f, 0.178985f, -0.000886f, -0.290294f, -0.281562f, -0.227747f, -0.458945f, -0.796624f, -1.0f, -0.639031f, -0.058387f, 0.403283f, 0.051692f, -0.141547f, -0.121803f, 0.084458f, 0.056724f, 0.128343f, -0.175239f, -0.492322f, -0.128265f, -0.153643f, -0.187241f, 0.230905f, 0.21634f, 0.150952f, 0.513617f, 0.207689f, 0.109473f, 0.052016f, -0.523123f, -0.357854f, -0.177453f, -0.288681f, -0.276296f, -0.383886f, -0.532283f, -0.157748f, -0.238688f, -0.154056f, -0.137555f, 0.018924f, -0.444591f, -0.253925f, -0.025634f, 0.251175f, -0.059743f, -0.276957f, -0.107821f, 0.169213f, 0.10215f, 0.338498f, 0.522456f, 0.864674f, 0.832719f, 0.260387f, -0.07402f, -0.049597f, -0.410195f, -0.180226f, -0.086439f, -0.157838f, -0.141323f, -0.169078f, 0.034177f, 0.185941f, -0.092916f, -0.245268f, -0.115301f, 0.021628f, -0.2184f, -0.001702f, -0.031575f, 0.326525f, -0.048474f, -0.024305f, -0.108746f, -0.191871f, 0.013482f, 0.096308f, 0.476842f, 0.893422f, 0.504789f, -0.064088f, -0.02426f, -0.002627f, -0.19895f, -0.062115f, -0.052651f, -0.112806f, -0.033622f, 0.106433f, 0.174309f, 0.175936f, -0.459846f, 0.013644f, -0.310036f, 0.288011f, -0.271716f, 0.176098f, -0.360251f, 0.216501f, -0.106909f, 0.209199f, -0.07603f, -0.440167f, -0.038085f, -0.078815f, 0.18696f, -0.046418f, -0.035572f, -0.101818f, 0.053363f, 0.050454f, -0.021046f, -0.049795f, 0.023188f, 0.019795f, -0.067672f, 0.177028f, 0.211733f, -0.037776f, -0.080921f, 0.427505f, 0.503707f, -0.086911f, -0.227454f, -0.021493f, -0.735525f, 0.010006f, 0.057225f, 0.107911f, -0.013943f, -0.049347f, 0.00201f, -0.227018f, -0.204195f, -0.491282f, -0.611258f, -0.20128f, 0.073416f, -0.015554f, -0.001228f, -0.020724f, 0.188868f, 0.096108f, -0.259872f, 0.253904f, 0.267357f, -0.071686f, -0.412626f, 0.004557f, 0.584078f, 0.024509f, 0.16626f, 0.241544f, -0.840397f, -0.459056f, 0.027081f, -0.015657f, 0.028412f, 0.185875f, 0.024577f, -0.060285f, -0.347184f, -0.565276f, -0.425888f, -0.317126f, 0.095947f, -0.151727f, -0.00664f, 0.15378f, 0.21082f, -0.032576f, -0.283583f, 0.192483f, 0.064047f, -0.239604f, -0.17201f, 0.267811f, 0.182f, 0.106148f, 0.434702f, 0.476871f, -0.673455f, -0.719497f, -0.180399f, -0.007047f, 0.088009f, 0.214848f, 0.053514f, -0.113665f, -0.315934f, -0.340868f, -0.372553f, 0.002795f, -0.115152f, -0.234142f, -0.15955f, 0.08379f, -0.024477f, -0.053935f, -0.066806f, 0.155686f, -0.179512f, 0.051537f, -0.065073f, 0.053055f, -0.183533f, 0.110368f, 0.337268f, -0.039746f, -0.859958f, -0.788f, -0.25518f, 0.088486f, -0.23849f, -0.004337f, 0.022502f, 0.030059f, -0.029118f, 0.074185f, 0.026709f, 0.156449f, -0.112256f, -0.134551f, -0.078836f, 0.263439f, 0.279064f, -0.011024f, -0.205316f, -0.103805f, -0.107353f, 0.159536f, 0.043206f, -0.19681f, -0.193372f, -0.01097f, -0.017952f, -0.112051f, 0.064412f, -0.638596f, -0.327344f, 0.11735f, -0.057781f, -0.005493f, -0.045203f, 0.292646f, 0.481412f, 0.857562f, 0.847348f, 0.550904f, 0.492251f, 0.234591f, 0.399986f, 0.606832f, 0.503251f, 0.39727f, 0.166093f, -0.148575f, 0.229174f, 0.388037f, -0.117795f, -0.451346f, -0.008053f, 0.027956f, -0.0253f, 0.208463f, 0.892947f, 0.471222f, 0.175126f, 0.172734f, 0.138019f, 0.571852f, 0.5811f, 0.480619f, 0.480586f, 0.525936f, 0.173991f, 0.196881f, 0.62525f, 0.888118f, 0.892941f, 0.999532f, 0.988863f, 0.991181f, 0.821077f, 0.485564f, 0.568608f, 0.254923f, 0.001432f, -0.162923f, 0.024174f, -0.010128f, 0.030139f, 0.157101f, 0.305794f, 0.624977f, 0.662395f, -0.053139f, -0.006737f, 0.412185f, 0.201765f, 0.439953f, 0.591595f, 0.985381f, 0.913231f, 0.760266f, 1.0f, 0.996193f, 1.0f, 0.957651f, 0.985652f, 0.998721f, 1.0f, 0.890816f, 0.217286f, 0.533878f, -0.135429f, -0.206721f, 0.003541f, -0.0321f, 0.020067f, 0.020252f, 0.160572f, 0.140356f, -0.097416f, -0.365517f, -0.175243f, 0.177076f, -0.185904f, -0.516682f, -0.691451f, -0.691247f, -0.60669f, 0.131951f, -0.024472f, -0.438036f, -0.218016f, -0.042992f, 0.198128f, 0.769599f, 0.779558f, 0.785516f, 0.506139f, -0.107716f, 0.094229f, -0.020841f, 0.008692f, -0.023908f, 0.009112f, -0.002359f, -0.003258f, 0.176647f, 0.254041f, 0.353603f, 0.917683f, 1.0f, 0.765101f, 0.614145f, 0.765369f, 0.171789f, -0.108528f, 0.180098f, 0.346964f, 0.120261f, 0.085673f, 0.034562f, 0.699308f, 0.864316f, 0.476096f, 0.30763f, 0.343669f, 0.033717f, 0.007112f, 0.003992f, -0.024667f}
};

/* layer_1_Add*/
static const float tensor_layer_1_Add_bias[INPUT_LAYER_SIZE_ROW] =
{ 0.026164f, -0.002275f, 0.025878f, 0.017287f, -0.031247f, 0.034997f, 0.003763f, 0.009635f, -0.025935f, 0.014399f };

static const float tensor_layer_1_batch_mean[INPUT_LAYER_SIZE_ROW] =
{ -51.722569f, -5.655243f, 11.01075f, -14.500744f, 13.972339f, -36.042263f, -37.934093f, -29.402994f, -32.252815f, -20.455784f };

static const float tensor_layer_1_batch_var[INPUT_LAYER_SIZE_ROW] =
{ 3076.657959f, 4159.174316f, 3304.889648f, 2056.820312f, 3034.577637f, 2566.43457f, 3690.922363f, 3353.36499f, 2500.930664f, 2616.848633f };

static const float eps = 0.00001;

/* layer_1_MatMul*/
static int tensor_layer_1_MatMul_output[INPUT_LAYER_SIZE_ROW];
/* layer_1_BN*/
static float tensor_layer_1_BN_output[INPUT_LAYER_SIZE_ROW];
/* layer_1_Relu*/
static float tensor_layer_1_Relu_output[INPUT_LAYER_SIZE_ROW];


/* layer_2_MatMul*/
static const float tensor_layer_2_MatMul_weights[SECOND_LAYER_SIZE_ROW][SECOND_LAYER_SIZE_COL] =
{
    {-1.0f, -0.124686f, -0.004846f, -0.122473f, 1.0f, -0.00073f, 1.0f, -0.002573f, -0.939718f, -0.005988f},
    {1.0f, -0.956099f, -0.007248f, 1.0f, -0.070442f, -1.0f, -0.661692f, -0.661821f, 0.003102f, -0.013638f},
    {0.001466f, 0.079246f, -0.047468f, 0.026937f, -0.565788f, -0.043455f, 1.0f, 1.0f, 1.0f, -0.055886f},
    {1.0f, -0.003857f, -0.012375f, 0.002439f, -0.226255f, 1.0f, 1.0f, -0.002756f, 1.0f, -0.00652f},
    {-0.023732f, 1.0f, 1.0f, -1.0f, -0.117309f, -0.192617f, -0.265008f, -0.181431f, -5.4e-05f, 0.025722f},

    {-0.002773f, -0.055039f, 0.071096f, -0.020786f, 1.0f, 0.992842f, -0.885375f, -1.0f, 0.580654f, 0.996847f},
    {-1.0f, 1.0f, -0.878411f, 0.506026f, -0.010403f, 0.10101f, -0.276201f, 0.000455f, -0.210458f, -0.049734f},
    {1.0f, -0.225062f, 1.0f, -0.154511f, -0.024495f, -0.064036f, -0.02502f, 1.0f, 0.000379f, -0.995343f},
    {-0.024012f, -0.888871f, 1.0f, 1.0f, -0.023243f, -0.000964f, 0.009422f, -0.005627f, 1.0f, 1.0f},
    {0.63115f, 1.0f, 1.0f, -0.02767f, -0.014029f, 0.034312f, -0.030171f, 1.0f, -0.010215f, 1.0f}
};

/* layer_2_Add*/
static const float tensor_layer_2_Add_bias[SECOND_LAYER_SIZE_ROW] =
{ -0.181017f, -0.170812f, -0.027352f, -0.08161f, 0.159801f, -0.197555f, -0.244147f, 0.030796f, -0.096344f, -0.081618f };

static const float tensor_layer_2_batch_mean[SECOND_LAYER_SIZE_ROW] =
{ -2.267264f, -1.725592f, 0.431653f, 0.006849f, -1.305461f, -0.300697f, -1.214781f, -1.070487f, -0.02915f, 1.267425f };

static const float tensor_layer_2_batch_var[SECOND_LAYER_SIZE_ROW] =
{ 2.57153f, 3.016422f, 2.271281f, 2.890872f, 3.101202f, 2.375659f, 2.492572f, 3.733202f, 2.218753f, 3.689698f };


/* layer_2_MatMul*/
static int tensor_layer_2_MatMul_output[SECOND_LAYER_SIZE_COL];
/* layer_2_BN*/
static float tensor_layer_2_BN_output[SECOND_LAYER_SIZE_COL];
/* layer_2_Relu*/
static float tensor_layer_2_Relu_output[SECOND_LAYER_SIZE_COL];


//node_layer_1_MatMul(tensor_input, tensor_layer_1_MatMul_weights, tensor_layer_1_MatMul_output)
static inline void node_layer_1_MatMul(const int A[INPUT_LAYER_SIZE_COL],
    int Y[INPUT_LAYER_SIZE_ROW])
{
    /* MatMul */
    for (uint32_t c = 0; c < INPUT_LAYER_SIZE_ROW; c++) {
        Y[c] = 0;
        for (uint32_t i = 0; i < INPUT_LAYER_SIZE_COL; i++) {
            Y[c] += BINARISE(A[c]) * BINARISE(tensor_layer_1_MatMul_weights[c][i]) + BINARISE(tensor_layer_1_Add_bias[c]);
        }
    }
}

static inline void node_layer_1_BN(const int Y[INPUT_LAYER_SIZE_ROW], float tensor_layer_1_BN_output[INPUT_LAYER_SIZE_ROW])
{
    for (unsigned i1 = 0; i1 < INPUT_LAYER_SIZE_ROW; i1++) {
        tensor_layer_1_BN_output[i1] = ((float)Y[i1] - tensor_layer_1_batch_mean[i1]) / (tensor_layer_1_batch_var[i1] + eps) * GAMMA;
    }
}

static inline void node_layer_1_ReLU(const float tensor_layer_1_BN_output[INPUT_LAYER_SIZE_ROW], float tensor_layer_1_Relu_output[INPUT_LAYER_SIZE_ROW])
{
    for (unsigned i1 = 0; i1 < INPUT_LAYER_SIZE_ROW; i1++) {
        tensor_layer_1_Relu_output[i1] = RELU(tensor_layer_1_BN_output[i1]);
    }
    
}

static inline void node_layer_2_MatMul(const float A[SECOND_LAYER_SIZE_ROW],
    int Y[SECOND_LAYER_SIZE_ROW])
{
    /* MatMul */
    for (uint32_t c = 0; c < SECOND_LAYER_SIZE_ROW; c++) {
        Y[c] = 0;
        for (uint32_t i = 0; i < SECOND_LAYER_SIZE_COL; i++)
        {
            Y[c] += BINARISE(A[i]) * BINARISE(tensor_layer_2_MatMul_weights[c][i]) + BINARISE(tensor_layer_2_Add_bias[c]);
        }
    }
}

static inline void node_layer_2_BN(const int Y[SECOND_LAYER_SIZE_ROW], float tensor_layer_1_BN_output[SECOND_LAYER_SIZE_ROW])
{
    for (unsigned i1 = 0; i1 < SECOND_LAYER_SIZE_ROW; i1++) {
        tensor_layer_2_BN_output[i1] = ((float)Y[i1] - tensor_layer_2_batch_mean[i1]) / (tensor_layer_2_batch_var[i1] + eps);
    }
    
}

static inline void node_layer_2_ReLU(const float tensor_layer_2_BN_output[SECOND_LAYER_SIZE_ROW],
    float tensor_layer_2_Relu_output[SECOND_LAYER_SIZE_ROW])
{
    for (unsigned i1 = 0; i1 < SECOND_LAYER_SIZE_ROW; i1++) {
        tensor_layer_2_Relu_output[i1] = RELU(tensor_layer_2_BN_output[i1]);
    }
    
}

static inline void node_layer_Sigmoid(const float tensor_layer_2_Add_output[SECOND_LAYER_SIZE_ROW],
    float tensor_layer_2_Relu_output[SECOND_LAYER_SIZE_ROW])
{
    for (unsigned i1 = 0; i1 < SECOND_LAYER_SIZE_ROW; i1++) {
        tensor_layer_2_Relu_output[i1] = HARD_SIGMOID(tensor_layer_2_Add_output[i1]);
    }
}



int main()
{
    int tensor_input[INPUT_LAYER_SIZE_COL];
    float tensor_output[INPUT_LAYER_SIZE_ROW];

    for (int i = 0; i < INPUT_LAYER_SIZE_COL; i++) {
        tensor_input[i] = nondet_int();
        __ESBMC_assume((tensor_input[i] == -1) || (tensor_input[i] == 1));
    }

    node_layer_1_MatMul(tensor_input, tensor_layer_1_MatMul_output);
    node_layer_1_BN(tensor_layer_1_MatMul_output, tensor_layer_1_BN_output);
    node_layer_1_ReLU(tensor_layer_1_BN_output, tensor_layer_1_Relu_output);

    node_layer_2_MatMul(tensor_layer_1_Relu_output, tensor_layer_2_MatMul_output);
    node_layer_2_BN(tensor_layer_2_MatMul_output, tensor_layer_2_BN_output);
    node_layer_2_ReLU(tensor_layer_2_BN_output, tensor_layer_2_Relu_output);

    node_layer_Sigmoid(tensor_layer_2_Relu_output, tensor_output);

    for (int i = 0; i < 10; i++) {
	printf("tensor_output[%d]: %f\n",i,tensor_output[i]);
        __ESBMC_assert(tensor_output[i] >= 0, "");
    }

    return 0;
}
