#include <float.h>
#include <math.h>
#include <stdbool.h>
#include <stdint.h>
#include <string.h>
#include<stdio.h>
#define MAX(X,Y) ( X > Y ? X : Y)
#define MIN(X,Y) ( X < Y ? X : Y)
#define CLIP(X,L) ( MAX(MIN(X,L), -L) )
#define BINARISE(X) ( X>=0? 1:-1)
#define RELU(X) MAX(0,X)
#define HARD_SIGMOID(X) MAX( 0 , MIN( 1 ,((X+1)/2) ) )

#define INPUT_LAYER_SIZE_ROW 160
#define INPUT_LAYER_SIZE_COL 784

#define SECOND_LAYER_SIZE_ROW INPUT_LAYER_SIZE_ROW
#define SECOND_LAYER_SIZE_COL INPUT_LAYER_SIZE_ROW

#define THIRD_LAYER_SIZE_ROW INPUT_LAYER_SIZE_ROW
#define THIRD_LAYER_SIZE_COL INPUT_LAYER_SIZE_ROW


#define IMAGE_SIZE 784

/* layer_1_MatMul*/
static const float tensor_layer_1_MatMul_weights[INPUT_LAYER_SIZE_ROW][784] =
{
    {0.018262f, -0.015903f, -0.007063f, 0.016623f, -0.033763f, 0.021279f, -0.007487f, 0.01803f, 0.004825f, -0.004513f, 0.009766f, 0.001622f, -0.089212f, -0.25317f, -0.165302f, -0.052442f, 0.005037f, -0.000282f, 0.03108f, 0.010974f, -0.01344f, -0.02171f, -0.006126f, -0.015545f, -0.011584f, 0.00157f, 0.021151f, 0.019272f, -0.035052f, 0.022f, 0.009837f, 0.033737f, -0.060941f, -0.128611f, 0.026416f, 0.118874f, -0.14107f, -0.797046f, -0.816445f, -0.916049f, -0.613672f, -0.056993f, 0.204243f, 0.048903f, -0.278112f, -0.23285f, -0.508171f, -0.44773f, -0.537955f, 0.221234f, 0.056702f, -0.02026f, 0.01924f, -0.008821f, 0.035433f, 0.028488f, -0.001812f, -0.023978f, 0.16354f, -0.308015f, -0.548422f, -0.558711f, -0.377667f, 0.120743f, -0.295034f, -0.828644f, -0.998496f, -0.998387f, -0.885733f, -0.285446f, -0.250442f, -0.437766f, -0.526642f, -0.331293f, -0.34606f, -0.928516f, -0.658084f, -0.267259f, -0.555247f, -0.136274f, -0.129531f, -0.510216f, 0.002032f, -0.006226f, 0.020836f, -0.020823f, 0.123744f, -0.543737f, -0.483486f, -0.393207f, -0.475411f, -0.297797f, -0.62343f, -0.875619f, -0.814011f, -0.740797f, -0.156734f, 0.321355f, 0.092598f, -0.094309f, -0.014338f, -0.037519f, -0.295685f, -0.608317f, -0.553623f, -0.392443f, -0.101495f, -0.292666f, -0.106186f, -0.285373f, 0.079674f, 0.026537f, 0.033725f, -0.194766f, -0.138787f, -0.278155f, -0.433021f, -0.60968f, -0.533036f, -0.300198f, -0.845047f, -0.99089f, -0.407442f, -0.291319f, -0.419138f, -0.295415f, -0.351093f, -0.185708f, -0.243813f, -0.19228f, -0.28679f, -0.094001f, -0.146099f, 0.060213f, -0.140743f, -0.086856f, 0.410189f, -0.225306f, -0.56829f, -0.359174f, -0.016505f, -0.004299f, -0.252884f, -0.218837f, -0.417202f, -0.224141f, -0.106858f, -0.221388f, -0.430972f, -0.642772f, -0.428747f, -0.44359f, -0.51732f, -0.128377f, -0.143162f, -0.221303f, -0.471579f, -0.214921f, -0.067507f, -0.145859f, -0.242262f, -0.454919f, -0.360039f, -0.253604f, -0.317527f, -0.740021f, -0.491065f, -0.233259f, -0.028601f, -0.181543f, -0.201398f, 0.089029f, -0.101476f, -0.056427f, -0.033943f, -0.090093f, -0.116146f, -0.126314f, 0.02722f, -0.112948f, -0.275292f, 0.049154f, 0.109141f, -0.207201f, -0.253223f, -0.013018f, 0.022536f, 0.012814f, -0.07936f, -0.107568f, -0.265393f, -0.392425f, -0.531868f, -0.903701f, -1.0f, -0.376641f, 0.093769f, -0.376226f, -0.050552f, 0.109155f, -0.11553f, -0.37171f, -0.210445f, -0.184958f, -0.068313f, -0.00511f, -0.145996f, -0.269658f, -0.107513f, -0.108913f, -0.16185f, -0.157094f, 0.114358f, 0.224884f, 0.320542f, 0.460954f, 0.307351f, 0.228733f, 0.112061f, 0.045609f, -0.281306f, -0.593427f, -1.0f, -0.851954f, 0.123399f, -0.358773f, -0.160725f, -0.089762f, -0.226346f, -0.33102f, -0.099003f, 0.13974f, 0.053229f, -0.106874f, -0.105822f, -0.237261f, -0.241751f, -0.334886f, -0.2074f, 0.030921f, 0.425687f, 0.220449f, 0.079242f, 0.202876f, 0.231807f, 0.237558f, 0.157745f, 0.117695f, -0.02841f, -0.530209f, -1.0f, -0.192525f, 0.174109f, -0.401754f, -0.127517f, -0.40866f, -0.778124f, -0.206333f, 0.262114f, 0.152235f, 0.074836f, -0.215124f, -0.491504f, -0.266209f, -0.1088f, 0.09575f, 0.448054f, 0.560222f, 0.641302f, 0.515807f, 0.354595f, 0.22517f, 0.005942f, -0.180663f, 0.20322f, 0.352216f, 0.019535f, -0.370966f, -0.579423f, -0.169737f, 0.042386f, -0.428386f, 0.012318f, -0.504845f, -0.828095f, 0.19206f, 0.292359f, 0.152319f, -0.022093f, -0.240601f, -0.326775f, -0.015514f, 0.302491f, 0.651006f, 0.934218f, 0.86061f, 0.931355f, 0.967224f, 0.348146f, 0.15325f, 0.108599f, 0.294253f, 0.472904f, 0.479632f, 0.199699f, 0.212326f, -0.120759f, -0.25204f, -0.072572f, 0.125697f, -0.019654f, -0.496233f, -0.637655f, 0.1155f, 0.394438f, -0.019341f, 0.049289f, 0.031642f, -0.06812f, 0.007797f, 0.363621f, 0.642238f, 0.452401f, 0.37644f, 0.688258f, 0.227034f, -0.197f, -0.073969f, 0.352655f, 0.70255f, 0.860625f, 0.476032f, -0.220842f, -0.243802f, -0.358961f, -0.319614f, -0.173588f, -0.026574f, 0.009874f, -0.026456f, -0.043267f, 0.552602f, 0.722285f, 0.426403f, 0.100596f, 0.002318f, -0.171693f, 0.231423f, 0.609734f, 0.281638f, -0.522613f, -0.600242f, -0.503546f, -0.65298f, -0.670405f, -0.448681f, -0.067212f, 0.483803f, 0.8152f, 0.249842f, -0.02633f, -0.372387f, -0.051199f, -0.102751f, 0.130837f, 0.079018f, 0.002405f, -0.05121f, 0.141732f, 0.823352f, 0.656827f, 0.526439f, 0.292872f, 0.040452f, -0.001792f, 0.252689f, -0.023866f, -0.92156f, -0.967128f, -0.960375f, -0.900496f, -0.987013f, -1.0f, -0.789306f, -0.202758f, 0.297193f, 0.746016f, 0.493532f, 0.305653f, 0.052326f, 0.037039f, -0.100473f, -0.095091f, -0.112968f, -0.133158f, -0.13067f, 0.133945f, 0.487187f, 0.583642f, 0.218117f, 0.1211f, 0.160675f, -0.067737f, -0.137418f, -0.985836f, -0.993495f, -0.973212f, -0.98554f, -1.0f, -1.0f, -1.0f, -0.71729f, -0.024582f, 0.071686f, 0.527879f, 0.719342f, 0.429374f, -0.148901f, -0.531142f, 0.004728f, -0.123434f, 0.239426f, -0.127226f, -0.17597f, 0.249559f, 0.142873f, 0.314088f, -0.002253f, 0.098722f, -0.049775f, -0.266922f, -0.541488f, -1.0f, -1.0f, -0.998662f, -0.999713f, -1.0f, -1.0f, -0.800124f, -0.212514f, 0.134032f, 0.227732f, 0.310165f, 0.636091f, 0.269753f, -0.44939f, -0.634883f, -0.253153f, -0.02483f, -0.169043f, -0.364069f, -0.372731f, 0.454865f, 0.217336f, 0.362054f, 0.346192f, 0.319054f, -0.000269f, -0.481514f, -0.760335f, -0.890331f, -0.873546f, -0.920593f, -0.92503f, -0.865283f, -0.584822f, -0.458727f, -0.286427f, -0.212727f, -0.162313f, 0.231211f, 0.37408f, 0.063356f, -0.981802f, -0.124827f, -0.062229f, -0.034344f, -0.323108f, -0.560474f, -0.641188f, 0.299963f, 0.413302f, 0.415208f, 0.275122f, 0.128386f, 0.015933f, -0.377527f, -0.779799f, -0.833528f, -0.702192f, -0.515109f, -0.282992f, -0.177453f, -0.388276f, -0.377479f, -0.429524f, -0.437857f, -0.285668f, 0.219646f, 0.297457f, 0.27439f, -0.87514f, 0.024708f, -0.106903f, -0.075574f, -0.147635f, -0.257687f, -0.998625f, 0.175465f, 0.233962f, 0.315887f, 0.282798f, 0.185737f, 0.325727f, 0.205213f, -0.21906f, 0.058326f, 0.009758f, 0.254848f, 0.123398f, -0.281218f, -0.340562f, -0.0975f, -0.298407f, -0.452708f, -0.126993f, 0.182554f, 0.416597f, 0.511003f, -0.921517f, -0.234235f, -0.123145f, -0.015015f, -0.25116f, -0.146982f, -0.92925f, -0.067802f, 0.138005f, -0.024142f, 0.233873f, 0.288106f, 0.275879f, -0.061535f, -0.076016f, 0.035847f, 0.081738f, -0.080583f, -0.275688f, -0.51781f, -0.202292f, -0.170711f, -0.493118f, -0.306753f, -0.155231f, 0.062551f, 0.408149f, 0.240121f, -0.232215f, -0.178486f, -0.104183f, -0.015885f, -0.201165f, -0.298528f, -0.905491f, -0.167979f, 0.151611f, -0.001203f, 0.11685f, 0.262897f, 0.159139f, -0.242658f, -0.160098f, -0.089217f, -0.125909f, -0.164943f, -0.299796f, -0.364476f, -0.214022f, -0.198149f, -0.289263f, -0.083718f, 0.112633f, 0.172896f, 0.135533f, -0.399729f, 0.019767f, -0.131528f, 0.042427f, -0.096144f, 0.075016f, 0.009125f, -0.894778f, -0.333377f, -0.088428f, -0.121663f, -0.060835f, -0.032498f, -0.058033f, -0.164248f, -0.150371f, -0.059699f, -0.250727f, -0.054852f, 0.076103f, -0.101835f, 0.021659f, -0.1319f, 0.019546f, 0.20179f, 0.371711f, 0.19686f, -0.316065f, -0.484421f, -0.236722f, -0.010248f, 0.115974f, -0.098375f, 0.050048f, -0.309243f, -0.148194f, -0.553091f, -0.453716f, -0.207443f, -0.017254f, -0.059514f, 0.031883f, 0.014427f, 0.037062f, -0.007658f, 0.196933f, 0.180988f, 0.019711f, -0.297923f, -0.211026f, -0.007228f, 0.163811f, 0.313568f, 0.211721f, 0.114362f, -0.25924f, -0.143594f, -0.037468f, 0.145334f, 0.128137f, 0.022612f, 0.015667f, -0.615508f, 0.107941f, -0.037909f, 0.086022f, -0.332839f, -0.146982f, -0.081722f, -0.029979f, 0.089582f, 0.154232f, -0.086562f, -0.057569f, 0.184647f, -0.114053f, -0.293307f, 0.002309f, 0.003292f, -0.191732f, -0.198426f, -0.099428f, -0.423397f, -0.571077f, -0.383182f, 0.089405f, -0.076223f, -0.004145f, -0.033226f, 0.006482f, -0.558319f, -0.290635f, -0.05268f, -0.038811f, -0.17281f, 0.104813f, -0.168662f, -0.05716f, 0.150376f, 0.066824f, -0.063571f, 0.096883f, 0.074912f, -0.321806f, -0.225186f, 0.012025f, -0.033689f, -0.76411f, -0.821239f, -0.64876f, -0.620386f, -0.507078f, -0.341883f, -0.173491f, -0.127997f, 0.025f, -0.022917f, -0.02096f, -0.276923f, -0.185636f, 0.291206f, 0.102774f, -0.115341f, -0.003435f, 0.038955f, 0.027933f, -0.121375f, -0.04563f, -0.203209f, -0.094687f, -0.127274f, -0.044394f, -0.246177f, -0.165496f, -0.449951f, -1.0f, -0.644235f, -0.154618f, -0.440066f, -0.602733f, -0.209348f, 0.016668f, -0.179053f, -0.013945f, 0.002255f, -0.01386f, 0.033484f, -0.040953f, -0.014297f, 0.173689f, 0.106729f, 0.092025f, -0.130445f, -0.171869f, -0.200567f, -0.23333f, -0.225082f, -0.160555f, -0.034438f, 0.060666f, 0.005737f, -0.177379f, -0.673004f, -0.583624f, -0.561075f, 0.168549f, 0.005774f, -0.691033f, 0.015983f, 0.06212f, -0.012604f, 0.028154f, 0.027088f, 0.022649f, -0.015067f, -0.007213f, -0.042241f, -0.34529f, -0.77992f, -0.896679f, -0.864837f, -1.0f, -0.834832f, -0.566232f, -0.697053f, -0.46634f, -0.289131f, -0.705106f, -0.981738f, -0.366512f, -0.636972f, -0.314542f, -0.379136f, 0.150887f, 0.095239f, -0.267841f, -0.017092f, 0.006702f, -0.004172f, 0.002426f},
{-0.027502f, -0.022571f, -0.031051f, -0.025802f, 0.029775f, 0.013136f, -0.034193f, -0.006093f, 0.002734f, 0.018947f, 0.032991f, 0.008492f, 0.175634f, 0.240419f, 0.172753f, 0.070874f, 0.008095f, 0.032834f, 0.022295f, 0.035406f, -0.016225f, -0.004601f, 0.007234f, 0.028581f, -0.032963f, -0.017672f, 0.005048f, -0.020776f, 0.013209f, -0.002567f, -0.009387f, 0.019021f, 0.045471f, 0.075067f, -0.412907f, -0.284029f, 0.060709f, -0.021205f, 0.069368f, 0.509793f, 0.43361f, 0.637805f, 0.493562f, 0.369089f, 0.053456f, -0.052955f, -0.197543f, -0.04466f, -0.064354f, -0.071207f, -0.084122f, -0.175723f, 0.031762f, -0.034643f, -0.008489f, 0.027565f, 0.015317f, -0.017951f, -0.166412f, 0.161277f, 0.166279f, -0.184668f, -0.11189f, -0.123375f, -0.011754f, -0.281305f, -0.527646f, -0.64216f, -0.857148f, -0.638929f, -0.016256f, -0.220409f, -0.452754f, -0.284912f, -0.019429f, 0.338354f, 0.271563f, 0.036901f, 0.105772f, -0.025914f, 0.024435f, -0.089565f, -0.011204f, -0.030013f, 0.007711f, 0.022106f, -0.204098f, 0.048445f, -0.02585f, -0.165325f, 0.015249f, -0.126685f, -0.359412f, -0.464322f, -0.220445f, -0.639234f, -0.539068f, -0.204569f, -0.379934f, -0.005254f, -0.363382f, -0.6131f, -0.517031f, -0.186502f, -0.423604f, -0.217112f, -0.380196f, 0.065575f, 0.199049f, 0.173272f, 0.004905f, -0.020045f, -0.017068f, 0.131659f, -0.144429f, -0.564972f, -0.417735f, -0.400651f, -0.23633f, -0.067507f, 0.317252f, 0.381756f, 0.338343f, -0.024583f, -0.032308f, -0.072948f, 0.037366f, -0.079892f, 0.179756f, 0.542394f, 0.632018f, 0.562634f, 0.465758f, 0.065964f, -0.121681f, -0.23788f, -0.062367f, -0.168052f, -0.415607f, -0.215334f, 0.005499f, -0.033402f, 0.061312f, -0.453234f, -0.011581f, 0.070307f, -0.173301f, -0.022838f, 0.000319f, 0.189028f, -0.169932f, -0.027794f, -0.229242f, -0.301477f, -0.133047f, -0.074347f, 0.208346f, 0.527709f, 0.560083f, 0.690147f, 0.62766f, 0.102402f, -0.0964f, -0.458759f, -0.365841f, -0.531349f, -0.825378f, -0.159963f, 0.001363f, 0.017097f, -0.344586f, 0.050344f, 0.334281f, -0.167473f, -0.167992f, -0.002507f, -0.144525f, -0.372285f, -0.080641f, 0.094834f, -0.052666f, -0.227146f, -0.338058f, -0.133093f, 0.284193f, 0.163884f, 0.072673f, 0.101075f, 0.069536f, -0.441742f, -0.507743f, -0.374889f, -0.358451f, -0.327893f, -0.558464f, 0.237727f, -0.099576f, 0.053944f, -0.845751f, -0.346809f, 0.27457f, -0.083145f, -0.005982f, -0.150558f, -0.247198f, -0.323067f, -0.03719f, 0.006019f, -0.019889f, -0.471433f, -0.686723f, -0.537492f, -0.11086f, 0.143369f, 0.247398f, -0.181347f, -0.146617f, -0.445279f, -0.803602f, -0.259967f, -0.395568f, -0.239078f, 0.063186f, 0.040066f, -0.109415f, -0.089919f, -1.0f, -0.489201f, 0.468847f, 0.591404f, 0.33477f, -0.190532f, -0.304126f, -0.620398f, -0.40476f, -0.394858f, -0.243922f, -0.291144f, -0.374791f, 0.019453f, 0.153351f, 0.134899f, 0.05749f, 0.083147f, -0.0461f, 0.161336f, 0.163762f, 0.298139f, 0.145618f, -0.120786f, 0.227642f, -0.183905f, 0.072237f, -0.204465f, -0.752488f, -0.340667f, 0.530688f, 0.67399f, 0.352259f, 0.072476f, -0.333386f, -0.268968f, -0.19353f, -0.372827f, -0.023044f, 0.115972f, 0.493936f, 0.405853f, 0.092609f, -0.230348f, -0.490046f, -0.55067f, -0.300025f, 0.389224f, 0.650326f, 0.540938f, 0.139966f, 0.570859f, 0.47126f, -0.137628f, 0.136066f, -0.123273f, -0.398183f, -0.330746f, 0.787197f, 0.56266f, 0.222249f, 0.007234f, -0.318742f, 0.018878f, 0.07412f, -0.09536f, 0.447499f, 0.884062f, 0.988061f, 0.451458f, -0.311697f, -0.742754f, -0.80499f, -0.645021f, -0.258129f, 0.361967f, 0.513253f, -0.142911f, -0.438046f, -0.324969f, -0.219449f, -0.106021f, -0.091494f, -0.711064f, -0.684939f, 0.077499f, 0.840801f, 0.699757f, 0.225901f, -0.033187f, -0.06132f, 0.108265f, 0.08178f, 0.119655f, 0.843963f, 1.0f, 1.0f, 0.395308f, -0.624725f, -0.615263f, -0.836179f, -0.616759f, -0.084354f, -0.089402f, -0.479372f, -0.7533f, -1.0f, -0.980919f, -0.181585f, -0.155214f, 0.074958f, -0.372672f, -0.434203f, -0.06111f, 0.28793f, 0.293911f, 0.056676f, 0.244796f, 0.309567f, 0.276645f, 0.21589f, 0.51691f, 0.979508f, 1.0f, 1.0f, 0.365527f, -0.394842f, -0.486232f, -0.473979f, 0.170244f, 0.284282f, -0.271545f, -0.866785f, -0.864488f, -0.950387f, -1.0f, -0.371034f, -0.230679f, -0.121774f, -0.255878f, -0.232721f, -0.136275f, -0.1639f, 0.03057f, 0.140374f, 0.364455f, 0.400517f, 0.10175f, -0.057468f, 0.255606f, 0.962621f, 0.993978f, 1.0f, 0.543371f, 0.292594f, -0.070978f, -0.093008f, 0.185314f, 0.328806f, -0.46404f, -0.917324f, -0.89072f, -0.879855f, -0.782471f, -0.128689f, -0.196001f, 0.081963f, 0.381709f, 0.178178f, -0.18898f, -0.523701f, -0.354885f, -0.208129f, 0.039245f, 0.225868f, 0.142042f, -0.126106f, 0.123586f, 0.957802f, 0.969557f, 1.0f, 0.441949f, 0.227386f, -0.026831f, 0.187868f, 0.204855f, 0.189167f, -0.251151f, -0.844239f, -0.856786f, -0.895708f, -0.48794f, -0.422895f, -0.274613f, 0.017191f, 0.163869f, 0.157699f, 0.186706f, -0.474189f, -0.954117f, -0.631502f, -0.200438f, -0.026115f, -0.111663f, -0.493125f, -0.414321f, 0.102231f, 0.378927f, 0.787253f, 0.041805f, -0.031916f, -0.222531f, -0.160062f, -0.097321f, -0.015237f, -0.061247f, -0.397623f, -0.481943f, -0.938701f, -0.76061f, -0.683268f, -0.094809f, -0.080516f, 0.355378f, -0.013495f, 0.145134f, -0.46113f, -0.750371f, -0.643613f, -0.403588f, -0.371315f, -0.620608f, -0.881582f, -0.993581f, -0.268881f, 0.068802f, 0.312049f, -0.283596f, -0.080465f, -0.228925f, -0.281123f, -0.102763f, -0.130453f, -0.160081f, -0.262728f, -0.206826f, -0.558686f, -0.688471f, -0.628349f, -0.092765f, 0.010115f, -0.147869f, -0.239833f, 0.07953f, -0.107759f, -0.310396f, -0.681751f, -0.410014f, -0.327772f, -0.87701f, -0.994214f, -0.973705f, -0.20582f, 0.019254f, -0.043834f, -0.134331f, -0.054928f, -0.066391f, -0.222179f, -0.187928f, 0.034638f, -0.067444f, 0.12593f, 0.120477f, -0.274882f, -0.649378f, -0.331233f, -0.122541f, 0.058025f, -0.281522f, -0.32094f, -0.085048f, 0.207142f, 0.008656f, -0.343625f, -0.387478f, -0.512959f, -0.913872f, -0.939505f, -0.773527f, 0.060499f, 0.233926f, -0.055447f, -0.021554f, 0.109242f, -0.276828f, -0.373586f, 0.086898f, 0.031124f, 0.165563f, 0.417905f, 0.208671f, -0.744231f, -0.750818f, -0.192877f, 0.141805f, -0.048728f, -0.263339f, -0.172418f, -0.25034f, 0.224111f, -0.012645f, -0.103319f, -0.214746f, -0.19337f, -0.340631f, -0.638626f, -0.226281f, 0.303216f, 0.503774f, -0.073717f, -0.093845f, -0.015545f, -0.526954f, -0.507594f, -0.037495f, 0.180326f, 0.467339f, 0.521883f, 0.117477f, -0.610183f, -0.531896f, -0.716865f, 0.121542f, -0.019815f, 0.037982f, -0.370357f, -0.351636f, -0.075811f, -0.026447f, -0.095319f, -0.290084f, -0.188789f, 0.102946f, -0.174357f, 0.011952f, 0.35898f, 0.476784f, 0.094217f, -0.27443f, -0.286869f, -0.486454f, -0.295155f, 0.188255f, 0.513866f, 0.725339f, 0.797897f, 0.616649f, -0.407155f, -0.285835f, -0.318032f, -0.166935f, -0.160627f, -0.039928f, -0.032524f, -0.405658f, -0.358282f, 0.014379f, 0.042822f, -0.107202f, -0.020372f, 0.01892f, -0.11507f, -0.180972f, 0.173942f, 0.218866f, 0.202769f, -0.220338f, -0.13702f, -0.209194f, 0.122566f, 0.419115f, 0.544138f, 0.880827f, 0.655204f, 0.370795f, -0.329646f, -0.48167f, -0.200162f, -0.063192f, -0.141568f, -0.083457f, -0.348502f, -0.214894f, -0.062163f, -0.205605f, 0.248123f, -0.198427f, 0.006639f, -0.052956f, -0.119972f, -0.000627f, 0.292757f, 0.158678f, 0.147453f, 0.099645f, 0.350941f, 0.202547f, 0.487438f, 0.675461f, 0.935397f, 0.889125f, 0.333189f, -0.16193f, -0.160888f, 0.008706f, -0.221006f, -0.056787f, 0.007316f, 0.031156f, -0.324097f, -0.125818f, -0.121288f, -0.064628f, 0.207192f, 0.056568f, 0.144174f, 0.142976f, -0.220787f, -0.22447f, 0.062761f, -0.01205f, -0.270123f, -0.197103f, 0.086916f, 0.260875f, 0.559008f, 0.834988f, 0.939999f, 0.480529f, -0.176208f, -0.913192f, -0.420602f, 0.06037f, -0.116968f, -0.000752f, 0.018275f, -0.030403f, -0.613708f, -0.229631f, 0.279916f, 0.416765f, 0.055446f, 0.312299f, 0.181724f, 0.109759f, -0.210914f, -0.607551f, -0.312585f, -0.368282f, -0.077178f, 0.119587f, 0.122616f, -0.146814f, -0.079438f, -0.006546f, -0.01827f, -0.194462f, -0.320357f, -0.425589f, 0.031819f, 0.398763f, 0.017972f, -0.03568f, -0.002622f, -0.006234f, 0.047862f, -0.17362f, -0.25132f, -0.11229f, -0.282268f, 0.056431f, 0.153991f, 0.131605f, -0.040751f, -0.132406f, 0.124328f, -0.027543f, 0.028473f, 0.002433f, -0.3388f, -0.34781f, -0.400168f, -0.398653f, -0.619538f, -0.413883f, -0.093901f, 0.199576f, 0.264933f, -0.047914f, 0.137746f, 0.004423f, -0.024706f, 0.024753f, 0.033226f, 0.022983f, 0.11066f, -0.047548f, -0.149055f, 0.570647f, 0.756191f, 0.739161f, 0.587014f, 0.461329f, -0.128124f, -0.747005f, -0.910025f, -0.905994f, -0.921939f, -0.945433f, -0.937211f, -0.464863f, -0.342272f, -0.300291f, -0.070647f, 0.26838f, 0.016703f, -0.076158f, 0.022186f, 0.014756f, 0.014595f, 0.009904f, -0.027587f, -0.02174f, 0.304047f, 0.756497f, 0.986834f, 0.917732f, 0.993862f, 1.0f, 1.0f, 0.986668f, 0.994058f, 0.864263f, 0.485225f, 0.185058f, 0.003578f, -0.238004f, -0.380095f, -0.093561f, 0.341191f, 0.199136f, -0.245759f, -0.18847f, -0.035687f, -0.003016f, 0.001166f, -0.016777f},
{0.027974f, -0.009676f, -0.034245f, -0.02152f, 0.00095f, -0.026773f, 0.007962f, 0.034548f, 0.001267f, -0.008994f, 0.033451f, 0.02617f, -0.080296f, -0.137729f, -0.156163f, -0.067823f, 0.00344f, 0.034542f, 0.001693f, -0.032066f, 0.019407f, 0.031857f, 0.029745f, 0.001489f, 0.006514f, 0.005584f, -0.014833f, -0.005406f, 0.028941f, 0.003448f, 0.033465f, -0.023912f, -0.092848f, -0.094971f, -0.332723f, -0.203717f, 0.07665f, -0.165133f, -0.43059f, 0.064201f, -0.239778f, -1.0f, -0.405172f, -0.2761f, -0.286803f, -0.189489f, 0.309893f, 0.336197f, 0.210586f, 0.363952f, 0.288232f, 0.325938f, 0.001554f, -0.002959f, 0.012757f, 0.016476f, -0.017955f, -0.014263f, 0.169645f, 0.275606f, -0.433926f, -0.259387f, 0.077922f, -0.200495f, 0.119904f, 0.407153f, 0.830902f, 0.694836f, 0.445662f, 0.445118f, 0.036199f, 0.100919f, 0.150323f, 0.092243f, -0.359038f, -0.192836f, 0.127126f, -0.08426f, -0.002489f, 0.322477f, 0.007302f, -0.185343f, -0.020762f, 0.019319f, 0.032578f, -0.011062f, 0.200256f, 0.448915f, -0.024f, 0.155578f, 0.383871f, 0.415004f, 0.631141f, 0.759039f, 0.677026f, 0.506629f, 0.406163f, 0.449077f, 0.636948f, 0.482425f, 0.45372f, 0.345269f, 0.05617f, 0.398299f, 0.686123f, 0.343283f, -0.030283f, 0.384916f, 0.464571f, 0.231703f, 0.167428f, -0.005174f, -0.011141f, -0.195538f, -0.038949f, -0.170731f, 0.10529f, 0.846929f, 0.348484f, 0.293748f, 0.376161f, 0.360757f, -0.012232f, 0.047583f, 0.302825f, 0.191059f, 0.076431f, 0.244823f, 0.341998f, 0.216358f, 0.001142f, 0.034214f, 0.266712f, 0.142682f, -0.072211f, -0.449105f, -0.371825f, 0.107626f, 0.259208f, 0.329473f, -0.002303f, 0.016492f, 0.087626f, -0.284042f, 0.390571f, 0.504698f, 0.345436f, 0.338345f, 0.275361f, 0.206379f, -0.225996f, -0.033056f, 0.126841f, -0.444711f, -0.432392f, -0.180614f, -0.10235f, -0.151979f, -0.222958f, -0.10565f, -0.253919f, -0.114597f, -0.435804f, -0.281169f, -0.36601f, 0.061446f, 0.167912f, 0.051691f, 0.00505f, 0.060447f, 0.151374f, -0.041988f, 0.519624f, 0.693937f, 0.444886f, 0.263352f, 0.143243f, 0.062796f, 0.044039f, 0.118094f, -0.086738f, -0.076377f, -0.172736f, -0.067931f, -0.169272f, -0.516455f, 0.060917f, 0.067726f, -0.033783f, 0.036547f, -0.430415f, -0.797732f, -0.456742f, 0.135634f, 0.096015f, 0.292491f, -0.079882f, 0.062862f, -0.23106f, -0.123996f, 0.550032f, 0.88684f, 0.348837f, 0.125922f, -0.020893f, -0.130155f, -0.104674f, -0.080265f, -0.165451f, -0.056811f, -0.028815f, 0.059858f, 0.000152f, -0.332409f, -0.039727f, 0.067365f, -0.028297f, -0.068558f, -0.513418f, -0.977664f, -0.999281f, -0.128384f, -0.10915f, 0.219425f, -0.123169f, 0.004479f, -0.333885f, -0.048084f, 0.623915f, 0.720177f, 0.083718f, -0.125734f, -0.096149f, -0.392939f, -0.33755f, -0.232681f, -0.160281f, -0.052032f, 0.100454f, -0.121904f, -0.268871f, -0.068559f, 0.03269f, 0.320216f, 0.059873f, 0.0068f, -0.512272f, -1.0f, -1.0f, -0.964746f, -0.298031f, -0.20015f, 0.251398f, 0.058069f, -0.280002f, 0.306001f, 0.645029f, 0.435956f, -0.230077f, -0.12849f, 0.122603f, -0.322212f, -0.261374f, -0.207683f, -0.51164f, -0.44997f, -0.433077f, -0.63182f, -0.546792f, -0.237095f, 0.108268f, 0.274329f, 0.147867f, -0.018707f, -0.379293f, -1.0f, -1.0f, -0.962281f, -0.551735f, -0.22807f, 0.339397f, 0.222017f, -0.221008f, 0.600994f, 0.259331f, 0.322746f, -0.090678f, 0.037571f, -0.176658f, -0.545413f, -0.56907f, -0.7745f, -1.0f, -1.0f, -1.0f, -0.658466f, -0.194285f, -0.145693f, 0.233447f, 0.213702f, 0.123272f, -0.158325f, -0.750628f, -0.953548f, -1.0f, -0.976122f, -0.572179f, -0.298103f, 0.201344f, 0.242004f, -0.23969f, -0.052111f, -0.127201f, 0.007951f, -0.198346f, -0.059676f, -0.435278f, -0.633068f, -1.0f, -1.0f, -1.0f, -1.0f, -0.80005f, -0.160891f, 0.467991f, 0.410357f, 0.382654f, 0.476907f, 0.315558f, 0.030446f, -0.449912f, -0.53462f, -0.812891f, -0.765593f, -0.27717f, -0.284108f, 0.044464f, 0.19534f, -0.410485f, -0.408933f, -0.311409f, -0.173429f, -0.205808f, -0.427933f, -0.484562f, -0.586055f, -1.0f, -1.0f, -1.0f, -0.378062f, 0.276352f, 0.555762f, 0.813851f, 0.589257f, 0.186079f, 0.245921f, 0.148275f, -0.000629f, -0.253123f, 0.025366f, 0.236103f, 0.18083f, -0.001719f, 0.102272f, -0.138195f, -0.274949f, -0.232994f, -0.096206f, -0.142362f, 0.014355f, -0.116881f, -0.637523f, -0.39421f, 0.066431f, -0.289835f, -0.172502f, 0.337511f, 0.465976f, 0.325355f, 0.079725f, 0.569563f, 0.069308f, -0.095753f, 0.031788f, -0.041482f, -0.166916f, -0.192689f, 0.236494f, 0.554131f, 0.519309f, 0.290452f, 0.242512f, 0.092059f, 0.075552f, -0.204544f, 0.087326f, 0.272219f, 0.224558f, 0.183573f, -0.164973f, -0.037464f, 0.204273f, 0.14597f, 0.241683f, 0.9243f, 0.781751f, 0.513354f, 0.58903f, 0.74431f, -0.115167f, -0.103285f, 0.212605f, -0.043636f, 0.056401f, 0.222613f, 0.326015f, 0.376625f, 0.368061f, 0.347257f, 0.249092f, 0.124737f, -0.186507f, 0.065368f, 0.362384f, 0.622837f, 0.573976f, 0.249855f, 0.253857f, 0.177066f, 0.302067f, 0.201958f, 0.40052f, 0.611653f, 0.572185f, 0.567957f, 0.64081f, 0.308153f, -0.017936f, 0.315726f, 0.687632f, 0.378387f, 0.364754f, 0.301757f, 0.407227f, 0.525423f, 0.722165f, 0.69575f, 0.424409f, 0.105056f, 0.082223f, 0.386996f, 0.882433f, 0.734361f, 0.090928f, 0.124348f, 0.199557f, 0.140606f, 0.239132f, 0.35092f, 0.372055f, 0.041011f, 0.036318f, 0.358069f, 0.586579f, 0.326341f, 0.360379f, 0.653747f, 0.816719f, 0.567919f, 0.30414f, 0.398267f, 0.431556f, 0.713132f, 0.991247f, 0.699436f, 0.289855f, 0.012878f, -0.272611f, 0.174807f, 0.962835f, 0.776291f, 0.002279f, -0.013502f, 0.004289f, 0.053807f, -0.089897f, 0.144755f, -0.039239f, 0.062527f, 0.25027f, 0.403917f, 0.672691f, 0.75417f, 0.86601f, 0.941826f, 0.690798f, 0.330178f, 0.388833f, 0.313647f, 0.714655f, 0.951769f, 0.971954f, 0.366076f, 0.209501f, -0.332034f, -0.267448f, 0.1831f, 0.938216f, 0.968912f, 0.168126f, -0.1975f, 0.022272f, 0.117076f, 0.081748f, 0.107672f, -0.017927f, 0.071736f, 0.201624f, 0.434146f, 0.810452f, 1.0f, 0.959931f, 0.53033f, -0.160452f, -0.210214f, 0.510075f, 0.304192f, 0.713868f, 0.90149f, 0.993224f, 0.54457f, 0.211076f, -0.118041f, -0.308414f, 0.324997f, 0.642468f, 0.85238f, 0.250371f, -0.031462f, 0.177978f, 0.157082f, 0.012021f, -0.295903f, -0.289206f, -0.159565f, -0.187596f, 0.458563f, 0.956253f, 1.0f, 0.622293f, -0.069182f, -0.497264f, -0.271231f, 0.216735f, 0.371379f, 0.029775f, 0.24346f, 0.452125f, 0.340497f, 0.068396f, -0.014728f, -0.210136f, 0.758494f, 0.854077f, 0.85068f, 0.176309f, 0.202085f, 0.438962f, -0.131029f, -0.296409f, -0.426239f, -0.596989f, -0.307498f, -0.186112f, 0.221155f, 0.327823f, 0.12182f, 0.062456f, -0.113249f, -0.080557f, -0.124798f, -0.069734f, -0.327112f, -0.270754f, -0.236563f, 0.129113f, 0.188086f, 0.021379f, 0.095565f, -0.19341f, 0.929299f, 0.832537f, 0.438622f, 0.090768f, 0.245147f, 0.40928f, -0.020415f, -0.2864f, -0.338929f, -0.288521f, -0.346908f, -0.270347f, -0.114391f, -0.011917f, -0.133646f, -0.111675f, -0.088689f, -0.020638f, 0.126312f, -0.197178f, -0.950562f, -0.494755f, -0.159872f, -0.067047f, 0.136638f, 0.096038f, 0.061489f, -0.106694f, 0.574426f, 0.822109f, 0.367645f, -0.03284f, -0.199574f, -0.123516f, -0.186981f, -0.15357f, -0.275419f, -0.317766f, -0.304609f, -0.136655f, -0.180322f, -0.417096f, -0.549728f, -0.171905f, 0.026022f, 0.272141f, -0.036341f, -0.930254f, -0.961638f, -1.0f, -0.754073f, -0.422845f, 0.042456f, 0.087732f, 0.030427f, 0.021357f, -0.492439f, -0.116213f, -0.42667f, -0.202334f, -0.431954f, 0.103124f, -0.047284f, -0.129662f, -0.323077f, -0.557475f, -0.546992f, -0.390124f, -0.374244f, -0.534025f, -0.728907f, -0.530883f, -0.255203f, 0.024417f, -0.233077f, -0.548077f, -0.880035f, -0.959197f, -0.551882f, -0.247956f, -0.277419f, -0.019611f, 0.010983f, 0.033494f, -0.33772f, -0.471069f, -0.443894f, -0.151973f, -0.150505f, -0.128845f, 0.345363f, 0.784906f, 0.51233f, 0.271314f, 0.233087f, -0.025956f, -0.000759f, -0.106822f, -0.676624f, -0.761217f, -0.816063f, -0.425555f, -0.053633f, 0.043313f, -0.416038f, -0.290426f, -0.339041f, -0.102812f, -0.170503f, -0.000404f, -0.026152f, -0.014551f, -0.299481f, -0.422338f, -0.142852f, -0.008496f, 0.287082f, 0.500883f, 0.562262f, 0.721502f, 0.453335f, 0.138051f, 0.083408f, -0.133548f, -0.287814f, -0.437345f, -0.420121f, -0.197962f, -0.186989f, -0.128401f, -0.102371f, -0.356313f, -0.535326f, -0.250819f, -0.361858f, -0.338119f, -0.228622f, 0.005578f, -0.010067f, 0.011584f, 0.010595f, -0.030368f, 0.017776f, -0.370245f, -0.370696f, -0.30748f, -0.79544f, -0.539071f, -0.699961f, -0.971096f, -0.824412f, -0.952736f, -0.611189f, -0.512923f, -0.367959f, -0.120978f, -0.368426f, -0.305516f, -0.037287f, 0.114984f, -0.023348f, -0.233284f, -0.085093f, 0.082237f, -0.003282f, 0.031683f, -0.003841f, -0.021182f, 0.006392f, -0.019099f, -0.09108f, 0.16258f, 0.224145f, -0.207144f, -0.191524f, 0.074616f, -0.098848f, 0.289843f, 0.257108f, 0.024081f, -0.532642f, -0.104295f, 0.529358f, 0.720098f, -0.105341f, -0.377076f, -0.776432f, -0.28612f, -0.107674f, -0.155699f, 0.016063f, -0.014151f, 0.005554f, -0.0336f},
{0.005772f, 0.031089f, 0.031073f, -0.000533f, 0.012985f, -0.00589f, -0.009988f, 0.000724f, -0.020766f, 0.014416f, 0.017546f, -0.009645f, -0.038807f, 0.050892f, 0.174171f, 0.083692f, 0.033944f, -0.033614f, -0.030073f, 0.001047f, 0.033043f, 0.002336f, 0.009951f, 0.005108f, -0.004234f, 0.025527f, 0.026254f, -0.020553f, -0.021351f, -0.027733f, -0.008648f, -0.000767f, -0.027103f, -0.166111f, -0.064709f, -0.085649f, 0.244953f, -0.255642f, -0.211745f, -0.168286f, -0.579929f, -0.202318f, 0.00835f, -0.717156f, -0.380957f, -0.10249f, 0.056334f, -0.011034f, 0.507601f, 0.051061f, -0.104552f, -0.147959f, 0.022408f, -0.027593f, -0.034226f, 0.004028f, 0.010408f, -0.027435f, -0.119906f, -0.069512f, 0.427078f, -0.194689f, -0.460543f, -0.462608f, -0.489854f, -0.713019f, -0.675242f, -0.485484f, -0.808693f, -0.967085f, -0.814297f, -0.852484f, -0.945028f, -0.715752f, -0.506557f, -0.66487f, -0.549864f, 0.005412f, -0.216516f, -0.295628f, -0.04298f, 0.172117f, 0.012494f, -0.011699f, -0.030774f, 0.005628f, -0.177929f, -0.238718f, 0.008029f, 0.03577f, -0.141599f, -0.487025f, -0.209039f, -0.305132f, 0.10806f, -0.015828f, 0.042704f, -0.020776f, -0.16525f, -0.311193f, -0.356687f, -0.266308f, 0.06378f, -0.089f, -0.317814f, -0.012458f, -0.13685f, -0.445205f, -0.476489f, -0.370395f, -0.168287f, 0.008586f, 0.031009f, 0.196073f, -0.484484f, -0.46611f, -0.098963f, 0.201879f, 0.160133f, 0.005629f, -0.056863f, -0.036188f, 0.187649f, -0.093247f, -0.197814f, -0.47019f, -0.159826f, -0.173488f, 0.320523f, 0.680042f, 0.658135f, 0.432873f, 0.326179f, 0.4422f, 0.474614f, -0.460657f, -0.044227f, 0.093443f, -0.015213f, 0.315526f, -0.00372f, -0.011256f, -0.272061f, -0.291666f, -0.097838f, 0.343437f, 0.269141f, 0.283704f, -0.059259f, -0.033702f, 0.056604f, -0.137983f, -0.169682f, -0.122672f, -0.195095f, 0.165529f, 0.242598f, 0.256656f, 0.731685f, 0.666647f, 0.502302f, 0.275857f, 0.177202f, -0.39695f, -0.305446f, -0.013897f, -0.608868f, 0.113338f, -0.017298f, 0.053857f, -0.352185f, -0.122617f, 0.368016f, 0.168319f, 0.016724f, 0.360352f, 0.176331f, 0.256448f, 0.268437f, 0.123325f, 0.463741f, 0.525385f, 0.355588f, 0.264132f, 0.077226f, 0.137216f, 0.501926f, 0.664566f, 0.459631f, -0.183858f, -0.135921f, -0.51983f, -0.560241f, -0.326969f, -0.739528f, -0.525245f, 0.010227f, 0.049404f, -0.449436f, -0.089292f, 0.524381f, 0.071448f, -0.074491f, 0.05622f, 0.061016f, 0.032947f, 0.142203f, 0.681138f, 0.996712f, 0.760022f, 0.311223f, 0.056552f, -0.080538f, -0.15537f, -0.033998f, -0.02171f, -0.115517f, -0.4838f, -0.441065f, -0.428241f, -0.895748f, -0.760071f, -0.908657f, -0.430538f, -0.044754f, -0.125051f, -0.632714f, -0.169238f, 0.095537f, 0.167178f, 0.076708f, -0.041643f, -0.036371f, -0.13133f, 0.257447f, 0.566226f, 0.719651f, 0.847807f, 0.072137f, -0.050194f, -0.262992f, -0.526059f, -0.740803f, -0.965372f, -0.83534f, -0.445525f, -0.526591f, -0.288599f, -0.335583f, -0.268866f, -0.35128f, -0.10751f, 0.148171f, -0.262004f, -0.685515f, -0.104423f, 0.225902f, 0.272629f, 0.200917f, 0.209745f, -0.040979f, -0.12502f, 0.091928f, 0.479008f, 1.0f, 1.0f, 0.509495f, -0.07911f, -0.618813f, -0.95295f, -0.974763f, -0.970618f, -0.964823f, -0.645609f, -0.630845f, -0.397115f, -0.07223f, 0.028771f, -0.205109f, 0.28951f, 0.074208f, -0.36141f, -0.639275f, -0.608872f, 0.198139f, 0.383779f, 0.145857f, -0.147564f, -0.10882f, -0.134379f, 0.116475f, 0.654599f, 1.0f, 1.0f, 0.902929f, 0.167509f, -0.484056f, -0.843371f, -0.97402f, -0.965127f, -0.835445f, -0.668454f, -0.902406f, -0.889264f, -0.235497f, 0.027442f, 0.100885f, 0.145199f, -0.12143f, -0.572822f, -1.0f, -0.537229f, 0.111053f, 0.399971f, 0.238637f, -0.09745f, -0.227257f, -0.166145f, 0.292624f, 0.61345f, 1.0f, 1.0f, 0.468012f, -0.108015f, -0.529632f, -0.723452f, -0.865077f, -0.949171f, -0.598162f, -0.593343f, -1.0f, -1.0f, -0.557912f, -0.285734f, -0.423623f, 0.113163f, -0.141116f, -0.410854f, -1.0f, -0.560659f, 0.034916f, 0.346421f, 0.401763f, 0.180987f, -0.028407f, 0.314895f, 0.344114f, 0.428773f, 0.772675f, 0.662923f, 0.41022f, 0.08266f, -0.183589f, -0.63925f, -0.800483f, -0.348025f, -0.072339f, -0.339801f, -0.631563f, -1.0f, -0.669886f, -0.345311f, 0.001173f, -0.113814f, 0.068985f, 0.050524f, -0.770675f, -0.428204f, 0.025915f, 0.324336f, 0.306376f, 0.298103f, 0.189181f, 0.234133f, 0.084344f, -0.138808f, 0.27277f, 0.18096f, 0.511163f, 0.461193f, 0.401319f, 0.007211f, -0.330343f, 0.040317f, -0.028421f, -0.237809f, -0.384896f, -0.858176f, -0.384768f, -0.017173f, -0.151414f, -0.136244f, -0.133693f, 0.496182f, -0.025283f, -0.086392f, -0.279699f, -0.260855f, -0.123481f, 0.057437f, 0.176869f, 0.077994f, -0.331178f, -0.163991f, 0.206508f, 0.215002f, 0.296006f, 0.439578f, 0.596702f, -0.144787f, -0.057535f, 0.179843f, 0.293601f, 0.000336f, 0.100354f, -0.004935f, -0.104324f, -0.079268f, 0.000531f, -0.350328f, -0.129169f, 0.237136f, 0.422282f, -0.07676f, -0.220024f, -0.610226f, -0.528593f, 0.047746f, 0.173512f, 0.026516f, -0.633052f, -0.447168f, -0.080262f, -0.248156f, -0.24593f, 0.031558f, 0.487981f, -0.144753f, -0.000472f, 0.198697f, 0.19791f, 0.160803f, 0.383757f, 0.597081f, 0.372333f, 0.07616f, -0.058647f, -0.108907f, -0.09855f, 0.372106f, 0.510771f, -0.017154f, 0.044399f, -0.683086f, -0.367173f, 0.037776f, 0.093066f, 0.010949f, -0.610763f, -0.509402f, -0.145609f, -0.352158f, -0.456469f, -0.226785f, 0.158762f, -0.209006f, 0.12733f, 0.374696f, 0.148579f, -0.041626f, 0.317221f, 0.806937f, 0.363399f, -0.271811f, -0.202126f, -0.335766f, 0.002421f, -0.013119f, -0.121341f, 0.406778f, 0.256412f, -0.172055f, -0.502452f, -0.354713f, -0.001434f, 0.069347f, -0.164013f, -0.160439f, -0.190439f, -0.605739f, -0.749738f, -0.138808f, 0.043289f, 0.031614f, 0.270623f, 0.408406f, 0.238462f, 0.003686f, 0.673458f, 0.880135f, 0.477404f, -0.195358f, -0.101828f, -0.4218f, -0.127541f, -0.198788f, -0.082776f, 0.698594f, 0.554918f, 0.079295f, -0.555147f, -0.35997f, -0.216595f, -0.2852f, -0.549949f, -0.19351f, -0.118403f, -0.501816f, -0.26941f, -0.109018f, -0.146644f, 0.035831f, 0.227314f, 0.394015f, 0.158345f, 0.514995f, 1.0f, 0.978356f, 0.85536f, -0.191188f, -0.107886f, -0.126809f, 0.01626f, -0.150595f, 0.033359f, 0.476617f, 0.777559f, 0.310496f, -0.517122f, -0.342238f, -0.08458f, -0.651405f, -0.634799f, -0.422921f, -0.063983f, 0.000824f, -0.24524f, -0.303912f, -0.055434f, 0.113958f, 0.193552f, -0.130652f, -5.6e-05f, 0.435111f, 0.965141f, 1.0f, 0.677227f, -0.24611f, -0.712419f, 0.401733f, 0.005089f, 0.026169f, 0.080125f, 0.405001f, 0.681659f, 0.580175f, -0.121253f, -0.308396f, -0.060528f, 0.042072f, -0.113287f, -0.056444f, 0.314083f, 0.396723f, 0.013629f, -0.268105f, 0.0909f, 0.221751f, -0.04224f, -0.288193f, 0.002547f, 0.523342f, 0.956801f, 1.0f, 0.390639f, 0.122891f, -0.866431f, 0.054484f, 0.053327f, 0.047082f, -0.192426f, 0.175019f, 0.448027f, 0.315101f, -0.050371f, 0.09583f, -0.120595f, 0.16257f, 0.103766f, 0.287437f, 0.607704f, 0.428684f, 0.229011f, 0.147726f, -0.017631f, -0.063047f, -0.303708f, -0.253321f, 0.21973f, 0.598479f, 0.89038f, 0.792096f, 0.093382f, -0.215846f, -0.708759f, -0.111004f, 0.043764f, -0.161341f, -0.100231f, -0.365129f, -0.094899f, -0.139976f, 0.036672f, 0.020352f, -0.249844f, -0.450102f, -0.349924f, -0.103352f, 0.117136f, 0.270213f, 0.336485f, -0.065797f, 0.059729f, -0.167286f, -0.158442f, 0.065506f, 0.672201f, 0.648289f, 0.674376f, 0.361901f, -0.201515f, -0.315158f, -0.212032f, -0.127396f, 0.034668f, 0.027783f, 0.032042f, -0.087506f, -0.011653f, -0.32373f, -0.201059f, -0.065961f, -0.002825f, -0.084202f, -0.484646f, -0.7387f, -0.775903f, -0.483429f, -0.149181f, -0.131431f, -0.398319f, -0.14337f, 0.016075f, 0.265322f, 0.467165f, 0.246003f, 0.113939f, -0.084125f, -0.211615f, -0.63988f, 0.187822f, 0.018525f, -0.00638f, -0.001704f, -0.446811f, -0.04212f, 0.262549f, 0.211881f, -0.040484f, 0.51615f, 0.545962f, 0.411757f, 0.14095f, -0.326349f, -0.470901f, -0.297181f, -0.06547f, -0.17009f, -0.196465f, -0.124014f, -0.063187f, -0.038187f, -0.105076f, -0.032143f, -0.295791f, -0.2155f, -0.255289f, -0.211203f, 0.054548f, 0.028656f, -0.003095f, -0.023423f, -0.014386f, -0.076416f, 0.11135f, -0.101131f, -0.139703f, -0.038357f, -0.133536f, -0.125271f, 0.026074f, 0.484395f, 0.495543f, 0.413771f, 0.235481f, 0.036476f, -0.407183f, -0.832733f, -0.83896f, -0.722444f, -0.74446f, -0.404008f, -0.228964f, -0.251218f, 0.018867f, 0.40036f, 0.234141f, 0.001783f, 0.005487f, 0.026135f, -0.033545f, 0.074955f, 0.21063f, -0.258376f, -0.171727f, 0.286394f, -0.02895f, 0.01387f, 0.195927f, 0.241538f, -0.019921f, -0.702189f, -0.9481f, -0.963905f, -0.942299f, -0.995601f, -0.941319f, -0.667904f, -0.869822f, -0.529284f, -0.530282f, -0.426251f, 0.076167f, 0.118006f, 0.020851f, -0.010911f, 0.018577f, 0.011059f, -0.022787f, -0.007162f, -0.221258f, -0.16463f, 0.010333f, -0.041821f, -0.445035f, -0.102484f, 0.187896f, 0.222474f, -0.416018f, -0.722775f, -0.916927f, -0.959668f, -0.909768f, -0.961694f, -0.582137f, -0.228741f, -0.245576f, 0.099771f, 0.030085f, -0.231736f, -0.015257f, 0.026204f, 0.031147f, 0.003458f},
{0.000527f, -0.027137f, 0.021211f, -0.009979f, 0.003417f, -0.007222f, 0.012407f, 0.00838f, -0.008182f, -0.005681f, -5.6e-05f, -0.02825f, 0.109519f, 0.207538f, 0.194152f, 0.077014f, -0.003732f, 0.024703f, 0.003204f, 0.032684f, 0.007219f, 0.016886f, 0.005512f, -0.02018f, -0.03345f, -0.014144f, 0.027993f, 0.018309f, -0.011618f, -0.022166f, 0.035219f, 0.003921f, -0.033245f, -0.027399f, 0.362112f, 0.332912f, 0.71258f, 0.694326f, 0.247421f, 0.708228f, 0.929688f, 0.884795f, 0.535056f, 0.423102f, 0.524593f, -0.152157f, 0.330215f, 0.244789f, 0.138663f, 0.396449f, -0.03966f, -0.268171f, -0.027845f, 0.004966f, -0.015602f, 0.02511f, 0.031279f, -0.008327f, 0.105877f, 0.127996f, -0.017564f, 0.073318f, 0.13642f, 0.396586f, 0.393127f, -0.463324f, -0.702992f, -0.745172f, -0.093345f, -0.4033f, -0.167076f, -0.231949f, -0.592408f, -0.160041f, 0.118324f, 0.595117f, 0.298193f, 0.008483f, 0.440713f, 0.079732f, -0.206501f, 0.178243f, 0.025756f, -0.001431f, -0.018444f, 0.030645f, -0.019336f, 0.185567f, 0.316881f, 0.281208f, 0.269611f, 0.075634f, -0.324005f, -0.855786f, -0.883211f, -0.684768f, -0.206813f, -0.355161f, -0.466291f, -0.017118f, -0.116466f, -0.237355f, -0.073206f, 0.291145f, 0.19035f, 0.415881f, 0.617917f, 0.438123f, 0.248651f, 0.587624f, -0.200602f, 0.015675f, -0.03058f, 0.116902f, -0.184155f, -0.020469f, -0.385067f, -0.246035f, -0.105023f, -0.296002f, -0.33259f, -0.405078f, -0.465793f, -0.671922f, -0.600327f, -0.419216f, -0.383046f, -0.292205f, 0.077384f, 0.440743f, 0.202673f, 0.243482f, 0.635922f, 0.230598f, 0.442034f, 0.152784f, 0.335744f, 0.300556f, -0.168911f, 0.295184f, 0.022394f, -0.027819f, 0.165589f, -0.427181f, -0.858041f, -0.074743f, 0.263478f, -0.070838f, 0.039848f, 0.091238f, -0.33471f, -0.489911f, -0.674952f, -0.551449f, -0.352892f, -0.061897f, 0.041281f, 0.287162f, 0.451304f, 0.759815f, 0.844109f, 0.25506f, 0.151651f, 0.164631f, -0.007775f, 0.190616f, -0.076038f, 0.231699f, 0.001231f, 0.117019f, -0.192445f, -0.416441f, -0.18827f, -0.174996f, -0.305658f, 0.013271f, 0.006859f, -0.214183f, -0.04525f, 0.142153f, 0.022432f, -0.228535f, -0.135225f, 0.00997f, 0.112079f, 0.348712f, 0.603526f, 0.690606f, 0.537696f, -0.163234f, 0.077014f, 0.430395f, 0.381054f, 0.001556f, -0.312362f, -0.198337f, -0.042588f, -0.089727f, -0.270781f, -0.402907f, 0.171515f, -0.126743f, -0.439862f, -0.099813f, -0.060612f, 0.034517f, 0.068654f, 0.050951f, 0.019067f, -0.22419f, -0.401381f, -0.493269f, -0.128341f, 0.047999f, 0.207358f, 0.277746f, 0.538424f, 0.007884f, 0.140836f, 0.794371f, 0.514132f, 0.276271f, -0.321288f, -0.020818f, -0.121738f, -0.297396f, 0.01461f, -0.348065f, 0.166852f, 0.415113f, 0.169044f, -0.053987f, -0.004803f, -0.160609f, -0.329116f, -0.446767f, -0.285865f, -0.116519f, -0.29848f, -0.260767f, -0.010637f, -0.036335f, -0.218029f, -0.073387f, 0.428459f, 0.185346f, 0.29751f, 0.632324f, 0.990579f, 0.823359f, 0.240075f, -0.176187f, 0.222568f, -0.303089f, -0.325485f, -0.291789f, 0.430876f, 0.540329f, 0.259418f, 0.103812f, -0.166282f, -0.248508f, -0.376788f, -0.582443f, -0.166083f, -0.056353f, 0.014438f, 0.188695f, 0.214024f, -0.545932f, -0.941539f, -0.681089f, -0.092399f, -0.058435f, -0.060229f, 0.225034f, 0.97263f, 0.868885f, 0.380283f, -0.086801f, 0.299447f, -0.180616f, -0.273519f, -0.547669f, 0.421773f, 0.048611f, -0.031635f, -0.008607f, -0.021252f, -0.088422f, -0.308513f, -0.442646f, 0.264278f, 0.57454f, 0.546412f, 0.218402f, -0.473806f, -0.902785f, -0.906029f, -0.807698f, -0.653409f, -0.556439f, -0.479519f, -0.246268f, 0.240106f, -0.184462f, -0.131007f, 0.004584f, -0.032905f, -0.177841f, -0.480073f, -0.104029f, 0.4406f, 0.371697f, 0.226732f, 0.056264f, -0.062841f, 0.273014f, -0.053462f, -0.032128f, 0.851081f, 0.914205f, 0.992941f, 0.164663f, -0.761487f, -0.87547f, -0.907298f, -0.806213f, -0.762102f, -0.795959f, -0.626795f, -0.647177f, -0.558603f, -0.48739f, 0.176405f, -0.428434f, 0.163144f, -0.149567f, -0.492403f, -0.127861f, 0.044546f, 0.172365f, 0.250938f, 0.463416f, 0.49065f, 0.442593f, 0.181843f, 0.51353f, 0.967988f, 1.0f, 1.0f, 0.973559f, 0.072894f, -0.568156f, -0.955472f, -0.517496f, -0.191959f, -0.443004f, -0.73915f, -0.853572f, -0.923367f, -0.698481f, -0.174242f, -0.369823f, -0.08511f, -0.074319f, -0.298477f, -0.017334f, -0.019526f, 0.163463f, 0.245465f, 0.614777f, 0.555258f, 0.280681f, 0.244052f, 0.099483f, 0.667388f, 1.0f, 1.0f, 0.976869f, 0.712933f, -0.020243f, -0.215569f, 0.006169f, 0.286183f, -0.141415f, -0.608918f, -0.765322f, -0.726723f, -0.603346f, -0.17706f, -0.155953f, -0.132531f, 0.000835f, -0.05059f, 0.239628f, -0.190344f, -0.147217f, -0.177711f, 0.266758f, 0.259099f, 0.119008f, -0.121666f, -0.030682f, 0.650686f, 0.901072f, 0.966165f, 0.824086f, 0.036209f, -0.417196f, -0.212658f, 0.239307f, 0.291954f, 0.043763f, -0.467139f, -0.65986f, -0.716134f, -0.903669f, -0.278002f, -0.07855f, -0.106511f, -0.180128f, -0.155848f, 0.03378f, -0.449738f, -0.589207f, -0.469453f, -0.070313f, 0.12195f, -0.058788f, -0.532887f, -0.564951f, 0.243668f, 0.762942f, 0.960072f, 0.061075f, -0.058956f, -0.831546f, -0.484999f, -0.121764f, 0.040028f, -0.120951f, -0.340423f, -0.464803f, -0.917439f, -0.996642f, -0.639308f, -0.263577f, -0.195166f, -0.185442f, -0.282508f, -0.423986f, -0.461318f, -0.453299f, -0.346173f, -0.290931f, -0.182954f, -0.370022f, -0.723773f, -0.371601f, 0.044101f, 0.393826f, 0.318552f, -0.304961f, -0.216882f, -0.590753f, -0.3718f, -0.287417f, -0.237623f, -0.160227f, -0.047523f, -0.304881f, -0.951001f, -1.0f, -0.849273f, -0.182868f, 0.033403f, 0.043231f, -0.237372f, -0.509768f, -0.296948f, -0.288929f, -0.513258f, -0.474083f, -0.077223f, -0.710965f, -0.703768f, -0.005393f, 0.205403f, 0.40706f, 0.383922f, -0.114625f, 0.065948f, -0.198527f, -0.404775f, -0.494835f, -0.152973f, -0.130091f, 0.19621f, -0.266776f, -1.0f, -0.884594f, -0.368795f, -0.095491f, 0.269608f, -0.049265f, -0.282598f, -0.315273f, -0.090054f, -0.279778f, -0.335306f, -0.66051f, -0.258449f, -0.230774f, -0.561419f, -0.223219f, 0.278588f, 0.319718f, 0.159118f, -0.218618f, -0.307237f, -0.457207f, -0.259955f, -0.29427f, 0.017928f, 0.332059f, 0.170144f, -0.317064f, -1.0f, -0.765464f, -0.470999f, 0.221929f, 0.067152f, -0.020413f, -0.280378f, 0.260261f, 0.062939f, -0.119049f, -0.244603f, -0.476683f, -0.227092f, 0.003032f, -0.324088f, 0.072762f, 0.196256f, 0.340355f, -0.215357f, -0.599631f, -0.470833f, -0.511131f, -0.412643f, -0.377781f, 0.177746f, 0.586481f, 0.524371f, 0.025737f, -0.612586f, -0.497514f, -0.457089f, 0.250775f, 0.032231f, -0.0255f, -0.482016f, -0.128766f, -0.046474f, 0.063523f, 0.00663f, -0.541477f, -0.445877f, 0.129024f, 0.236655f, 0.098616f, 0.13509f, -0.018808f, -0.236015f, -0.498549f, -0.506114f, -0.313383f, -0.368281f, -0.197846f, 0.341209f, 0.649463f, 0.589084f, 0.453715f, -0.595668f, -0.292398f, -0.239629f, 0.068165f, -0.148929f, 0.097357f, -0.508961f, -0.245952f, -0.408104f, -0.12842f, -0.081372f, -0.311575f, -0.141514f, 0.28917f, 0.432978f, 0.102575f, -0.058986f, -0.049232f, -0.008967f, -0.208706f, -0.235312f, -0.103005f, -0.118393f, -0.049798f, 0.362005f, 0.482948f, 0.489356f, 0.366076f, -0.267133f, -0.115218f, -0.128791f, 0.092022f, -0.13606f, -0.051507f, -0.624004f, -0.32162f, 0.068547f, -0.172459f, 0.003547f, -0.23407f, -0.035358f, 0.063533f, 0.132599f, -0.258978f, -0.211451f, -0.231249f, -0.094643f, 0.230179f, 0.528305f, 0.351922f, 0.47234f, 0.338147f, 0.755021f, 0.714098f, 0.452397f, 0.355923f, -0.15296f, -0.164165f, 0.086548f, 0.114359f, 0.013301f, -0.018806f, -0.282014f, 0.03087f, 0.080945f, -0.215626f, 0.14678f, 0.04485f, 0.04776f, 0.177944f, -0.170679f, -0.344566f, -0.326054f, -0.172658f, -0.049741f, 0.318073f, 0.647501f, 0.227297f, 0.331531f, 0.359085f, 0.427558f, 0.520277f, 0.129814f, -0.201083f, -0.824109f, -0.340024f, 0.151527f, -0.013534f, -0.013345f, 0.03347f, -0.460974f, 0.126956f, 0.188806f, -0.174793f, -0.139141f, 0.313196f, 0.6168f, 0.373212f, -0.182674f, -0.22982f, -0.22001f, -0.06413f, 0.293594f, 0.485057f, 0.216243f, -0.248678f, 0.028468f, -0.127258f, -0.136649f, 0.04511f, -0.023047f, -0.295707f, -0.498515f, 0.104915f, 0.255729f, -0.008295f, 0.028856f, -0.034278f, -0.064167f, 0.059556f, -0.361744f, -0.102193f, -0.047684f, 0.035094f, 0.10713f, -0.356891f, -0.69924f, -0.279958f, 0.442384f, 0.31568f, 0.272996f, 0.212122f, -0.087582f, -0.140477f, -0.188398f, -0.114497f, -0.106823f, 0.200379f, 0.283317f, -0.357292f, -0.146078f, -0.100887f, 0.213548f, -0.020224f, -0.02828f, -0.023458f, 0.019548f, 0.126421f, -0.129476f, 0.086383f, 0.550451f, 0.610061f, 0.447402f, 0.493256f, -0.367735f, 0.060536f, 0.320314f, -0.272966f, -0.515236f, -0.76293f, -0.42508f, -0.180518f, -0.058016f, -0.121278f, -0.165883f, -0.055013f, -0.446089f, -0.080523f, -0.017262f, 0.10323f, 0.028267f, -0.019439f, -0.014316f, -0.017614f, -0.029808f, 0.013825f, 0.062581f, 0.404327f, 0.744611f, 0.342999f, 0.35729f, 0.483337f, 0.269374f, 0.189529f, 0.370763f, 0.865588f, 0.453234f, 0.230012f, 0.539672f, 0.543279f, 0.290163f, 0.068328f, 0.152656f, 0.440111f, -0.003979f, -0.184821f, -0.019734f, -0.0285f, 0.012096f, -0.020569f},
{0.035656f, -0.022348f, 0.017584f, -0.011004f, -0.029359f, -0.034824f, 0.015509f, -0.010894f, -0.022985f, 0.035242f, 0.020944f, 0.023513f, 0.08116f, 0.077308f, -0.130558f, -0.025758f, 0.017156f, -0.008691f, -0.007983f, -0.00374f, -0.014059f, -0.024489f, -0.004011f, -0.01278f, -0.011289f, -0.015615f, 0.016535f, -0.005807f, 0.027508f, 0.010464f, -0.011889f, 0.035533f, 0.043939f, 0.011907f, -0.455117f, -0.441655f, -0.161267f, 0.060117f, -0.059568f, -0.03256f, -0.283856f, -0.298346f, -0.07492f, 0.022983f, 0.009254f, -0.413716f, -0.436139f, -0.100783f, -0.124874f, -0.063208f, -0.410635f, -0.241799f, -0.035514f, -0.020347f, 0.004568f, 0.024228f, -0.029754f, 0.014799f, -0.060456f, -0.058565f, 0.132445f, 0.064067f, -0.278949f, -0.688589f, -0.36639f, -0.436487f, -0.550958f, -0.465175f, -0.766094f, -1.0f, -0.723363f, -0.449362f, -0.175826f, -0.164855f, -0.258242f, 0.004858f, -0.022969f, -0.128199f, -0.571017f, -0.435485f, 0.011302f, -0.240247f, -0.028609f, -0.002918f, 0.020908f, -0.020069f, -0.252901f, -0.307869f, -0.039701f, 0.406604f, 0.114469f, -0.03413f, -0.156647f, -0.053775f, 0.009546f, -0.089037f, -0.443039f, -0.53022f, -0.366904f, -0.218753f, -0.167182f, 0.023543f, -0.074053f, -0.104255f, -0.148312f, -0.269468f, -0.338049f, -0.184598f, 0.037439f, 0.209024f, 0.129217f, 0.017696f, 0.016756f, 0.105055f, -0.255021f, -0.409782f, -0.297746f, 0.073337f, -0.007806f, 0.251005f, 0.246903f, 0.140693f, 0.163827f, -0.087716f, -0.367607f, -0.788082f, -0.636042f, -0.542325f, -0.085141f, 0.072925f, 0.070926f, -0.104888f, -0.032732f, 0.109814f, 0.147696f, -0.199898f, -0.105313f, -0.090604f, -0.052143f, 0.230357f, 0.031614f, 0.010408f, 0.157147f, 0.075848f, 0.085212f, 0.26056f, -0.285547f, 0.018752f, 0.101171f, -0.017675f, -0.05927f, -0.142144f, -0.444156f, -0.72439f, -0.584735f, -0.400317f, -0.083827f, -0.021903f, -0.022423f, 0.018226f, -0.077337f, -0.124951f, 0.003701f, -0.333647f, -0.409305f, -0.361787f, -0.588834f, 0.007908f, 0.004567f, 0.061404f, -0.106305f, 0.150793f, 0.153201f, 0.079128f, -0.157214f, 0.099003f, -0.090177f, -0.100237f, -0.021966f, 0.133742f, -0.074848f, -0.108457f, -0.134413f, -0.108811f, -0.345737f, -0.144567f, -0.052097f, 0.085954f, -0.06151f, -0.139213f, 0.000146f, -0.519191f, -0.520412f, -0.313145f, -0.15434f, -0.114041f, -0.084487f, 0.070836f, -0.639781f, -0.24246f, 0.052627f, 0.262386f, 0.097365f, 0.014422f, -0.107071f, -0.07989f, 0.252376f, 0.189071f, -0.093543f, -0.096176f, -0.053745f, -0.193509f, -0.400431f, -0.197796f, 0.057517f, -0.010507f, -0.173514f, -0.256214f, -0.013682f, -0.178237f, -0.551113f, -0.296016f, -0.009918f, 0.057698f, -0.130782f, -0.4321f, -1.0f, -0.628701f, 0.034891f, 0.41221f, 0.26233f, -0.152366f, -0.326646f, -0.151248f, -0.042322f, -0.208461f, -0.015486f, 0.136288f, 0.123971f, 0.035568f, -0.605753f, -0.474024f, -0.267186f, -0.272264f, -0.399141f, -0.336739f, -0.127346f, -0.146774f, -0.439223f, -0.150062f, -0.03788f, -0.148607f, 0.150372f, -0.476401f, -0.411252f, -0.530874f, 0.055172f, 0.397246f, 0.042783f, -0.234244f, -0.315994f, -0.394256f, -0.316648f, 0.128043f, 0.649524f, 0.783593f, 0.567688f, 0.178113f, -0.602602f, -0.724471f, -0.452497f, -0.48168f, -0.329849f, -0.165957f, -0.136639f, -0.104575f, -0.198617f, 0.130548f, -0.07301f, -0.091632f, 0.185679f, -0.526802f, -0.186262f, -0.238844f, 0.055575f, 0.134368f, 0.050321f, -0.004738f, -0.207125f, -0.354925f, -0.168489f, 0.342129f, 1.0f, 0.997765f, 0.9743f, 0.322513f, -0.541316f, -0.716891f, -0.236527f, -0.315117f, -0.157696f, 0.000192f, -0.158461f, -0.440154f, -0.24669f, 0.000427f, 0.068977f, -0.107225f, 0.292123f, 0.025163f, 0.174235f, 0.117958f, -0.033199f, 0.000583f, -0.075728f, 0.257358f, 0.151222f, 0.193093f, 0.305898f, 0.758064f, 0.996481f, 0.997833f, 0.66269f, 0.338256f, -0.105266f, 0.072246f, 0.179254f, -0.057836f, 0.102661f, -0.224938f, -0.433176f, -0.920507f, -0.650607f, -0.357721f, -0.199137f, 0.266588f, 0.16231f, 0.361731f, 0.473633f, 0.497605f, 0.384069f, 0.193301f, 0.26601f, 0.384035f, 0.415358f, 0.392754f, 0.569607f, 0.946504f, 0.854664f, 0.262922f, -0.116727f, 0.075134f, 0.245616f, 0.388529f, 0.247829f, 0.531215f, 0.225275f, -0.278765f, -0.544039f, -0.744452f, -0.30907f, -0.120243f, 0.059081f, 0.254262f, 0.044256f, 0.181839f, 0.629026f, -0.04381f, 0.27379f, 0.256943f, 0.202935f, 0.112891f, 0.01918f, 0.065563f, 0.312908f, 0.457992f, 0.328814f, -0.406806f, -0.508545f, -0.086613f, 0.282725f, 0.386888f, 0.367347f, 0.441902f, 0.026795f, -0.243386f, -0.385006f, -0.47747f, -0.11535f, -0.436232f, -0.383266f, -0.129361f, -0.102436f, 0.113197f, 0.966086f, -0.481537f, -0.045815f, -0.288897f, -0.074163f, -0.187273f, -0.227931f, -0.208053f, -0.274776f, -0.048185f, -0.271667f, -0.740437f, -0.604699f, 0.016029f, 0.347448f, 0.396884f, 0.43271f, 0.297422f, -0.199186f, -0.128236f, -0.177163f, -0.334143f, -0.310158f, -0.324933f, -0.2727f, -0.018798f, -0.0672f, 0.196286f, 0.038432f, -0.241981f, -0.121357f, -0.188434f, -0.129586f, -0.260654f, -0.411992f, -0.046079f, -0.039738f, -0.088199f, -0.025507f, -0.561348f, -0.524738f, -0.053036f, 0.267953f, 0.497095f, 0.374644f, 0.227299f, -0.218355f, -0.172268f, 0.027094f, -0.188866f, -0.198285f, 0.079961f, -0.075266f, -0.018483f, 0.160522f, 0.186836f, -0.281645f, 0.108318f, 0.424298f, -0.079459f, -0.122229f, -0.166494f, -0.222703f, -0.321717f, -0.22501f, 0.012605f, 0.046038f, -0.611804f, -0.346053f, 0.099189f, 0.429115f, 0.55599f, 0.32318f, 0.223328f, -0.010945f, 0.027261f, 0.281832f, 0.153653f, 0.007898f, -0.417441f, -0.02073f, -0.120652f, -0.035184f, -0.052133f, -0.729391f, 0.651179f, 0.255362f, -0.106652f, -0.274482f, -0.270497f, -0.149229f, -0.645116f, -0.749109f, -0.344908f, -0.206528f, -0.564227f, -0.537432f, 0.110272f, 0.414593f, 0.280507f, 0.100169f, -0.024522f, -0.059082f, 0.071219f, 0.257942f, 0.364591f, 0.434458f, -0.39172f, -0.200471f, 0.028246f, -0.257632f, -0.189748f, -0.478502f, 0.260021f, 0.049134f, -0.066709f, -0.256152f, -0.461305f, -0.322199f, -0.7763f, -0.882701f, -0.434157f, -0.428954f, -0.401205f, -0.122828f, 0.294267f, 0.093439f, 0.303087f, -0.22286f, -0.337376f, -0.266829f, -0.139393f, 0.134788f, 0.168829f, -0.035184f, -0.413672f, 0.058755f, -0.071969f, 0.041741f, -0.152922f, -0.159883f, 0.208772f, 0.142281f, 0.060753f, -0.300101f, -0.600812f, -0.452193f, -0.790052f, -0.789894f, -0.317721f, -0.271377f, -0.157198f, 0.136646f, 0.237623f, 0.090163f, 0.268646f, -0.146195f, -0.37867f, -0.142871f, -0.112753f, 4.2e-05f, 0.013508f, 0.017961f, 0.067199f, -0.426206f, 0.230257f, -0.0223f, -0.200072f, -0.11024f, 0.155975f, -0.066028f, -0.050511f, -0.425543f, -0.640276f, -0.525611f, -0.504696f, -0.282237f, -0.183962f, -0.137304f, -0.064734f, 0.182771f, 0.151482f, 0.029215f, 0.260263f, -0.349641f, -0.413892f, -0.209031f, -0.043303f, 0.097698f, 0.416117f, 0.239033f, 0.316236f, -0.493944f, -0.105731f, 0.127591f, -0.172405f, -0.079009f, 0.154936f, 0.150523f, -0.054107f, -0.377731f, -0.423236f, -0.407014f, -0.181699f, -0.338966f, -0.081646f, 0.042692f, 0.063626f, 0.140715f, 0.088474f, 0.121893f, -0.048029f, -0.257978f, -0.338501f, -0.160683f, 0.199626f, 0.317229f, 0.322651f, 0.072308f, -0.392319f, -0.537137f, -0.034886f, 0.073248f, -0.002497f, -0.391263f, -0.111422f, 0.385851f, 0.038083f, -0.112234f, -0.40725f, -0.289134f, -0.129581f, -0.303074f, -0.065882f, 0.117857f, 0.060555f, 0.3271f, -0.145603f, -0.159864f, -0.2914f, -0.295628f, -0.361145f, -0.057532f, 0.175257f, 0.382757f, 0.319028f, 0.263987f, -0.136228f, -0.130775f, -0.041937f, -0.028392f, 0.011043f, -0.598295f, -0.17268f, 0.028539f, -0.036393f, 0.083074f, -0.141755f, -0.121712f, -0.112607f, -0.250129f, -0.221703f, -0.156691f, -0.086698f, -0.155711f, -0.234128f, -0.330268f, -0.367955f, -0.33523f, -0.266689f, -0.157124f, 0.236273f, 0.345883f, 0.132082f, 0.631133f, 0.184519f, -0.048848f, 0.007214f, -0.003016f, -0.035523f, -0.527042f, -0.188201f, 0.197066f, 0.167425f, 0.152542f, 0.256405f, 0.210918f, 0.22661f, 0.246987f, 0.282051f, 0.045777f, -0.18673f, -0.121964f, -0.12252f, 0.010087f, -0.173402f, -0.427719f, -0.396524f, -0.105865f, 0.218443f, -0.049173f, 0.040903f, 0.345325f, 0.304902f, 0.025143f, 0.013726f, 0.029269f, -0.028914f, -0.12398f, 0.014527f, 0.170769f, 0.114275f, 0.080009f, 0.516851f, 0.591324f, 0.224666f, 0.012407f, 0.383767f, 0.387321f, 0.57939f, 0.465632f, 0.080879f, -0.17123f, -0.429046f, -0.600617f, -0.228307f, -0.419927f, -0.074108f, -0.184401f, -0.068816f, 0.196295f, 0.254288f, 0.211574f, 0.002964f, -0.035338f, -0.034992f, 0.005235f, 0.122372f, 0.407119f, 0.052767f, 0.233232f, 0.307797f, 0.135299f, -0.284327f, 0.034998f, -0.125887f, 0.341158f, 0.538828f, 0.019242f, -0.450469f, -0.123975f, -0.212209f, -0.3846f, -0.422435f, -0.782182f, -0.282023f, -0.076354f, -0.105732f, 0.038368f, 0.068525f, -0.01986f, 0.001088f, 0.007106f, -0.004876f, -0.032168f, -0.021189f, 0.313505f, 0.455898f, 0.323406f, -0.327605f, -0.208925f, -0.261151f, -0.390187f, -0.039151f, 0.143679f, -0.29775f, -0.692143f, -0.680226f, -0.387869f, -0.284134f, 0.01317f, 0.029921f, -0.378528f, 0.139766f, 0.230406f, -0.185186f, 0.002179f, 0.001815f, 0.020623f, -0.019334f},
{0.000529f, 0.010037f, -0.002403f, -0.006302f, 0.017777f, 0.015124f, -0.025369f, -0.008482f, -0.021356f, 0.018843f, 0.005833f, 0.003909f, 0.15256f, 0.246728f, 0.195591f, 0.073897f, 0.019858f, 0.015793f, 0.031384f, -0.005133f, 0.004905f, -0.034862f, 0.029875f, 0.00291f, 0.012122f, -0.032177f, -0.005457f, 0.030057f, -0.017043f, 0.010127f, 0.021004f, 0.019571f, 0.07711f, 0.079762f, -0.289175f, -0.41125f, -0.132676f, -0.434955f, -0.796196f, -0.762681f, -1.0f, -1.0f, -0.597161f, -0.2608f, -0.106489f, -0.291759f, -0.25882f, -0.467796f, -0.3868f, -0.202703f, -0.138423f, -0.255993f, 0.010932f, 0.024624f, -0.016949f, 0.023079f, -0.0073f, 0.000901f, 0.072718f, -0.277117f, -0.085735f, -0.393064f, -0.593994f, -0.603916f, -0.310474f, -0.395101f, -0.357842f, -0.502987f, -0.916117f, -0.872808f, -0.688219f, -0.438358f, -0.351164f, -0.438567f, -0.418666f, -0.797499f, -0.652097f, -0.503493f, -0.749899f, -0.425396f, -0.570824f, -0.462826f, -0.011028f, -0.028487f, 0.016117f, 0.021126f, -0.001972f, -0.426376f, -0.30891f, 0.40897f, 0.219687f, 0.023839f, 0.089051f, 0.309641f, 0.327548f, -0.015233f, -0.007063f, -0.159122f, -0.104039f, 0.036324f, -0.201452f, -0.279954f, -0.29003f, -0.215081f, 0.039405f, -0.217361f, -0.054232f, 0.189489f, -0.176256f, -0.270498f, -0.199074f, -0.004278f, 0.004733f, -0.09588f, -0.099294f, -0.72259f, -0.396611f, 0.223863f, 0.378788f, 0.38333f, 0.221766f, 0.351751f, 0.135162f, 0.092181f, 0.08041f, -0.753033f, -1.0f, -0.871152f, -0.755161f, -0.507677f, -0.366296f, -0.156934f, -0.11329f, 0.032187f, 0.092886f, -0.143444f, -0.21427f, 0.008221f, 0.032848f, 0.276262f, 0.007718f, -0.01855f, -0.236055f, -0.234033f, 0.262334f, 0.926376f, 0.808015f, 0.914946f, 0.52711f, 0.391014f, 0.165441f, 0.124496f, -0.260208f, -0.859681f, -1.0f, -1.0f, -0.894134f, -0.937806f, -0.772157f, -0.258644f, -0.129747f, -0.176299f, 0.108887f, -0.141562f, -0.237268f, -0.229956f, -0.066989f, 0.378655f, -0.033876f, -0.074466f, -0.20815f, 0.455965f, 0.796021f, 0.896087f, 0.864041f, 0.914957f, 0.695647f, 0.430328f, 0.696401f, 0.587313f, 0.387012f, 0.202402f, -0.166072f, -0.38989f, -0.630258f, -0.749088f, -0.46215f, -0.156785f, -0.052484f, -0.267803f, -0.132612f, -0.18266f, -0.375852f, 0.17578f, 0.148883f, 0.285301f, -0.051798f, 0.049551f, -0.62486f, 0.205314f, 1.0f, 0.857938f, 0.606826f, 0.612898f, 0.555451f, 0.523437f, 0.601514f, 0.947264f, 0.835085f, 0.396995f, 0.247363f, 0.46517f, 0.026628f, -0.063728f, 0.112078f, -0.170935f, 0.003037f, 0.003807f, -0.164649f, -0.485053f, -0.825933f, -0.350216f, 0.052992f, 0.044067f, -0.045704f, -0.436735f, -0.957994f, -0.273508f, 0.774461f, 0.999249f, 0.56758f, 0.093845f, -0.117401f, 0.005526f, 0.433122f, 0.466626f, 0.319532f, 0.507166f, 0.58639f, 0.608029f, 0.123563f, 0.14602f, -0.075625f, -0.176872f, -0.075862f, 0.005501f, -0.219056f, -0.523686f, -0.998324f, -0.753667f, 0.248988f, 0.116264f, 0.064641f, -0.399857f, -0.9031f, 0.040788f, 0.94412f, 0.97862f, 0.329845f, -0.049921f, 0.043514f, 0.138485f, 0.239866f, 0.19748f, 0.359702f, 0.806881f, 1.0f, 0.859187f, 0.165419f, -0.331427f, -0.671754f, -0.579689f, -0.31096f, 0.058383f, 0.195652f, -0.491278f, -0.745899f, -0.187427f, -0.025911f, -0.050621f, 0.018743f, -0.012648f, -0.486584f, -0.077871f, 0.758941f, 0.470038f, -0.194035f, -0.277196f, -0.232861f, -0.024551f, 0.05206f, -0.017318f, 0.543477f, 0.966911f, 0.978462f, 0.401869f, -0.278766f, -0.823764f, -0.927805f, -0.817351f, -0.470761f, -0.344231f, -0.219559f, -0.482825f, -0.206635f, 0.308458f, -0.182995f, 0.056661f, -0.308819f, -0.380598f, -0.250954f, 0.194865f, 0.198692f, -0.256595f, -0.788118f, -0.583317f, -0.449535f, -0.213315f, -0.172452f, -0.109644f, 0.372791f, 0.533889f, 0.370165f, 0.192138f, -0.482034f, -0.421156f, -0.378456f, -0.271263f, -0.10708f, -0.77455f, -0.971252f, -0.842982f, -0.457322f, 0.110728f, 0.28254f, 0.341724f, -0.055807f, -0.094139f, -0.288187f, -0.418916f, -0.464309f, -0.628962f, -0.96115f, -0.703062f, -0.261545f, 0.062419f, 0.089223f, 0.069457f, 0.264897f, 0.34333f, 0.412137f, 0.073061f, 0.043211f, -0.029425f, -0.258978f, 0.170993f, 0.081987f, -0.903505f, -0.89678f, -0.873992f, -0.607611f, 0.114894f, 0.333108f, 0.401101f, -0.122183f, -0.026734f, -0.272709f, -0.586228f, -0.672384f, -1.0f, -0.80436f, -0.47143f, -0.053685f, -0.137686f, -0.115162f, 0.04519f, 0.534538f, 0.527581f, 0.441097f, 0.019498f, 0.153605f, 0.071601f, -0.452748f, -0.158069f, -0.030256f, -0.280405f, -0.626802f, -0.477912f, -0.405569f, 0.145582f, 0.406495f, 0.195992f, 0.104848f, 0.292363f, -0.015099f, -0.291271f, -0.881954f, -0.983468f, -1.0f, -0.404107f, -0.186097f, -0.010063f, -0.272762f, 0.043057f, 0.784103f, 0.511641f, 0.454549f, -0.103901f, -0.088024f, -0.314223f, -0.328929f, -0.059638f, 0.146543f, 0.40084f, -0.157942f, -0.078191f, -0.178634f, -0.056713f, -0.005901f, 0.0387f, -0.062208f, 0.277237f, 0.3561f, 0.077049f, -0.444235f, -0.957154f, -0.736524f, -0.123746f, 0.002179f, 0.10463f, -0.356353f, 0.097113f, 0.603909f, 0.268679f, 0.120539f, -0.125219f, 0.037722f, -0.228764f, -0.042663f, 0.189521f, 0.355477f, 0.541308f, 0.466273f, 0.634624f, 0.116218f, -0.188913f, -0.221955f, 0.342116f, -0.211333f, 0.185543f, 0.423232f, 0.514244f, -0.12687f, -0.875864f, -0.223292f, -0.083189f, -0.025623f, 0.330993f, 0.005477f, 0.258362f, 0.618441f, 0.229477f, -0.088374f, -0.290654f, -0.309664f, -0.127188f, 0.242964f, 0.75835f, 0.531216f, 0.532004f, 0.644116f, 0.796447f, 0.3409f, 0.022065f, 0.205859f, 0.161555f, 0.02715f, -0.047847f, 0.140471f, 0.643793f, 0.384681f, -0.160342f, -0.239465f, 0.040646f, 0.070076f, -0.064592f, -0.319497f, -0.222186f, 0.338856f, -0.169215f, -0.507173f, -0.106799f, -0.024096f, 0.069435f, 0.257352f, 0.708188f, 0.598978f, 0.446481f, 0.649507f, 0.519986f, 0.014442f, -0.047057f, -0.131876f, -0.299057f, -0.133584f, -0.169497f, -0.10049f, 0.622668f, 0.70716f, 0.103673f, -0.155566f, 0.03398f, 0.333127f, -0.165924f, -0.387372f, -0.25369f, -0.031613f, -0.681581f, -0.778991f, -0.090086f, 0.27063f, 0.091213f, 0.03907f, 0.238554f, 0.479957f, 0.721633f, 0.972572f, 0.745584f, -0.347415f, -0.355788f, -0.505251f, -0.13947f, 0.00942f, -0.529429f, 0.240797f, 0.459134f, 0.749024f, -0.033997f, -0.247106f, 0.099665f, 0.137831f, -0.164949f, -0.240188f, -0.193108f, -0.275076f, -0.381378f, -0.580768f, -0.328611f, 0.206081f, 0.112432f, 0.203706f, -0.056558f, 0.253172f, 0.826631f, 0.96447f, 0.628447f, -0.232207f, -0.128012f, -1.0f, -0.033234f, 0.001948f, -0.44665f, 0.211255f, 0.414571f, 0.712946f, 0.217574f, 0.17702f, 0.152607f, -0.015952f, 0.122687f, -0.018952f, -0.04012f, -0.248201f, -0.3414f, -0.42424f, -0.448448f, -0.01963f, 0.207135f, 0.086399f, 0.146987f, 0.530584f, 0.734067f, 0.881161f, 0.85609f, -0.339744f, 0.007024f, -0.870117f, 0.031464f, -0.04028f, -0.34113f, 0.199165f, 0.037725f, 0.325034f, 0.24179f, 0.369536f, 0.115403f, -0.106813f, -0.248593f, -0.298027f, -0.231529f, -0.197348f, -0.413658f, -0.288496f, -0.15551f, -0.24548f, -0.132965f, -0.006852f, 0.100655f, 0.292157f, 0.726853f, 0.565532f, 0.516151f, 0.175598f, -0.591711f, -0.424112f, -0.046749f, -0.023593f, -0.228299f, -0.124129f, -0.085736f, -0.244321f, -0.290743f, 0.229603f, -0.008165f, -0.304971f, -0.30896f, -0.334574f, -0.421318f, -0.324643f, -0.284124f, -0.324009f, -0.429354f, -0.158611f, -0.127724f, 0.012352f, 0.251752f, 0.640197f, 0.401887f, 0.233958f, -0.124696f, -0.618278f, -0.706272f, -0.13714f, -0.077381f, -0.027231f, -0.008124f, -0.747273f, -0.463146f, -0.284113f, 0.06633f, 0.312011f, 0.280271f, -0.204122f, -0.174234f, -0.261606f, -0.360043f, -0.194799f, -0.18874f, -0.211183f, -0.368348f, -0.288205f, -0.137627f, 0.216784f, 0.42895f, 0.258219f, 0.162779f, -0.060954f, -0.254024f, -0.352935f, 0.427869f, -0.11125f, -0.024256f, 0.010706f, 0.031125f, -0.903688f, -0.907361f, -0.697287f, 0.062945f, 0.353224f, 0.619847f, 0.301639f, 0.320593f, 0.341221f, 0.250805f, 0.341932f, 0.308672f, 0.3819f, 0.244285f, 0.256424f, 0.176975f, -0.145217f, -0.329619f, -0.210534f, -0.026729f, -0.158887f, 0.200628f, -0.079451f, -0.036349f, -0.310844f, -0.012495f, -0.004014f, 0.014571f, -0.214444f, -0.483295f, -0.211534f, -0.061636f, 0.13317f, 0.347953f, 0.739671f, 0.689003f, 0.78123f, 0.999659f, 1.0f, 0.72509f, 0.550226f, 0.231472f, 0.012596f, -0.231084f, -0.582666f, -0.76393f, -0.970377f, -0.890795f, -0.367346f, -0.455935f, -0.363753f, -0.137699f, -0.196756f, -0.016196f, 0.009357f, 0.00076f, 0.010596f, 0.070416f, -0.185231f, -0.22225f, -0.239372f, -0.02853f, -0.29305f, -0.47826f, -0.585814f, -0.572109f, -0.758712f, -0.953158f, -0.96323f, -0.998975f, -0.997737f, -0.97363f, -0.981585f, -0.521555f, -0.430921f, -0.612816f, -0.051996f, 0.238072f, -0.027443f, 0.006979f, 0.004078f, -0.019983f, 0.028239f, 0.017447f, 0.030958f, -0.01629f, -0.249146f, -0.355444f, -0.115041f, -0.016553f, 0.265817f, 0.392092f, 0.232975f, 0.451336f, 0.016065f, -0.663373f, -1.0f, -1.0f, -1.0f, -0.976212f, -1.0f, -0.748504f, -0.85118f, -0.421629f, 0.058442f, 0.240089f, 0.013249f, -0.002721f, 0.011058f, -0.018657f},
{-0.035611f, 0.013023f, 0.019218f, 0.018811f, 0.02955f, -0.034894f, 0.010559f, 0.028298f, -0.018308f, 0.019848f, 0.018403f, 0.007541f, -0.129539f, -0.025699f, 0.20411f, 0.076159f, 0.014178f, 0.027152f, -0.026727f, -0.033291f, 0.013865f, -0.00156f, -0.016851f, -0.03343f, -0.022221f, 0.009589f, -0.006632f, -0.031097f, -0.003675f, -0.001868f, -0.033387f, 0.02135f, 0.055851f, 0.009712f, -0.450315f, -0.366076f, 0.271502f, 0.00486f, -0.479556f, -0.694693f, -1.0f, -0.980518f, -0.48208f, -0.457788f, -0.3344f, -0.26042f, 0.023109f, 0.722619f, 0.541744f, -0.120893f, -0.503377f, -0.22499f, 0.005716f, 0.021969f, 0.027224f, -0.030017f, -0.01588f, -0.003271f, -0.106029f, 0.253137f, 0.023035f, -0.368324f, -0.245065f, -0.530162f, 0.070579f, -0.096949f, -0.304629f, -0.87372f, -0.949363f, -0.953503f, -1.0f, -0.910485f, -0.737042f, -0.737553f, -0.660946f, -0.333402f, -0.272749f, -0.777434f, -0.617947f, -0.582153f, -0.409976f, -0.26642f, -9.5e-05f, 0.02786f, 0.010761f, -0.033223f, -0.242812f, 0.213229f, -0.088002f, 0.126627f, 0.005339f, 0.05438f, 0.383841f, 0.241779f, 0.119428f, -0.229812f, -0.411193f, -0.427122f, -0.585459f, -0.545258f, -0.284243f, -0.20188f, -0.388829f, -0.148645f, -0.076465f, -0.436879f, -0.055862f, 0.110615f, -0.026473f, -0.244361f, -0.243687f, 0.0079f, -0.022336f, -0.190952f, -0.053854f, -0.348494f, -0.496662f, -0.068573f, -0.118572f, 0.504065f, 0.326418f, 0.394378f, 0.230645f, -0.011351f, -0.303219f, -0.80526f, -0.726078f, -0.625769f, -0.202849f, -0.029272f, -0.279564f, -0.389453f, -0.225466f, -0.297763f, -0.171041f, 0.043968f, 0.068912f, -0.034693f, -0.312466f, -0.15424f, -0.013228f, 0.007256f, -0.008503f, -0.263014f, -0.292329f, 0.198502f, 0.041443f, 0.339767f, 0.233802f, 0.334562f, 0.298683f, 0.106907f, -0.28736f, -0.638897f, -0.689832f, -0.537328f, -0.302287f, -0.253395f, -0.105696f, -0.288683f, -0.200651f, -0.427148f, -0.45579f, -0.703501f, -0.447667f, -0.151381f, -0.414447f, -0.069412f, 0.035519f, 0.025799f, -0.063363f, 0.11532f, 0.002787f, 0.138858f, 0.100672f, 0.309646f, 0.213617f, 0.570661f, 0.720497f, 0.585806f, 0.107105f, -0.158288f, -0.362491f, -0.345413f, -0.259796f, -0.177547f, 0.175088f, 0.072796f, 0.03293f, 0.074126f, -0.406098f, -0.915826f, -0.445849f, -0.27067f, 0.296578f, 0.016589f, 0.084594f, 0.182767f, -0.385168f, -0.086112f, 0.268565f, 0.355478f, 0.080296f, 0.294148f, 0.372538f, 0.597378f, 0.664872f, 0.81107f, 0.485039f, 0.193966f, -0.090477f, -0.07903f, -0.329712f, -0.471571f, -0.280554f, -0.075711f, -0.013141f, 0.081258f, -0.1808f, -0.466627f, -0.612417f, -0.513835f, 0.242767f, 0.03831f, 0.100875f, -0.715713f, -0.741789f, -0.385914f, 0.516667f, 0.821745f, 0.316399f, 0.194203f, 0.034385f, 0.095368f, 0.707377f, 0.747604f, 0.606211f, 0.544109f, 0.243201f, -0.062456f, -0.490552f, -0.760572f, -0.704222f, -0.204724f, -0.209698f, 0.001213f, -0.179299f, 0.000639f, -0.308276f, 0.059501f, 0.260676f, -0.286582f, 0.3948f, -0.652257f, -0.939396f, -0.199636f, 0.68303f, 0.863162f, 0.591721f, 0.392421f, 0.191344f, 0.5396f, 0.862881f, 0.770992f, 0.885659f, 0.863237f, 0.624229f, 0.262583f, -0.260789f, -0.783792f, -0.784983f, -0.689603f, -0.606106f, -0.200808f, 0.093583f, -0.071613f, -0.09575f, 0.270427f, 0.116751f, -0.033627f, 0.372898f, -0.458584f, -0.614315f, 0.180511f, 0.667631f, 0.766527f, 0.349372f, -0.020377f, -0.079708f, 0.196516f, 0.332722f, 0.418747f, 0.805547f, 0.845052f, 0.70479f, 0.483813f, 0.019475f, -0.58759f, -0.88645f, -0.901016f, -0.564995f, -0.354576f, -0.25773f, -0.766296f, -0.420287f, -0.150398f, 0.080181f, -0.082341f, -0.067097f, -0.276335f, -0.427108f, 0.136713f, 0.325724f, 0.229443f, -0.213019f, -0.25689f, -0.399246f, -0.170162f, -0.224649f, 0.017351f, 0.259035f, -0.003614f, 0.202591f, 0.446638f, 0.150812f, -0.221024f, -0.717668f, -0.585325f, -0.336554f, -0.406026f, -0.709184f, -0.932184f, -0.644612f, -0.191724f, -0.29375f, 0.358146f, -0.070429f, -0.285668f, -0.586979f, -0.190412f, -0.052542f, 0.115566f, -0.232509f, -0.617108f, -0.510833f, -0.525669f, -0.411506f, -0.047499f, 0.056064f, -0.170164f, 0.095039f, 0.445256f, 0.435942f, 0.043514f, -0.420734f, -0.096709f, -0.050329f, -0.410996f, -0.88175f, -0.807148f, -0.452055f, 0.267475f, 0.244855f, 0.333578f, -0.041099f, -0.082837f, -0.581843f, -0.249561f, -0.168432f, -0.230506f, -0.35054f, -0.590281f, -0.608247f, -0.672492f, -0.431904f, 0.048374f, 0.237323f, -0.05826f, -0.060666f, 0.335644f, 0.420533f, -0.097344f, -0.291403f, -0.069543f, -0.126871f, -0.565591f, -0.594132f, -0.079308f, 0.331848f, 0.424709f, 0.300482f, -0.104412f, -0.114371f, 0.11255f, -0.49643f, -0.091104f, -0.578864f, -0.723426f, -0.470982f, -0.341098f, -0.374031f, -0.149359f, 0.098017f, 0.334453f, 0.414882f, 0.055432f, 0.318309f, 0.217578f, 0.022554f, -0.313088f, -0.045562f, -0.047361f, -0.118485f, -0.110493f, 0.006519f, 0.080426f, 0.21082f, 0.235521f, 0.140846f, -0.154635f, -0.072186f, 0.059224f, 0.084299f, 0.020541f, -0.382335f, -0.716044f, -0.182308f, 0.394573f, -0.116183f, 0.135227f, 0.013578f, 0.323912f, 0.482089f, 0.272742f, 0.454879f, 0.100698f, -0.102039f, -0.262428f, 0.027774f, 0.376162f, 0.144798f, 0.220773f, 0.593785f, 0.36533f, 0.467787f, 0.725283f, 0.587367f, 0.093733f, 0.127534f, 0.099016f, 0.228641f, 0.120188f, 0.08946f, -0.196347f, 0.250913f, 0.373122f, 0.011897f, 0.057033f, 0.087119f, 0.535738f, 0.78815f, 0.445344f, 0.37653f, 0.14573f, -0.130576f, -0.068613f, 0.264814f, 0.708174f, 0.506757f, 0.354598f, 0.529373f, 0.780103f, 0.828365f, 1.0f, 0.893663f, -0.241723f, 0.03126f, -0.344751f, 0.222997f, 0.451439f, 0.645246f, 0.235282f, 0.178114f, 0.599007f, 0.390034f, 0.095162f, -0.288152f, -0.035506f, 0.359312f, 0.066337f, 0.039191f, 0.068034f, -0.040521f, -0.078471f, 0.249701f, 0.47445f, 0.654864f, 0.619052f, 0.945051f, 0.863426f, 1.0f, 0.544836f, 0.620257f, -0.509006f, -0.090253f, -0.283137f, 0.128753f, 0.454827f, 0.553446f, 0.345159f, -0.085067f, 0.124191f, 0.047641f, -0.353478f, -0.567572f, -0.341318f, 0.032218f, -0.007688f, -0.211208f, -0.064102f, 0.123138f, 0.150363f, 0.008127f, 0.033088f, 0.07794f, 0.712245f, 0.996766f, 0.926568f, 0.797689f, 0.345813f, 0.47264f, 0.160103f, -0.017698f, -0.540071f, 0.283385f, 0.29037f, 0.319213f, 0.304821f, -0.015524f, -0.092607f, -0.151045f, -0.280957f, -0.317956f, -0.316993f, -0.000522f, -0.119964f, -0.619505f, -0.455037f, 0.140518f, 0.113455f, 0.14343f, -0.33417f, -0.096739f, 0.763861f, 0.989203f, 0.782723f, 0.505712f, 0.236152f, -0.102261f, 0.513263f, 0.013305f, -0.296136f, 0.160225f, 0.286782f, 0.226891f, 0.454361f, 0.133782f, -0.362287f, -0.495248f, -0.004161f, -0.026302f, -0.314336f, -0.19301f, -0.45157f, -0.684831f, -0.643111f, -0.161643f, 0.045564f, 0.021184f, -0.063575f, 0.302323f, 0.769463f, 0.767743f, 0.603885f, 0.11087f, 0.109087f, -0.765091f, 0.040759f, 0.091457f, -0.164958f, 0.005934f, 0.37115f, 0.359895f, 0.359021f, 0.399184f, -0.05055f, -0.309104f, -0.051785f, -0.06333f, -0.269551f, -0.294783f, -0.655679f, -0.609558f, -0.539707f, -0.174787f, 0.057776f, 0.038319f, -0.112397f, 0.285868f, 0.609609f, 0.363845f, 0.112521f, 0.147788f, -0.290606f, -0.280342f, -0.125881f, 0.085328f, 0.034555f, -0.292537f, 0.377445f, 0.463926f, 0.203455f, 0.389497f, 0.368121f, 0.117293f, -0.026253f, -0.101877f, -0.22495f, -0.213677f, -0.380059f, -0.398952f, -0.368923f, 0.003051f, -0.054379f, -0.208925f, -0.30451f, 0.148009f, 0.096398f, 0.115472f, -0.177414f, 0.140046f, -0.164295f, -0.217051f, -0.094457f, 0.027814f, -0.022249f, -0.60688f, 0.012298f, 0.131188f, -0.028936f, 0.007033f, 0.260505f, 0.227326f, -0.06845f, -0.150981f, -0.055119f, 0.13183f, 0.023156f, -0.181483f, -0.328665f, -0.42075f, -0.424138f, -0.371456f, -0.157517f, -0.159564f, -0.172273f, 0.060048f, -0.476444f, 0.00908f, 0.345229f, -0.33454f, -0.014556f, -0.016827f, -0.000402f, -0.722143f, -0.200345f, -0.06429f, -0.099337f, -0.154338f, 0.12252f, 0.080503f, 0.026757f, 0.050145f, 0.012493f, -0.058177f, -0.073645f, -0.017481f, -0.06453f, -0.125877f, -0.447004f, -0.770006f, -0.823176f, -0.623803f, -0.370999f, -0.493603f, -0.639728f, -0.307655f, -0.072417f, -0.354016f, -0.005756f, -0.0344f, -0.000215f, -0.191411f, -0.461215f, -0.172173f, -0.340435f, -0.105977f, 0.286025f, 0.444614f, 0.171343f, 0.5373f, 0.646241f, 0.655178f, 0.454337f, 0.168032f, -0.077044f, -0.495689f, -0.863329f, -1.0f, -1.0f, -1.0f, -1.0f, -0.802254f, -0.613037f, -0.360574f, -0.372671f, -0.228959f, -0.008038f, -0.027695f, 0.015675f, -0.020493f, 0.053414f, -0.042658f, -0.190915f, -0.178222f, 0.007304f, -0.328058f, -0.807527f, -0.706242f, -0.710726f, -0.69514f, -0.948701f, -0.977978f, -0.999242f, -0.999872f, -0.998751f, -0.871558f, -0.708774f, -0.70203f, -0.532324f, -0.564373f, -0.241918f, 0.124f, -0.045013f, 0.008035f, -0.019571f, 0.010981f, 0.029462f, -0.030646f, 0.0305f, 0.016229f, 0.318351f, 0.445706f, -0.120106f, -0.092605f, 0.28503f, 0.013927f, -0.3533f, -0.648625f, -0.710136f, -0.785785f, -0.771788f, -0.987084f, -0.5398f, -0.155513f, -0.200618f, -0.373277f, -0.135327f, -0.245659f, -0.283656f, 0.005297f, -0.032297f, 0.031733f, 0.012046f},
{0.017761f, 0.019556f, 0.011332f, -0.018625f, 0.021724f, 0.002627f, -0.017695f, 0.020277f, -0.00132f, 0.006315f, 0.023551f, 0.027239f, 0.092211f, 0.18419f, 0.144242f, 0.04097f, 0.013448f, 0.022467f, -0.010832f, -0.016738f, -0.008355f, 0.020736f, 0.028905f, -0.015283f, 0.018257f, 0.034437f, 0.025273f, 0.003012f, -0.00674f, 0.034886f, 0.011995f, -0.013416f, 0.064929f, 0.069123f, 0.249326f, 0.100731f, -0.211805f, -0.071114f, 0.499954f, 0.290462f, -0.352502f, -0.477765f, -0.47075f, 0.081084f, 0.171397f, 0.312688f, 0.167503f, 0.044723f, 0.102911f, -0.010476f, 0.086543f, 0.355244f, 0.029017f, -0.017317f, 0.026662f, -0.021458f, -0.02946f, 0.009493f, 0.135773f, -0.317099f, -0.019192f, 0.387382f, -0.183269f, 0.208281f, -0.231454f, -0.107573f, -0.104884f, -0.159034f, -0.426652f, -0.164336f, -0.663645f, -0.632204f, -0.394651f, -0.531186f, -0.685648f, -0.659892f, -0.833372f, -0.827697f, -0.522211f, -0.328663f, -0.103984f, -0.098757f, 0.027511f, 0.030201f, -0.003597f, -0.011998f, 0.143848f, -0.433371f, -0.593306f, -0.567302f, -0.416413f, -0.041135f, -0.029995f, 0.154639f, 0.000333f, -0.257031f, -0.288874f, -0.02546f, -0.25764f, -0.569827f, -0.639721f, -0.704562f, -0.981429f, -1.0f, -1.0f, -0.958911f, -0.646896f, -0.419362f, -0.499499f, -0.140521f, 0.072527f, 0.032789f, -0.007551f, 0.20152f, -0.074905f, 0.060548f, -0.370483f, -0.477616f, -0.495453f, -0.150851f, -0.30855f, -0.027043f, 0.089038f, 0.135018f, 0.083392f, 0.212392f, -0.072836f, -0.166054f, -0.621585f, -0.691111f, -0.711996f, -0.77412f, -0.656716f, -0.752418f, -0.612982f, 0.248952f, 0.329012f, 0.244075f, 0.29035f, 0.18235f, -0.004684f, 0.028163f, -0.018384f, 0.018979f, -0.353942f, -0.707918f, -0.592771f, -0.570765f, -0.441379f, -0.314616f, 7.2e-05f, 0.121196f, -0.055448f, 0.291872f, 0.284485f, 0.065907f, -0.361904f, -0.320907f, -0.101918f, -0.38199f, -0.279368f, -0.635859f, -0.551145f, -0.071206f, 0.227962f, 0.163327f, 0.513093f, 0.199332f, 0.028634f, -0.076741f, 0.017859f, -0.134613f, -0.907649f, -0.39729f, -0.242037f, -0.347637f, -0.332016f, -0.432669f, 0.048954f, -0.074433f, 0.037932f, 0.064694f, -0.053157f, -0.119537f, -0.169762f, -0.159375f, -0.09121f, 0.040136f, -0.074359f, -0.127107f, -0.243752f, -0.110965f, 0.083036f, -0.135429f, -0.051583f, -0.141756f, -0.111023f, -0.108308f, 0.286425f, -0.301232f, -0.883752f, -0.457935f, -0.34963f, -0.373711f, -0.319437f, -0.036516f, 0.231512f, 0.071964f, -0.248352f, -0.036824f, -0.203211f, -0.213153f, -0.057269f, 0.005228f, 0.053458f, -0.103136f, -0.08723f, -0.19292f, -0.248853f, -0.130116f, 0.270254f, 0.108643f, -0.092457f, -0.13066f, 0.099318f, 0.112902f, -0.008347f, -0.191793f, -0.94713f, -0.725429f, -0.321838f, 0.025675f, -0.079981f, 0.243191f, 0.137074f, 0.028137f, -0.27237f, -0.18394f, -0.161145f, -0.07405f, 0.326061f, 0.093626f, -0.04276f, -0.026764f, -0.02234f, -0.010178f, -0.057446f, 0.618763f, 0.93892f, 0.04335f, -0.13327f, 0.371988f, -0.359317f, -0.083343f, -0.109458f, -0.051365f, -0.632434f, -0.68994f, 0.033323f, 0.1547f, 0.082309f, 0.173579f, 0.159855f, -0.067946f, 0.033007f, 0.198485f, 0.232878f, 0.288262f, 0.248975f, -0.126501f, -0.231603f, 0.0876f, 0.187581f, 0.323023f, 0.867961f, 0.856502f, 0.966196f, 0.729306f, 0.189693f, 0.234595f, -0.309661f, -0.319117f, -0.279283f, -0.523898f, -0.625704f, -0.267173f, 0.352545f, 0.034085f, 0.097421f, 0.196954f, 0.008273f, 0.202475f, -0.00498f, 0.334536f, 0.699459f, 0.687063f, 0.616615f, 0.504067f, 0.364932f, 0.228288f, 0.553019f, 0.819143f, 0.924949f, 0.931122f, 0.990513f, 0.954592f, 0.506689f, 0.261945f, -0.431584f, -0.05153f, -0.383128f, -1.0f, -0.896169f, 0.047198f, 0.384732f, 0.054516f, 0.218204f, 0.288123f, -0.093306f, -0.118392f, -0.096756f, 0.290598f, 0.444063f, 0.186189f, -0.014689f, 0.100479f, -0.006776f, -0.000341f, 0.351134f, 0.84837f, 0.988799f, 0.985294f, 0.942045f, 0.998437f, 0.576977f, 0.304021f, -0.13978f, 0.148226f, -0.178477f, -1.0f, -0.487022f, 0.143576f, 0.486453f, 0.150119f, 0.189839f, 0.244599f, -0.392613f, -0.394965f, 0.32389f, 0.346392f, -0.129511f, -0.656406f, -0.652117f, -0.506594f, -0.171169f, -0.190793f, 0.192082f, 0.738375f, 0.889556f, 0.878534f, 0.972871f, 0.934287f, 0.759891f, 0.209315f, -0.03392f, -0.018284f, 0.058377f, -0.946161f, -0.350941f, 0.061547f, 0.329976f, 0.203784f, -0.003403f, -0.113473f, -0.091113f, 0.290951f, 0.7398f, 0.026669f, -0.342751f, -0.542514f, -0.699835f, -0.603356f, -0.198151f, -0.428204f, 0.042461f, 0.235928f, 0.691401f, 0.43048f, 0.492844f, 0.961833f, 0.711246f, 0.191757f, 0.091999f, -0.027133f, 0.424131f, -0.979927f, -0.503803f, 0.132051f, 0.229501f, -0.039414f, -0.275768f, 0.213832f, 0.514184f, 0.998694f, 0.552607f, -0.591604f, -0.797993f, -0.92205f, -0.882959f, -0.60613f, -0.304315f, -0.429426f, -0.05445f, 0.182982f, 0.278291f, 0.489804f, 0.472478f, 0.470163f, 0.67502f, 0.217836f, -0.050013f, -0.166885f, 0.482842f, -0.791888f, -0.269458f, 0.021842f, 0.221925f, -0.037566f, 0.057448f, 0.579389f, 0.929004f, 0.916836f, -0.339222f, -0.921201f, -0.978224f, -0.960528f, -0.693225f, -0.452764f, -0.380992f, -0.203495f, 0.174547f, 0.429758f, 0.255959f, 0.47086f, 0.666558f, 0.718636f, 0.999629f, 0.379819f, -0.19248f, -0.139121f, -0.087645f, -0.681263f, 0.107951f, 0.184985f, 0.491289f, 0.506131f, 0.874686f, 0.94228f, 0.618006f, 0.188625f, -0.365613f, -0.909863f, -0.948786f, -0.699871f, -0.6444f, -0.442866f, -0.414901f, -0.180044f, 0.248259f, 0.142112f, 0.156623f, 0.644882f, 0.611232f, 0.934896f, 0.825742f, 0.356183f, 0.021107f, -0.397265f, -0.182355f, -0.748387f, 0.464841f, 0.621991f, 0.967655f, 0.852065f, 0.952663f, 0.974454f, 0.708519f, 0.129461f, -0.195429f, -0.478058f, -0.620658f, -0.160303f, -0.136882f, -0.5559f, -0.566554f, 0.030756f, 0.021717f, -0.111803f, 0.049869f, 0.512662f, 0.930463f, 0.51194f, 0.170539f, 0.427502f, -0.224206f, -0.290261f, 0.006034f, -0.732658f, 0.287946f, 0.736552f, 1.0f, 0.964174f, 1.0f, 1.0f, 0.931635f, 0.438572f, 0.343673f, 0.198765f, 0.008642f, -0.028173f, -0.224032f, -0.650482f, -0.33816f, 0.061535f, -0.222236f, -0.104787f, -0.071095f, 0.526903f, 1.0f, 0.256786f, 0.050498f, -0.155235f, 0.042229f, -0.229375f, 0.024134f, -1.0f, 0.073135f, 0.645123f, 0.997127f, 1.0f, 1.0f, 0.998853f, 0.94604f, 0.265775f, 0.371472f, -0.201949f, -0.512371f, -0.410339f, -0.17659f, -0.397035f, -0.226135f, -0.206899f, -0.041305f, -0.191903f, 0.074154f, 0.843383f, 0.860612f, 0.22748f, -0.156164f, 0.383517f, 0.03083f, -0.241869f, -0.01857f, -0.856416f, -0.172093f, 0.385678f, 0.516271f, 0.734762f, 0.753055f, 0.595489f, 0.150635f, 0.074447f, 0.066067f, -0.128939f, -0.534537f, -0.577923f, -0.104125f, -0.184959f, -0.194337f, 0.073001f, -0.030398f, 0.280246f, 0.680352f, 0.643258f, 0.342778f, -0.091873f, -0.122584f, 0.156843f, -0.099246f, -0.252323f, -0.139123f, -0.382134f, -0.117678f, 0.27531f, 0.024427f, 0.124063f, -0.116133f, -0.14677f, -0.144997f, -0.318698f, -0.188602f, -0.480652f, -0.693366f, -0.092715f, -0.025491f, 0.04608f, -0.151836f, -0.018611f, 0.130681f, 0.487263f, 0.288096f, -0.192396f, -0.048755f, 0.06238f, -0.170714f, 0.0847f, -0.042525f, -0.102985f, 0.32608f, 0.183816f, 0.000455f, -0.106659f, 0.012431f, 0.191988f, 0.11591f, 0.091231f, -0.024965f, -0.045148f, -0.010818f, 0.05074f, 0.030772f, 0.071356f, -0.220265f, -0.057068f, -0.016059f, 0.143546f, 0.137102f, 0.032123f, -0.224881f, -0.561417f, -0.322504f, 0.429574f, 0.319404f, 0.115672f, -0.017445f, -0.022258f, 0.392647f, 0.615585f, 0.001981f, -0.101148f, -0.479234f, -0.383349f, 0.066592f, -0.016902f, 0.050163f, -0.027787f, -0.046749f, 0.037045f, 0.242866f, 0.193505f, 0.033564f, -0.002686f, -0.233473f, -0.192962f, -0.112917f, -0.330907f, -0.751761f, -0.48482f, 0.04699f, 0.523491f, 0.189176f, -0.009091f, -0.005637f, -0.001839f, 0.352723f, -0.247556f, -0.80477f, -0.677356f, -0.801776f, -0.958912f, -0.68969f, -0.487615f, -0.136164f, -0.28361f, -0.221734f, -0.414723f, -0.571584f, -0.306782f, -0.382302f, -0.702038f, -0.771117f, -0.300635f, -0.629131f, -0.72958f, -0.856286f, -0.87967f, -0.242013f, 0.170118f, 0.106024f, -0.00623f, -0.001812f, 0.010035f, -0.016964f, -0.170517f, -0.015485f, -0.671428f, -1.0f, -1.0f, -1.0f, -0.960343f, -0.966204f, -0.943026f, -0.966719f, -1.0f, -1.0f, -0.979472f, -0.988984f, -0.962053f, -0.924648f, -1.0f, -0.8721f, -1.0f, -0.80554f, -0.54424f, -0.11395f, -0.258662f, -0.143296f, -0.004153f, -0.018544f, 0.004117f, -0.017312f, -0.147865f, -0.415872f, -0.596571f, -1.0f, -1.0f, -1.0f, -0.92269f, -0.947368f, -0.981718f, -1.0f, -1.0f, -1.0f, -0.993028f, -0.999782f, -0.718603f, -0.596528f, -0.387064f, -0.688611f, -0.534196f, -0.43061f, -0.63536f, -0.047023f, -0.045285f, 0.003011f, 0.026274f, 0.033618f, 0.03048f, 0.035324f, -0.026472f, -0.331153f, -0.448963f, -0.942842f, -1.0f, -1.0f, -0.962796f, -0.989403f, -0.749469f, -1.0f, -1.0f, -1.0f, -0.98032f, -0.913032f, -0.549269f, -0.254238f, 0.148629f, -0.029976f, -0.228866f, -0.246541f, -0.213487f, -0.024747f, 0.025108f, -0.004325f, 0.025038f},
{0.030259f, -0.00116f, -0.01839f, -0.006174f, 0.016492f, 0.023136f, -0.023169f, -0.031058f, -0.029695f, 0.013802f, 0.021524f, 0.03037f, 0.090839f, 0.152791f, 0.131386f, 0.010092f, -0.027376f, 0.003908f, -0.013188f, 0.028794f, 0.027082f, 0.024834f, 0.026296f, -0.003098f, -0.001882f, 0.022779f, -0.030171f, 0.017192f, 0.023729f, -0.002144f, 0.008705f, -0.027961f, -0.011422f, -0.057146f, 0.004605f, -0.051619f, -0.005433f, -0.153091f, -0.250332f, 0.238793f, -0.145405f, -0.36792f, -0.368133f, -0.084572f, -0.140031f, -0.00655f, -0.012182f, 0.01307f, -0.15941f, 0.052301f, 0.175238f, 0.300672f, 0.004398f, 0.008558f, 0.002838f, 0.01036f, -0.034962f, -0.004354f, 0.002825f, -0.16039f, -0.037135f, 0.352211f, 0.037448f, -0.007354f, -0.037966f, -0.158719f, -0.095972f, -0.047471f, -0.004998f, -0.197571f, -0.372416f, -0.214213f, -0.012652f, -0.195154f, -0.902342f, -0.82762f, -0.602542f, -0.633922f, -0.515191f, -0.208085f, -0.2997f, -0.447146f, 0.019631f, 0.009426f, -0.035534f, -0.025492f, -0.278347f, -0.144265f, -0.066838f, -0.284743f, -0.114781f, -0.46316f, -0.440039f, -0.228899f, -0.469726f, -0.287462f, -0.172195f, -0.528736f, -0.152266f, -0.031369f, 0.015773f, 0.16856f, -0.052742f, 0.123131f, -0.001089f, 0.387897f, 0.468704f, 0.492095f, 0.281796f, -0.364796f, 0.172041f, 0.002056f, 0.000604f, 0.00192f, -0.197431f, -0.02714f, 0.227976f, -0.673099f, -0.38775f, -0.620299f, -0.692499f, -0.634066f, -0.723376f, -0.973924f, -0.997945f, -0.698593f, -0.035615f, 0.095394f, 0.611264f, 1.0f, 0.852175f, 0.671788f, 0.681908f, 0.439027f, 0.302762f, 0.329799f, 0.759018f, 0.412277f, 0.894543f, 0.330985f, 0.017883f, 0.009749f, -0.096708f, -0.005319f, 0.139922f, -0.525828f, -0.641948f, -0.91689f, -0.864892f, -0.763517f, -0.9752f, -0.997857f, -1.0f, -0.437231f, 0.064368f, 0.375774f, 0.635056f, 0.676154f, 0.737682f, 0.652315f, 0.626648f, 0.445001f, 0.229731f, 0.095416f, 0.436208f, -0.356009f, 0.135688f, 0.274766f, 0.007366f, -0.083331f, -0.028488f, -0.184972f, -0.216454f, -0.649624f, -0.734537f, -0.831466f, -0.531906f, -0.351495f, -0.36349f, -0.592206f, -0.249178f, -0.094609f, 0.170242f, 0.326014f, 0.318337f, 0.111989f, 0.130403f, 0.167145f, 0.040331f, -0.243627f, -0.218364f, -0.319073f, -0.20991f, -0.278609f, -0.491516f, 0.173276f, -0.018526f, 0.052262f, 0.131069f, 0.049161f, -0.151101f, -0.53442f, -0.746742f, -0.331067f, -0.101912f, -0.351762f, -0.268129f, -0.236935f, 0.194858f, 0.099095f, 0.026387f, -0.289814f, 0.010283f, -0.035163f, -0.302564f, -0.310117f, -0.297408f, -0.385719f, -0.259915f, -0.600424f, -0.041716f, 0.019181f, -0.31405f, 0.082042f, -0.094069f, -0.113531f, 0.697068f, -0.087773f, -0.173209f, -0.60947f, -0.633655f, -0.086845f, -0.068044f, -0.26508f, -0.234f, -0.053513f, 0.001859f, -0.15562f, -0.195472f, -0.307289f, -0.052548f, -0.384157f, -0.512293f, -0.068606f, -0.11476f, -0.440255f, -0.477349f, 0.11279f, 0.46019f, -0.329101f, -0.598439f, -0.358299f, 0.088832f, 0.155757f, 0.866663f, -0.150022f, -0.099968f, -0.471496f, -0.419517f, 0.131225f, -0.07266f, -0.054095f, 0.01102f, 0.092776f, 0.231515f, -0.022764f, -0.273405f, 0.034324f, -0.144748f, -1.0f, -1.0f, -0.396007f, -0.100071f, -0.235734f, -0.060069f, 0.494397f, 0.768287f, 0.0681f, -0.174374f, 0.08885f, 0.117358f, 0.165487f, -0.1526f, -0.145265f, -0.248704f, -0.094654f, 0.027963f, 0.036868f, 0.077349f, 0.404707f, 0.256627f, 0.25849f, 0.516368f, -0.241402f, 0.201633f, 0.465936f, -0.433819f, -1.0f, -1.0f, -0.274418f, -0.047119f, -0.009946f, 0.225287f, 0.708366f, 0.807775f, 0.664178f, 0.095483f, -0.07726f, 0.149022f, 0.117959f, -0.299554f, -0.449693f, -0.218909f, 0.338616f, 0.164094f, 0.046307f, 0.073082f, 0.1814f, -0.005988f, -0.342655f, -0.019376f, 0.448018f, 0.416677f, -0.311275f, -0.955146f, -1.0f, -1.0f, -0.323099f, -0.095307f, -0.037741f, 0.110417f, 0.150168f, 0.419953f, 0.93661f, 0.13076f, -0.415065f, 0.117634f, -0.159425f, -0.502369f, -0.322096f, -0.062327f, -0.242121f, -0.110361f, -0.091137f, -0.01973f, 0.071148f, -0.295382f, -0.284554f, 0.576512f, 0.976286f, 0.56825f, -0.515658f, -1.0f, -0.982061f, -0.833256f, -0.456009f, -0.154695f, 0.141851f, -0.107641f, -0.388539f, -0.040612f, 0.569208f, 0.302924f, 0.024719f, 0.075085f, 0.01762f, -0.321859f, -0.279768f, -0.024736f, -0.299533f, 0.059984f, 0.324629f, -0.027917f, 0.014612f, 0.044689f, 0.138835f, 0.799959f, 0.915216f, 0.226421f, -0.517736f, -0.925111f, -0.999011f, -0.6634f, -0.111122f, -0.088595f, -0.067516f, -0.294696f, -0.110054f, 0.153669f, 0.869296f, 0.159661f, 0.197882f, -0.039962f, -0.199847f, 0.107729f, -0.167173f, -0.372496f, -0.352526f, 0.208747f, 0.195701f, -0.113226f, 0.125709f, 0.255175f, 0.455113f, 0.795021f, 0.568336f, -0.014892f, -0.376121f, -0.631723f, -0.736619f, -0.400946f, -0.034249f, -0.079017f, -0.231218f, -0.191552f, 0.177775f, 0.168459f, 0.434711f, 0.184616f, 0.150563f, -0.08727f, -0.173237f, -0.014818f, -0.131405f, -0.36342f, -0.180765f, 0.070881f, 0.00203f, 0.130629f, 0.143005f, 0.182427f, 0.439891f, 0.592147f, 0.441907f, -0.078915f, -0.200241f, -0.254229f, -0.477169f, -0.286677f, -0.225708f, -0.328008f, -0.324706f, -0.428917f, -0.061602f, 0.054104f, 0.540653f, 0.518541f, -0.071844f, -0.078482f, -0.161501f, 0.095853f, -0.110254f, -0.192038f, 0.024386f, 0.252738f, 0.066548f, -0.099509f, -0.065109f, -0.099099f, 0.451507f, 0.583743f, 0.133789f, -0.385896f, -0.25284f, 0.142793f, -0.196378f, -0.303076f, -0.212851f, -0.245196f, -0.321813f, -0.145308f, 0.05524f, 0.079722f, 0.662085f, 0.408011f, -0.319912f, 0.020844f, 0.095924f, -0.079097f, -0.262392f, -0.109015f, 0.154102f, 0.69563f, 0.287988f, 0.270956f, 0.494347f, 0.724044f, 0.973229f, 0.727992f, 0.118599f, 0.047956f, -0.000151f, -0.03304f, -0.025936f, -0.332222f, 0.116222f, 0.199186f, 0.15863f, 0.01278f, 0.020934f, 0.088286f, 0.646365f, 0.071879f, -0.672616f, 0.006108f, 0.192804f, -0.231895f, 0.044587f, -0.035505f, 0.215518f, 0.95938f, 0.697668f, 0.542931f, 1.0f, 1.0f, 0.941082f, 0.947707f, 0.307491f, 0.057107f, -0.007017f, -0.180208f, -0.266651f, -0.113287f, 0.067403f, 0.197411f, 0.462373f, 0.15243f, 0.131035f, 0.55754f, 0.61456f, -0.352021f, -0.327491f, 0.023422f, 0.115292f, -0.411571f, -0.248972f, -0.283255f, 0.03978f, 0.099714f, 0.389042f, 0.524281f, 0.928264f, 0.878262f, 0.796361f, 0.547711f, -0.235567f, -0.781337f, -0.493506f, -0.402693f, -0.117596f, -0.190957f, 0.024504f, 0.278087f, -0.154392f, -0.10818f, 0.214748f, 0.462392f, 0.135052f, -0.29675f, -0.342945f, 0.023725f, -0.040345f, -0.318543f, -0.3187f, -0.254591f, -0.113539f, -0.203572f, -0.152604f, -0.011529f, 0.146818f, -0.011018f, 0.000456f, 0.156752f, -0.364648f, -0.847631f, -0.84037f, -0.182092f, -0.083108f, -0.192849f, 0.179694f, 0.208363f, -0.034714f, 0.193681f, 0.003405f, -0.09102f, -0.394392f, -0.599716f, 0.051084f, 0.104745f, 0.05692f, -0.326504f, -0.165081f, -0.383985f, -0.517578f, -0.471252f, -0.311374f, -0.530969f, -0.264764f, -0.14139f, 0.049532f, 0.266373f, 0.196314f, -0.143343f, -0.226398f, 0.283492f, 0.246588f, -0.143798f, 0.241603f, 0.168291f, -0.094713f, -0.027129f, 0.02132f, 0.203658f, -0.106382f, -0.606948f, 0.067856f, 0.108633f, 0.037295f, -0.27904f, -0.064246f, -0.016386f, -0.448912f, -0.54841f, -0.038061f, -0.338289f, -0.240479f, -0.294414f, -0.104611f, 0.252006f, 0.457379f, 0.401491f, 0.501167f, 0.636458f, 0.326684f, 0.066757f, 0.174323f, -0.146352f, -0.076349f, -0.333008f, -0.341479f, -0.298681f, 0.141405f, -0.080182f, 0.080886f, -0.011754f, -0.018736f, 0.685127f, 0.261861f, -0.220835f, -0.428042f, -0.513911f, -0.237363f, -0.042076f, -0.209155f, -0.445016f, -0.605165f, -0.456225f, -0.196594f, 0.052692f, 0.062247f, 0.138936f, -0.084748f, 0.03205f, -0.094506f, -0.023804f, -0.410609f, -0.56953f, -0.460977f, -0.102172f, 0.091322f, 0.074605f, -0.008837f, 0.027172f, -0.026084f, 0.107625f, 0.957713f, 0.011703f, -0.677915f, -0.830629f, -0.701756f, -0.297278f, -0.32983f, -0.50808f, -0.693667f, -0.772398f, -0.631195f, -0.414192f, -0.31234f, -0.190683f, -0.078677f, -2.9e-05f, -0.309888f, -0.350971f, -0.339589f, -0.553679f, -0.381856f, 0.100491f, -0.01244f, -0.0341f, 0.02339f, -0.010912f, 0.029356f, 0.002951f, 0.697402f, -0.057171f, -0.288489f, -0.420737f, -0.629763f, -0.84622f, -0.985181f, -0.978134f, -0.700086f, -0.574564f, -0.311645f, -0.601758f, -0.533271f, -0.272218f, 0.377267f, 0.082589f, -0.223822f, -0.356404f, -0.24653f, -0.222682f, 0.155093f, 0.290258f, 0.182564f, 0.147542f, 0.002757f, -0.032884f, 0.019283f, 0.019468f, -0.081933f, 0.06131f, 0.316592f, 0.63837f, -0.202555f, -0.509499f, -0.039302f, 0.614549f, 0.347449f, 0.017078f, 0.02362f, -0.250056f, -0.764047f, -0.541059f, -0.200286f, -0.064803f, -0.175284f, -0.354605f, -0.285425f, -0.20431f, 0.364418f, 0.06793f, -0.102617f, -0.021625f, 0.007909f, -0.024692f, 0.008328f, -0.003143f, -0.004042f, -0.185288f, -0.067669f, 0.178387f, 0.042051f, -0.049718f, 0.899431f, 0.936868f, 0.726576f, 0.706409f, 0.253704f, -0.145733f, -0.108042f, 0.70629f, 0.242857f, 0.151077f, -0.205095f, -0.150741f, -0.180506f, -0.145546f, 0.263038f, 0.033508f, 0.006903f, 0.003783f, -0.024876f},
{0.030688f, 0.001512f, 0.027726f, 0.017858f, -0.03121f, 0.031837f, 0.000615f, 0.008555f, -0.024556f, 0.013914f, -0.010263f, -0.010584f, -0.104103f, -0.106524f, -0.134814f, -0.023907f, 0.02103f, 0.034243f, -0.005436f, 0.01981f, 0.016065f, -0.01476f, -0.030543f, 0.001325f, -0.017836f, -0.022117f, -0.024199f, -0.034007f, -0.023047f, -0.012234f, -0.002674f, 0.021038f, -0.069025f, -0.068202f, 0.019395f, -0.191642f, -0.273601f, -0.185041f, -0.272577f, -0.319028f, 0.034968f, 0.433249f, 0.291253f, 0.06873f, -0.045521f, -0.048913f, 0.057762f, -0.010256f, 0.217265f, 0.14592f, 0.183781f, 0.007286f, 0.019152f, -0.007827f, -0.02634f, 0.003032f, 0.017836f, -0.009266f, -0.082937f, 0.067094f, -0.226326f, -0.288171f, -0.385554f, -0.420665f, -0.121534f, -0.277875f, -0.928853f, -0.995226f, -0.816744f, -0.513406f, -0.222302f, 0.030318f, 0.047976f, 0.3492f, 0.3682f, -0.349583f, -0.617734f, -0.305919f, 0.201277f, 0.189308f, 0.085885f, 0.279342f, 0.000924f, -0.001522f, -0.022123f, -0.001534f, -0.153849f, 0.37515f, -0.369971f, -0.920905f, -0.651038f, -0.99692f, -0.587584f, -0.666151f, -0.60074f, -0.565882f, -0.528418f, -0.581194f, -0.286102f, -0.034824f, -0.112293f, -0.208964f, -0.385234f, -0.494278f, -0.342856f, -0.625857f, -0.944982f, -0.57801f, -0.414384f, -0.100128f, -0.136308f, -0.016872f, -0.007513f, -0.225211f, -0.300912f, -0.411881f, -0.259874f, 0.170673f, -0.232063f, -0.368523f, -0.057765f, 0.102144f, 0.032742f, 0.10764f, 0.482928f, 0.514668f, 0.273368f, 0.158751f, 0.289605f, 0.139058f, -0.213112f, -0.364918f, -0.32924f, -0.156576f, -0.265478f, -0.961373f, -0.568259f, -0.405141f, -0.509696f, -0.343875f, -0.024287f, 0.023207f, -0.611316f, -0.829868f, 0.048409f, 0.123524f, 0.297325f, 0.658785f, 0.4636f, 0.724237f, 0.466316f, 0.59825f, 0.776781f, 0.611698f, 0.495844f, 0.21762f, -0.271792f, -0.582203f, -0.513188f, -0.609624f, -0.602904f, -0.213332f, -0.476357f, -0.756556f, -0.756093f, -0.751914f, 0.074773f, -0.285353f, 0.01417f, -0.032739f, 0.168597f, 0.247805f, 0.528131f, 0.429466f, 0.612223f, 0.805777f, 0.594842f, 0.679557f, 0.609136f, 0.514453f, 0.354285f, 0.422351f, 0.281325f, 0.607356f, 0.310399f, -0.366203f, -0.280097f, -0.058104f, 0.148896f, 0.267786f, -0.463871f, -0.937106f, -0.94907f, -0.754771f, -0.190368f, -0.300864f, -0.019283f, 0.138812f, -0.091437f, 0.100669f, 0.484492f, 0.438463f, 0.534364f, 0.234909f, -0.099229f, 0.078256f, -0.057166f, -0.052579f, -0.19429f, -0.156405f, -0.088789f, 0.208291f, -0.010177f, -0.366947f, 0.015597f, 0.247139f, 0.229209f, 0.412848f, -0.154789f, -0.513099f, -0.927568f, -0.644583f, -0.219955f, -0.507062f, -0.110007f, -0.055566f, -0.468225f, -0.031678f, 0.161137f, 0.150598f, 0.291831f, -0.036691f, -0.346914f, -0.510414f, -0.526798f, -0.278028f, -0.211729f, -0.301879f, -0.290736f, -0.460213f, -0.192695f, 0.381282f, 0.39024f, 0.191097f, 0.220869f, 0.177625f, 0.214104f, -0.056181f, -0.77917f, -0.829439f, -0.581982f, -0.146335f, -0.236233f, 0.167955f, -0.594694f, 0.074392f, -0.2149f, 0.099878f, -0.089987f, -0.417957f, -0.681871f, -0.749695f, -0.906935f, -0.843962f, -0.308435f, -0.233515f, 0.159243f, 0.105362f, 0.4315f, 0.664612f, 0.619473f, 0.511255f, 0.557746f, 0.361962f, 0.43955f, 0.046967f, -0.521522f, -0.238603f, -0.619505f, -0.01747f, -0.234964f, 0.262465f, -0.223903f, -0.468102f, -0.037008f, 0.07064f, -0.335562f, -0.87797f, -0.860016f, -0.817161f, -0.908305f, -0.691084f, -0.156899f, 0.03746f, 0.41817f, 0.770715f, 0.969187f, 0.956402f, 0.392809f, 0.636336f, 0.612312f, 0.170062f, 0.004289f, 0.106958f, 0.010017f, 0.370322f, -0.085224f, -0.128382f, -0.22134f, -0.230691f, -0.269458f, -0.045611f, 0.010104f, -0.487857f, -0.795793f, -0.87837f, -0.775895f, -0.919615f, -0.71073f, -0.220269f, -0.239516f, -0.163084f, 0.639728f, 0.988303f, 0.973171f, 0.913559f, 0.610449f, 0.606179f, 0.240094f, -0.522833f, -0.694716f, -0.989852f, -0.772477f, 0.201687f, -0.118088f, 0.090911f, -0.228544f, -0.09796f, -0.076806f, 0.146456f, -0.429286f, -0.412934f, -0.414112f, -0.33228f, -0.631994f, -0.942748f, -0.721527f, -0.604902f, -0.616567f, 0.07853f, 0.715f, 0.99112f, 0.917609f, 0.939101f, 0.213243f, 0.263039f, -0.154663f, -0.80899f, -0.766246f, -1.0f, -0.883094f, -0.263052f, 0.004177f, 0.018952f, -0.100799f, -0.099765f, 0.094445f, 0.402067f, -0.183615f, -0.118334f, -0.153164f, -0.321671f, -0.633714f, -0.858438f, -0.481266f, -0.154799f, 0.126869f, 0.155076f, 0.480674f, 0.814969f, 0.922174f, 0.328012f, -0.299134f, -0.214503f, 0.309679f, -0.790332f, -0.83396f, -0.908356f, -0.591242f, -0.552778f, -0.233313f, -0.045361f, 0.05926f, 0.016931f, -0.270906f, 0.543821f, -0.057935f, 0.018261f, -0.192544f, -0.443578f, -0.665394f, -0.933719f, -0.3f, -0.242642f, 0.427033f, -0.051149f, 0.192861f, 0.060712f, 0.410257f, -0.169834f, -0.448459f, -0.354579f, -0.004346f, -0.58902f, -0.614832f, -0.422452f, 0.019539f, -0.436501f, -0.55163f, -0.15123f, 0.056841f, -0.182975f, -0.346789f, 0.367848f, 0.233034f, 0.113767f, -0.232885f, -0.471631f, -0.667402f, -0.669948f, -0.238398f, 0.002166f, -0.077841f, -0.293159f, -0.340763f, -0.208018f, -0.133159f, -0.548705f, -0.370111f, -0.40441f, -0.175178f, -0.016362f, -0.033384f, 0.023412f, -0.024655f, -0.864508f, -0.550138f, -0.051855f, 0.131209f, 0.069064f, 0.066979f, 0.470055f, 0.019745f, -0.096357f, -0.240484f, -0.459699f, -0.458136f, -0.2306f, -0.224809f, -0.411483f, -0.135638f, 0.0826f, 0.110735f, 0.130643f, -0.173701f, -0.222497f, -0.11508f, -0.420042f, -0.135912f, 0.064745f, 0.042713f, -0.143214f, 0.034999f, -0.43663f, -0.203706f, -0.042063f, 0.031963f, -0.230361f, -0.060249f, 0.416112f, -0.01413f, 0.21449f, 0.034923f, -0.383669f, -0.524733f, -0.578157f, -0.75432f, -0.412941f, -0.060399f, 0.241997f, 0.461714f, 0.29103f, 0.004751f, 0.070977f, -0.187361f, -0.278728f, -0.216838f, 0.049881f, -0.037423f, -0.435683f, -0.388923f, -0.859547f, -0.259895f, -0.18311f, -0.316332f, -0.333499f, 0.030131f, 0.226639f, 0.126324f, 0.48836f, 0.28259f, -0.108895f, -0.112073f, -0.329985f, -0.453664f, -0.345372f, -0.365903f, -0.111086f, 0.092064f, 0.170779f, -0.068636f, -0.199291f, -0.076281f, -0.041858f, -0.070933f, -0.375821f, -0.570129f, -0.64992f, -0.760042f, -1.0f, -0.385308f, 0.183948f, -0.035306f, -0.711484f, 0.08386f, 0.344535f, 0.568244f, 0.259457f, 0.202893f, 0.378773f, 0.195924f, 0.106375f, -0.185758f, -0.572913f, -0.64989f, -0.357672f, -0.190448f, 0.055569f, 0.180849f, -0.215494f, -0.033853f, -0.15714f, -0.376934f, -0.510007f, -0.738026f, -0.86185f, -0.747784f, -1.0f, -0.543271f, 0.186015f, 0.035452f, -0.447335f, 0.349163f, 0.572496f, 0.660667f, 0.121612f, 0.275916f, 0.372324f, 0.4864f, 0.449706f, 0.326114f, -0.233798f, -0.493393f, -0.510224f, 0.006342f, 0.280306f, 0.412296f, -0.000114f, 0.106941f, 0.111528f, -0.026564f, -0.325144f, -0.490915f, -0.581489f, -0.611776f, -0.479423f, -0.050477f, -0.12726f, -0.13688f, -0.340406f, 0.389549f, 0.407797f, 0.740099f, 0.501955f, 0.563558f, 0.478939f, 0.261879f, -0.040646f, -0.222959f, 0.008535f, -0.148711f, 0.023601f, 0.143967f, 0.280646f, 0.584034f, 0.309759f, 0.520672f, 0.641753f, 0.193334f, -0.263793f, -0.402082f, -0.603865f, -0.051676f, -0.112599f, 0.146511f, 0.07982f, -0.160023f, -0.343102f, 0.50434f, 0.730762f, 0.529585f, 0.71776f, 0.72538f, 0.651987f, 0.48595f, 0.187389f, -0.185736f, -0.009258f, 0.125863f, 0.074783f, -0.04777f, 0.158129f, 0.368942f, 0.53527f, 0.769512f, 0.615734f, 0.07022f, -0.378481f, -0.316985f, -0.249351f, -0.292401f, -0.359107f, 0.170336f, 0.071845f, 0.023193f, 0.014306f, -0.324609f, 0.208272f, 0.481638f, 0.851903f, 0.603763f, 0.876142f, 0.673852f, 0.315804f, 0.05383f, -0.054642f, 0.015909f, 0.043142f, -0.067444f, -0.078071f, 0.31428f, 0.620294f, 0.392629f, 0.485746f, 0.300759f, 0.062824f, 0.072359f, 0.199906f, 0.194743f, 0.253836f, 0.005546f, 0.005519f, 0.034567f, -0.023147f, -0.159295f, -0.344565f, -0.09907f, 0.389884f, 0.244396f, 0.207873f, -0.016639f, -0.143534f, -0.30545f, -0.531984f, -0.505801f, -0.211216f, -0.313736f, -0.056794f, -0.007928f, 0.00923f, -0.041038f, 0.279341f, 0.327051f, 0.26571f, 0.256304f, 0.614825f, 0.483589f, -0.528134f, -0.343321f, -0.014118f, -0.002176f, 0.01063f, -0.259313f, -0.20322f, -0.088924f, 0.08923f, -0.196669f, -0.394502f, -0.299397f, -0.447636f, -0.308363f, -0.415065f, -0.133974f, -0.24701f, -0.279156f, -0.231765f, -0.387648f, -0.752097f, -0.373747f, 0.014617f, 0.292715f, -0.011433f, -0.08031f, -0.167119f, 0.399643f, -0.345164f, -0.202718f, 0.011346f, 0.008381f, 0.00165f, 0.008771f, -0.130458f, -0.166145f, -0.056613f, -0.285455f, -1.0f, -1.0f, -1.0f, -1.0f, -1.0f, -0.88253f, -0.876016f, -0.781033f, -0.964618f, -1.0f, -0.997902f, -0.883933f, -0.403859f, -0.062331f, -0.016155f, 0.176929f, -0.156814f, 0.02892f, -0.078217f, -0.002046f, 0.012905f, -0.023178f, 0.031685f, 0.00677f, -0.027671f, -0.228927f, -0.385183f, -0.385442f, -0.600451f, -0.546791f, -0.762738f, -0.998796f, -0.914849f, -0.624478f, -0.870616f, -0.603532f, -0.491819f, -1.0f, -0.934932f, -0.199649f, -0.028026f, -0.007221f, 0.107216f, -0.081971f, -0.282631f, 0.026152f, 0.001403f, -0.021305f, 0.002239f},
