#include <float.h>
#include <math.h>
#include <stdbool.h>
#include <stdint.h>
#include <string.h>
#include<stdio.h>
#define MAX(X,Y) ( X > Y ? X : Y)
#define MIN(X,Y) ( X < Y ? X : Y)
#define CLIP(X,L) ( MAX(MIN(X,L), -L) )
#define BINARISE(X) ( X>=0? 1:-1)
#define RELU(X) MAX(0,X)
#define HARD_SIGMOID(X) MAX( 0 , MIN( 1 ,((X+1)/2) ) )

#define INPUT_LAYER_SIZE_ROW 190
#define INPUT_LAYER_SIZE_COL 784

#define SECOND_LAYER_SIZE_ROW INPUT_LAYER_SIZE_ROW
#define SECOND_LAYER_SIZE_COL INPUT_LAYER_SIZE_ROW

#define THIRD_LAYER_SIZE_ROW INPUT_LAYER_SIZE_ROW
#define THIRD_LAYER_SIZE_COL INPUT_LAYER_SIZE_ROW


#define IMAGE_SIZE 784

/* layer_1_MatMul*/
static const float tensor_layer_1_MatMul_weights[INPUT_LAYER_SIZE_ROW][784] =
{
    {0.018335f, -0.015831f, -0.006991f, 0.016696f, -0.03369f, 0.021351f, -0.007415f, 0.018102f, 0.004897f, -0.00444f, 0.009838f, 0.001694f, 0.085009f, -0.116929f, -0.199248f, -0.115696f, 0.005109f, -0.00021f, 0.031153f, 0.011046f, -0.013368f, -0.021638f, -0.006054f, -0.015472f, -0.011512f, 0.001643f, 0.021223f, 0.019345f, -0.03498f, 0.022073f, 0.00991f, 0.03381f, 0.038371f, 0.139148f, -0.339341f, -0.416437f, -0.254736f, -0.401995f, -0.368539f, -0.592977f, -0.83259f, -0.917148f, -0.881428f, -0.515602f, -0.287097f, -0.133597f, -0.641016f, -0.411822f, -0.791857f, -0.160618f, -0.181479f, -0.295693f, 0.019312f, -0.008749f, 0.035506f, 0.028561f, -0.00174f, -0.023906f, -0.016137f, -0.194026f, -0.425749f, 0.015442f, -0.057459f, -0.527196f, -0.437611f, -0.765914f, -0.623429f, -0.786653f, -0.999497f, -1.0f, -1.0f, -1.0f, -1.0f, -0.992484f, -1.0f, -0.899912f, -0.484899f, -0.652815f, -0.763117f, -0.530242f, 0.285608f, 0.416203f, 0.002104f, -0.006153f, 0.020908f, -0.020751f, -0.146283f, -0.207206f, -0.329584f, 0.27756f, 0.157819f, -0.272571f, -0.44389f, -0.788293f, -0.972784f, -0.992068f, -1.0f, -1.0f, -1.0f, -1.0f, -1.0f, -0.812398f, -0.875452f, -0.606764f, -0.147294f, -0.353217f, -0.220379f, 0.204818f, 1.0f, 0.73175f, -0.045246f, 0.02661f, 0.033797f, -0.001925f, -0.403719f, 0.058706f, -0.071015f, -0.090318f, 0.044293f, -0.143042f, -0.497755f, -0.645641f, -0.728817f, -0.610729f, -0.552858f, -0.843939f, -0.997131f, -1.0f, -1.0f, -0.952187f, -0.482146f, -0.12336f, -0.13951f, 0.089474f, -0.052425f, 0.065105f, 0.782029f, 0.78037f, 0.072186f, -0.306177f, -0.016432f, -0.004226f, -0.280968f, -0.237771f, -0.0131f, -0.179033f, -0.107872f, -0.413462f, -0.608246f, -0.49437f, -0.496591f, 0.020456f, 0.253642f, -0.194957f, -0.948295f, -0.987862f, -0.948966f, -0.932831f, -0.717842f, -0.472682f, -0.345408f, -0.354202f, -0.768599f, -0.494195f, -0.258441f, -0.149801f, 0.154493f, -0.094505f, -0.028529f, 0.00343f, 0.167671f, 0.435422f, -0.012124f, -0.233868f, -0.245087f, -0.392969f, -0.29385f, 0.057429f, 0.187297f, 0.230717f, 0.229831f, 0.165097f, 0.153818f, 0.145606f, 0.252223f, -0.07354f, -0.489923f, -0.284883f, 0.151333f, 0.007802f, -0.753518f, -0.789186f, -0.789062f, -0.728906f, -0.096673f, -0.442942f, 0.07802f, -0.141564f, 0.364381f, 0.12736f, -0.310778f, -0.234075f, -0.278537f, -0.271939f, 0.020574f, 0.106435f, 0.016322f, 0.19251f, 0.329175f, 0.341632f, 0.460962f, 0.833109f, 0.750633f, 0.287092f, -0.201961f, -0.614135f, -0.140589f, -0.122876f, -0.36f, -0.528555f, -0.824419f, -0.50308f, -0.369513f, -0.325559f, 0.163612f, -0.128591f, -0.180365f, -0.382887f, 0.044229f, -0.010424f, -0.0246f, 0.114496f, 0.231909f, 0.200752f, -0.026879f, -0.032188f, -0.116052f, 0.015931f, 0.235608f, 0.467653f, 0.610902f, -0.015671f, -0.417116f, -0.657066f, -0.237305f, -0.0844f, -0.339706f, -0.446614f, -0.856327f, -0.788377f, -0.793583f, -0.242955f, 0.057801f, -0.285076f, -0.231379f, -0.429611f, -0.015968f, 0.089316f, 0.150161f, 0.230055f, 0.549063f, 0.411198f, 0.141407f, 0.090725f, 0.005132f, 0.119461f, 0.276068f, 0.694511f, 0.847983f, 0.163092f, -0.228714f, -0.449872f, -0.233562f, -0.39237f, -0.239977f, -0.271551f, -0.740164f, -0.659712f, -0.458476f, -0.012519f, 0.023905f, -0.325365f, -0.335465f, 0.095836f, 0.057817f, 0.295837f, 0.357879f, 0.209995f, 0.34445f, 0.036038f, 0.093875f, 0.070602f, 0.113989f, 0.270676f, 0.13204f, 0.726937f, 0.834652f, -0.049236f, -0.430344f, -0.231048f, -0.324633f, -0.457463f, 0.04607f, -0.077386f, -0.993113f, -0.721193f, -0.151069f, -0.147274f, -0.060222f, -0.18315f, 0.351703f, 0.365317f, 0.702061f, 0.721572f, 0.540168f, 0.309921f, 0.318259f, 0.162739f, 0.480305f, 0.454829f, 0.215553f, 0.126676f, 0.35128f, 0.846157f, 0.887375f, 0.080733f, -0.907262f, -0.319665f, 0.034659f, 0.180438f, 0.418762f, -0.425799f, -1.0f, -1.0f, -0.60595f, -0.53587f, -0.356848f, -0.184663f, 0.343307f, 0.586555f, 1.0f, 0.876221f, 0.523552f, 0.371477f, 0.126003f, 0.027442f, 0.501165f, 0.324799f, -0.514589f, -0.766226f, 0.005154f, 0.849936f, 0.894336f, -0.442775f, -0.887201f, -0.126783f, 0.172636f, 0.538214f, 0.442487f, -0.569364f, -0.778418f, -0.833627f, -0.525153f, 0.352389f, 0.050497f, -0.138276f, -0.240376f, 0.587992f, 0.95738f, 0.958814f, 0.404109f, -0.031605f, -0.415361f, -0.335373f, -0.194822f, -0.052619f, -0.495777f, -0.867772f, -0.234241f, 0.445447f, 0.305907f, -0.874553f, -0.668389f, 0.203122f, 0.301538f, 0.442082f, 0.129793f, -0.221732f, -0.195182f, 0.141569f, -0.158492f, 0.507982f, -0.064529f, -0.097249f, -0.24327f, 0.369902f, 0.627631f, 0.541785f, 0.299142f, -0.315159f, -0.466458f, -0.780561f, -0.492568f, -0.143286f, -0.210806f, -0.490093f, -0.195419f, 0.291994f, 0.147562f, -0.669778f, -0.349955f, 0.273145f, 0.415973f, 0.224913f, 0.198475f, 0.26868f, -0.231576f, 0.225105f, -0.263594f, 0.511277f, -0.09031f, -0.132196f, -0.333863f, 0.184785f, 0.313342f, 0.048581f, 0.261061f, -0.218569f, -0.318542f, -0.525604f, -0.108088f, 0.20897f, 0.115276f, -0.096265f, -0.018282f, 0.26886f, 0.127113f, -0.119211f, -0.05211f, 0.223246f, 0.26586f, 0.308121f, 0.292943f, 0.187807f, -0.512628f, -0.000729f, 0.177791f, 0.171227f, 0.032893f, -0.170431f, 0.091494f, 0.247616f, 0.50549f, 0.072406f, 0.570169f, 0.37518f, -0.153332f, -0.30989f, -0.171935f, 0.085954f, 0.392914f, 0.154073f, 0.023854f, -0.112812f, -0.122096f, 0.302861f, 0.37468f, 0.360833f, 0.481898f, 0.484623f, 0.461782f, 0.146989f, -0.276484f, -0.055576f, -0.088696f, 0.167561f, -0.034271f, -0.461721f, -0.106671f, 0.278925f, 0.075933f, 0.025013f, 0.235153f, 0.322956f, 0.345189f, 0.039738f, 0.076281f, 0.33586f, 0.629073f, 0.350029f, 0.132813f, 0.294128f, 0.296398f, 0.29409f, 0.33224f, 0.298398f, 0.530165f, 0.420767f, 0.544472f, 0.159462f, 0.105183f, 0.017935f, -0.152791f, 0.083292f, 0.002919f, -0.222919f, 0.104426f, 0.170695f, 0.148843f, 0.119177f, -0.162028f, 0.26206f, 0.205061f, 0.17351f, -0.040736f, -0.047725f, 0.150995f, 0.008952f, -0.082972f, 0.077705f, -0.097105f, -0.069694f, -0.004083f, -0.205503f, 0.067793f, 0.25508f, 0.520973f, 0.203103f, -0.020511f, 0.181676f, -0.352759f, -0.4505f, -0.011377f, -0.236045f, 0.023587f, 0.250302f, 0.220075f, 0.187637f, -0.030126f, 0.154761f, -0.060868f, -0.556328f, -0.982029f, -0.778899f, -0.400483f, -0.166526f, 0.07393f, -0.192648f, -0.229641f, -0.200529f, -0.200577f, -0.091839f, -0.13399f, -0.011308f, 0.173797f, 0.069974f, -0.23803f, -0.394956f, -0.222579f, -0.236258f, -0.015813f, -0.206519f, -0.138519f, 0.244835f, 0.569636f, 0.141614f, 0.185736f, 0.063979f, -0.35233f, -0.729301f, -0.9984f, -0.998053f, -0.870376f, -0.613953f, -0.039936f, -0.350538f, -0.268193f, -0.288873f, -0.114432f, -0.043094f, -0.193078f, 0.084792f, 0.030425f, -0.024555f, -0.088942f, -0.777683f, -0.05416f, 0.07905f, 0.111348f, -0.2754f, -0.179995f, -0.332755f, 0.353287f, 0.28428f, -0.162451f, 0.15267f, -0.521603f, -0.733323f, -0.856501f, -0.648302f, -0.709342f, -0.541297f, 0.065575f, -0.263709f, -0.200141f, -0.268181f, 0.02648f, -0.141056f, -0.293652f, 0.048305f, 0.04939f, -0.111705f, -0.631941f, -0.793797f, -0.427526f, 0.057884f, 0.106785f, -0.142602f, -0.70298f, -0.643353f, -0.231223f, 0.222797f, -0.319759f, -0.309988f, -0.525945f, -0.8776f, -0.904229f, -0.402997f, -0.31754f, 0.078615f, 0.048568f, -0.265548f, -0.040748f, -0.376869f, -0.260061f, -0.42481f, -0.154934f, 0.242763f, 0.598843f, 0.453705f, 0.146944f, 0.164886f, -0.054952f, 0.08477f, 0.022685f, 0.015739f, -0.698802f, -0.963849f, -0.597673f, -0.451155f, -0.226354f, -0.531235f, -0.709986f, -0.885268f, -0.707743f, -0.331531f, -0.033661f, 0.180273f, -0.026788f, -0.01418f, -0.13641f, -0.202034f, -0.11266f, 0.022663f, 0.355145f, 0.561405f, 0.884885f, 0.637065f, -0.047643f, 0.547f, -0.166327f, -0.004073f, -0.033154f, 0.006555f, -0.192427f, -0.2832f, -0.306253f, -0.320994f, -0.193801f, -0.445196f, -0.595019f, -0.565848f, -0.34898f, -0.251793f, 0.139966f, 0.281269f, 0.473285f, 0.299846f, 0.089993f, 0.219913f, 0.418533f, 0.547129f, 0.536658f, 0.578083f, 0.596362f, 0.420999f, 0.04831f, 0.157905f, 0.082699f, 0.025072f, -0.022845f, -0.020888f, -0.287063f, -0.350159f, -0.109896f, 0.117668f, -0.258836f, -0.627563f, -0.572722f, -0.143268f, -0.053065f, -0.0666f, 0.40636f, 0.576986f, 0.578653f, 0.512044f, 0.452549f, 0.505699f, 0.712365f, 0.698804f, 0.561177f, 0.724163f, 0.422225f, -0.725859f, -0.361501f, 0.051526f, 0.169071f, -0.013873f, 0.002328f, -0.013787f, 0.033556f, 0.124442f, 0.336467f, 0.12076f, -0.441825f, -0.981118f, -0.626962f, -0.341695f, -0.327454f, -0.704801f, -0.471902f, -0.298023f, -0.149084f, -0.137039f, -0.177708f, -0.069038f, 0.69481f, 0.55318f, 0.274341f, 0.19205f, 0.075182f, -0.687896f, -0.153015f, -0.143098f, -0.012532f, 0.028226f, 0.02716f, 0.022721f, -0.014995f, -0.007141f, 0.038848f, -0.356163f, -0.701666f, -0.581897f, -0.131829f, 0.097518f, -0.06899f, -0.15618f, -0.117079f, -0.409149f, -0.263954f, -0.442829f, -0.836052f, -0.608349f, -0.7714f, -0.56088f, -0.364943f, -0.086464f, 0.134224f, -0.101086f, -0.016945f, 0.006849f, -0.004025f, 0.002573f},
{-0.02754f, -0.022609f, -0.03109f, -0.025841f, 0.029736f, 0.013097f, -0.034232f, -0.006132f, 0.002695f, 0.018908f, 0.032952f, 0.008453f, -0.214166f, -0.386379f, -0.145585f, -0.040564f, 0.008056f, 0.032795f, 0.022257f, 0.035367f, -0.016264f, -0.00464f, 0.007196f, 0.028542f, -0.033001f, -0.017711f, 0.005009f, -0.020814f, 0.01317f, -0.002606f, -0.009426f, 0.018983f, 0.161467f, 0.146536f, -0.234783f, -0.205234f, 0.278836f, 0.264624f, 0.206164f, 0.180878f, 0.464593f, 0.206699f, 0.225009f, 0.302471f, 0.320291f, 0.486653f, 0.56441f, 0.704471f, 0.654123f, 0.295776f, -0.032784f, -0.136259f, 0.031723f, -0.034681f, -0.008527f, 0.027526f, 0.015279f, -0.017989f, 0.191995f, -0.251275f, 0.014204f, 0.082716f, -0.226276f, -0.242077f, -0.125876f, -0.139421f, -0.185136f, -0.197227f, -0.736383f, -1.0f, -1.0f, -0.894077f, -0.657417f, 0.216285f, 0.269694f, 0.288935f, 0.726402f, 0.636747f, -0.090116f, -0.130779f, 0.30251f, 0.484702f, -0.011242f, -0.030052f, 0.007673f, 0.022068f, 0.263523f, -0.380004f, -0.105445f, -0.29728f, -0.052657f, -0.015766f, -0.181959f, -0.21589f, -0.453807f, -0.394694f, 0.09227f, -0.079673f, -0.174625f, -0.34903f, -0.198974f, -0.167268f, 0.08251f, 0.071604f, 0.006903f, -0.076158f, 0.142394f, 0.14292f, 0.005047f, 0.009529f, -0.045803f, -0.020083f, -0.017106f, -0.058664f, -0.233105f, 0.136135f, 0.085428f, 0.256547f, 0.28101f, 0.072416f, 0.009896f, -0.155952f, 0.168038f, 0.264915f, 0.196888f, -0.106035f, -0.172673f, -0.097135f, -0.245892f, -0.143384f, -0.016927f, 0.014171f, 0.17811f, -0.027001f, -0.457025f, -0.369641f, -0.023314f, -0.102836f, 0.383944f, -0.000361f, 0.005461f, -0.03344f, 0.281515f, -0.098694f, -0.354333f, -0.273169f, -0.022674f, 0.002492f, 0.11478f, 0.299833f, 0.338736f, 0.580789f, 0.435143f, -0.016808f, -0.260134f, -0.36423f, -0.363871f, -0.155541f, -0.322506f, -0.302526f, -0.248457f, -0.14547f, -0.268856f, -0.390808f, -0.459891f, -0.999245f, -0.181456f, -0.196498f, 0.001324f, -0.023455f, -0.280364f, -0.230219f, 0.049214f, 0.11733f, 0.292174f, 0.356142f, 0.439358f, 0.901006f, 0.970341f, 0.867735f, 0.834399f, 0.654955f, 0.235763f, 0.122419f, 0.096649f, 0.128774f, 0.117537f, -0.008303f, -0.056335f, -0.07502f, -0.020759f, -0.595838f, -0.960737f, -1.0f, -0.674115f, -0.101302f, 0.003179f, 0.007526f, -0.352208f, -0.182031f, 0.319428f, 0.481449f, 0.534231f, 0.497631f, 0.625457f, 0.891204f, 0.757073f, 0.960955f, 0.925814f, 0.455117f, 0.219386f, 0.528392f, 0.36221f, 0.351379f, 0.313241f, 0.095986f, -0.242728f, -0.107791f, 0.095144f, -0.134236f, -0.597744f, -0.841669f, -0.519952f, 0.038446f, -0.159357f, 0.146712f, -0.375823f, 0.06165f, 0.34179f, 0.349201f, 0.500376f, 0.504124f, 0.712751f, 0.63854f, 0.400871f, 0.581236f, 0.217504f, 0.291928f, 0.265637f, 0.456964f, 0.186791f, 0.11656f, -0.082213f, -0.501104f, -0.288448f, 0.016302f, 0.053742f, 0.044231f, -0.20528f, 0.011526f, 0.624299f, 0.586345f, -0.100527f, 0.285081f, -0.620369f, -0.385373f, 0.063171f, 0.366801f, 0.479876f, 0.567365f, 0.401299f, 0.12839f, 0.15985f, 0.159218f, 0.204609f, 0.167897f, 0.091977f, -0.052669f, 0.014342f, -0.24692f, -0.591599f, -0.862483f, -0.447162f, -0.256747f, -0.235826f, -0.233777f, -0.077631f, 0.118714f, -0.254866f, 0.013128f, -0.06715f, 0.019678f, -0.385967f, -0.09509f, 0.195414f, 0.891629f, 0.70057f, 0.203882f, -0.298103f, -0.515631f, -0.492884f, -0.161471f, 0.10824f, 0.250145f, -0.180476f, -0.273768f, -0.111591f, -0.38934f, -0.707392f, -0.695137f, -0.683811f, -0.688073f, -0.847704f, -0.62174f, -0.409146f, -0.184955f, -0.342515f, -0.06229f, -0.131147f, -0.22368f, -0.284204f, 0.185603f, 0.460642f, 0.629626f, 0.264075f, -0.519823f, -0.989879f, -0.677676f, -0.287783f, 0.068532f, 0.073999f, -0.05532f, -0.233046f, -0.062033f, -0.007061f, -0.346099f, -0.419856f, -0.400989f, -0.707407f, -0.946207f, -1.0f, -1.0f, -0.320604f, -0.32668f, -0.591072f, -0.25041f, -0.301848f, -0.202374f, -0.009849f, -0.030908f, 0.25932f, 0.04078f, -0.282762f, -0.532498f, -0.549897f, -0.518565f, -0.217924f, -0.16362f, -0.410894f, -0.60627f, -0.262425f, 0.113774f, 0.023882f, -0.089962f, 0.173099f, -0.026184f, -0.369828f, -0.797656f, -0.829403f, -0.8827f, -0.51902f, -0.226651f, 0.076415f, -0.199732f, -0.09198f, -0.170258f, 0.054657f, 0.262192f, -0.04378f, -0.458764f, -0.168834f, -0.194629f, -0.017216f, -0.26112f, -0.389204f, -0.371168f, -0.312281f, -0.463377f, 0.037487f, -0.087203f, 0.059996f, -0.054962f, -0.057983f, 0.077797f, -0.06475f, -0.27317f, -0.753381f, -0.842292f, -0.245713f, 0.288332f, -0.14177f, -0.171002f, 0.072395f, -0.062956f, -0.140282f, -0.402499f, -0.481202f, -0.529232f, -0.302877f, -0.192139f, -0.364797f, -0.395979f, -0.722621f, -0.069352f, 0.254563f, -0.135127f, 0.018819f, 0.08194f, 0.31128f, -0.124599f, -0.119098f, -0.077401f, 0.203459f, 0.095632f, -0.289934f, -0.220754f, 0.020273f, -0.389474f, -0.386f, -0.221474f, -0.104396f, -0.217139f, -0.350913f, -0.356215f, -0.392637f, -0.418784f, -0.184466f, -0.289904f, -0.441363f, -0.396879f, -0.314507f, 0.316844f, 0.179454f, -0.127211f, 0.087361f, 0.137359f, 0.385713f, -0.184073f, -0.392361f, -0.024232f, 0.232742f, 0.046884f, 0.167332f, 0.303472f, 0.125595f, -0.876926f, -0.435015f, -0.308518f, -0.179821f, -0.031064f, -0.175382f, 0.046548f, -0.284227f, -0.369151f, 0.040237f, -0.224456f, -0.123144f, 0.090197f, -0.002628f, 0.150178f, 0.385409f, 0.391935f, -0.125402f, -0.433486f, -0.415587f, -0.407721f, -0.017828f, 0.127782f, 0.117252f, 0.098503f, 0.134574f, 0.492427f, 0.216698f, -0.990386f, -0.995822f, -0.541382f, 0.010076f, -0.157415f, 0.006956f, 0.047083f, -0.005986f, -0.324924f, -0.427574f, -0.094169f, -0.065552f, -0.597355f, -0.674362f, -0.321629f, 0.505069f, 0.372422f, -0.205499f, -0.191949f, -0.366977f, -0.406215f, 0.00998f, 0.192607f, 0.053131f, 0.129848f, 0.295053f, 0.411369f, 0.201257f, -0.742899f, -0.965703f, -0.651094f, -0.108014f, 0.058359f, -0.272506f, -0.064105f, 0.036886f, -0.399464f, -0.802312f, -0.717034f, -0.753153f, -0.882403f, -0.838392f, -0.456129f, 0.252742f, -0.12237f, -0.289546f, -0.064523f, 0.037362f, 0.030663f, -0.120317f, -0.111729f, 0.04821f, 0.300568f, 0.629408f, 0.419224f, 0.114363f, -0.375879f, -0.880239f, -0.218758f, 0.091178f, 0.097013f, -0.575109f, -0.034223f, -0.047669f, -0.232346f, -0.754968f, -0.923556f, -0.903776f, -0.828523f, -0.595258f, -0.09152f, 0.435871f, -0.123142f, -0.17581f, 0.098026f, 0.230595f, 0.03053f, -0.19169f, -0.00826f, 0.045123f, 0.471693f, 0.78799f, 0.388474f, -0.340939f, -0.71273f, -0.968901f, -0.1745f, -0.019854f, -0.07778f, -0.587296f, -0.187434f, -0.086715f, -0.460772f, -0.766017f, -0.939009f, -0.90869f, -0.599143f, -0.127117f, 0.090118f, -0.060174f, -0.211647f, 0.094824f, 0.223244f, 0.001455f, -0.242962f, -0.035032f, 0.44613f, 0.314216f, 0.684837f, 0.937998f, 0.543068f, -0.690934f, -0.777912f, -0.197063f, 0.065657f, 0.097157f, -0.113423f, -0.843689f, -0.392689f, -0.125394f, -0.302837f, -0.542331f, -0.701783f, -0.747884f, -0.396985f, -0.333577f, 0.08609f, 0.272214f, 0.092419f, 0.242172f, 0.414649f, 0.114854f, -0.117987f, 0.261531f, 0.514245f, 0.392658f, 0.875212f, 0.769269f, 0.404753f, -0.77481f, -0.716113f, -0.133856f, 0.150548f, 0.11456f, -0.118198f, -1.0f, -0.407294f, -0.094346f, -0.104094f, -0.481054f, -0.534555f, -0.280288f, -0.026596f, -0.200743f, 0.244713f, 0.315948f, 0.277492f, 0.275562f, 0.142239f, 0.137101f, 0.286585f, 0.728982f, 0.783475f, 0.876033f, 1.0f, 0.985561f, 0.38423f, -0.681021f, -0.402893f, -0.197122f, 0.203228f, 0.007277f, 0.031118f, -0.817045f, 0.194844f, 0.55014f, 0.018384f, 0.168591f, 0.173779f, 0.267937f, 0.08206f, 0.286413f, 0.452388f, 0.289198f, 0.321754f, -0.123764f, -0.136566f, -0.128665f, 0.287143f, 0.961932f, 1.0f, 0.917053f, 0.82482f, 0.32393f, -0.034391f, -0.26878f, 0.057908f, -0.031507f, -0.000791f, 0.018236f, -0.030442f, -0.242615f, -0.081885f, 0.645457f, 0.694287f, 0.658005f, 0.742974f, 0.817866f, 0.670974f, 0.62075f, 0.431774f, 0.528214f, 0.874809f, 0.765599f, 0.502985f, 0.365645f, 0.20761f, 0.310578f, 0.274424f, 0.128349f, -0.020953f, -0.174106f, -0.15125f, -0.254242f, 0.008137f, -0.102688f, -0.035719f, -0.00266f, -0.006273f, -0.179372f, -0.30866f, -0.003634f, 0.271537f, 0.227027f, 0.307367f, 0.600968f, 0.710487f, 0.901749f, 0.68049f, 0.378066f, 0.56169f, 0.602308f, 0.313029f, 0.344741f, 0.236949f, 0.32056f, 0.117005f, -0.181917f, -0.615125f, -0.440932f, -0.47093f, -0.396501f, -0.221155f, -0.052336f, 0.004384f, -0.024745f, 0.024714f, 0.033187f, 0.156148f, 0.050066f, 0.253617f, 0.234342f, -0.048557f, -0.279488f, -0.561594f, -0.005765f, -0.646183f, -0.897081f, -0.693022f, -0.697551f, -0.327509f, -0.026604f, -0.139915f, -0.158622f, -0.538312f, -0.122321f, -0.797498f, -0.814387f, 0.298905f, -0.165979f, -0.117304f, 0.022147f, 0.014717f, 0.014556f, 0.009866f, -0.027626f, -0.021779f, -0.087219f, 0.401531f, 0.803239f, 1.0f, 0.794672f, 0.326421f, 0.254547f, 0.29109f, 0.026176f, 0.088478f, 0.091063f, 0.093056f, -0.081656f, -0.426078f, -0.540973f, -0.230006f, 0.182769f, -0.098961f, -0.430372f, -0.091244f, -0.035511f, -0.00284f, 0.001342f, -0.0166f},
{0.028304f, -0.009346f, -0.033915f, -0.02119f, 0.00128f, -0.026443f, 0.008292f, 0.034878f, 0.001597f, -0.008664f, 0.033781f, 0.0265f, -0.226927f, -0.385008f, -0.154031f, -0.051983f, 0.00377f, 0.034872f, 0.002023f, -0.031736f, 0.019737f, 0.032187f, 0.030076f, 0.001819f, 0.006844f, 0.005914f, -0.014503f, -0.005076f, 0.029271f, 0.003778f, 0.033795f, -0.023582f, -0.121442f, -0.160451f, -0.254288f, -0.304944f, -0.357758f, -0.323519f, -0.200309f, -0.054709f, -0.12956f, -0.345719f, -0.432678f, -0.577401f, -0.416195f, -0.530514f, -0.224555f, -0.196575f, -0.168688f, -0.035841f, -0.260692f, -0.332343f, 0.001884f, -0.002629f, 0.013087f, 0.016806f, -0.017625f, -0.013933f, 0.209307f, -0.163951f, -0.497501f, -0.242881f, -0.119665f, -0.130551f, -0.100455f, -0.208553f, -0.627557f, -0.415628f, -0.467159f, -1.0f, -0.987637f, -0.352675f, -0.448489f, -0.501275f, -0.801123f, -0.783033f, -0.257246f, 0.041288f, -0.233942f, 0.120337f, 0.7267f, 0.415152f, -0.020432f, 0.019649f, 0.032908f, -0.010732f, 0.291749f, -0.05747f, -0.486031f, -0.156589f, -0.157292f, -0.04786f, -0.196236f, -0.343017f, -0.526827f, -0.450869f, -0.355661f, -0.508426f, -0.666762f, -0.70468f, -0.845006f, -0.745296f, -0.820257f, -0.88819f, -0.793621f, -0.040865f, -0.225417f, -0.31362f, 0.347654f, 0.238468f, -0.166147f, -0.004844f, -0.010811f, 0.030335f, 0.081403f, 0.286279f, -0.208f, -0.245941f, -0.117772f, -0.270009f, 0.016453f, -0.255371f, -0.465551f, -0.368736f, -0.383301f, -0.456638f, -0.735924f, -0.834635f, -0.933348f, -0.980888f, -0.578672f, -0.45762f, -0.512294f, -0.058413f, -0.698305f, -0.656644f, -0.469201f, -0.16151f, -0.602594f, -0.392385f, -0.001973f, 0.016822f, 0.283616f, -0.282213f, -0.409968f, -0.203516f, -0.408398f, -0.025689f, 0.082483f, 0.046071f, -0.045789f, -0.045673f, -0.2246f, -0.52113f, -0.713716f, -0.874675f, -0.915185f, -0.928782f, -0.932914f, -0.525221f, -0.676082f, -0.512653f, -0.327641f, -0.484266f, -0.366755f, -0.336565f, -0.050128f, -0.025509f, 0.00538f, -0.090803f, 0.377902f, 0.287936f, 0.024699f, 0.073051f, -0.114544f, 0.043751f, 0.015356f, 0.291621f, 0.2176f, 0.191656f, 0.227006f, 0.368519f, 0.089637f, -0.331028f, -0.259221f, -0.122325f, -0.240296f, -0.159278f, 0.070392f, 0.14138f, -0.270769f, -0.275422f, -0.488825f, -0.861945f, -0.459665f, -0.592051f, -0.025832f, 0.10354f, 0.496137f, 0.291816f, 0.378304f, 0.452706f, 0.113728f, 0.087392f, 0.00785f, 0.238401f, 0.116643f, 0.259979f, 0.318425f, 0.101077f, 0.092313f, 0.204477f, -0.018072f, -0.043898f, 0.27316f, 0.008664f, 0.134287f, 0.201431f, 0.163962f, -0.019022f, -0.918273f, -0.999631f, -0.585504f, -0.195288f, -0.041693f, -0.067314f, -0.008373f, -0.22013f, 0.476607f, 0.507444f, 0.385844f, 0.150645f, 0.109186f, 0.119319f, -0.241356f, -0.28986f, -0.065648f, -0.168745f, -0.170616f, 0.042281f, -0.274354f, -0.344008f, -0.096446f, -0.377262f, -0.188777f, 0.142447f, 0.29876f, -0.149106f, -0.67535f, -0.95306f, -0.584685f, -0.183357f, -0.457047f, -0.372829f, -0.566407f, -0.376993f, 0.194832f, 0.374833f, 0.025813f, 0.042679f, 0.128997f, -0.213166f, -0.2443f, -0.02999f, 0.298217f, 0.224274f, -0.027826f, 0.115846f, -0.066689f, -0.267243f, -0.188343f, -0.237127f, -0.342698f, -0.09763f, 0.290931f, -0.11914f, -0.33259f, -0.301223f, -0.46063f, 0.013373f, -0.483556f, -0.34537f, -0.585234f, -0.013583f, 0.062377f, 0.287689f, 0.097018f, -0.083186f, -0.208416f, -0.401572f, 0.042276f, 0.71724f, 0.965421f, 0.692642f, 0.338586f, 0.483216f, 0.140729f, -0.418912f, -0.278251f, -0.269007f, -0.494623f, -0.16055f, 0.337769f, 0.101192f, -0.387855f, -0.303274f, -0.540715f, 0.105386f, -0.284493f, -0.135577f, 0.070811f, 0.391195f, 0.299262f, 0.241823f, 0.242991f, 0.130144f, -0.138424f, -0.148259f, 0.196543f, 1.0f, 1.0f, 0.868962f, 0.804475f, 0.859671f, 0.572434f, -0.267768f, -0.447753f, -0.182778f, -0.255895f, -0.094635f, 0.036937f, -0.355584f, -1.0f, -0.335827f, -0.455827f, -0.083937f, -0.159324f, -0.151766f, 0.12474f, 0.439885f, 0.478173f, 0.208064f, 0.23513f, 0.383908f, 0.430821f, 0.166507f, 0.286159f, 0.675077f, 0.663258f, 0.34817f, 0.540992f, 0.735411f, 0.660132f, -0.268725f, -0.522798f, -0.159314f, -0.047179f, -0.227048f, -0.278009f, -0.70356f, -1.0f, -0.508677f, -0.351481f, 0.087811f, -0.101827f, 0.066932f, 0.025976f, 0.197764f, 0.755333f, 0.275574f, 0.428021f, 0.237188f, 0.2307f, 0.151558f, 0.143507f, 0.323651f, 0.141216f, -0.163053f, 0.147627f, 0.290586f, 0.449379f, -0.38831f, -0.58129f, -0.094309f, -0.012163f, -0.021481f, -0.119773f, -0.37092f, -0.698584f, 0.023841f, -0.069459f, 0.549588f, -0.067984f, 0.396377f, -0.259916f, -0.015243f, 0.305502f, 0.204889f, 0.197175f, 0.163355f, 0.139088f, 0.135951f, -0.063348f, -0.039602f, 0.230919f, -0.060683f, 0.031323f, 0.272255f, 0.659313f, -0.03234f, -0.037715f, -0.154215f, -0.051891f, -0.01623f, 0.127161f, -0.020918f, -0.497651f, -0.385928f, -0.389028f, 0.280956f, -0.049828f, 0.212311f, -0.367122f, -0.223353f, -0.015371f, -0.321899f, -0.026044f, 0.019099f, 0.093024f, 0.32244f, 0.23125f, 0.395811f, 0.327685f, -0.335812f, -0.183005f, 0.669489f, 0.993214f, 0.2951f, -0.053641f, 0.003552f, 0.011802f, -0.002748f, 0.350424f, 0.125814f, -0.206316f, -0.1641f, -0.200215f, -0.027582f, -0.191132f, 0.00726f, 0.429225f, -0.338024f, -0.315784f, -0.197299f, -0.130926f, 0.004543f, -0.194298f, 0.125488f, 0.058131f, -0.022739f, -0.104771f, -0.227565f, -0.139747f, 0.492458f, 0.366774f, -0.100624f, 0.048046f, -0.022753f, -0.027603f, 0.020557f, 0.04154f, 0.10183f, -0.066146f, -0.523843f, -0.757687f, -0.346299f, 0.013208f, -0.246655f, 0.438906f, -0.534347f, -0.696868f, -0.548177f, -0.25429f, -0.167778f, -0.277742f, -0.356972f, -0.602005f, -0.860619f, -0.335461f, -0.019168f, 0.359929f, 0.291131f, -0.085705f, -0.29429f, 0.0516f, 0.000946f, -0.123754f, -0.191651f, 0.018387f, 0.073231f, 0.044829f, -0.549863f, -0.909832f, -0.413815f, 0.192632f, -0.195061f, 0.069299f, -0.543406f, -0.423435f, -0.437802f, -0.623689f, -0.570576f, -0.524513f, -0.887896f, -0.961593f, -0.8559f, -0.301237f, -0.190738f, -0.061821f, -0.504555f, -0.688112f, -0.337075f, 0.096545f, 0.091404f, -0.109352f, -0.172281f, 0.125536f, 0.124147f, 0.032488f, -0.5376f, -0.599477f, 0.033813f, 0.080692f, -0.174448f, -0.201346f, -0.390286f, -0.228333f, -0.786644f, -0.86441f, -0.948735f, -0.820936f, -0.845331f, -0.754723f, -0.64917f, -0.420098f, -0.600794f, -0.345071f, -0.813397f, -0.632333f, -0.177671f, 0.131049f, 0.288423f, -0.080724f, -0.030942f, 0.045156f, 0.193597f, -0.353714f, -0.550991f, -0.529873f, -0.003934f, -0.014398f, -0.022846f, -0.445861f, -0.356937f, -0.256513f, -0.771167f, -0.995317f, -0.979269f, -0.859227f, -0.520342f, -0.389233f, -0.365913f, -0.702248f, -0.74537f, -0.46447f, -0.853461f, -0.682712f, -0.324418f, 0.013122f, 0.429122f, 0.165878f, 0.156198f, 0.275021f, 0.32678f, 0.091408f, -0.329492f, 0.008255f, -0.230649f, -0.099573f, 0.053325f, -0.59215f, -0.517181f, -0.298998f, -0.447786f, -0.696032f, -0.505348f, -0.259562f, -0.1483f, -0.024213f, 0.081777f, -0.362655f, -0.685466f, -0.573492f, -0.613572f, -0.587278f, -0.367819f, 0.2885f, 0.313204f, 0.201067f, 0.372022f, 0.353083f, 0.332797f, -0.129501f, -0.580371f, -0.118382f, -0.107936f, -0.131527f, -0.100645f, -0.64564f, -0.04414f, -0.2619f, -0.11426f, -0.14667f, 0.105643f, 0.083888f, -0.0751f, 0.009522f, -0.251542f, -0.582784f, -0.862698f, -0.55469f, -0.479855f, -0.239128f, 0.00519f, 0.50371f, 0.290585f, 0.431325f, 0.713184f, 0.582648f, 0.306184f, 0.061102f, -0.212751f, 0.022851f, -0.163698f, 0.030757f, 0.021687f, -0.652953f, 0.123108f, 0.449087f, 0.671201f, 0.822825f, 0.65006f, -0.005967f, -0.098083f, 0.031974f, -0.298907f, -0.615072f, -0.55851f, -0.519449f, -0.20696f, -0.251688f, -0.098232f, 0.252289f, 0.263545f, 0.397079f, 0.618679f, 0.345827f, 0.245974f, -0.012814f, -0.343778f, 0.018783f, -0.019281f, 0.011313f, 0.033824f, -0.427291f, -0.226685f, 0.942571f, 0.960362f, 0.930493f, 0.669445f, 0.210184f, 0.157782f, 0.012208f, -0.335044f, -0.195612f, -0.123353f, -0.077387f, 0.127891f, 0.012313f, 0.216118f, 0.243572f, 0.452548f, 0.48501f, 0.574203f, 0.531122f, 0.211993f, 0.118722f, -0.044615f, -0.252423f, -7.4e-05f, -0.025822f, -0.014221f, -0.306699f, -0.227475f, 0.662677f, 0.939025f, 0.681717f, 0.486626f, 0.533107f, 0.557164f, 0.358781f, 0.10857f, 0.136333f, 0.47075f, 0.751859f, 0.638038f, 0.326415f, 0.373728f, 0.560292f, 0.622133f, 0.547283f, 0.672252f, 0.32086f, -0.322631f, -0.321318f, -0.136065f, -0.18864f, 0.005908f, -0.009737f, 0.011914f, 0.010925f, 0.135988f, 0.193494f, 0.189493f, 0.033355f, -0.356253f, 0.063043f, 0.326976f, 0.100916f, -0.474454f, -0.293499f, -0.247338f, -0.032634f, 0.137024f, 0.172009f, 0.203701f, 0.743179f, 0.503934f, 0.317608f, 0.40346f, -0.029642f, -0.936715f, -0.170522f, -0.043147f, -0.002952f, 0.032013f, -0.003511f, -0.020852f, 0.006722f, -0.018769f, -0.072813f, -0.045251f, -0.321367f, -0.168051f, -0.122553f, 0.086253f, 0.047374f, -0.0404f, -0.082551f, -0.477929f, -0.370244f, -0.722737f, -0.526384f, -0.282264f, -0.584154f, -0.378114f, -0.34589f, 0.027303f, 0.119126f, -0.278304f, 0.016156f, -0.014058f, 0.005647f, -0.033507f},
{0.005764f, 0.031081f, 0.031065f, -0.000541f, 0.012978f, -0.005898f, -0.009995f, 0.000717f, -0.020774f, 0.014409f, 0.017539f, -0.009652f, -0.182561f, -0.084444f, 0.162656f, 0.040122f, 0.033937f, -0.033621f, -0.030081f, 0.00104f, 0.033035f, 0.002328f, 0.009943f, 0.0051f, -0.004241f, 0.025519f, 0.026247f, -0.020561f, -0.021359f, -0.027741f, -0.008656f, -0.000775f, 0.077599f, 0.064749f, 0.128764f, -0.245683f, -0.303009f, -0.196993f, 0.225433f, 0.273066f, -0.091398f, -0.211308f, -0.402709f, 0.004937f, -0.12803f, -0.193976f, -0.601136f, -0.657905f, -0.347121f, -0.201676f, -0.357587f, -0.143015f, 0.0224f, -0.027601f, -0.034233f, 0.00402f, 0.0104f, -0.027442f, -0.165434f, -0.090683f, -0.378636f, -0.168544f, -0.025718f, -0.089659f, -0.109621f, -0.419546f, -0.235237f, -0.123427f, -0.27066f, -0.860551f, -1.0f, -0.929306f, -0.877048f, -0.949678f, -0.870797f, -0.82035f, -0.731351f, -0.696913f, -0.704342f, -0.526874f, -0.353362f, -0.345976f, 0.012487f, -0.011706f, -0.030782f, 0.005621f, -0.180842f, -0.312243f, -0.378138f, -0.140128f, 0.0168f, 0.203267f, 0.080095f, -0.401919f, -0.388039f, -0.121188f, 0.07132f, -0.030102f, -0.241259f, -0.745259f, -0.650265f, -0.447531f, -0.1325f, 0.204439f, 0.269245f, -0.263287f, -0.151316f, -0.063158f, -1.0f, -0.702255f, -0.017366f, 0.008578f, 0.031001f, -0.050145f, -0.29404f, 0.271478f, -0.393537f, -0.735894f, -0.498386f, -0.564586f, -0.382333f, -0.75206f, -0.361738f, -0.275394f, -0.319227f, -0.095563f, -0.346068f, -0.104478f, 0.024534f, 0.381407f, 0.254249f, 0.387336f, 0.556988f, 0.364845f, 0.380557f, 0.785616f, 0.88851f, 0.214445f, -0.546526f, -0.185094f, -0.003727f, -0.011263f, -0.660435f, -0.018727f, -0.120237f, -0.649716f, -0.423662f, -0.425352f, -0.419038f, -0.218911f, 0.163568f, 0.111117f, -0.012275f, -0.315124f, -0.315878f, -0.234537f, -0.191035f, 0.167438f, 0.367688f, 0.405835f, 0.389289f, 0.300932f, 0.391528f, 0.312726f, 0.563493f, -0.332181f, -0.612563f, -0.406287f, -0.017305f, -0.081464f, 0.224911f, -0.031766f, 0.206267f, -0.254679f, -0.162324f, -0.32116f, -0.006189f, 0.239602f, 0.504674f, 0.260125f, 0.254316f, 0.360143f, 0.31788f, 0.577783f, 0.892316f, 0.977119f, 0.750396f, 0.716219f, 0.667916f, 0.192096f, 0.271929f, -0.107849f, 0.002242f, -0.664241f, -1.0f, -0.681238f, 0.057215f, 0.23715f, 0.304483f, -0.071261f, -0.319645f, -0.228608f, -0.087956f, -0.022113f, 0.163557f, 0.255849f, 0.194956f, 0.215916f, 0.332396f, 0.143807f, 0.304045f, 0.74765f, 0.953203f, 0.975513f, 0.486263f, 0.672022f, 0.313172f, -0.080633f, -0.00435f, -0.191053f, -0.681148f, -0.918553f, -1.0f, -0.162f, 0.150396f, 0.139902f, -0.106611f, -0.426001f, -0.159027f, -0.167094f, -0.034267f, 0.016686f, 0.242994f, -0.06346f, -0.106617f, 0.269853f, 0.263931f, 0.062842f, -0.054046f, 0.322855f, 0.365796f, 0.442906f, -0.224267f, -0.199024f, -0.176277f, -0.442357f, -0.568501f, -0.32128f, -0.38946f, -0.497173f, -0.516162f, -0.06879f, -0.222226f, -0.218967f, -0.715996f, -0.370706f, -0.20702f, -0.336253f, 0.084936f, -0.017454f, 0.132352f, 0.096872f, 0.139406f, 0.320275f, 0.645253f, 0.21054f, 0.019181f, -0.181672f, -0.131037f, -0.488143f, -0.923116f, -0.922728f, -0.924255f, -0.948139f, -0.81683f, -0.494251f, -0.317542f, -0.210806f, 0.140981f, 0.037362f, -0.310114f, -0.165551f, -0.922174f, -0.41125f, -0.442418f, 0.338368f, 0.162074f, -0.109995f, -0.006979f, 0.054873f, -0.000658f, 0.271447f, 0.524472f, 0.339534f, 0.075472f, -0.145016f, -0.559682f, -0.799347f, -0.882729f, -0.936687f, -0.909574f, -0.952688f, -0.989216f, -0.510113f, -0.371971f, -0.256586f, -0.094341f, -0.519778f, -0.337456f, -0.497635f, -0.853497f, -0.368379f, -0.07287f, 0.636008f, 0.236854f, 0.135998f, -0.182543f, 0.005679f, 0.093556f, 0.339264f, 0.448685f, 0.218732f, -0.177176f, -0.416224f, -0.601519f, -0.948207f, -0.806722f, -0.616561f, -0.608568f, -0.482331f, -0.745664f, -0.567357f, -0.287775f, -0.109867f, 0.214351f, -0.169409f, -0.336084f, -0.844019f, -0.647115f, -0.287248f, 0.021301f, 0.432771f, 0.547965f, 0.174267f, 0.182093f, 0.365127f, -0.103696f, 0.383841f, 0.617504f, 0.103637f, -0.264951f, -0.739239f, -0.847068f, -0.485091f, -0.5613f, -0.563344f, -0.486446f, -0.07917f, -0.2002f, -0.043809f, 0.167291f, 0.349561f, 0.517583f, 0.171515f, 0.00444f, -0.690414f, -0.532003f, -0.443963f, -0.043048f, 0.381187f, 0.359628f, 0.238936f, 0.160824f, 0.270883f, 0.064145f, 0.27716f, 0.483184f, -0.127225f, -0.672736f, -0.682433f, -0.591675f, -0.620364f, -0.700117f, -0.120525f, -0.116522f, -0.119204f, -0.252681f, 0.371162f, 0.622671f, 0.250351f, 0.211579f, -0.037306f, -0.103187f, -0.383973f, -0.508288f, -0.538789f, -0.220408f, 0.254079f, 0.224009f, -0.27971f, -0.38294f, -0.170947f, 0.017799f, 0.566046f, 0.656896f, -0.376224f, -0.92848f, -0.743975f, -0.424524f, -0.796409f, -0.218883f, 0.098781f, 0.227573f, -0.137394f, -0.300628f, 0.317005f, 0.364892f, -0.271918f, -0.258399f, -0.142551f, -0.147603f, -0.159654f, -1.0f, -0.575075f, -0.19376f, 0.097474f, 0.053259f, -0.237879f, -0.420988f, -0.232713f, 0.439759f, 0.505379f, 0.246981f, -0.893934f, -0.959974f, -0.86806f, -0.721243f, -0.412129f, -0.002802f, 0.390799f, 0.296314f, -0.178445f, -0.008435f, 0.368939f, 0.310713f, -0.37037f, -0.183926f, -0.205047f, -0.202124f, -0.066516f, -0.257714f, -0.307767f, -0.436361f, -0.181535f, 0.260678f, -0.327334f, -0.508514f, -0.19519f, 0.44401f, 0.4722f, -0.336355f, -0.84415f, -0.897657f, -0.902765f, -0.86579f, -0.025993f, 0.50662f, 0.242887f, 0.117979f, -0.126936f, 0.151534f, 0.495906f, 0.13566f, -0.837247f, -0.994685f, -0.472698f, 0.002414f, -0.233035f, -0.131799f, 0.18927f, -0.773634f, -0.562109f, 0.019033f, -0.27751f, -0.280087f, -0.020258f, 0.418006f, 0.084279f, -0.374916f, -0.638012f, -0.86823f, -0.907785f, -0.567611f, 0.108866f, 0.456125f, 0.334049f, -0.341727f, -0.06513f, 0.293499f, 0.477441f, 0.027772f, -1.0f, -1.0f, -0.626153f, 0.057883f, -0.255244f, -0.142064f, 0.099022f, -0.016348f, -0.588141f, -0.32799f, -0.208295f, -0.058035f, 0.096757f, 0.122964f, -0.309264f, -0.147461f, -0.568636f, -0.653296f, -0.485229f, -0.379509f, 0.152574f, 0.162151f, 0.002216f, -0.23005f, 0.436811f, 0.621805f, 0.528256f, 0.088407f, -0.419025f, -0.489712f, -0.20642f, 0.061681f, 0.231522f, 0.185652f, 0.015285f, 0.200169f, -0.370576f, -0.757411f, -0.65037f, -0.125306f, 0.134728f, 0.168554f, -0.174522f, -0.22286f, -0.455614f, -0.651862f, -0.661948f, -0.191707f, -0.022014f, -0.363759f, -0.146843f, -0.120276f, 0.097171f, 0.51203f, 0.23171f, -0.003895f, -0.163178f, -0.090983f, -0.190489f, 0.005081f, 0.215102f, 0.129598f, 0.092226f, 0.188181f, 0.19105f, -0.195687f, -0.625032f, -0.657831f, -0.342061f, -0.21227f, -0.122277f, -0.369103f, -0.408209f, -0.673692f, -0.331605f, 0.139673f, -0.202554f, -0.26111f, -0.003134f, -0.266683f, -0.048852f, 0.472816f, 0.330899f, -0.072631f, -0.241078f, -0.437444f, -0.266952f, 0.092052f, 0.187807f, -0.51194f, 0.079043f, 0.136399f, 0.183795f, 0.192469f, -0.254943f, -0.689882f, -0.528445f, -0.316665f, 0.006284f, 0.095388f, 0.071017f, -0.044978f, 0.320207f, -0.040773f, -0.30888f, -0.24648f, 0.04026f, 0.065114f, 0.497158f, 0.675206f, 0.343471f, -0.287017f, -0.153718f, -0.144442f, -0.239438f, 0.082485f, 0.235735f, -0.655162f, 0.27717f, 0.47289f, 0.411761f, 0.402058f, 0.265789f, -0.033059f, -0.167639f, -0.058789f, 0.310097f, 0.51631f, 0.444298f, 0.091756f, 0.112535f, -0.092172f, -0.45907f, 0.05959f, 0.217967f, 0.543732f, 1.0f, 0.852157f, -0.018769f, -0.395692f, 0.021135f, -0.086276f, -0.257187f, 0.034661f, 0.027775f, -0.414825f, 0.463697f, 0.804988f, 0.797026f, 0.564331f, 0.624311f, 0.461349f, 0.372765f, 0.120137f, 0.300963f, 0.305651f, -0.043146f, -0.075391f, -0.110272f, -0.230759f, 0.073858f, 0.375362f, 0.374198f, 0.426443f, 0.464952f, 0.030941f, -0.543185f, -0.408788f, -0.141948f, -0.479018f, 0.018518f, -0.006387f, -0.001711f, -0.312597f, 0.39047f, 0.748505f, 0.835815f, 0.506797f, 0.580584f, 0.68786f, 0.536729f, 0.320552f, 0.128852f, 0.370872f, 0.260284f, -0.10656f, -0.353847f, -0.098987f, 0.26588f, 0.198746f, 0.224769f, -0.14757f, -0.672406f, -0.346941f, -0.687498f, -0.922493f, -0.239115f, 0.051619f, 0.028648f, -0.003103f, -0.02343f, 0.153601f, -0.007144f, 0.063565f, -0.154906f, 0.095905f, 0.072968f, 0.429597f, 0.525145f, -0.01906f, 0.069679f, 0.101322f, 0.073689f, -0.11666f, -0.347087f, -0.107994f, -0.233279f, -0.262295f, -0.233201f, -0.40791f, -0.295581f, 0.166019f, -0.537376f, -0.740918f, 0.191342f, 0.01059f, 0.001775f, 0.005479f, 0.026128f, -0.033553f, 0.038003f, -0.478938f, -0.277963f, -0.249836f, 0.271432f, -0.181348f, -0.988931f, -1.0f, -0.812165f, -0.368115f, -0.610952f, -0.867806f, -1.0f, -0.824715f, -0.420287f, -0.254079f, -0.690961f, -0.397952f, -0.535365f, -0.541159f, -0.658869f, -0.10828f, -0.085944f, 0.020843f, -0.010919f, 0.01857f, 0.011052f, -0.022794f, -0.007169f, -0.120274f, -0.145525f, -0.171671f, 0.377821f, -0.059906f, -0.720027f, -0.961255f, -0.483928f, -0.284162f, -0.372562f, -0.571067f, -0.521281f, -0.497501f, -0.768032f, -1.0f, -0.46755f, -0.559051f, -0.413485f, -0.187022f, -0.0506f, -0.015218f, 0.026243f, 0.031186f, 0.003497f},
{0.000503f, -0.027161f, 0.021187f, -0.010003f, 0.003393f, -0.007246f, 0.012383f, 0.008356f, -0.008206f, -0.005705f, -8e-05f, -0.028274f, -0.357953f, -0.410887f, -0.170397f, -0.10724f, -0.003756f, 0.024679f, 0.00318f, 0.03266f, 0.007195f, 0.016862f, 0.005488f, -0.020204f, -0.033474f, -0.014168f, 0.027969f, 0.018285f, -0.011642f, -0.02219f, 0.035195f, 0.003897f, -0.131286f, -0.29059f, -0.413816f, -0.531645f, 0.062355f, -0.406813f, -0.229857f, 0.024337f, -0.155745f, -0.111382f, -0.119131f, 0.358198f, 0.502801f, 0.304583f, -0.481648f, -0.673147f, -0.449009f, -0.254351f, -0.221422f, 0.094825f, -0.027869f, 0.004942f, -0.015626f, 0.025086f, 0.031255f, -0.008351f, -0.098608f, 0.061338f, -0.470748f, -0.445986f, -0.280761f, -0.303177f, -0.003013f, 0.079583f, 0.628689f, 0.432834f, 0.444014f, 0.27239f, -0.259535f, -0.213643f, -0.356709f, -0.763329f, -0.6488f, -0.640417f, -0.840331f, -0.77397f, -0.056931f, -0.274533f, -0.632725f, -0.462545f, 0.025732f, -0.001455f, -0.018468f, 0.030621f, -0.158436f, -0.216988f, -0.071176f, -0.070414f, -0.288725f, -0.099993f, 0.196529f, 0.625499f, 0.473558f, 0.160595f, -0.214172f, 0.011018f, 0.187143f, -0.249426f, -0.551684f, -0.313481f, -0.080265f, -0.192041f, -0.392915f, -0.364821f, -0.075023f, 0.375733f, 0.189978f, 0.266855f, 0.068655f, 0.015651f, -0.030604f, -0.094734f, -0.233143f, -0.083739f, 0.059325f, -0.067067f, 0.009621f, -0.029323f, 0.155361f, 0.376116f, 0.152251f, -0.366174f, -0.581207f, -0.572838f, -0.448231f, -0.431424f, -0.334673f, -0.135617f, 0.010567f, -0.018973f, -0.128554f, -0.010499f, 0.44819f, 0.951079f, 0.854672f, 0.426624f, -0.379409f, 0.23892f, 0.02237f, -0.027843f, -0.501054f, 0.048523f, 0.119208f, 0.15789f, 0.274404f, 0.073378f, 0.091731f, 0.241125f, -0.28915f, -0.502931f, -0.661576f, -0.723591f, -0.606869f, -0.349044f, -0.382536f, -0.171793f, -0.048289f, 0.106429f, 0.292254f, 0.458737f, 0.918497f, 0.952881f, 0.847205f, -0.042466f, -0.304568f, 0.089755f, 0.001207f, -0.095112f, 0.214789f, -0.44639f, 0.01235f, 0.121884f, 0.183203f, 0.174058f, -0.110712f, -0.026888f, -0.236922f, -0.406095f, -0.712131f, -0.765952f, -0.966646f, -0.827633f, -0.994685f, -0.694862f, -0.351299f, -0.099245f, 0.190912f, 0.219825f, 0.680213f, 0.844897f, 0.443645f, 0.381229f, 0.162672f, -0.460316f, -0.006413f, -0.482259f, 0.32086f, -0.243344f, -0.115204f, -0.033612f, 0.161786f, 0.169266f, 0.109285f, 0.204565f, 0.032287f, -0.142264f, -0.465425f, -0.883395f, -0.999365f, -1.0f, -0.92541f, -0.823478f, -0.835649f, -0.42527f, -0.196159f, -0.212076f, 0.01535f, 0.284811f, 0.411851f, 0.557642f, 0.289135f, -0.14841f, -0.27309f, -0.546832f, 0.150945f, -0.060355f, -0.137877f, -0.186601f, 0.058558f, 0.3849f, 0.210266f, 0.059918f, 0.070676f, 0.186424f, -0.120798f, -0.717759f, -0.939059f, -0.760916f, -0.931405f, -0.725303f, -0.684291f, -0.400577f, -0.246496f, -0.46906f, -0.391124f, -0.005437f, 0.679437f, 0.287215f, 0.363324f, -0.675042f, -0.438205f, -0.188135f, -0.005488f, -0.182884f, -0.136552f, -0.250895f, 0.250014f, 0.400974f, 0.133919f, -0.043328f, 0.19782f, 0.308372f, -0.00021f, -0.440235f, -0.282181f, -0.228168f, -0.37088f, -0.399082f, -0.288067f, 0.039529f, -0.162132f, -0.287296f, -0.242517f, 0.272935f, 0.89376f, 0.593325f, 0.238963f, -0.00547f, -0.430285f, -0.000133f, 0.052423f, -0.366492f, -0.128218f, -0.26769f, 0.244039f, 0.286932f, 0.218042f, 0.08413f, 0.179092f, 0.02959f, -0.244579f, 0.07161f, 0.317881f, -0.014072f, 0.122709f, 0.169317f, 0.258549f, 0.317416f, 0.30266f, -0.020552f, -0.024569f, 0.563483f, 0.866667f, 0.843299f, -0.023429f, -0.635032f, -0.032673f, 0.469738f, 0.422278f, -0.185689f, -0.198803f, -0.228503f, 0.038491f, -0.040346f, -0.200639f, -0.379909f, -0.142612f, -0.342891f, -0.155583f, 0.620664f, 0.563421f, 0.288482f, 0.210609f, 0.095299f, 0.110386f, 0.236255f, 0.423406f, 0.214495f, 0.162467f, 0.465326f, 0.92104f, 0.915069f, 0.135662f, -0.168086f, 0.213015f, -0.01601f, 0.084251f, 0.121802f, -0.264264f, -0.142854f, -0.018955f, -0.293403f, -0.371977f, -0.401961f, -0.301371f, -0.295428f, 0.747733f, 0.901329f, 0.416592f, 0.170243f, 0.020021f, -0.264949f, -0.42744f, -0.006046f, 0.110929f, 0.160865f, 0.136726f, 0.228533f, 0.3022f, 0.93884f, 0.710758f, 0.228082f, -0.096609f, -0.154558f, -0.217408f, -0.041244f, -0.222313f, -0.063716f, 0.147425f, 0.063796f, -0.093696f, -0.187461f, -0.048986f, 0.208588f, 0.908392f, 0.813755f, 0.361314f, 0.313915f, 0.162944f, -0.933715f, -0.909244f, -0.429729f, -0.116431f, 0.0513f, -0.033657f, 0.213974f, 0.291762f, 0.525452f, 0.854411f, 0.009361f, 0.023928f, -0.220737f, -0.507765f, -0.132582f, -0.316818f, 0.015907f, 0.145464f, 0.126955f, 0.032379f, -0.037703f, 0.268666f, 0.641451f, 0.842151f, 0.57324f, 0.459744f, 0.591366f, 0.189287f, -0.969346f, -0.878437f, -0.237837f, -0.02174f, 0.204683f, 0.126656f, 0.18017f, 0.595277f, 0.292702f, 0.672575f, -0.075912f, -0.070238f, 0.082808f, -0.675372f, -0.214551f, -0.061618f, 0.455549f, 0.167288f, -0.062372f, -0.176534f, -0.167262f, 0.044606f, 0.349036f, 0.181159f, 0.071537f, 0.182421f, 0.290629f, -0.173633f, -0.70684f, -0.215813f, -0.151144f, -0.144176f, -0.030613f, -0.202319f, -0.200247f, 0.344516f, 0.345296f, 0.293622f, 0.116054f, -0.222827f, -0.017783f, -0.261757f, 0.014753f, -0.351377f, 0.140696f, 0.40212f, -0.041008f, -0.100023f, -0.115814f, 0.161625f, 0.208029f, -0.257142f, -0.229067f, 0.175731f, 0.177206f, 0.09993f, -0.039737f, 0.048661f, 0.138705f, 0.025897f, -0.026973f, -0.081489f, -0.120162f, 0.15951f, 0.74448f, 0.327422f, -0.029202f, 0.033379f, -0.237938f, -0.128296f, 0.168545f, -0.639868f, -0.02194f, 0.717751f, 0.726365f, 0.444698f, 0.445795f, 0.478857f, 0.728876f, 0.134569f, -0.094534f, 0.254076f, 0.149334f, 0.080774f, 0.036724f, 0.071124f, 0.167029f, 0.277539f, 0.204212f, 0.167986f, 0.32583f, 0.807353f, 0.984524f, 0.317057f, 0.257555f, -0.146198f, -0.119409f, 0.11467f, -0.216676f, -0.882259f, -0.590341f, 0.608089f, 0.901327f, 0.76642f, 0.885118f, 0.899253f, 0.842226f, 0.415081f, 0.141976f, 0.236352f, 0.274181f, 0.299836f, -0.038225f, 0.030103f, 0.27492f, 0.2424f, 0.372801f, -0.082282f, 0.128419f, 0.996318f, 0.831497f, 0.235326f, 0.149019f, 0.053938f, 0.081436f, 0.240059f, -0.49355f, -0.984008f, -0.94725f, -0.244452f, 0.323222f, 0.833337f, 0.853601f, 0.671298f, 0.504543f, 0.469451f, 0.031331f, -0.336334f, 0.081589f, -0.321412f, -0.324064f, -0.022301f, 0.195458f, 0.188767f, -0.340939f, -0.73574f, -0.181959f, 0.652348f, 0.433928f, 0.155828f, -0.053497f, 0.032206f, 0.204767f, 0.243088f, -0.407984f, -0.904513f, -0.888207f, -0.271766f, 0.019443f, 0.50608f, 0.574204f, 0.216558f, 0.058585f, -0.09121f, -0.117718f, -0.487647f, -0.234716f, -0.377107f, -0.153418f, 0.170246f, 0.305707f, 0.04134f, -0.586489f, -0.732388f, -0.500279f, -0.210301f, -0.015617f, -0.475825f, -0.142325f, -0.120322f, 0.014641f, -0.140725f, -0.24665f, -0.61612f, -0.867834f, -0.447579f, -0.124949f, 0.056003f, 0.023581f, 0.191484f, -0.115753f, -0.232126f, -0.160575f, -0.472472f, -0.640552f, -0.158924f, 0.13161f, -0.083606f, -0.002043f, 0.063906f, -0.123306f, -0.539803f, -0.455854f, -0.268892f, -0.225382f, -0.181864f, 0.133134f, -0.106658f, -0.09042f, -0.243532f, -0.244912f, -0.243355f, -0.218512f, -0.049606f, -0.219081f, -0.210457f, -0.080372f, 0.168765f, -0.216002f, -0.231823f, 0.019773f, -0.160086f, -0.213791f, 0.033469f, -0.070376f, -0.169941f, -0.092442f, 0.129103f, -0.121687f, -0.545292f, -0.394153f, -0.335636f, -0.344508f, -0.293888f, 0.182243f, 0.013277f, -0.01883f, -0.116111f, -0.705293f, -0.612266f, 0.083929f, -0.002595f, -0.246703f, -0.153065f, 0.172255f, -0.004888f, -0.190221f, 0.051666f, -0.257799f, -0.160587f, -0.429591f, -0.231216f, -0.502905f, -0.151335f, 0.119712f, 0.111471f, -0.322778f, -0.354693f, -0.428006f, -0.289035f, 0.281828f, -0.324254f, -0.013558f, -0.013369f, 0.033446f, 0.045217f, -0.422784f, -0.911149f, -0.945433f, -0.601341f, -0.630576f, -0.363764f, -0.108883f, -0.040297f, -0.204672f, -0.468819f, -0.739136f, -0.924096f, -1.0f, -1.0f, -1.0f, -1.0f, -0.5731f, -0.362094f, -0.49499f, -0.398388f, -0.652729f, -0.340269f, 0.369386f, 0.026296f, -0.008319f, 0.028832f, -0.034302f, 0.141625f, -0.070484f, -0.497235f, -0.597201f, -0.917646f, -0.928542f, -0.804389f, -0.912085f, -0.680172f, -0.711858f, -0.919106f, -0.928391f, -1.0f, -0.98867f, -0.986205f, -1.0f, -1.0f, -0.8573f, -0.414035f, -0.57912f, -0.609299f, -0.427345f, -0.345682f, 0.339481f, 0.202414f, -0.020248f, -0.028304f, -0.023482f, 0.019524f, -0.16105f, -0.229809f, -0.317073f, -0.025298f, -0.15805f, -0.050566f, -0.091971f, -0.372172f, -0.150149f, -0.676172f, -0.572656f, -0.669908f, -0.538606f, -0.450838f, -0.412401f, -0.494334f, -0.3787f, -0.183273f, -0.289634f, -0.517614f, -0.267998f, 0.050741f, -0.14991f, 0.028243f, -0.019463f, -0.01434f, -0.017638f, -0.029832f, 0.013801f, -0.046458f, -0.26021f, -0.135979f, -0.117632f, -0.234011f, -0.178843f, -0.613231f, -0.627703f, -0.593889f, -0.233652f, -0.192574f, 0.277354f, 0.892148f, 0.849689f, 0.527872f, 0.800809f, 0.20889f, -0.220195f, -0.296822f, -0.025902f, -0.019729f, -0.028496f, 0.012101f, -0.020564f},
{0.035719f, -0.022285f, 0.017646f, -0.010941f, -0.029296f, -0.034762f, 0.015572f, -0.010831f, -0.022923f, 0.035305f, 0.021006f, 0.023575f, -0.08961f, 0.091514f, 0.189067f, 0.047838f, 0.017219f, -0.008629f, -0.007921f, -0.003677f, -0.013996f, -0.024426f, -0.003948f, -0.012718f, -0.011226f, -0.015553f, 0.016598f, -0.005744f, 0.02757f, 0.010527f, -0.011827f, 0.035596f, -0.072007f, -0.135894f, -0.379247f, -0.188539f, 0.614803f, 0.336893f, 0.864045f, 0.312794f, 0.452021f, 0.658501f, 0.29822f, -0.099393f, 0.333343f, 0.107535f, -0.163661f, 0.354449f, 0.53403f, 0.241505f, 0.094608f, 0.174076f, -0.035451f, -0.020285f, 0.00463f, 0.024291f, -0.029691f, 0.014861f, -0.154614f, 0.110539f, -0.110157f, -0.260633f, 0.20222f, 0.559786f, 0.604929f, 0.531547f, 0.000264f, -0.0728f, -0.029754f, 0.258154f, 0.174439f, -0.087272f, -0.031518f, -0.162215f, -0.319055f, -0.126524f, -0.635354f, -0.477254f, -0.39364f, -0.143924f, 0.043786f, -0.18379f, -0.028546f, -0.002855f, 0.020971f, -0.020006f, -0.222388f, -0.001629f, -0.412248f, -0.780606f, 0.031237f, 0.004195f, -0.241561f, 0.019826f, -0.080674f, 0.037938f, 0.262628f, 0.4194f, 0.362146f, 0.484606f, 0.468193f, 0.610585f, 0.543516f, 0.265207f, -0.264878f, -0.013835f, -0.13456f, -0.706352f, -0.430563f, -0.541722f, -0.125976f, 0.017758f, 0.016818f, 0.057265f, -0.216108f, -0.185517f, 0.06983f, 0.0519f, -0.034014f, -0.415636f, -0.445043f, 0.00974f, 0.376981f, 0.369872f, 0.555f, 0.388159f, 0.448927f, 0.451069f, 0.238274f, -0.052091f, -0.004218f, -0.186996f, -0.0807f, -0.11462f, -0.14883f, -0.422359f, -0.56846f, -0.813889f, 0.029155f, -0.249481f, 0.031676f, 0.01047f, 0.164006f, 0.042576f, -0.078106f, -0.17891f, -0.285725f, -0.42124f, -0.289237f, -0.434909f, -0.065456f, 0.231122f, 0.397853f, 0.546644f, 0.447973f, 0.620766f, 0.599293f, 0.021413f, -0.019506f, -0.125896f, -0.097964f, -0.143359f, -0.338048f, -0.620996f, -0.785597f, -0.7189f, -0.05054f, -0.114635f, 0.00463f, -0.142576f, -0.258763f, -0.021696f, -0.084682f, 0.00802f, -0.25736f, -0.59287f, -0.518416f, -0.113181f, 0.099439f, 0.215895f, 0.442521f, 0.642316f, 0.440246f, 0.519378f, 0.594073f, -0.061379f, -0.123791f, 0.031917f, 0.046929f, -0.024425f, -0.305598f, -0.780916f, -0.864612f, -0.983291f, 0.113273f, 0.424164f, -0.08488f, -0.570425f, -0.471243f, -0.437823f, -0.168228f, -0.046742f, -0.300154f, -0.632307f, -0.204593f, -0.269411f, -0.179201f, 0.072477f, 0.041937f, -0.140508f, -0.224463f, 0.206939f, 0.538815f, 0.139422f, 0.175147f, 0.046569f, 0.251498f, 0.189984f, -0.175416f, -0.574045f, -0.923052f, -0.836704f, 0.026712f, 0.445876f, -0.064998f, -0.429977f, -0.527959f, 0.106644f, -0.095426f, -0.369129f, -0.4258f, -0.324558f, -0.30238f, -0.175017f, -0.124921f, -0.359153f, -0.378846f, -0.447554f, -0.650917f, -0.16189f, 0.115718f, 0.356424f, 0.530979f, 0.277965f, 0.472875f, 0.552707f, 0.392601f, 0.020986f, -0.678319f, -0.464881f, -0.532149f, 0.092951f, 0.036734f, -0.231393f, -0.096653f, 0.0715f, -0.315928f, -0.297198f, -0.061181f, -0.078572f, 0.115929f, -0.314257f, -0.378729f, -0.69113f, -0.368256f, -0.515249f, -0.796276f, -0.324194f, 0.245998f, 0.773838f, 0.760839f, 0.354011f, 0.749285f, 0.758254f, 0.412161f, -0.388532f, -0.812122f, -0.631183f, -0.331167f, 0.827829f, 0.032752f, -0.259557f, -0.309251f, -0.55775f, -0.381707f, -0.045104f, 0.057707f, -0.182477f, -0.157064f, -0.492003f, -0.61209f, -0.813774f, -0.640561f, -0.779597f, -0.959055f, -0.31925f, 0.706567f, 0.782131f, 0.471183f, 0.502678f, 0.652182f, 0.619148f, -0.112396f, -0.800643f, -1.0f, -0.482694f, -0.071867f, 0.396741f, 0.277818f, -0.387931f, -0.733273f, -0.803306f, -0.043328f, -0.086565f, -0.31618f, -0.287034f, -0.09974f, -0.415252f, -0.977716f, -0.973421f, -0.940801f, -0.990578f, -0.654116f, 0.586796f, 1.0f, 1.0f, 0.638718f, 0.542711f, 0.430566f, -0.142531f, -0.565667f, -1.0f, -0.772744f, 0.099882f, -0.107763f, 0.227507f, -0.001197f, -0.344354f, -0.427334f, -0.396295f, 0.056524f, -0.343798f, -0.348223f, -0.086589f, 0.102063f, -0.357279f, -0.71476f, -0.905157f, -0.922482f, -0.80586f, 0.326713f, 1.0f, 1.0f, 0.711997f, 0.429601f, 0.288166f, -0.081423f, -0.633918f, -0.706373f, -1.0f, -0.371483f, 0.222537f, -0.091655f, 0.208491f, 0.084165f, -0.237896f, -0.41212f, 0.216277f, 0.188028f, -0.179599f, -0.102845f, -0.237373f, -0.033309f, -0.255337f, -0.633124f, -0.391147f, -0.335479f, 0.059636f, 0.700885f, 0.685691f, 0.464187f, -0.060311f, -0.177441f, 0.090054f, -0.269237f, -0.40819f, -0.668145f, -1.0f, -0.151308f, 0.184065f, -0.317947f, -0.209796f, -0.059845f, -0.419801f, -0.233297f, 0.207525f, 0.251252f, 0.058542f, 0.016785f, -0.010861f, -0.274277f, -0.203537f, -0.284824f, -0.041551f, 0.190296f, 0.085114f, 0.187887f, -0.189802f, -0.04683f, -0.399664f, -0.585931f, -0.331786f, -0.279755f, -0.256291f, -0.699011f, -0.931181f, -0.034655f, 0.200121f, -0.183799f, -0.22166f, -0.041986f, -0.192281f, -0.467559f, 0.756679f, 0.514684f, 0.403403f, -0.05189f, -0.028546f, -0.368594f, -0.164543f, -0.185802f, -0.015045f, -0.242964f, -0.105169f, 0.025315f, -0.170908f, 0.283778f, -0.495246f, -0.57581f, -0.224485f, -0.370536f, -0.108761f, -0.620931f, -0.65254f, 0.203023f, 0.279322f, 0.199849f, 0.028596f, -0.080431f, -0.02026f, -0.210666f, 0.969585f, 0.919456f, 0.610549f, -0.035403f, -0.535719f, -0.274968f, -0.054401f, -0.375712f, -0.59594f, -0.588784f, -0.384933f, -0.508896f, -0.225618f, 0.192549f, -0.349977f, -0.470533f, -0.174398f, -0.433832f, -0.211976f, -0.269648f, -0.306642f, -0.00844f, 0.381643f, 0.594143f, 0.030731f, -0.035122f, 0.030187f, -0.072582f, 0.961635f, 0.989828f, 0.7346f, -0.019937f, -0.266623f, 0.072031f, -0.168286f, -0.740489f, -0.889011f, -0.522642f, -0.385114f, -0.301548f, 0.09942f, 0.323404f, -0.065237f, -0.398614f, -0.284711f, -0.387886f, -0.47228f, -0.298669f, -0.051649f, 0.219304f, 0.113765f, -0.024798f, -0.218862f, -0.196535f, 0.224964f, -0.81009f, 0.724274f, 0.870647f, 0.793433f, 0.116251f, -0.030943f, 0.040799f, 0.104631f, -0.042315f, -0.215803f, -0.228315f, -0.104212f, 0.195399f, 0.182516f, 0.553761f, -0.038186f, -0.296177f, -0.527107f, -0.585505f, -0.460535f, -0.319807f, 0.078613f, 0.08468f, -0.267194f, -0.21587f, 0.032644f, 0.101059f, -0.088258f, -0.888716f, 0.517015f, 0.604143f, 0.670345f, 0.199877f, 0.216016f, 0.148875f, 0.109924f, 0.108509f, 0.065129f, 0.025068f, 0.409158f, 0.534772f, 0.21424f, 0.468254f, 0.054805f, -0.100941f, -0.53158f, -0.439638f, -0.253615f, -0.389465f, -0.402018f, -0.574454f, -0.587586f, 0.019337f, 0.053717f, -0.022237f, -0.30935f, -0.776265f, -0.03237f, 0.155265f, 0.467642f, 0.03602f, 0.189173f, 0.172352f, 0.184665f, -0.070608f, -0.034616f, 0.062324f, 0.050276f, 0.378951f, 0.231961f, 0.189095f, 0.051916f, 0.089544f, -0.090618f, -0.119929f, -0.101487f, -0.343547f, -0.618383f, -0.664591f, -0.817655f, 0.277497f, -0.050177f, -0.126233f, -0.563589f, -0.212842f, -0.177308f, 0.137517f, 0.075655f, -0.058537f, 0.055888f, 0.217914f, 0.14676f, -0.239566f, -0.098234f, -0.045168f, 0.030449f, 0.032456f, 0.095547f, 0.397998f, 0.299942f, 0.206534f, 0.207028f, 0.006719f, -0.021904f, -0.367661f, -0.901309f, -0.896519f, -0.470446f, 0.030633f, 0.06381f, -0.179f, -0.314636f, -0.740006f, -0.683516f, -0.067598f, 0.006004f, -0.029105f, -0.170957f, -0.025017f, 0.262533f, 0.049372f, 0.169358f, 0.292635f, 0.014101f, -0.18877f, -0.262598f, 0.132745f, 0.271298f, 0.432867f, 0.452168f, 0.252216f, 0.366932f, 0.144857f, -0.454419f, -1.0f, -0.60195f, -0.126467f, 0.099161f, -0.02833f, 0.011106f, -0.954391f, -0.508855f, -0.137414f, -0.050383f, -0.073616f, -0.293357f, -0.073243f, -0.372524f, -0.129061f, -0.207691f, -0.129386f, -0.303218f, -0.581966f, -0.399478f, -0.11747f, 0.192096f, 0.680061f, 0.948826f, 0.867247f, 0.728907f, 0.470874f, 0.135324f, -0.14371f, -0.005998f, -0.062469f, 0.007277f, -0.002954f, -0.03546f, -0.167622f, -0.46502f, -0.137071f, 0.097562f, 0.045924f, -0.265805f, -0.242729f, -0.146238f, 0.050881f, 0.018623f, -0.165605f, 0.046427f, 0.374806f, 0.529907f, 0.154745f, 0.246708f, 0.599951f, 0.858442f, 0.738193f, 0.551816f, 0.566458f, 0.710378f, 0.100836f, 0.265862f, -0.180011f, 0.013789f, 0.029331f, -0.028851f, -0.106475f, -0.499717f, -0.395519f, 0.110187f, 0.178835f, 0.06969f, 0.064464f, -0.028359f, 0.093264f, -0.161308f, -0.284897f, 0.062009f, 0.314485f, 0.002913f, -0.164603f, 0.288545f, 0.761561f, 0.680047f, 0.263587f, 0.047144f, 0.083287f, 0.227275f, 0.115632f, -0.207684f, -0.168776f, 0.003027f, -0.035276f, -0.03493f, 0.005298f, 0.02727f, -0.311617f, -0.174601f, -0.44729f, -0.705074f, -0.268489f, -0.368399f, -0.379515f, -0.784625f, -0.926168f, -0.684586f, -0.729012f, -0.714188f, -0.679596f, -0.11922f, 0.505261f, 0.239546f, 0.034248f, 0.112509f, -0.084431f, 0.19962f, 0.102809f, -0.157651f, -0.019798f, 0.00115f, 0.007168f, -0.004813f, -0.032105f, -0.021127f, -0.004506f, 0.055238f, -0.08611f, 0.115649f, 0.532264f, 0.464723f, -0.182214f, -0.011646f, 0.222441f, 0.330693f, 0.063247f, -0.15475f, -0.055046f, 0.051006f, -0.212107f, -0.384957f, -0.137618f, 0.085127f, -0.235038f, -0.181492f, 0.002357f, 0.001993f, 0.020802f, -0.019155f},
{0.000392f, 0.0099f, -0.00254f, -0.006439f, 0.01764f, 0.014987f, -0.025506f, -0.008619f, -0.021493f, 0.018706f, 0.005696f, 0.003772f, -0.353671f, -0.270599f, -0.17738f, -0.168387f, 0.019721f, 0.015656f, 0.031247f, -0.005271f, 0.004768f, -0.034999f, 0.029738f, 0.002773f, 0.011985f, -0.032314f, -0.005594f, 0.02992f, -0.01718f, 0.00999f, 0.020867f, 0.019434f, 0.115017f, -0.038263f, -0.077543f, -0.099254f, -0.118102f, -0.735621f, -0.757371f, -0.628881f, -0.735694f, -0.4701f, -0.108137f, 0.156444f, 0.397054f, 0.313226f, -0.438123f, -0.777873f, -0.503941f, -0.046509f, 0.03139f, 0.010279f, 0.010795f, 0.024487f, -0.017086f, 0.022942f, -0.007437f, 0.000764f, 0.03785f, 0.231617f, 0.636833f, -0.119711f, -0.438606f, -0.761754f, -0.303476f, -0.099296f, -0.090903f, -0.22832f, -0.369244f, -0.452525f, -0.297167f, -0.202744f, -0.178265f, -0.755431f, -0.829163f, -0.783795f, -1.0f, -0.856623f, -0.384826f, -0.495494f, -0.281463f, 0.018833f, -0.011165f, -0.028624f, 0.01598f, 0.020989f, -0.179908f, 0.059611f, 0.241673f, -0.474185f, -0.260589f, -0.297848f, -0.199668f, -0.140932f, -0.133424f, -0.460901f, -0.873267f, -0.829487f, -0.254548f, -0.245018f, -0.323329f, -0.59514f, -0.939076f, -1.0f, -1.0f, -0.573899f, -0.088524f, -0.361334f, -0.10587f, -0.1166f, 0.079508f, -0.004415f, 0.004596f, -0.115841f, -0.429016f, -0.027525f, -0.176317f, 0.271731f, 0.422403f, 0.066662f, -0.268083f, -0.258707f, -0.231375f, -0.127726f, -0.310635f, -0.531936f, -0.662977f, -0.262251f, -0.087857f, -0.155322f, -0.316973f, -0.607841f, -0.855257f, -0.52535f, 0.313391f, 0.517561f, 0.373328f, -0.07239f, -0.106805f, 0.197275f, 0.007581f, -0.018687f, -0.795563f, -0.395884f, -0.164584f, 0.25274f, 0.330843f, 0.282711f, -0.005118f, 0.149317f, -0.207974f, -0.270665f, -0.203803f, -0.387391f, -0.821342f, -0.408073f, -0.044095f, -0.041881f, -0.10193f, -0.296329f, -0.463427f, -0.154475f, 0.230493f, 0.047747f, 0.000885f, 0.100695f, 0.225421f, 0.064813f, -0.034013f, -0.033179f, -0.1734f, -0.514167f, -0.32326f, -0.073273f, 0.230889f, -0.166426f, -0.116658f, 0.051456f, 0.01889f, -0.170295f, -0.180084f, -0.359414f, -0.758925f, -0.475864f, -0.13626f, -0.293537f, -0.255003f, -0.207696f, -0.009727f, 0.006649f, 0.183925f, -0.194996f, -0.342104f, 0.020799f, -0.053939f, -0.141137f, -0.043315f, -0.249621f, -0.04826f, -0.704942f, -0.314785f, -0.25736f, -0.109772f, -0.40567f, -0.188896f, -0.014363f, 0.05792f, 0.047773f, 0.091843f, -0.143822f, -0.183524f, -0.431212f, -0.410226f, -0.679667f, -0.412086f, -0.186043f, -0.4182f, -0.149729f, -0.319444f, -0.420481f, -0.473781f, 0.001626f, -0.115916f, -0.440691f, -0.223969f, -0.548845f, -0.211298f, -0.913547f, -0.284629f, 0.087429f, 0.06118f, -0.021294f, -0.011366f, 0.004727f, 0.336011f, 0.550443f, 0.42924f, 0.333001f, 0.030666f, 0.014962f, -0.465142f, -0.441185f, -0.302505f, -0.076241f, -0.337933f, -0.292241f, -0.319838f, -0.099418f, -0.148753f, 0.17561f, 0.357422f, -0.292882f, -0.240331f, -0.210169f, -0.029678f, -0.22375f, 0.236386f, -0.266893f, 0.313114f, 0.177152f, 0.07928f, 0.117554f, 0.320124f, 0.628848f, 0.432717f, 0.336401f, 0.236078f, 0.161401f, -0.367142f, -0.276963f, -0.308159f, -0.20876f, -0.194212f, 0.178585f, 0.033974f, 0.098206f, -0.14132f, 0.108367f, -0.059128f, 0.098113f, -0.187216f, -0.225717f, -0.132445f, 0.104583f, 0.235318f, -0.043991f, 0.426454f, 0.240175f, 0.211395f, 0.268671f, 0.05915f, 0.290648f, 0.078914f, -0.013944f, 0.366752f, 0.098965f, -0.040013f, -0.102491f, -0.038645f, -0.011961f, 0.318448f, 0.141258f, 0.153239f, 0.659435f, 0.665029f, 0.57124f, 0.555331f, 0.187429f, 0.004074f, -0.195844f, -0.557341f, -0.321261f, -0.065564f, 0.00067f, 0.071853f, 0.165668f, 0.261297f, -0.247494f, -0.724925f, -0.542961f, -0.516743f, -0.001789f, 0.475151f, 0.495204f, 0.30373f, -0.133396f, -0.283811f, -0.14002f, 0.014559f, -0.071732f, 0.254395f, 0.445669f, 0.92335f, 0.999251f, 0.856222f, -0.013276f, 0.235842f, -0.053856f, -0.568016f, -0.661167f, -0.42928f, -0.555313f, -0.459483f, -0.111897f, -0.336616f, -0.657771f, -0.707797f, -0.687661f, -0.028004f, 0.614709f, 0.548347f, 0.576975f, 0.355367f, -0.209962f, -0.587326f, -0.266195f, -0.379456f, -0.158689f, 0.234443f, -0.415446f, 0.227841f, 0.999012f, 0.696093f, 0.011252f, -0.12442f, -0.250885f, -0.081998f, -0.056077f, -0.790545f, -0.855972f, -0.550555f, -0.328521f, -0.357504f, -0.512405f, -0.351296f, 0.229712f, 1.0f, 0.958113f, 0.708749f, 0.107456f, 0.119344f, -0.564997f, -0.566112f, -0.277396f, -0.157364f, -0.011506f, -0.232976f, -0.418051f, -0.13622f, 0.507205f, 0.986222f, 0.249159f, -0.028589f, -0.292724f, 0.274892f, -0.100271f, -0.722745f, -0.874845f, -0.719324f, -0.306037f, 0.015922f, 0.037119f, 0.470629f, 0.999922f, 1.0f, 0.663312f, 0.404681f, -0.124504f, 0.091526f, -0.680604f, -0.626364f, -0.205535f, 0.019356f, 0.193278f, -0.123807f, -0.273133f, 0.106021f, 0.448395f, 0.538769f, 0.124891f, -0.099556f, -0.119922f, -0.054135f, 0.094805f, -0.205225f, -0.200523f, -0.226937f, -0.309407f, -0.056309f, 0.336589f, 0.64643f, 0.653716f, 0.466187f, 0.018736f, -0.248172f, -0.171683f, -0.083652f, -0.728766f, -0.316583f, -0.138611f, 0.00155f, -0.046387f, 0.047797f, 0.073258f, 0.548651f, 0.747486f, 0.600122f, 0.16538f, -0.159316f, -0.089335f, -0.271039f, 0.443777f, 0.011101f, 0.060775f, 0.178814f, -0.127265f, -0.02324f, 0.413929f, 0.328471f, 0.112104f, -0.010754f, -0.605752f, -0.586952f, 0.000157f, 0.149186f, 0.055867f, 0.163888f, 0.297955f, 0.12025f, 0.209042f, 0.494513f, 0.327455f, 0.557542f, 0.881438f, 0.644113f, 0.176099f, 0.027013f, -0.30143f, -0.285039f, 0.274142f, 0.046891f, 0.570729f, 0.447819f, 0.487461f, 0.418969f, 0.495168f, 0.335248f, 0.30284f, -0.17023f, -0.697391f, -0.292408f, 0.370093f, 0.464303f, 0.392767f, 0.385213f, 0.21946f, 0.188549f, 0.539284f, 0.896818f, 0.998552f, 1.0f, 0.994039f, 0.333082f, 0.11586f, 0.180275f, -0.071662f, -0.511508f, 0.082531f, -0.04153f, 0.339552f, 0.479999f, 0.954627f, 0.72784f, 0.87744f, 0.779869f, 0.679712f, -0.095496f, -0.46174f, -0.147996f, 0.238298f, 0.618023f, 0.317356f, 0.204122f, 0.240389f, 0.256515f, 0.702197f, 0.991675f, 0.941602f, 0.998892f, 0.818147f, 0.223088f, -0.02482f, 0.064232f, 0.140264f, -0.211211f, -0.182593f, -0.178402f, -0.396745f, 0.021979f, 0.546302f, 0.971096f, 0.951607f, 0.621629f, -0.036079f, -0.559482f, -0.715894f, -0.781563f, -0.239412f, -0.1875f, -0.336083f, -0.011288f, -0.21839f, -0.210304f, 0.050931f, 0.277499f, 0.699563f, 0.79125f, 0.576896f, 0.054747f, -0.029799f, 0.001811f, -0.0224f, -0.291616f, -0.52197f, -0.395706f, -0.340134f, -0.014918f, 0.172205f, 0.341466f, 0.093578f, -0.468546f, -0.789878f, -0.94579f, -0.962884f, -0.985403f, -0.850721f, -0.70572f, -0.646216f, -0.220267f, -0.17039f, -0.102367f, -0.000924f, 0.008945f, 0.210237f, 0.267536f, 0.185205f, -0.369952f, -0.142556f, 0.077143f, -0.125947f, -0.089691f, -0.326901f, -0.294959f, -0.152234f, -0.06855f, 0.036494f, -0.061302f, -0.543017f, -0.755967f, -0.72998f, -0.901138f, -0.981929f, -0.892885f, -0.586644f, -0.566771f, -0.519564f, 0.04824f, 0.062385f, -0.001449f, 0.01152f, -0.051324f, 0.048519f, -0.023972f, -0.096047f, 0.089958f, 0.005093f, 0.091471f, -0.110988f, -0.17879f, -0.18556f, 0.24108f, 0.014706f, 0.00501f, -0.25138f, -0.175755f, -0.223908f, -0.071601f, 0.055865f, -0.107446f, -0.171019f, -0.371674f, -0.126804f, -0.354008f, -0.315109f, 0.088969f, 0.019573f, -0.281834f, -0.11317f, -0.064762f, -0.28077f, -0.482119f, -0.251159f, -0.396881f, -0.022112f, -0.027368f, -0.008261f, -0.409898f, -0.269261f, 0.162624f, 0.182619f, 0.09442f, -0.237285f, -0.249891f, -0.280957f, 0.045005f, 0.308762f, 0.250975f, -0.080444f, -0.524544f, -0.492776f, -0.343181f, -0.439732f, -0.001755f, -0.264771f, -0.246672f, -0.017124f, -0.216953f, -0.877217f, -0.907813f, -0.264181f, -0.2545f, -0.024393f, 0.010569f, 0.030987f, -0.244651f, -0.123442f, -0.072398f, -0.330016f, -0.165405f, -0.316851f, -0.127498f, -0.093842f, 0.106741f, -0.136815f, -0.134165f, -0.165288f, -0.595264f, -0.776087f, -0.849042f, -0.747743f, -0.74321f, -0.713802f, -0.37828f, -0.15654f, -0.482816f, -0.842264f, -0.751942f, -0.283956f, -0.3077f, -0.012632f, -0.004151f, 0.014433f, -0.129243f, -0.125469f, -0.748639f, -0.984621f, -0.846805f, -0.377711f, -0.006059f, 0.271664f, 0.294428f, 0.028247f, -0.97722f, -0.945715f, -0.967572f, -0.918305f, -0.917564f, -0.928878f, -1.0f, -1.0f, -0.49402f, -0.406621f, -0.434825f, -0.329245f, -0.346626f, -0.000137f, -0.146045f, -0.016333f, 0.00922f, 0.000623f, 0.010459f, -0.139862f, -0.358573f, -0.510988f, -0.53613f, -0.509091f, -0.664602f, -0.771402f, -0.828284f, -0.500659f, -0.726279f, -0.63054f, -0.790126f, -0.849554f, -0.791387f, -0.947759f, -0.99109f, -0.926542f, -0.554338f, -0.476328f, -0.381918f, -0.137452f, -0.09886f, -0.143041f, 0.003941f, -0.02012f, 0.028102f, 0.01731f, 0.030821f, -0.016427f, -0.031815f, 0.296068f, 0.259979f, -0.35184f, -0.496636f, -0.473861f, -0.816099f, -0.707163f, -0.925178f, -0.974322f, -0.699712f, -0.35261f, -0.050308f, -0.503175f, -0.288436f, -0.619427f, -0.714623f, -0.723136f, -0.488819f, -0.225569f, 0.013353f, -0.002616f, 0.011163f, -0.018552f},
{-0.035713f, 0.012921f, 0.019116f, 0.018709f, 0.029448f, -0.034996f, 0.010458f, 0.028196f, -0.01841f, 0.019746f, 0.018301f, 0.007439f, -0.162943f, 0.014079f, 0.222234f, 0.072088f, 0.014076f, 0.02705f, -0.026829f, -0.033392f, 0.013763f, -0.001662f, -0.016953f, -0.033532f, -0.022323f, 0.009488f, -0.006734f, -0.031199f, -0.003777f, -0.00197f, -0.033489f, 0.021248f, 0.091833f, 0.003268f, -0.368973f, -0.271424f, 0.047541f, 0.067926f, -0.03495f, -0.229502f, -0.332784f, -0.249323f, -0.494752f, -0.252884f, 0.306481f, 0.210276f, -0.387873f, -0.582011f, -0.41103f, 0.209498f, -0.095084f, -0.13796f, 0.005615f, 0.021867f, 0.027122f, -0.030119f, -0.015982f, -0.003373f, 0.181337f, 0.235627f, 0.550794f, -0.190381f, -0.542766f, -0.487457f, -0.130767f, -0.617657f, -0.746951f, -0.711224f, -0.844405f, -1.0f, -0.922028f, -0.873085f, -0.757269f, -0.67442f, -0.434313f, -0.675723f, -0.43442f, -0.290985f, -0.512776f, -0.647481f, -0.557869f, -0.050305f, -0.000197f, 0.027758f, 0.010659f, -0.033325f, 0.350333f, 0.271542f, 0.467783f, -0.344746f, -0.650026f, -0.472544f, -0.279072f, -0.673115f, -0.487347f, -0.7053f, -0.71658f, -0.937527f, -0.823532f, -0.596074f, -0.730279f, -0.764345f, -0.580794f, -0.568474f, -0.222535f, -0.015422f, -0.160706f, -0.516863f, -0.488431f, -0.448358f, -0.275983f, 0.007798f, -0.022438f, 0.042457f, -0.010073f, -0.244628f, -0.268696f, 0.047105f, -0.291316f, -0.062327f, -0.143766f, -0.240961f, -0.453487f, -0.215838f, -0.157857f, -0.204114f, -0.189257f, -0.22247f, -0.456027f, -0.479628f, -0.25997f, -0.304667f, -0.225976f, -0.305313f, -0.23443f, -0.401854f, -0.356466f, -0.524978f, 0.091703f, -0.197735f, -0.01333f, 0.007154f, -0.314373f, -0.423242f, -0.271412f, -0.182895f, -0.184224f, -0.019368f, -0.172908f, 0.002315f, -0.012628f, 0.162623f, 0.152873f, -0.011137f, 0.222007f, 0.178608f, -0.34481f, -0.341608f, -0.118462f, -0.147525f, -0.063489f, -0.117413f, -0.254088f, -0.244499f, -0.179167f, -0.16025f, 0.178738f, -0.243951f, 0.035417f, 0.065012f, -0.176141f, -0.092116f, -0.045064f, -0.173805f, 0.048814f, 0.214757f, 0.225107f, 0.080339f, 0.039627f, 0.051563f, -0.09278f, -0.008492f, 0.251507f, 0.013286f, -0.130901f, -0.209681f, -0.197649f, -0.047735f, -0.245804f, -0.208836f, -0.410341f, -0.087175f, 0.019475f, 0.240224f, -0.072302f, -0.296771f, -0.015006f, 0.029787f, -0.042649f, -0.168728f, -0.373284f, -0.45093f, 0.119401f, 0.308159f, 0.273995f, 0.006284f, 0.180253f, 0.077167f, 0.04842f, -0.01771f, 0.038984f, -0.110873f, -0.299233f, -0.370615f, -0.415776f, -0.343547f, -0.513827f, -0.513682f, -0.344541f, 0.234742f, 0.647873f, 0.531729f, 0.02968f, -0.162641f, -0.262025f, 0.11233f, -0.381653f, -0.504558f, -0.771956f, -0.326339f, 0.261994f, 0.235011f, 0.271727f, 0.239237f, 0.400195f, 0.34158f, 0.198656f, 0.192655f, -0.069301f, -0.34921f, -0.423112f, -0.225239f, -0.146126f, -0.141632f, -0.185994f, -0.485521f, -0.109965f, 0.790013f, 0.864829f, 0.821382f, 0.326067f, -0.376954f, -0.021168f, -0.090553f, -0.304573f, -0.347955f, -0.659558f, -0.199863f, 0.279251f, 0.375324f, 0.261748f, 0.185216f, 0.324043f, 0.141883f, 0.196687f, 0.070051f, -0.246298f, -0.458238f, -0.336177f, -0.219572f, 0.182849f, 0.420391f, 0.025591f, 0.077535f, 0.723621f, 0.836008f, 0.902484f, 0.954388f, 0.433498f, 0.130049f, 0.012469f, -0.222599f, -0.349781f, 0.000387f, -0.323928f, 0.265142f, 0.555421f, 0.143594f, 0.173917f, -0.035344f, 0.070483f, 0.064098f, 0.27828f, 0.264468f, 0.409838f, 0.138583f, 0.179965f, 0.201429f, 0.551049f, 0.436296f, 0.287716f, 0.388805f, 0.853863f, 0.930698f, 0.976622f, 0.936774f, 0.40628f, 0.238664f, 0.021623f, -0.0848f, -0.109845f, -0.259799f, 0.11682f, 0.453773f, 0.500573f, 0.16268f, 0.19704f, -0.262912f, 0.019409f, 0.371469f, 0.840954f, 0.998607f, 0.999467f, 0.557118f, 0.420578f, 0.168074f, 0.127653f, 0.03825f, -0.37605f, -0.311418f, 0.318299f, 0.799726f, 0.996102f, 0.983824f, 0.488347f, -0.046857f, 0.191328f, 0.159314f, -0.295879f, -0.119704f, 0.023399f, 0.481637f, 0.334692f, 0.21822f, 0.19463f, -0.206476f, -0.031331f, 0.647434f, 0.985178f, 0.996153f, 0.741581f, 0.359394f, 0.225384f, -0.047393f, -0.033422f, -0.242764f, -0.572003f, -0.418254f, -0.079388f, -0.149848f, 0.217829f, 0.503914f, 0.477111f, 0.034591f, 0.03551f, 0.122182f, -0.425499f, -0.310523f, -0.343756f, 0.309469f, 0.138478f, 0.038703f, 0.219782f, -0.083874f, 0.023059f, 0.582083f, 1.0f, 0.832668f, -0.026279f, 0.309444f, 0.225897f, -0.059267f, -0.020884f, 0.056483f, 0.004932f, -0.175201f, -0.147614f, -0.047844f, -0.069634f, 0.209483f, 0.323003f, 0.121351f, 0.060512f, 0.127512f, 0.031444f, -0.701691f, -0.662966f, -0.16615f, -0.202774f, -0.311239f, -0.190024f, -0.142801f, -0.163689f, 0.338349f, 0.632453f, 0.334303f, -0.092413f, 0.02963f, -0.073895f, -0.075312f, 0.019853f, -0.239102f, -0.108806f, -0.188827f, -0.153292f, -0.080651f, -0.230763f, -0.184948f, -0.093871f, -0.104817f, 0.060516f, 0.205895f, -0.105654f, -0.133607f, -0.450934f, -0.569714f, -0.58244f, -0.387126f, -0.161367f, 0.073383f, 0.000559f, 0.094549f, 0.347236f, -0.123537f, -0.563805f, -0.353866f, -0.263474f, -0.123485f, 0.079769f, -0.06432f, -0.131679f, -0.159284f, -0.025768f, -0.099123f, -0.195871f, -0.44239f, -0.306161f, -0.308589f, -0.211811f, 0.10621f, -0.020405f, 0.086468f, -0.341104f, 0.028288f, -0.044185f, 0.120579f, 0.402434f, -0.021933f, -0.107659f, 0.07307f, 0.074348f, -0.508094f, -0.750552f, -0.374208f, -0.281334f, -0.153007f, 0.243587f, 0.089577f, 0.226263f, 0.011299f, 0.039074f, 0.023414f, -0.105651f, -0.397255f, -0.278388f, 0.169879f, 0.031158f, -0.238911f, 0.029384f, 0.064599f, 0.05746f, 0.596129f, 0.949899f, 1.0f, 0.774939f, -0.005752f, -0.029304f, -0.127299f, 0.037478f, -0.459552f, -0.413465f, -0.135109f, 0.070159f, 0.024894f, 0.280975f, 0.327217f, 0.303429f, 0.306186f, 0.26625f, 0.382543f, 0.698719f, -0.335442f, -0.144932f, 0.123207f, 0.199202f, -0.014075f, 0.242735f, -0.162177f, -0.06353f, 0.730696f, 1.0f, 1.0f, 0.964223f, 0.396248f, 0.106656f, 0.304941f, 0.509851f, 0.142442f, -0.076276f, 0.162213f, 0.148788f, 0.070523f, 0.125199f, 0.108599f, 0.092428f, 0.09487f, 0.402064f, 0.42631f, 0.648503f, -0.821293f, -0.699657f, -0.118766f, 0.051695f, 0.227017f, 0.259265f, -0.167491f, 0.002185f, 0.295662f, 0.578138f, 0.761415f, 1.0f, 0.973406f, 0.281673f, 0.308686f, 0.175433f, -0.056194f, -0.516586f, -0.417029f, -0.151721f, -0.082846f, 0.034624f, -0.099012f, -0.037735f, 0.092638f, 0.335097f, 0.642968f, 0.436486f, -0.398713f, -0.58051f, -0.027764f, 0.013203f, 0.234247f, 0.224899f, -0.468066f, -0.273239f, 0.115989f, 0.063977f, 0.17449f, 0.402678f, 0.306399f, -0.217075f, 0.026964f, -0.283221f, -0.802437f, -0.959751f, -0.704766f, -0.12617f, -0.138588f, -0.223847f, -0.165884f, -0.181708f, 0.140241f, 0.374838f, 0.660988f, 0.304439f, -0.057134f, -0.503515f, -0.178981f, -0.071981f, -0.088164f, 0.09466f, -0.289366f, -0.314194f, 0.003337f, 0.094763f, 0.215478f, 0.16655f, -0.186255f, -0.390711f, -0.317744f, -0.575887f, -0.651581f, -0.666967f, -0.377237f, -0.236524f, -0.197347f, -0.238075f, -0.190683f, 0.056894f, 0.316117f, 0.59242f, 0.225817f, -0.075889f, -0.047559f, -0.211923f, -0.103538f, -0.075525f, -0.044722f, 0.198203f, 0.24363f, 0.139695f, -0.054559f, 0.088799f, 0.195876f, 0.144508f, 0.048376f, -0.291756f, -0.554954f, -0.450957f, -0.248368f, -0.288799f, -0.120285f, -0.060952f, 0.015952f, -0.002647f, 0.118122f, 0.437738f, 0.713039f, 0.230222f, -0.332972f, -0.044927f, -0.03592f, 0.15317f, -0.10236f, 0.027712f, -0.022351f, -0.374262f, 0.222544f, 0.210298f, 0.258338f, 0.131443f, -0.020258f, 0.097151f, -0.150311f, -0.207688f, -0.612181f, -0.415382f, -0.196479f, -0.215983f, -0.057645f, -0.070928f, 0.116387f, 0.277397f, 0.451075f, 0.467649f, 0.268936f, -0.171342f, -0.359974f, -0.153153f, -0.075368f, -0.021378f, -0.014658f, -0.016929f, -0.000504f, 0.299601f, 0.739294f, 0.151655f, 0.106247f, -0.02168f, 0.078964f, 0.010225f, 0.052439f, -0.135249f, -0.388297f, -0.178224f, -0.134461f, -0.40506f, -0.311217f, -0.376188f, -0.222621f, 0.194393f, 0.110554f, -0.281994f, 0.256387f, -0.028272f, -0.471104f, -0.405846f, 0.118372f, -0.167182f, -0.005858f, -0.034501f, -0.000317f, 0.292182f, -0.079202f, -0.720454f, -0.011997f, -0.365577f, -0.516298f, -0.204801f, -0.26818f, -0.243925f, 0.024085f, -0.0795f, -0.304319f, -0.563116f, -0.487389f, -0.326832f, -0.355774f, -0.513616f, -0.80187f, -0.935467f, -0.194469f, 0.032763f, -0.310143f, -0.033482f, 0.069258f, -0.14466f, -0.00814f, -0.027797f, 0.015573f, -0.020595f, -0.05551f, -0.655996f, -0.014838f, -0.160658f, -0.657503f, -0.543443f, -0.54329f, -0.394778f, -0.499204f, -0.440822f, -0.543239f, -0.592022f, -0.881356f, -0.713448f, -0.626056f, -0.327268f, -0.283059f, -0.491049f, -0.312585f, -0.22378f, -0.223088f, -0.140412f, -0.045633f, 0.007933f, -0.019673f, 0.010879f, 0.02936f, -0.030748f, 0.030399f, -0.098992f, -0.306317f, -0.71831f, -0.579389f, -0.957732f, -0.736968f, -0.780273f, -0.924985f, -1.0f, -1.0f, -1.0f, -0.991199f, -0.771903f, -0.597811f, -0.508516f, -0.471081f, -0.562646f, -0.268905f, -0.072152f, -0.152867f, 0.005046f, -0.032548f, 0.031482f, 0.011795f},
{0.017906f, 0.019701f, 0.011477f, -0.01848f, 0.021868f, 0.002772f, -0.01755f, 0.020422f, -0.001176f, 0.00646f, 0.023696f, 0.027384f, 0.183143f, 0.069335f, -0.155058f, -0.008198f, 0.013593f, 0.022612f, -0.010687f, -0.016593f, -0.00821f, 0.020881f, 0.02905f, -0.015138f, 0.018402f, 0.034582f, 0.025418f, 0.003156f, -0.006596f, 0.035031f, 0.01214f, -0.013272f, 0.058817f, 0.059693f, 0.023425f, 0.260918f, 0.598817f, 0.43342f, 0.106932f, 0.08403f, -0.016407f, -0.520915f, -0.831059f, -0.455625f, 0.182241f, 0.1382f, -0.23646f, -0.413231f, -0.047348f, 0.386373f, 0.027389f, -0.146898f, 0.029161f, -0.017172f, 0.026806f, -0.021313f, -0.029315f, 0.009638f, -0.189627f, -0.083074f, -0.449243f, -0.505309f, -0.630295f, -0.509719f, -0.319634f, -0.013386f, 0.580793f, 0.412283f, -0.255381f, -0.872584f, -1.0f, -1.0f, -1.0f, -0.599981f, -0.075274f, -0.106221f, -0.476909f, -0.602061f, -0.38688f, -0.512548f, -0.014306f, 0.128341f, 0.027655f, 0.030346f, -0.003452f, -0.011853f, -0.240081f, -0.07126f, -0.594132f, 0.067143f, -0.075316f, -0.273711f, -0.435608f, 0.239153f, 0.191983f, 0.116247f, 0.084431f, -0.089301f, -0.098884f, -0.02404f, 0.278793f, 0.550582f, 0.646294f, 0.684836f, 0.652769f, 0.075517f, -0.136558f, 0.051585f, 0.203369f, -0.109957f, 0.257668f, 0.032934f, -0.007406f, 0.016711f, -0.403114f, -0.168702f, 0.380273f, 0.768724f, 0.654826f, 0.40551f, 0.222061f, 0.643221f, 0.721453f, 0.44137f, 0.258219f, 0.113096f, -0.168998f, -0.129237f, -0.021775f, 0.032027f, 0.003944f, 0.016932f, 0.310725f, 0.159128f, 0.189806f, 0.273184f, 0.47921f, 0.159982f, -0.207411f, 0.018437f, -0.004539f, 0.028308f, -0.342406f, -0.551487f, -0.12005f, 0.53064f, 0.500545f, 0.128549f, 0.453524f, 0.758036f, 0.357685f, 0.219899f, 0.253381f, 0.039185f, -0.141956f, -0.077844f, -0.182683f, -0.181872f, -0.356588f, -0.350054f, -0.143696f, 0.261848f, -0.027843f, 0.075104f, 0.189477f, 0.075981f, 0.015328f, -0.217588f, 0.028779f, -0.093648f, 0.307474f, 0.320272f, 0.155072f, 0.453644f, 0.384157f, 0.311374f, 0.131256f, 0.50626f, 0.41814f, 0.27224f, 0.093514f, 0.032841f, -0.068751f, -0.099049f, -0.301588f, -0.237685f, 0.058393f, -0.10552f, -0.107649f, -0.22588f, -0.108138f, -0.428185f, -0.403272f, 0.072323f, -0.034133f, -0.300956f, -0.058616f, -0.620237f, 0.353503f, 0.352601f, 0.200638f, 0.239665f, 0.15602f, -0.040764f, -0.051023f, -0.130724f, -0.335518f, -0.220558f, -0.555334f, -0.579255f, -0.341254f, -0.191186f, -0.346066f, -0.081832f, 0.169842f, -0.189294f, -0.230619f, -0.212996f, -0.214393f, -0.368307f, -0.525234f, -0.144308f, -0.115397f, 0.212778f, -0.273905f, -0.241709f, 0.166976f, 0.266259f, 0.033759f, -0.021664f, -0.208658f, -0.171273f, -0.260037f, -0.630456f, -0.607401f, -0.559386f, -0.998811f, -0.993276f, -0.447508f, -0.42516f, -0.289781f, 0.115296f, 0.007828f, -0.092489f, -0.201484f, 0.080858f, -0.06493f, -0.6884f, -1.0f, -1.0f, -0.810713f, -0.342095f, -0.475731f, -0.560984f, -0.000263f, 0.001583f, 0.201792f, 0.261588f, -0.109548f, -0.315077f, -0.429791f, -0.939681f, -0.445164f, -0.489268f, -0.539864f, -0.439058f, -0.408647f, -0.513352f, -0.18174f, 0.058857f, 0.263947f, 0.161973f, -0.047481f, -0.063387f, -0.094252f, -0.364135f, -1.0f, -1.0f, -0.810575f, 0.012689f, -0.425515f, -0.410065f, -0.081611f, -0.01135f, 0.02667f, 0.258185f, -0.039963f, -0.44484f, -0.616353f, -0.629061f, -0.474657f, -0.043215f, 0.309791f, 0.580439f, -0.119032f, -0.531517f, 0.024812f, 0.726399f, 0.675239f, 0.387954f, -0.076886f, -0.260392f, 0.015386f, -0.176273f, -0.944073f, -0.701404f, -0.189048f, 0.107403f, -0.448977f, -0.177f, 0.089153f, 0.003211f, 0.04793f, 0.089428f, 0.050388f, 0.002171f, 0.023169f, 0.0781f, 0.27828f, 0.675978f, 0.985883f, 1.0f, -0.052566f, -0.040298f, 0.825541f, 1.0f, 0.986855f, 0.652021f, 0.113054f, -0.092862f, 0.039503f, -0.268298f, -0.091374f, -0.110547f, 0.09202f, -0.265361f, -0.046004f, -0.291923f, -0.152463f, 0.076391f, 0.381079f, 0.436485f, 0.288112f, 0.500119f, 0.830667f, 0.340463f, 0.30217f, 0.627497f, 0.712404f, 0.077831f, -0.521959f, -0.063001f, 0.692211f, 0.686879f, 0.973976f, 0.734001f, 0.375983f, 0.194968f, -0.409698f, -0.729018f, 0.029433f, -0.416598f, -0.569587f, -0.236104f, -0.021118f, -0.111539f, -0.098774f, 0.134286f, 0.470247f, 0.933963f, 0.39913f, 0.327855f, 0.601779f, 0.127766f, 0.067864f, 0.202372f, 0.286751f, -0.331165f, -0.728739f, -0.291821f, -0.003886f, 0.063637f, 0.321449f, 0.474182f, 0.385691f, 0.187033f, -0.364033f, -0.593871f, 0.291711f, -0.291053f, -0.236939f, -0.107725f, 0.076907f, 0.102549f, -0.051221f, 0.175856f, 0.330135f, 0.765788f, 0.582081f, 0.338199f, 0.078101f, -0.052863f, -0.221457f, -0.037144f, -0.391507f, -0.839691f, -0.8724f, -0.432895f, -0.109893f, -0.185558f, -0.158844f, 0.475362f, 0.255478f, 0.355473f, 0.00101f, -0.102377f, 0.421747f, -0.159042f, -0.124124f, -0.006448f, 0.104296f, -0.150808f, -0.600537f, -0.012219f, 0.434944f, 0.595156f, 0.649f, -0.008598f, -0.281644f, -0.299136f, -0.533707f, -0.260813f, -0.97898f, -0.982064f, -0.950384f, -0.199972f, 0.35571f, 0.028943f, -0.100085f, 0.185213f, 0.348074f, 0.173309f, 0.376858f, 0.231659f, 0.190097f, -0.341531f, -0.362392f, -0.300941f, 0.168488f, 0.083721f, -0.279115f, 0.207158f, 0.500242f, 0.465931f, 0.442438f, 0.133252f, -0.276194f, -0.644076f, -0.53852f, -0.547399f, -0.969502f, -0.973962f, -0.956644f, -0.277043f, 0.12373f, 0.191387f, 0.328653f, 0.31317f, 0.358121f, 0.040466f, 0.206764f, 0.153922f, 0.122413f, -0.903958f, -0.572666f, -0.309061f, 0.021252f, -0.14436f, -0.036424f, 0.527603f, 0.705799f, 0.319787f, 0.341888f, 0.344016f, -0.100403f, -0.775156f, -0.710956f, -0.633576f, -0.752636f, -0.868566f, -0.643867f, -0.171807f, 0.067706f, 0.316889f, 0.151083f, -0.219342f, 0.024512f, 0.036401f, 0.39388f, 0.345989f, 0.252794f, -0.62966f, -0.791536f, -0.3703f, 0.104704f, -0.019448f, -0.458294f, 0.650353f, 0.635642f, -0.01074f, -0.078528f, 0.044138f, -0.391697f, -0.706302f, -0.546411f, -0.417992f, -0.105689f, -0.002105f, 0.341747f, 0.420308f, 0.501591f, 0.215666f, -0.240519f, -0.56629f, -0.272111f, 0.220971f, 0.448412f, 0.196793f, -0.291969f, -0.493848f, -0.580849f, -0.288967f, -0.0738f, -0.119897f, -0.434761f, 0.764588f, 0.534559f, 0.115899f, -0.217689f, -0.368153f, -0.418675f, -0.378422f, 0.046139f, 0.433155f, 0.747763f, 0.570722f, 0.907776f, 0.601616f, 0.218465f, -0.24709f, -0.467759f, -0.412712f, -0.101802f, 0.124861f, 0.22988f, -0.118298f, -0.919794f, -0.946663f, -0.861354f, -0.231368f, 0.030975f, -0.079186f, -0.427365f, 0.209318f, 0.313381f, -0.019488f, -0.068394f, -0.198492f, -0.138139f, -0.123054f, 0.389315f, 0.567025f, 0.935376f, 0.960427f, 0.921875f, 0.639904f, 0.128202f, -0.222321f, -0.099914f, 0.113113f, -0.094211f, -0.029004f, 0.162144f, 0.070759f, -0.950812f, -1.0f, -0.777652f, 0.140724f, -0.065823f, -0.024803f, -0.907171f, -0.414717f, -0.022184f, -0.207551f, -0.155593f, -0.253957f, -0.306279f, -0.095421f, 0.110717f, 0.403729f, 0.838479f, 0.791447f, 0.274083f, 0.172863f, 0.267025f, 0.085911f, -0.22745f, -0.222284f, -0.129362f, 0.261115f, 0.182131f, -0.093632f, -0.976175f, -1.0f, -0.771783f, -0.112699f, -0.009505f, 0.015529f, -1.0f, -0.580238f, -0.106084f, -0.253028f, -0.25233f, -0.306289f, -0.418204f, -0.061037f, -0.106984f, -0.011028f, 0.216622f, 0.002445f, -0.351293f, -0.298641f, -0.030552f, -0.119189f, 0.020188f, 0.142732f, 0.381119f, 0.582342f, 0.446927f, 0.301348f, -0.567191f, -0.526749f, -0.022701f, -0.128037f, -0.0173f, -0.022113f, -0.763686f, -0.007838f, 0.334844f, -0.21904f, -0.071747f, 0.137706f, -0.001471f, -0.111189f, -0.407654f, -0.445128f, -0.645829f, -0.813081f, -0.682139f, -0.421094f, -0.194226f, -0.121028f, 0.392638f, 0.549019f, 0.545231f, 0.688409f, 0.569552f, 0.170162f, 0.116414f, 0.10572f, 0.531603f, -0.008946f, -0.005493f, -0.001695f, -0.240211f, -0.348798f, 0.316766f, 0.477726f, 0.511288f, 0.045137f, -0.104112f, 0.040327f, -0.311758f, -0.640545f, -0.214522f, 0.053296f, -0.000551f, 0.038219f, 0.143879f, 0.242026f, 0.13685f, 0.080944f, 0.046777f, 0.237628f, 0.072149f, 0.136705f, 0.285655f, 0.150432f, -0.046691f, -0.006085f, -0.001667f, 0.010179f, -0.102766f, -0.381854f, -0.292214f, 0.603688f, 0.450715f, 0.471843f, 0.387198f, 0.092223f, -0.293365f, -0.693368f, -0.333496f, -0.028125f, 0.078442f, 0.14029f, 0.264502f, -0.012199f, 0.058324f, -0.131138f, -0.290556f, -0.136455f, -0.854311f, -0.536184f, -0.1032f, 0.189253f, 0.104736f, -0.004009f, -0.0184f, 0.004262f, -0.017167f, 0.158052f, 0.197997f, 0.52882f, 0.128561f, 0.080726f, 0.217915f, 0.494095f, -0.029807f, -0.900893f, -0.386104f, -0.045331f, 0.067902f, -0.443749f, -0.160972f, -0.484058f, -0.242215f, -0.31766f, -0.462463f, 0.069211f, -0.06632f, -0.372985f, -0.154345f, -0.09937f, 0.003156f, 0.026418f, 0.033762f, 0.030625f, 0.035469f, -0.026327f, -0.269974f, -0.625715f, -0.554309f, -0.134801f, 0.007816f, -0.119722f, -0.858441f, -0.991222f, -0.404498f, 0.208317f, 0.097382f, -0.4957f, -0.395478f, -0.612249f, -0.388752f, -0.296227f, -0.744032f, -0.004939f, 0.113801f, -0.111782f, -0.024422f, 0.025433f, -0.003999f, 0.025364f},
{0.030168f, -0.00125f, -0.01848f, -0.006264f, 0.016401f, 0.023046f, -0.023259f, -0.031148f, -0.029786f, 0.013711f, 0.021434f, 0.030279f, 0.055508f, -0.053198f, -0.195926f, -0.16982f, -0.027467f, 0.003817f, -0.013279f, 0.028703f, 0.026991f, 0.024743f, 0.026206f, -0.003189f, -0.001973f, 0.022688f, -0.030261f, 0.017101f, 0.023638f, -0.002235f, 0.008615f, -0.028052f, -0.12398f, -0.180481f, -0.500757f, -0.512206f, -0.044727f, -0.389629f, -0.891775f, -0.960238f, -0.752165f, -1.0f, -0.948803f, -0.388726f, -0.118634f, -0.252485f, -0.925421f, -0.680004f, -0.332234f, -0.310967f, -0.173983f, 0.015902f, 0.004307f, 0.008467f, 0.002748f, 0.010269f, -0.035052f, -0.004444f, -0.191167f, 0.172397f, -0.143876f, -0.217034f, -0.328632f, -0.834068f, -0.789379f, -0.803306f, -0.822344f, -1.0f, -1.0f, -1.0f, -0.996641f, -0.979609f, -0.985699f, -1.0f, -1.0f, -1.0f, -1.0f, -1.0f, -0.89803f, -0.221032f, -0.279955f, -0.319627f, 0.01954f, 0.009335f, -0.035625f, -0.025583f, -0.172978f, 0.015171f, -0.217642f, -0.344428f, -0.29939f, -0.591293f, -0.446785f, -0.253743f, -0.62202f, -1.0f, -1.0f, -1.0f, -1.0f, -1.0f, -0.994178f, -0.99968f, -0.876872f, -0.854971f, -0.896201f, -0.961919f, -0.737602f, -0.390563f, -0.393758f, -0.392494f, -0.068817f, 0.001965f, 0.000513f, 0.074081f, 0.517838f, -0.145297f, -0.253131f, -0.06509f, 0.437553f, 0.307573f, 0.010877f, 0.108235f, -0.277551f, -0.670365f, -0.487963f, -0.467256f, -0.674403f, -0.896823f, -0.94479f, -0.61088f, -0.686869f, -0.455308f, -0.364692f, -0.466729f, -0.308887f, -0.194011f, -0.296077f, -0.280526f, -0.268837f, -0.152053f, 0.017792f, 0.009658f, 0.285246f, -0.07047f, 0.158987f, 0.052127f, -0.174954f, -0.170669f, -0.306982f, -0.264961f, -0.633028f, -0.17565f, -0.058508f, 0.012369f, 0.215185f, -0.029518f, -0.365357f, -0.103001f, 0.323613f, 0.24523f, -0.042903f, -0.418511f, -0.554575f, -0.346565f, -0.268986f, -0.133314f, -0.008201f, -0.074846f, 0.007275f, -0.038714f, -0.203371f, -0.150247f, 0.017066f, -0.30603f, -0.244238f, -0.254461f, -0.291049f, -0.07084f, -0.42341f, -0.108533f, -0.350068f, -0.092568f, 0.1665f, 0.036286f, 0.075451f, -0.079489f, 0.105501f, 0.209844f, -0.019129f, -0.201832f, -0.334121f, -0.198329f, -0.540083f, 0.23779f, 0.261281f, -0.586245f, -0.035377f, 0.187641f, -0.11016f, -0.11554f, -0.335391f, -0.678258f, -0.602076f, -0.299214f, 0.12588f, -0.062584f, -0.223951f, -0.150414f, -0.246506f, -0.091216f, 0.061991f, 0.096686f, 0.174451f, -0.247451f, -0.107825f, -0.137351f, -0.256032f, -0.167342f, -0.172385f, -0.031089f, -0.257977f, 0.247317f, -0.26555f, -0.576503f, -0.054701f, -0.061391f, -0.512961f, -0.732987f, -1.0f, -0.898823f, -0.516956f, -0.134021f, 0.231959f, 0.425842f, 0.065254f, -0.10442f, -0.011095f, 0.172962f, -0.09013f, -0.18681f, -0.017779f, -0.145861f, -0.058516f, -0.015351f, -0.078293f, -0.285397f, -0.417228f, 0.087318f, 0.055588f, -0.468844f, -0.225106f, -0.674873f, -0.134297f, -0.37924f, -0.588974f, -0.588226f, -1.0f, -0.769752f, 0.087378f, 0.403185f, 0.57901f, 0.077053f, -0.071362f, 0.155292f, 0.094455f, 0.034671f, -0.327297f, -0.474826f, -0.39137f, -0.624534f, 0.065316f, 0.502666f, -0.003792f, -0.336262f, -0.183757f, 0.292237f, -0.028429f, -0.556483f, -0.068524f, -0.066872f, -0.02801f, -0.63651f, -0.54783f, -0.328246f, -0.431603f, -0.404146f, 0.366435f, 0.596409f, 0.598843f, 0.259731f, 0.322904f, 0.198759f, -0.003738f, -0.431833f, -0.500165f, -0.267305f, -0.276177f, -0.374537f, 0.157344f, 0.661298f, 0.033818f, -0.071122f, 0.352491f, 0.35717f, 0.438036f, -0.152155f, -0.381042f, -0.438135f, 0.102629f, 0.306323f, -0.162981f, -0.473044f, -0.441023f, 0.085006f, 0.589195f, 0.554175f, 0.785046f, 0.807379f, 0.679053f, 0.282525f, -0.150166f, -0.187852f, -0.259466f, -0.11763f, 0.135527f, 0.06969f, 0.106154f, 0.431189f, 0.089825f, 0.261896f, 0.794042f, 0.439819f, 0.583113f, 0.133746f, -0.098107f, -0.318998f, 0.327464f, 0.298355f, -0.368666f, -0.453481f, -0.357109f, 0.15084f, 0.497679f, 0.276375f, 0.475413f, 0.820323f, 0.639274f, 0.721406f, 0.697626f, 0.256902f, -0.40915f, -0.139222f, 0.166368f, -0.209245f, -0.048873f, 0.210477f, 0.12656f, 0.220873f, 0.452078f, -0.199096f, -0.12252f, 0.065411f, 0.470136f, 0.304079f, -0.113272f, 0.117191f, -0.615675f, -0.425062f, -0.33426f, 0.220212f, 0.008154f, 0.130718f, 0.513742f, 0.493126f, 0.895315f, 0.966296f, 1.0f, 0.152622f, -0.627582f, 0.053823f, 0.190898f, -0.136874f, -0.02519f, 0.057745f, 0.099123f, 0.011615f, -0.188378f, -0.318778f, -0.273297f, 0.285666f, 0.817759f, 0.095827f, 0.101886f, -0.160023f, -0.749639f, -0.494028f, -0.318324f, 0.006277f, -0.198288f, 0.056531f, 0.633432f, 0.320434f, 0.872042f, 0.985088f, 0.489784f, -0.111145f, -0.336516f, 0.01638f, 0.222752f, 0.177419f, -0.026361f, -0.175892f, -0.192479f, -0.188102f, -0.380489f, -0.101916f, 0.17015f, 0.442604f, 0.789414f, 0.187522f, 0.011768f, -0.144466f, -0.547643f, -0.292282f, -0.24646f, -0.122868f, -0.120041f, 0.117247f, 0.474163f, 0.341899f, 0.620911f, 0.596597f, 0.159663f, -0.358332f, -0.376714f, 0.387071f, 0.778925f, 0.431428f, 0.119277f, -0.054706f, -0.064589f, -0.14555f, -0.101994f, -0.092382f, 0.467825f, 0.655084f, 0.67149f, 0.148469f, -0.123204f, -0.001612f, -0.274046f, -0.556238f, -0.255505f, -0.008f, 0.49033f, 0.433387f, 0.250986f, -0.095319f, -0.04884f, -0.169233f, -0.162847f, -0.08491f, 0.526915f, 0.980883f, 1.0f, 0.929103f, 0.258528f, 0.201166f, 0.436542f, -0.022535f, -0.136233f, -0.210503f, 0.221202f, 0.697196f, 0.732735f, 0.052434f, 0.020753f, -0.030784f, -0.348751f, -0.721923f, -0.423991f, 0.256583f, 0.957589f, 1.0f, 0.561217f, 0.196342f, -0.115151f, 0.042144f, 0.135742f, 0.643831f, 0.887852f, 1.0f, 1.0f, 0.811151f, -0.020527f, 0.154382f, 0.480995f, 0.018661f, -0.016461f, 0.005443f, 0.462506f, 0.596404f, 0.549999f, -0.173422f, 0.11083f, -0.084737f, -0.007849f, -0.416907f, -0.595526f, 0.347399f, 0.926135f, 1.0f, 0.741287f, 0.389783f, 0.227878f, 0.431028f, 0.933704f, 0.978328f, 0.905614f, 0.608655f, 0.817656f, 0.145662f, -0.167526f, -0.160117f, -0.162567f, 0.176238f, -0.022772f, 0.025517f, 0.433975f, 0.107125f, 0.041219f, -0.511832f, -0.060238f, -0.131746f, 0.245045f, -0.141048f, -0.695719f, 0.333618f, 0.080779f, 0.251502f, 0.120557f, -0.399149f, -0.444777f, -0.161204f, 0.202095f, 0.640169f, 0.159706f, -0.102067f, 0.326468f, -0.102907f, -0.200619f, -0.41786f, -0.515073f, -0.439161f, -0.485506f, 0.141397f, 0.463066f, -0.126133f, 0.007046f, -0.24874f, 0.023634f, 0.002592f, 0.213331f, -0.389951f, -0.400991f, -0.036799f, -0.278939f, -0.721466f, -0.953172f, -0.924247f, -0.926005f, -0.995247f, -0.924674f, -0.526617f, -0.702792f, -0.522971f, 0.030233f, -0.063581f, -0.110695f, -0.198067f, -0.690568f, -0.631147f, -0.153557f, -0.075671f, 0.293332f, -0.141644f, -0.008806f, -0.246762f, -0.144587f, 0.690817f, 0.273829f, -0.115864f, 0.136695f, -0.025966f, -0.480735f, -1.0f, -0.859426f, -0.665535f, -0.954768f, -1.0f, -0.89429f, -0.597617f, -0.476138f, -0.3456f, 0.001773f, 0.019177f, -0.278125f, -0.3319f, -0.353347f, 0.26304f, 0.509924f, 0.087783f, -0.244895f, -0.580958f, -0.267795f, -0.207217f, -0.138963f, 0.071384f, 0.153878f, -0.188511f, 0.279163f, -0.206336f, -0.375821f, -0.783517f, -0.705495f, -0.361123f, -0.513253f, -0.606772f, -0.268611f, -0.197964f, -0.263065f, -0.227582f, 0.059005f, -0.085967f, -0.140817f, -0.009672f, -0.095691f, 0.466756f, 0.70503f, 0.33278f, -0.348456f, -0.438463f, 0.110441f, -0.223599f, -0.011845f, -0.018826f, 0.284287f, -0.136024f, -0.152894f, -0.190053f, -0.279696f, -0.597521f, -0.453347f, -0.172607f, -0.151844f, -0.244695f, -0.300871f, -0.333053f, -0.312698f, 0.009468f, 0.155809f, 0.035296f, -0.056989f, 0.027278f, 0.337913f, 0.516006f, 0.325988f, 0.206439f, -0.225694f, -0.161612f, 0.222463f, -0.008928f, 0.027081f, -0.026175f, 0.409328f, -0.205949f, -0.670923f, -0.529755f, -0.363057f, -0.142683f, 0.043934f, 0.207709f, 0.082379f, 0.126528f, 0.053568f, -0.534209f, -0.380194f, -0.172848f, -0.125876f, 0.020924f, 0.177936f, 0.168838f, -0.024377f, 0.14294f, 0.191893f, 0.352778f, -0.237368f, -0.628918f, -0.320315f, 0.023299f, -0.011003f, 0.029265f, -0.134402f, -0.176943f, 0.200109f, -0.117379f, -0.268882f, -0.285688f, -0.204477f, 0.056717f, -0.15736f, -0.522152f, -0.484989f, -0.665242f, -0.6202f, -0.260664f, -0.249525f, -0.297761f, -0.361773f, -0.761726f, -0.900735f, -0.815176f, -0.672051f, -0.55048f, -0.312896f, -0.118641f, -0.154135f, 0.002667f, -0.032974f, 0.019193f, 0.019377f, 0.153352f, -0.017663f, -0.429732f, -0.703931f, -0.980684f, -0.179879f, -0.168329f, -0.813131f, -1.0f, -0.72782f, -0.893218f, -0.869663f, -0.838065f, -0.934442f, -1.0f, -0.844209f, -0.710299f, -0.896209f, -0.745152f, -0.451896f, -0.661066f, -0.187433f, -0.110998f, -0.021715f, 0.007818f, -0.024783f, 0.008237f, -0.003233f, -0.004133f, -0.364155f, -0.646285f, -0.900799f, -0.978602f, -0.880707f, -0.916423f, -0.997774f, -0.981497f, -0.791815f, -1.0f, -0.729585f, -0.813464f, -0.841545f, -0.963906f, -1.0f, -1.0f, -1.0f, -0.829782f, -0.133171f, -0.209498f, 0.033472f, 0.006868f, 0.003747f, -0.024912f},
{0.030485f, 0.001309f, 0.027523f, 0.017655f, -0.031413f, 0.031634f, 0.000413f, 0.008353f, -0.024758f, 0.013711f, -0.010465f, -0.010786f, -0.192631f, -0.05276f, 0.171784f, 0.030353f, 0.020828f, 0.034041f, -0.005639f, 0.019608f, 0.015863f, -0.014963f, -0.030746f, 0.001122f, -0.018038f, -0.022319f, -0.024401f, -0.03421f, -0.02325f, -0.012436f, -0.002876f, 0.020835f, 0.049643f, 0.12067f, -0.240407f, -0.233317f, -0.187448f, 0.24436f, 0.258951f, -0.040361f, 0.041071f, -0.006153f, 0.109984f, 0.41029f, 0.135201f, 0.373774f, 0.483635f, -0.046259f, -0.522757f, -0.283377f, -0.320887f, 0.054079f, 0.018949f, -0.008029f, -0.026543f, 0.002829f, 0.017633f, -0.009469f, -0.159439f, -0.153473f, 0.175247f, -0.043799f, -0.347115f, -0.432356f, -0.417987f, -0.282584f, -0.56596f, -0.202109f, 0.056303f, -0.275422f, -0.419169f, -0.232475f, 0.125172f, 0.278799f, 0.187152f, -0.528035f, -0.698229f, -0.33356f, -0.340828f, -0.320035f, -0.066902f, 0.037521f, 0.000721f, -0.001725f, -0.022325f, -0.001736f, -0.07822f, 0.095211f, 0.233722f, 0.247671f, -0.265258f, -0.052647f, -0.402293f, -0.512307f, -0.770945f, -0.837332f, -0.641633f, -0.716424f, -0.305096f, 0.017711f, 0.368283f, 0.131814f, 0.129962f, 0.074468f, 0.280217f, 0.3326f, -0.020562f, -0.382316f, -0.625323f, -0.430512f, -0.103364f, -0.017074f, -0.007716f, -0.09633f, 0.180479f, 0.338611f, 0.147071f, 0.100745f, -0.010504f, 0.01221f, -0.168877f, -0.270432f, -0.229455f, -0.34275f, -0.445642f, -0.715174f, -0.594812f, -0.143195f, -0.011247f, -0.106965f, -0.030952f, 0.335125f, 0.324868f, 0.185698f, -0.134669f, -0.160935f, 0.018246f, -0.454069f, -0.338266f, -0.216613f, -0.02449f, 0.023004f, 0.383805f, 0.070242f, -0.466154f, -0.347111f, -0.21962f, 0.051787f, 0.04697f, 0.26041f, 0.122177f, -0.2823f, -0.609374f, -0.468995f, -0.375449f, -0.292822f, -0.335726f, -0.023698f, -0.028142f, 0.316764f, 0.276996f, 0.073492f, -0.215187f, 0.033181f, 0.259217f, -0.014082f, -0.131951f, -0.427327f, 0.013968f, 0.078284f, -0.162666f, -0.119587f, -0.254787f, -0.487882f, -0.209733f, -0.028249f, -0.220592f, -0.24402f, -0.307589f, -0.331055f, -0.240847f, -0.180023f, -0.177251f, -0.36271f, -0.311577f, 0.041913f, 0.179937f, -0.14446f, -0.031332f, -0.182414f, -0.110597f, -0.080154f, 0.080577f, 0.001932f, -0.256624f, -0.397204f, -0.08333f, -0.111787f, -0.271193f, -0.166499f, -0.231049f, -0.118853f, 0.122124f, -0.004566f, -0.244458f, -0.381457f, -0.228627f, -0.313819f, -0.201782f, -0.132896f, -0.136432f, -0.195192f, -0.451907f, -0.153799f, -0.133772f, 0.068451f, -0.049464f, -0.00218f, 0.38635f, 0.58503f, 0.281249f, -0.08208f, -0.368779f, -0.315845f, -0.212313f, -0.393334f, -0.100805f, -0.18493f, -0.062956f, 0.141682f, 0.27068f, 0.15807f, 0.034361f, -0.184971f, -0.056927f, -0.09244f, -0.103856f, -0.119659f, -0.149389f, -0.177546f, -0.226468f, -0.134715f, -0.268554f, -0.007633f, 0.235547f, 0.14734f, 0.454109f, 0.698957f, 0.810434f, 0.398555f, 0.013698f, -0.043552f, -0.042389f, -0.813828f, -0.035233f, 0.282793f, -0.055059f, 0.01429f, -0.137147f, -0.070292f, -0.037983f, -0.139585f, -0.137606f, -0.066983f, -0.078034f, -0.04312f, 0.145694f, 0.283955f, 0.071545f, -0.339502f, -0.069162f, -0.091105f, 0.216817f, 0.142609f, 0.530648f, 0.981585f, 1.0f, 1.0f, 0.294477f, -0.114891f, 0.009857f, -0.733613f, -0.088988f, -0.12294f, -0.241794f, 0.059499f, -0.56097f, -0.378821f, -0.263183f, -0.413056f, -0.219406f, 0.167534f, 0.436077f, 0.835033f, 0.963138f, 0.982061f, 0.766662f, 0.356066f, 0.036897f, -0.101745f, -0.019302f, 0.064849f, 0.42843f, 0.937216f, 1.0f, 1.0f, 0.36896f, 0.137392f, 0.01235f, -0.148858f, 0.139888f, -0.03067f, -0.199464f, 0.15988f, -0.106451f, -0.246624f, -0.202826f, -0.201796f, 0.258599f, 0.957161f, 0.998079f, 1.0f, 0.992895f, 0.972187f, 0.945471f, 0.444252f, 0.198869f, -0.211531f, -0.216962f, -0.274529f, -0.155384f, 0.215931f, 0.747954f, 0.763555f, 0.414711f, 0.248226f, -0.338108f, -0.099655f, -0.073627f, 0.072441f, 0.087255f, 0.328705f, 0.273751f, 0.212875f, 0.077434f, 0.106491f, 0.308828f, 0.737746f, 0.824408f, 0.99421f, 0.99229f, 0.995039f, 0.968687f, 0.330731f, -0.106751f, -0.117466f, -0.049848f, -0.431385f, -0.33042f, -0.137971f, 0.007506f, 0.114173f, -0.116249f, 0.171337f, 0.186741f, -0.191975f, -0.148502f, 0.300109f, 0.198095f, 0.660419f, 0.447567f, 0.24785f, 0.111847f, 0.03943f, 0.318916f, 0.56212f, 0.50065f, 0.375725f, 0.19758f, 0.179684f, 0.205649f, -0.146767f, -0.035002f, 0.175253f, 0.348485f, -0.005258f, 0.189945f, 0.218294f, -0.129687f, -0.200928f, -0.107349f, -0.20591f, 0.077148f, -0.033f, -0.475192f, 0.308439f, 0.503756f, 0.61098f, 0.350093f, 0.043315f, -0.532152f, -0.261326f, -0.247758f, -0.374975f, -0.308263f, -0.442601f, -0.611221f, -0.46686f, -0.64518f, -0.607535f, 0.024854f, 0.411331f, 0.323402f, 0.329548f, 0.426304f, 0.209013f, -0.391054f, -0.514175f, -0.315993f, -0.241303f, 0.043228f, -0.096636f, -0.660793f, 0.015311f, 0.400024f, -0.096713f, 0.135623f, -0.208224f, -0.514659f, -0.727184f, -0.885783f, -0.94236f, -0.917074f, -0.949166f, -0.829202f, -0.606819f, -1.0f, -0.590545f, -0.257638f, 0.196134f, 0.402663f, 0.426423f, 0.759651f, 0.403902f, -0.521136f, -0.996732f, -0.72446f, -0.468906f, -0.182293f, 0.064104f, -0.326606f, -0.295851f, 0.052564f, 0.014108f, 0.100116f, -0.157922f, -0.425257f, -0.781891f, -0.845061f, -0.939457f, -1.0f, -0.763885f, -0.305367f, -0.641997f, -0.979258f, -0.900173f, -0.538711f, -0.269519f, 0.270224f, 0.269319f, 0.597222f, 0.637351f, -0.338084f, -0.999494f, -1.0f, -0.044889f, 0.031761f, 0.118297f, -0.081058f, -0.028613f, -0.122853f, 0.093511f, 0.406855f, 0.121267f, -0.212536f, -0.691033f, -0.778367f, -0.937214f, -1.0f, -0.319645f, -0.194102f, -0.644229f, -0.770948f, -0.632411f, -0.254036f, -0.044049f, -0.004652f, 0.225229f, 0.523473f, 0.351235f, -0.550939f, -1.0f, -0.65902f, 0.157248f, 0.20008f, 0.017575f, -0.176458f, -0.074779f, -0.110514f, 0.05308f, 0.545341f, 0.379201f, 0.073316f, -0.619355f, -0.879246f, -0.939388f, -0.460336f, -0.11245f, -0.119811f, -0.331582f, -0.37616f, -0.283994f, -0.059719f, -0.229255f, -0.020251f, 0.207731f, 0.200248f, -0.359336f, -0.903636f, -1.0f, -0.890039f, -0.241088f, 0.096942f, -0.037166f, 0.050167f, 0.109755f, 0.004723f, 0.042627f, 0.528348f, 0.12455f, -0.012341f, -0.132414f, -0.377983f, -0.159539f, 0.502495f, 0.463048f, -0.013008f, -0.108345f, -0.137869f, -0.002127f, -0.201564f, -0.428768f, -0.263045f, 0.099412f, -0.107765f, -0.228899f, -0.810915f, -0.994876f, -0.998907f, -0.28253f, 0.03525f, -0.050991f, 0.00551f, 0.172615f, -0.060355f, 0.137917f, 0.334676f, 0.092574f, 0.082535f, 0.231882f, 0.376191f, 0.695579f, 0.583941f, 0.102316f, -0.067352f, 0.015666f, 0.001746f, -0.085509f, -0.21366f, -0.421326f, -0.17798f, 0.187316f, 0.209191f, 0.047947f, -0.509556f, -0.503165f, -0.422716f, -0.059358f, -0.124045f, -0.1483f, -0.237681f, 0.166926f, -0.063371f, 0.049945f, 0.366904f, 0.218356f, 0.061035f, 0.406694f, 0.720963f, 0.758263f, 0.746083f, 0.293254f, 0.238465f, 0.085499f, -0.223241f, -0.556122f, -0.478454f, -0.360426f, -0.278847f, 0.002477f, -0.251f, -0.374368f, -0.556383f, -0.22948f, -0.235777f, -0.163085f, -0.146777f, -0.115971f, -0.610013f, -0.113591f, 0.000347f, 0.142416f, 0.030014f, 0.046904f, -0.097438f, 0.464811f, 0.382463f, 0.463634f, 0.222991f, 0.138711f, -0.042894f, -0.141653f, -0.216018f, -0.369138f, -0.304324f, -0.002405f, 0.202786f, -0.000413f, -0.672982f, -0.774102f, -0.845574f, -0.283464f, 0.134607f, -0.210586f, 0.02299f, 0.014103f, -0.775596f, -0.098735f, 0.396733f, 0.518182f, 0.201389f, 0.103901f, 0.172539f, 0.298017f, 0.288266f, -0.073126f, -0.038539f, -0.177544f, -0.024752f, 0.137657f, -0.113218f, -0.145481f, 0.045063f, 0.08928f, 0.217f, -0.337464f, -0.784469f, -0.784881f, -0.526336f, -0.181809f, 0.39668f, 0.005316f, 0.034364f, -0.02335f, -0.41371f, -0.16269f, 0.359805f, 0.47171f, 0.203215f, 0.610909f, 0.675665f, 0.44496f, 0.055023f, -0.111409f, -0.103564f, -0.145829f, -0.243674f, 0.242775f, 0.082737f, 0.009102f, 0.067213f, 0.310061f, -0.127694f, -0.41221f, -0.721305f, -0.61936f, -0.57712f, -0.739414f, -0.255654f, -0.014321f, -0.002378f, 0.010428f, -0.321313f, -0.102472f, -0.304661f, 0.265693f, 0.594988f, 0.683014f, 0.60816f, 0.400371f, -0.084226f, -0.115788f, -0.115991f, 0.051935f, 0.16525f, 0.142585f, -0.247754f, -0.249025f, -0.197763f, -0.23566f, -0.269494f, 0.107345f, 0.283836f, 0.114662f, -0.105836f, -0.362225f, -0.156199f, 0.011143f, 0.008178f, 0.001448f, 0.008569f, 0.134744f, 0.257114f, 0.752249f, 0.590463f, 0.369674f, 0.163598f, 0.222271f, -0.012755f, -0.325084f, -0.227111f, 0.074919f, 0.170282f, -0.098303f, -0.544115f, -0.638f, -0.099855f, -0.019412f, -0.012364f, -0.072519f, 0.681205f, 0.348679f, -0.158557f, 0.174771f, -0.002248f, 0.012702f, -0.02338f, 0.031483f, 0.006567f, -0.027874f, 0.282542f, 0.087482f, -0.438661f, -0.512299f, -0.372105f, -0.222576f, -0.189967f, 0.020198f, -0.117011f, -0.303489f, -0.10904f, -0.206374f, -0.692926f, -0.419628f, -0.161145f, -0.287004f, -0.106321f, 0.12809f, 0.246782f, 0.039457f, 0.026046f, 0.001298f, -0.021411f, 0.002134f},
