#include <float.h>
#include <math.h>
#include <stdbool.h>
#include <stdint.h>
#include <string.h>
#include<stdio.h>
#define MAX(X,Y) ( X > Y ? X : Y)
#define MIN(X,Y) ( X < Y ? X : Y)
#define CLIP(X,L) ( MAX(MIN(X,L), -L) )
#define BINARISE(X) ( X>=0? 1:-1)
#define RELU(X) MAX(0,X)
#define HARD_SIGMOID(X) MAX( 0 , MIN( 1 ,((X+1)/2) ) )

#define INPUT_LAYER_SIZE_ROW 200
#define INPUT_LAYER_SIZE_COL 784

#define SECOND_LAYER_SIZE_ROW INPUT_LAYER_SIZE_ROW
#define SECOND_LAYER_SIZE_COL INPUT_LAYER_SIZE_ROW

#define THIRD_LAYER_SIZE_ROW INPUT_LAYER_SIZE_ROW
#define THIRD_LAYER_SIZE_COL INPUT_LAYER_SIZE_ROW


#define IMAGE_SIZE 784

/* layer_1_MatMul*/
static const float tensor_layer_1_MatMul_weights[INPUT_LAYER_SIZE_ROW][784] =
{
    {0.018388f, -0.015777f, -0.006937f, 0.016749f, -0.033637f, 0.021405f, -0.007361f, 0.018156f, 0.004951f, -0.004387f, 0.009892f, 0.001748f, 0.085823f, -0.041846f, -0.182902f, -0.108941f, 0.005163f, -0.000156f, 0.031206f, 0.0111f, -0.013314f, -0.021584f, -0.006f, -0.015419f, -0.011458f, 0.001696f, 0.021276f, 0.019398f, -0.034926f, 0.022126f, 0.009963f, 0.033863f, -0.008902f, -0.081769f, -0.173817f, -0.304836f, -0.31263f, -0.746972f, -0.718538f, -0.568942f, -0.570379f, -0.669984f, -0.830375f, -0.659632f, -0.673756f, -0.658574f, -0.376711f, -0.114074f, -0.476906f, -0.156983f, -0.123715f, -0.21708f, 0.019366f, -0.008695f, 0.035559f, 0.028614f, -0.001686f, -0.023853f, 0.160402f, -0.087264f, -0.076776f, -0.422965f, -0.440463f, -0.599329f, -0.803042f, -0.901066f, -0.946567f, -1.0f, -1.0f, -1.0f, -0.940725f, -0.885627f, -0.893339f, -0.980677f, -0.552669f, -0.844303f, -0.975986f, -0.741179f, -0.468432f, -0.175318f, 0.009689f, -0.188691f, 0.002158f, -0.0061f, 0.020962f, -0.020697f, -0.107087f, -0.057804f, -0.223705f, 0.175157f, -0.142332f, -0.425041f, -0.511599f, -0.539851f, -0.303262f, -0.477857f, -0.780405f, -0.625121f, -0.888058f, -0.878235f, -0.945856f, -0.960301f, -0.969089f, -0.872049f, -0.655698f, -0.368444f, 0.025841f, -0.278702f, 0.024134f, 0.045652f, 0.280892f, 0.026663f, 0.033851f, -0.006614f, 0.008871f, -0.343752f, -0.141173f, 0.075467f, -0.266338f, -0.368381f, -0.529018f, -0.133098f, -0.178491f, -0.403603f, -0.383972f, -0.433213f, -0.612455f, -0.717093f, -0.84918f, -0.673126f, -0.5467f, -0.183817f, -0.085691f, -0.151068f, 0.275466f, 0.130685f, 0.169303f, -0.258529f, 0.051615f, 0.179248f, -0.016379f, -0.004173f, -0.7637f, -0.572481f, -0.227094f, -0.113014f, -0.131174f, -0.026272f, -0.089277f, -0.375221f, 0.120649f, 0.507053f, 0.38502f, 0.403483f, 0.48988f, 0.103892f, -0.299858f, -0.337082f, -0.18558f, -0.147934f, -0.139865f, 0.040504f, -0.011105f, -0.207389f, 0.003669f, 0.045178f, 0.410882f, 0.123331f, -0.028475f, -0.17936f, 0.032011f, -0.111569f, -0.311947f, -0.331777f, -0.294638f, -0.02831f, -0.003421f, -0.154628f, 0.32399f, 0.330626f, 0.399499f, 0.850947f, 0.972967f, 0.808108f, 0.88074f, 0.532321f, 0.122658f, 0.191264f, 0.044119f, 0.055785f, 0.003287f, -0.400481f, -0.237803f, 0.025146f, -0.098109f, -0.24348f, -0.087568f, -0.035376f, 0.212915f, -0.136976f, -0.536517f, -0.75593f, -0.461774f, -0.275311f, -0.076765f, -0.306944f, 0.199519f, 0.288933f, 0.186913f, 0.119287f, 0.190526f, 0.525309f, 0.937724f, 0.303993f, -0.23907f, 0.134678f, -0.027032f, -0.02756f, 0.053979f, -0.047393f, -0.372595f, -0.307979f, -0.237759f, -0.255522f, 0.081898f, -0.411874f, -0.097665f, -0.070658f, -0.090097f, -0.116639f, -0.384369f, -0.34653f, -0.257421f, -0.100313f, 0.095446f, -0.327978f, -0.553973f, -0.137635f, -0.10273f, 0.186415f, 0.288712f, -0.110175f, -0.400585f, -0.131443f, -0.021003f, -0.240373f, -0.034849f, -0.29639f, -0.677842f, -0.774364f, -0.560017f, -0.510879f, -0.291734f, -0.268671f, -0.271343f, -0.231095f, 0.112684f, 0.228884f, -0.438993f, -0.442338f, -0.211829f, -0.11372f, -0.252844f, -0.710394f, -0.410115f, 0.117302f, -0.072842f, 0.375186f, 0.461843f, 0.041384f, -0.063168f, 0.029979f, -0.002933f, -0.386645f, -0.282554f, -0.764624f, -0.907064f, -0.769606f, -0.761856f, -0.209792f, -0.146508f, -0.42197f, -0.133599f, -0.168748f, 0.014086f, 0.364499f, -0.131298f, 0.081931f, -0.118523f, -0.162794f, -0.126232f, -0.258042f, 0.472929f, 0.439328f, 0.257936f, 0.692969f, 0.884153f, 0.672988f, 0.388058f, 0.17971f, -0.031849f, -0.153264f, -0.157732f, -0.710045f, -1.0f, -1.0f, -0.46333f, -0.263446f, -0.120198f, -0.516368f, 0.10452f, -0.313787f, 0.422768f, 0.58583f, 0.094872f, 0.084737f, -0.238319f, -0.082613f, 0.248774f, 0.841212f, 0.921631f, 0.180682f, -0.113747f, 0.627053f, 0.882429f, 0.972646f, 0.518075f, 0.478495f, 0.154449f, 0.245419f, 0.109507f, -0.636117f, -1.0f, -0.990608f, -0.285403f, 0.080262f, -0.302889f, -0.613461f, 0.138292f, 0.374277f, 0.673945f, 0.788089f, 0.14552f, 0.027121f, 0.13879f, 0.007895f, 0.397634f, 1.0f, 0.538557f, -0.616394f, -0.748792f, 0.056843f, 0.585176f, 0.493801f, -0.102524f, 0.13522f, 0.144638f, 0.17368f, 0.008613f, -0.732291f, -0.67714f, -0.685843f, 0.139345f, -0.384384f, -0.06724f, -0.279103f, 0.157457f, 0.717423f, 0.846717f, 0.861517f, 0.443322f, 0.184243f, 0.232082f, 0.03252f, 0.44108f, 0.815123f, 0.027372f, -0.9938f, -1.0f, -0.184028f, 0.19523f, 0.302675f, -0.339736f, 0.250675f, 0.227111f, -0.019916f, -0.49257f, -0.728779f, -0.17644f, -0.252549f, 0.020472f, -0.400138f, -0.046469f, -0.121137f, -0.053168f, 0.247004f, 0.881323f, 0.599138f, 0.372107f, 0.118935f, -0.021492f, -0.36296f, -0.156681f, 0.039451f, -0.282174f, -0.966023f, -1.0f, -0.217983f, 0.533861f, 0.583022f, 0.013829f, 0.124577f, 0.116281f, -0.06021f, -0.594468f, -0.283483f, -0.151237f, -0.055212f, -0.007189f, -0.528798f, -0.201875f, 0.190208f, 0.10064f, 0.495847f, 0.658227f, 0.646853f, 0.285221f, 0.150497f, -0.13346f, -0.33723f, -0.212128f, -0.273602f, -0.461164f, -0.834929f, -0.823567f, -0.239125f, 0.688752f, 0.550747f, -0.037499f, -0.128173f, -0.273891f, -0.491155f, -0.530148f, -0.416236f, -0.363245f, -0.023515f, 0.410621f, -0.078653f, -0.212645f, 0.269196f, 0.088094f, 0.163443f, 0.561608f, 0.678763f, 0.346439f, 0.364521f, -0.269384f, -0.127208f, 0.04467f, -0.288514f, -0.571335f, -0.884626f, -0.262598f, 0.095705f, 0.3261f, 0.221814f, -0.277719f, -0.070823f, -0.355077f, -0.395407f, -0.253724f, -0.525333f, -0.463669f, -0.443963f, 0.12719f, 0.09165f, -0.034218f, 0.159998f, 0.146173f, -0.116339f, 0.467497f, 0.563633f, 0.465196f, 0.278317f, 0.049894f, 0.099607f, 0.088552f, -0.256032f, 0.011806f, 0.14429f, 0.532641f, 0.364365f, 0.032755f, 0.085959f, -0.131556f, -0.106606f, 0.078469f, -0.052996f, -0.058486f, -0.355929f, 0.568895f, -0.353072f, -0.458397f, -0.191565f, 0.115783f, -0.121899f, 0.087574f, 0.096876f, 0.582389f, 0.2101f, 0.112571f, -0.01832f, -0.043806f, 0.003416f, 0.386298f, 0.478972f, 0.99263f, 1.0f, 0.955539f, 0.004048f, -0.278447f, 0.006505f, -0.308416f, 0.204713f, 0.31318f, 0.016655f, 0.247302f, 0.228704f, 0.420037f, -0.369962f, -0.284085f, -0.018434f, -0.025423f, -0.165148f, -0.112887f, 0.414606f, 0.233221f, 0.031067f, -0.357283f, -0.33615f, -0.211437f, -0.035288f, 0.528574f, 0.641928f, 1.0f, 0.928935f, 0.298155f, -0.152862f, -0.16209f, 0.174423f, -0.238759f, -0.172136f, -0.096395f, 0.02135f, 0.35343f, 0.303532f, -0.614103f, -0.578201f, -0.216308f, -0.09556f, -0.015759f, 0.307087f, -0.468913f, 0.134073f, -0.228879f, -0.306756f, -0.683898f, -0.769085f, -0.629681f, 0.101522f, 0.397423f, 0.444183f, 0.236206f, -0.152087f, -0.088746f, -0.059391f, 0.311863f, 0.336536f, -0.135192f, -0.258263f, -0.038074f, -0.064717f, 0.169013f, 0.080446f, -0.040206f, 0.415275f, -0.23362f, 0.318187f, 0.065278f, 0.355231f, -0.620114f, -0.183624f, -0.341104f, -0.4998f, -0.877016f, -0.813236f, -0.062199f, 0.041635f, 0.020773f, 0.064626f, -0.108682f, -0.319253f, 0.042145f, -0.063536f, 0.413583f, 0.385221f, 0.089227f, -0.369535f, -0.0926f, -0.084583f, 0.351896f, 0.16993f, 0.053785f, 0.345779f, -0.190038f, 0.196105f, 0.060823f, -0.116722f, 0.000457f, -0.522894f, -0.408385f, -0.43259f, -0.512693f, -0.178406f, 0.220333f, 0.057025f, -0.073433f, -0.244613f, -0.263324f, -0.019791f, 0.227833f, -0.179273f, 0.495672f, 0.332076f, 0.1957f, -0.033973f, 0.122392f, 0.192978f, 0.392192f, 0.111295f, -0.579538f, -0.309459f, -0.211569f, 0.211188f, 0.022738f, 0.015793f, -0.509569f, -0.698225f, -0.626478f, -0.465246f, 0.233885f, 0.649507f, 0.398955f, -0.059237f, -0.496777f, -0.816472f, -0.529623f, -0.271669f, 0.078657f, 0.102275f, 0.249612f, 0.503839f, 0.592133f, 0.444205f, 0.553782f, 0.631784f, 0.437993f, -0.111537f, -0.334228f, -0.358438f, -0.325004f, -0.004019f, -0.0331f, 0.006608f, -0.311711f, -0.530836f, -0.616686f, 0.256105f, 0.804399f, 0.907119f, 0.672068f, 0.094155f, -0.563201f, -0.848643f, -0.621167f, -0.377862f, 0.007272f, -0.089251f, 0.08853f, 0.501824f, 0.579606f, 0.268526f, 0.34427f, 0.436806f, 0.264915f, -0.279676f, -0.657722f, -0.398804f, 0.187819f, 0.025126f, -0.022791f, -0.020834f, -0.145604f, 0.082306f, -0.322514f, 0.522826f, 0.50505f, 0.330332f, 0.011728f, -0.356774f, -0.522588f, -0.85653f, -0.70988f, -0.53043f, -0.676558f, -0.409429f, -0.495676f, -0.415794f, -0.602228f, -1.0f, -0.746199f, -0.421344f, -0.194768f, -0.253765f, -0.163218f, -0.098346f, 0.132f, -0.013819f, 0.002381f, -0.013734f, 0.03361f, 0.239526f, 0.077004f, 0.079182f, -0.393217f, -0.77121f, -1.0f, -0.964827f, -0.995643f, -0.985925f, -0.876138f, -0.697409f, -0.453285f, -0.472868f, -0.337189f, -0.364293f, -0.531579f, -0.509508f, -0.426844f, -0.003652f, 0.11377f, 0.160922f, 0.16432f, -0.222573f, -0.012478f, 0.02828f, 0.027214f, 0.022775f, -0.014941f, -0.007087f, -0.394918f, 0.064456f, 0.105805f, -0.46166f, -0.608966f, -1.0f, -0.281047f, 0.0548f, -0.568528f, -0.811063f, -0.221236f, -0.650817f, -0.955634f, -1.0f, -0.99918f, -0.99952f, -0.411006f, -0.137998f, -0.119968f, -0.276219f, -0.016879f, 0.006914f, -0.003959f, 0.002639f},
{-0.027295f, -0.022363f, -0.030844f, -0.025595f, 0.029982f, 0.013343f, -0.033986f, -0.005886f, 0.002941f, 0.019154f, 0.033198f, 0.008699f, -0.030626f, -0.133592f, -0.178149f, -0.104846f, 0.008302f, 0.033041f, 0.022502f, 0.035613f, -0.016018f, -0.004394f, 0.007441f, 0.028788f, -0.032756f, -0.017465f, 0.005255f, -0.020569f, 0.013416f, -0.00236f, -0.00918f, 0.019228f, 0.006062f, 0.005406f, 0.041679f, 0.087833f, 0.449459f, 0.591937f, 0.665339f, 0.334885f, 0.422956f, 0.566436f, 0.069948f, -0.51674f, -0.471222f, 0.04431f, 0.377511f, -0.187547f, -0.307581f, 0.05517f, 0.035127f, 0.03314f, 0.031969f, -0.034436f, -0.008281f, 0.027772f, 0.015524f, -0.017744f, 0.202851f, 0.106935f, -0.027982f, 0.100544f, -0.262174f, -0.105485f, 0.007461f, -0.156218f, -0.343531f, -0.005254f, 0.093314f, 0.1017f, 0.170387f, 0.025317f, -0.199854f, -0.282077f, -0.141137f, -0.40623f, -0.44876f, -0.371779f, -0.320905f, -0.001905f, 0.1682f, 0.08159f, -0.010997f, -0.029806f, 0.007918f, 0.022313f, -0.111037f, -0.020368f, -0.216177f, 0.144545f, -0.024262f, 0.000584f, -0.126172f, -0.116104f, 0.064341f, 0.380257f, 0.413029f, 0.594914f, 0.659478f, 0.848808f, 0.521329f, 0.234349f, 0.028987f, 0.047843f, 0.033393f, -0.707038f, -0.993791f, -0.826766f, -0.429383f, 0.3945f, 0.032766f, -0.019838f, -0.016861f, -0.053136f, -0.060435f, -0.422672f, -0.789008f, -0.107754f, -0.630213f, -0.533376f, -0.325841f, 0.019467f, 0.131735f, 0.029019f, 0.081459f, 0.249583f, 0.150102f, 0.347489f, 0.217516f, -0.024715f, 0.077225f, -0.090236f, 0.179593f, -0.451077f, -0.735748f, -0.683004f, -0.609201f, -0.329938f, -0.551513f, -0.188844f, 0.005706f, -0.033195f, -0.398275f, -0.395262f, -0.39551f, -0.178214f, -0.343753f, -0.398278f, -0.274898f, -0.172819f, 0.145686f, 0.138454f, 0.29462f, 0.532402f, 0.511639f, 0.581528f, 0.280005f, 0.057294f, 0.014853f, -0.083693f, 0.129171f, 0.46166f, -0.002382f, -0.251656f, -0.420636f, -0.093652f, 0.118772f, 0.094654f, 0.00157f, -0.066273f, -0.037478f, 0.241515f, -0.123725f, 0.080869f, -0.043426f, -0.005426f, 0.033543f, 0.149574f, 0.214041f, 0.001941f, 0.180932f, 0.488558f, 0.662403f, 0.925044f, 0.713152f, 0.397348f, 0.173495f, -0.110225f, -0.038215f, 0.432829f, 0.104677f, -0.524683f, -0.442962f, -0.633506f, 0.187307f, 0.476942f, -0.043779f, -0.137355f, -0.060028f, -0.07669f, 0.104305f, 0.289409f, -0.111904f, -0.074313f, -0.086093f, -0.090567f, -0.018592f, -0.11748f, -0.104049f, -0.198084f, 0.142655f, 0.665452f, 0.527876f, 0.032589f, 0.012848f, 0.065253f, 0.065495f, 0.229816f, -0.062145f, -0.45634f, -0.594694f, -0.467807f, 1.0f, 0.45268f, -0.170033f, -0.094586f, -0.438933f, 0.029114f, 0.075508f, -0.004207f, -0.315396f, -0.483171f, -0.126718f, -0.079307f, -0.327267f, -0.683476f, -0.862516f, -0.863807f, -0.526217f, 0.117298f, 0.428382f, 0.381434f, 0.213266f, 0.215079f, -0.013659f, 0.177177f, -0.017214f, -0.585847f, -0.89674f, -0.755757f, -0.173103f, 0.563923f, -0.335076f, 0.044797f, -0.256706f, 0.035644f, -0.1569f, -0.071925f, -0.37347f, -0.131738f, -0.082048f, -0.170839f, -0.505875f, -0.822716f, -0.834695f, -0.983735f, -1.0f, -0.484223f, 0.284904f, 0.277847f, 0.175469f, 0.493223f, 0.367092f, 0.232859f, -0.117303f, -0.764314f, -0.999797f, -0.712406f, -0.059252f, -0.2337f, -0.336928f, -0.175976f, 0.295377f, 0.34665f, 0.020863f, 0.074852f, -0.124133f, -0.033929f, -0.143203f, -0.297651f, -0.749908f, -0.758447f, -0.696663f, -0.909163f, -1.0f, -0.591001f, 0.286101f, 0.729806f, 0.860202f, 0.761256f, 0.788599f, 0.316678f, -0.268874f, -0.98013f, -0.982202f, -0.501941f, 0.441248f, -0.11853f, -0.399988f, -0.803993f, 0.259811f, 0.333469f, -0.013518f, 0.155831f, -0.194447f, -0.427494f, -0.506188f, -0.484855f, -0.758096f, -0.697447f, -0.806559f, -1.0f, -0.991617f, -0.114958f, 0.445116f, 0.996519f, 0.95757f, 0.779293f, 0.759603f, 0.207831f, -0.402009f, -0.872675f, -0.274957f, 0.307493f, 0.239612f, 0.369676f, -0.105252f, -0.576623f, -0.188602f, -0.367796f, -0.244442f, -0.250535f, -0.337846f, -0.396742f, -0.393233f, -0.25915f, -0.569575f, -0.813843f, -0.89114f, -0.859054f, -0.472367f, -0.061336f, 0.415283f, 0.995461f, 0.519762f, 0.368798f, 0.539634f, 0.032524f, -0.307004f, -0.796349f, 0.038085f, 0.658709f, 0.181151f, 0.111709f, 0.16874f, -0.369814f, -0.215858f, -0.680246f, -0.226537f, -0.24397f, -0.423019f, -0.445911f, -0.075095f, -0.368681f, -0.581159f, -0.777312f, -0.703255f, -0.656166f, -0.412683f, -0.095305f, 0.399874f, 0.588312f, -0.065671f, 0.013699f, 0.473089f, 0.031621f, -0.194194f, -0.397855f, 0.188221f, 0.184941f, -0.250072f, 0.08648f, -0.127805f, -0.073361f, -0.062411f, -0.186779f, 0.123724f, -0.049839f, -0.172437f, -0.127718f, -0.234891f, -0.433954f, -0.508346f, -0.365485f, -0.245304f, -0.606349f, -0.126533f, 0.093977f, 0.643948f, 0.260348f, -0.424324f, -0.129345f, 0.394366f, 0.099334f, 0.036486f, 0.18208f, 0.142941f, 0.184405f, -0.2272f, -0.12683f, -0.047202f, 0.04082f, 0.090495f, 0.465484f, 0.513688f, -0.084662f, -0.050595f, -0.18309f, -0.231376f, -0.159942f, -0.252091f, -0.128009f, -0.171814f, -0.141488f, -0.16918f, -0.034686f, 0.191589f, -0.123259f, -0.34675f, -0.079981f, -0.09825f, -0.303082f, -0.22373f, 0.207221f, 0.427328f, -0.068422f, -0.00696f, 0.144347f, 0.16437f, 0.270503f, 0.468936f, 0.878576f, 0.509668f, 0.137983f, -0.131077f, -0.264837f, -0.209737f, -0.036103f, -0.317858f, -0.241979f, -0.079959f, 0.179283f, -0.118442f, -0.231138f, -0.561609f, -0.195552f, -0.212587f, -0.070971f, -0.381565f, -0.767259f, -0.425248f, 0.005217f, 0.538548f, -0.280439f, -0.177918f, 0.151617f, 0.010322f, -0.321294f, 0.467902f, 0.932953f, 0.726585f, 0.252095f, -0.058337f, -0.181113f, -0.415629f, -0.380459f, -0.024677f, 0.161273f, 0.014493f, 0.015677f, -0.167289f, -0.230935f, -0.472625f, -0.188275f, -0.163809f, -0.344627f, -0.95875f, -0.956224f, -0.608045f, -0.108614f, 0.432085f, -0.592894f, -0.300218f, -0.006038f, -0.11423f, -0.186258f, 0.22547f, 0.843002f, 0.689822f, 0.412732f, 0.081669f, -0.192793f, -0.408921f, -0.153781f, 0.263424f, 0.061283f, -0.068555f, -0.068492f, 0.196678f, -0.039757f, -0.228155f, -0.363261f, -0.657969f, -0.860065f, -0.975414f, -0.966191f, -0.590717f, -0.211694f, 0.151564f, -0.518612f, -0.40111f, -0.066492f, -0.118371f, -0.126742f, -0.387584f, 0.228023f, 0.330793f, 0.226189f, 0.334183f, -0.065302f, 0.016942f, 0.328341f, 0.220007f, 0.264093f, 0.332743f, 0.433539f, 0.554792f, 0.217413f, 0.009847f, -0.338061f, -0.890861f, -0.914947f, -0.997634f, -0.765464f, -0.745632f, -0.436877f, -0.386025f, -0.566731f, 0.099446f, -0.036784f, -0.019608f, -0.109538f, -0.211533f, 0.381365f, 0.107958f, -0.337127f, -0.00386f, -0.035441f, -0.103451f, 0.160817f, 0.097196f, 0.186963f, 0.734842f, 0.811918f, 0.990878f, 0.746472f, 0.36432f, -0.112142f, -0.487299f, -0.44547f, -0.185576f, -0.10092f, -0.630077f, -0.599989f, -0.640788f, -0.379587f, -0.059819f, -0.13504f, -0.167533f, -0.206724f, 0.053631f, 0.449807f, -0.132115f, -0.384714f, 0.032657f, 0.127608f, 0.082495f, -0.043344f, -0.153554f, 0.388411f, 0.484857f, 0.680949f, 0.535037f, 0.581523f, 0.651431f, 0.267412f, 0.197601f, 0.226628f, 0.220494f, 0.013095f, -0.473284f, -0.719248f, -0.845486f, -0.28538f, -0.0076f, -0.083967f, -0.147269f, -0.227933f, -0.283303f, -0.324363f, -0.153014f, -0.204218f, 0.120873f, 0.050558f, 0.072886f, -0.071913f, -0.1712f, 0.001047f, -0.069395f, 0.12867f, -0.02098f, 0.14761f, 0.362032f, 0.651455f, 0.734637f, 0.393548f, 0.211146f, -0.034055f, -0.11203f, -0.656411f, -0.945988f, -0.019991f, 0.163383f, -0.092616f, 0.007523f, 0.031363f, -1.0f, -0.271668f, -0.139133f, -0.032401f, 0.201229f, 0.228419f, 0.006154f, -0.373613f, -0.520974f, -0.594191f, -0.460538f, -0.350409f, -0.121039f, 0.216654f, 0.741692f, 0.892974f, 0.636624f, 0.801192f, 0.515498f, 0.377735f, 0.39375f, -0.172816f, -0.776356f, -0.54268f, -0.093274f, -0.000545f, 0.018482f, -0.030196f, -0.304098f, 0.154329f, 0.42352f, 0.356376f, 0.293938f, 0.400641f, 0.245447f, 0.050384f, -0.187882f, -0.177815f, 0.011023f, 0.338779f, 0.541832f, 0.372761f, 0.52105f, 0.724804f, 0.718156f, 0.698925f, 0.566186f, -0.07009f, -0.159762f, -0.241508f, -0.185345f, -0.122481f, 0.199219f, -0.035473f, -0.002414f, -0.006027f, -0.179393f, -0.426315f, -0.243456f, -0.191386f, -0.517666f, -0.761118f, -0.618405f, -0.554079f, -0.50941f, -0.430623f, -0.181577f, -0.133724f, -0.359592f, -0.683812f, -0.43218f, 0.048509f, 0.093256f, 0.172683f, 0.117038f, -0.21801f, -0.165088f, -0.012564f, -0.41813f, 0.025628f, 0.16714f, 0.00463f, -0.024499f, 0.02496f, 0.033433f, 0.185099f, 0.400052f, -0.421269f, -1.0f, -1.0f, -1.0f, -0.99259f, -0.782481f, -0.977397f, -1.0f, -1.0f, -0.998337f, -0.701055f, -0.583404f, -0.188252f, 0.056977f, -0.078564f, 0.042943f, 0.05222f, -0.089423f, 0.079954f, 0.003268f, -0.160906f, 0.022393f, 0.014963f, 0.014802f, 0.010111f, -0.02738f, -0.021533f, 0.007106f, 0.00404f, -0.023431f, -0.058326f, -0.025631f, 0.432563f, 0.133087f, -0.111821f, -0.392633f, -0.156653f, 0.073584f, -0.265149f, -0.208891f, -0.237226f, -0.159638f, -0.331145f, -0.04867f, -0.087438f, -0.25921f, -0.113007f, -0.035558f, -0.002887f, 0.001295f, -0.016647f},
{0.028381f, -0.009268f, -0.033838f, -0.021112f, 0.001357f, -0.026366f, 0.008369f, 0.034955f, 0.001674f, -0.008587f, 0.033859f, 0.026577f, -0.133171f, -0.138764f, 0.15923f, 0.007223f, 0.003847f, 0.03495f, 0.0021f, -0.031659f, 0.019814f, 0.032264f, 0.030153f, 0.001896f, 0.006921f, 0.005992f, -0.014426f, -0.004999f, 0.029348f, 0.003856f, 0.033872f, -0.023505f, 0.0166f, 0.206604f, -0.253024f, 0.165841f, 0.437414f, 0.117384f, 0.163458f, -0.108891f, -0.163395f, 0.074406f, 0.45877f, 0.027314f, -0.44881f, -0.106596f, -0.11833f, 0.06229f, -0.209242f, -0.081665f, 0.018106f, 0.144769f, 0.001961f, -0.002552f, 0.013164f, 0.016883f, -0.017548f, -0.013856f, -0.081412f, -0.206769f, -0.332271f, 0.299586f, 0.190294f, 0.376923f, 0.132345f, -0.169199f, 0.040011f, 0.252459f, 0.087582f, 0.156165f, 0.143371f, -0.176112f, -0.400665f, -0.401245f, -0.085867f, -0.258135f, -0.342232f, -0.068523f, -0.199024f, -0.563572f, -0.037868f, -0.128709f, -0.020355f, 0.019726f, 0.032985f, -0.010655f, 0.062274f, -0.026924f, -0.491363f, 0.070807f, 0.140071f, 0.308971f, -0.101837f, -0.487566f, -0.455257f, -0.363393f, -0.187734f, -0.034319f, -0.121232f, -0.589f, -0.507158f, -0.479727f, -0.665475f, -0.826343f, -0.590535f, 0.093231f, 0.365106f, 0.018817f, 0.076848f, -0.351215f, -0.317526f, -0.004767f, -0.010734f, 0.041825f, 0.234504f, -0.116682f, -0.190953f, -0.073766f, -0.183995f, 0.008851f, -0.175541f, -0.439346f, -0.236683f, -0.104866f, -0.284214f, -0.230949f, -0.029152f, -0.177969f, -0.233087f, -0.5941f, -0.690725f, -0.509625f, -0.279943f, 0.146633f, 0.349878f, 0.226735f, 0.2128f, -0.119267f, 0.000438f, -0.034999f, -0.001895f, 0.016899f, 0.111184f, 0.125098f, 0.166724f, 0.107753f, 0.047471f, -0.014697f, -0.079351f, -0.145164f, -0.076946f, -0.064228f, -0.368244f, -0.164545f, -0.211464f, -0.163458f, -0.304025f, -0.527227f, -0.438232f, -0.518513f, -0.208893f, -0.014948f, 0.128502f, -0.080446f, -0.104838f, -0.150079f, 0.345717f, 0.205553f, 0.005457f, -0.107593f, 0.197005f, -0.186418f, 0.051027f, 0.054763f, 0.083663f, 0.063511f, -0.117879f, -0.054376f, -0.025095f, -0.115247f, -0.190207f, 0.110319f, -0.351732f, -0.620479f, -0.744205f, -0.974697f, -0.97678f, -0.729845f, -0.435703f, -0.181111f, 0.077103f, 0.122778f, -0.038485f, 0.162907f, 0.058366f, -0.334274f, -0.067847f, -0.288271f, -0.032751f, -0.131912f, 0.020085f, 0.214511f, 0.145288f, -0.104548f, 0.025798f, 0.033349f, 0.031345f, -0.021495f, -0.097323f, 0.065121f, -0.256548f, -0.749234f, -0.99204f, -0.993583f, -0.760352f, -0.377152f, 0.015994f, 0.01498f, 0.086281f, 0.388782f, 0.56542f, 0.675963f, 0.12565f, 0.125394f, -0.066468f, -0.617764f, -0.287219f, -0.267139f, 0.011146f, 0.380383f, 0.244396f, 0.163683f, 0.410348f, 0.475249f, 0.08499f, 0.036622f, 0.263683f, 0.368137f, 0.041895f, -0.394725f, -0.449329f, -0.285948f, 0.046257f, 0.416353f, 0.381359f, 0.223083f, 0.545948f, 0.987966f, 1.0f, 0.899919f, 0.467086f, 0.067669f, -0.085891f, -0.542572f, -0.02013f, -0.153439f, 0.0195f, 0.533317f, 0.679068f, 0.494847f, 0.423861f, 0.126488f, -0.076234f, 0.018158f, 0.312699f, 0.259449f, 0.422249f, 0.261004f, 0.393903f, 0.56239f, 0.535154f, 0.671898f, 0.339245f, 0.730135f, 0.925083f, 0.969189f, 0.98987f, 0.989023f, 0.934884f, 0.011634f, -0.044361f, -0.250975f, 0.079599f, 0.09029f, -0.08002f, 0.370705f, 0.628765f, 0.560274f, 0.126783f, 0.113825f, -0.076438f, -0.039512f, 0.221496f, 0.738797f, 0.861754f, 0.732102f, 0.90601f, 0.869973f, 0.841031f, 0.726519f, 0.497543f, 0.909068f, 0.963091f, 0.997518f, 1.0f, 1.0f, 0.740631f, -0.003393f, 0.308013f, 0.042194f, 0.141054f, 0.160099f, -0.059244f, 0.03141f, 0.382028f, 0.358337f, 0.032999f, -0.044463f, -0.1843f, -0.169076f, 0.246318f, 0.813558f, 0.924569f, 0.982464f, 0.884755f, 0.412807f, 0.254369f, -0.031281f, -0.092812f, 0.540678f, 1.0f, 1.0f, 1.0f, 0.992122f, 0.391097f, -0.205572f, 0.067974f, 0.020053f, -0.094661f, 0.119719f, -0.121148f, -0.310212f, -0.319434f, -0.010774f, -0.264062f, 0.009248f, 0.088587f, 0.102347f, 0.448288f, 0.434006f, 0.285597f, 0.413934f, 0.093191f, -0.038343f, -0.159901f, -0.430923f, -0.561845f, -0.331135f, 0.129823f, 0.346193f, -0.245593f, 0.204795f, 0.124321f, -0.054229f, -0.081483f, 0.05142f, -0.226305f, -0.191922f, -0.199477f, -0.703947f, -0.708556f, -0.162345f, -0.193168f, -0.224616f, -0.220117f, -0.024231f, 0.098755f, -0.241081f, -0.035286f, -0.372462f, -0.29137f, -0.402425f, -0.059807f, -0.268247f, -0.450992f, -0.490949f, -0.020069f, -0.075493f, -0.726593f, -0.566743f, -0.156418f, 0.160089f, 0.096253f, -0.212158f, 0.126754f, -0.012761f, -0.235619f, -0.584485f, -0.580935f, -0.445693f, -0.403448f, -0.124913f, 0.055915f, 0.346785f, 0.186252f, -0.316381f, -0.25517f, -0.81921f, -0.329606f, -0.063915f, 0.07071f, -0.083294f, -0.109633f, -0.111843f, -0.114204f, -0.454961f, -0.698691f, -0.747523f, -0.569626f, 0.110871f, -0.074064f, 0.170289f, 0.105463f, 0.232467f, 0.194396f, -0.059946f, 0.161766f, -0.347386f, -0.307637f, 0.145943f, 0.38133f, 0.271893f, 0.025477f, -0.182503f, -0.322602f, -0.550501f, -0.004702f, 0.209028f, 0.235913f, 0.010813f, 0.158081f, 0.095284f, -0.381296f, -0.763073f, -0.567364f, -0.959887f, -0.625237f, -0.160622f, -0.195445f, -0.118641f, -0.335835f, -0.196914f, 0.615381f, 0.586872f, 0.446581f, -0.080231f, -0.009816f, -0.076101f, 0.064187f, 0.108024f, -0.342671f, -0.467641f, -0.631433f, 0.003033f, 0.458292f, 0.202434f, 0.250305f, 0.122806f, 0.136983f, 0.147924f, -0.207397f, -0.267317f, -0.276268f, -0.368465f, -0.375406f, -0.1219f, 0.013286f, -0.559073f, -0.506284f, -0.454612f, 0.405309f, 0.964086f, 1.0f, 0.793545f, 0.400662f, 0.088245f, 0.072637f, 0.022704f, -0.199623f, -0.247377f, 0.020106f, 0.287224f, 0.388613f, 0.078598f, 0.009432f, 0.136409f, -0.014809f, 0.052476f, -0.139224f, -0.175671f, -0.150502f, -0.147739f, -0.298826f, -0.004431f, -0.089742f, -0.225172f, -0.475605f, -0.5291f, 0.026022f, 1.0f, 1.0f, 1.0f, 0.913656f, 0.708716f, 0.891024f, 0.8231f, 0.306475f, 0.122692f, 0.144718f, 0.227683f, 0.26645f, 0.041748f, -0.153684f, -0.007277f, -0.034335f, -0.097961f, -0.314897f, -0.13291f, -0.266563f, -0.435458f, -0.165953f, 0.149301f, -0.164605f, -0.324355f, -0.500142f, -0.331678f, -0.241841f, 0.43219f, 0.837665f, 0.970644f, 0.861563f, 1.0f, 1.0f, 0.781219f, 0.212143f, 0.020602f, 0.003912f, -0.048974f, 0.013092f, -0.136612f, -0.348426f, -0.231318f, 0.058713f, -0.409344f, -0.348779f, -0.148887f, -0.392368f, -0.565472f, -0.132497f, 0.131288f, -0.014321f, -0.341258f, -0.352304f, -0.679636f, -0.473972f, -0.073911f, 0.311061f, 0.449319f, 0.574124f, 0.625286f, 0.653061f, 0.050261f, -0.383669f, -0.017469f, 0.00444f, -0.304272f, -0.054107f, -0.097275f, -0.1288f, -0.07531f, -0.255818f, -0.498915f, -0.43777f, -0.189041f, -0.376751f, -0.085081f, -0.169212f, -0.133995f, -0.071208f, -0.24547f, -0.103368f, -0.829637f, -0.757446f, -0.391467f, 0.012908f, 0.138496f, 0.065715f, 0.045709f, -0.069358f, -0.032937f, -0.122676f, -0.156788f, -0.142181f, -0.227265f, -0.166307f, 0.000801f, -0.11373f, -0.212825f, -0.280998f, -0.232312f, -0.138266f, -0.252875f, -0.035514f, 0.007386f, -0.435216f, 0.081413f, -0.102264f, -0.179007f, -0.064255f, -0.664954f, -0.587402f, -0.370301f, -0.094883f, 0.100306f, 0.187105f, 0.001318f, 0.107796f, 0.139574f, 0.090558f, 0.169742f, -0.035093f, -0.27037f, -0.005397f, 0.005988f, -0.016246f, 0.000908f, 0.027338f, 0.031293f, 0.038197f, -0.039975f, 0.051982f, 0.062692f, -0.098674f, 0.088134f, 0.030834f, 0.021764f, -0.330929f, -0.301869f, 0.252749f, -0.026982f, -0.17442f, -0.099994f, -0.157381f, -0.159869f, -0.052795f, 0.087382f, -0.067092f, 0.032146f, -0.261005f, -0.374525f, -0.11457f, 0.064637f, 0.137981f, 0.159624f, -0.01153f, -0.178795f, -0.436877f, 0.08248f, -0.133017f, -0.322995f, -0.288186f, -0.019204f, 0.01139f, 0.033902f, -0.27143f, 0.066905f, 0.288737f, -0.115779f, -0.489761f, -0.453714f, -0.402162f, -0.404987f, -0.210888f, -0.278895f, -0.653054f, -0.436327f, -0.372799f, -0.525494f, -0.006974f, 0.046257f, 0.214107f, 0.290983f, -0.224637f, -0.288296f, -0.538401f, 0.133601f, -0.039832f, 0.284105f, 0.256163f, 3e-06f, -0.025745f, -0.014143f, -0.180351f, 0.125457f, -0.375713f, -0.816431f, -0.882855f, -0.526293f, -0.544664f, -0.138262f, -0.311717f, -0.661669f, -0.794731f, -0.679977f, -0.35373f, -0.336433f, -0.103037f, 0.165855f, -0.079874f, 0.057045f, -0.183561f, -0.142513f, -0.511178f, -0.084536f, 0.055391f, 0.290288f, 0.14507f, 0.005986f, -0.00966f, 0.011991f, 0.011002f, 0.01108f, -0.497184f, -0.784324f, -0.804639f, -0.82461f, -0.592196f, -0.264098f, -0.510099f, -0.914893f, -1.0f, -0.842837f, -0.982785f, -0.905465f, -0.399336f, -0.219514f, -0.214725f, -0.011046f, 0.074349f, -0.039275f, -0.245901f, 0.144344f, -0.086243f, 0.082722f, -0.002875f, 0.03209f, -0.003434f, -0.020775f, 0.006799f, -0.018692f, -0.233822f, 0.027517f, -0.139951f, -0.039844f, 0.003403f, -0.734305f, -0.999148f, -0.96287f, -0.512483f, -0.724014f, -0.806858f, -1.0f, -0.410107f, 0.467032f, 0.214175f, 0.043683f, -0.015575f, -0.148977f, -0.028311f, 0.095883f, 0.016213f, -0.014001f, 0.005704f, -0.03345f},
{0.005432f, 0.030749f, 0.030733f, -0.000873f, 0.012646f, -0.00623f, -0.010327f, 0.000384f, -0.021106f, 0.014077f, 0.017206f, -0.009984f, -0.141035f, -0.258601f, -0.142129f, -0.011006f, 0.033604f, -0.033953f, -0.030413f, 0.000707f, 0.032703f, 0.001996f, 0.009611f, 0.004768f, -0.004574f, 0.025187f, 0.025914f, -0.020893f, -0.021691f, -0.028073f, -0.008988f, -0.001107f, -0.028292f, 0.027967f, 0.484478f, 0.492387f, -0.102719f, -0.20694f, -0.308203f, -0.470205f, -0.071428f, -0.403f, -0.30621f, -0.292434f, -0.301811f, -0.395116f, -0.337087f, -0.111273f, -0.084906f, -0.035635f, -0.096866f, -0.376171f, 0.022068f, -0.027933f, -0.034565f, 0.003688f, 0.010068f, -0.027774f, 0.19643f, 0.237391f, 0.28967f, 0.549536f, 0.62495f, 0.339757f, 0.098102f, 0.109064f, -0.319069f, -0.429989f, -0.578479f, -0.857794f, -0.882417f, -0.705046f, -0.363485f, -0.283138f, -0.111645f, 0.097057f, -0.529017f, -0.623222f, -0.553174f, -0.167595f, 0.560077f, 0.175042f, 0.012155f, -0.012038f, -0.031114f, 0.005288f, -0.057423f, 0.096686f, -0.091185f, 0.56866f, 0.742327f, 1.0f, 0.833131f, 0.170864f, -0.224268f, -0.340877f, -0.691827f, -0.942893f, -0.939812f, -0.906081f, -0.54257f, -0.266765f, -0.225436f, 0.057858f, -0.140401f, -0.554895f, 0.012054f, 0.589205f, 0.393736f, 0.349993f, 0.347158f, 0.008246f, 0.030669f, -0.035083f, 0.26882f, -0.068172f, -0.387189f, -0.540151f, 0.310104f, 0.220069f, -0.068636f, -0.147275f, -0.233704f, -0.433216f, -0.586152f, -0.801922f, -0.903087f, -0.929676f, -1.0f, -0.752807f, -0.77355f, -0.174299f, 0.107507f, -0.166222f, 0.425045f, 0.381542f, 0.512719f, 0.999892f, 0.511495f, 0.057303f, -0.004059f, -0.011595f, 0.318681f, 0.138028f, -0.840746f, -0.996673f, -0.752096f, -0.402003f, -0.304699f, -0.398587f, -0.451131f, 0.169637f, 0.203235f, 0.105018f, -0.014266f, -0.323248f, -0.855998f, -0.864984f, -0.670138f, -0.384903f, -0.422785f, -0.487955f, -0.861772f, -0.870832f, -0.778101f, -0.390528f, -0.199829f, 0.024459f, -0.017637f, 0.044144f, 0.227116f, 0.310946f, -0.344401f, -0.866276f, -0.837998f, -0.655205f, -0.288665f, -0.358942f, -0.169786f, 0.048369f, 0.24554f, 0.564183f, 0.706382f, 0.550038f, 0.230751f, 0.185198f, 0.158199f, 0.245347f, 0.278483f, -0.38754f, -0.826172f, -0.821174f, -0.817216f, -0.801648f, -0.045333f, -0.161165f, -0.086221f, -0.057983f, 0.319228f, -0.047638f, -0.720248f, -1.0f, -0.886938f, -0.422305f, -0.341041f, -0.129498f, 0.052613f, -0.081922f, 0.306592f, 0.49859f, 0.603543f, 0.676124f, 0.8381f, 0.358072f, 0.104884f, 0.291907f, 0.117052f, -0.104822f, -0.322578f, -0.446379f, -0.854317f, -0.769876f, -0.703336f, -0.29287f, -0.005346f, -0.337758f, 0.033208f, -0.173708f, -0.434321f, -0.943529f, -0.37526f, -0.208689f, -0.053476f, -0.162023f, 0.03318f, -0.109479f, -0.01239f, 0.120255f, -0.042674f, 0.008264f, 0.140104f, -0.038463f, -0.126088f, 0.162275f, -0.014465f, -0.198363f, -0.195894f, -0.44802f, -0.901753f, -0.899987f, -0.599846f, -0.347471f, -0.05412f, -0.353168f, -0.488318f, -0.397961f, -0.779338f, -0.392299f, -0.21299f, -0.185427f, 0.051118f, 0.118441f, -0.001946f, -0.061238f, 0.017851f, -0.058358f, -0.19759f, 0.0434f, -0.07715f, -0.222952f, -0.097874f, 0.146164f, 0.088284f, -0.424716f, -0.31154f, -0.845787f, -1.0f, -1.0f, -0.993334f, -0.298939f, -0.003401f, -0.435211f, -0.371625f, -0.487669f, -0.244721f, 0.288265f, 0.034374f, 0.229336f, 0.263422f, 0.136315f, 0.526922f, 0.221276f, 0.694063f, 0.182228f, -0.03955f, 0.214813f, 0.520338f, 0.144185f, -0.051958f, 0.162678f, 0.180262f, 0.039487f, -0.007302f, -0.997388f, -1.0f, -1.0f, -0.926601f, -0.324956f, -0.246585f, -0.498252f, -0.009158f, -0.279644f, 0.45412f, 0.547619f, 0.283305f, 0.607709f, 0.670892f, 0.531697f, 0.987692f, 0.991376f, 0.903292f, 0.190517f, -0.053459f, 0.575184f, 0.92719f, 0.582432f, 0.106461f, 0.433223f, 0.492659f, 0.476577f, 0.203711f, -1.0f, -1.0f, -1.0f, -0.760479f, -0.559797f, -0.23043f, -0.013324f, 0.23955f, 0.503096f, 0.954071f, 0.995374f, 0.770394f, 0.654279f, 0.827607f, 0.507618f, 0.690803f, 1.0f, 0.175531f, -0.473664f, -0.169981f, 0.669127f, 0.959569f, 0.166163f, -0.046544f, 0.463985f, 0.687985f, 0.568569f, 0.215638f, -0.501844f, -0.535815f, -0.878555f, -0.716908f, -0.3479f, -0.224193f, 0.260585f, 0.430387f, 0.639304f, 0.993287f, 1.0f, 0.850524f, 0.553622f, 0.569556f, 0.371571f, 0.358101f, 0.288948f, -0.306518f, -0.688565f, -0.186326f, 0.516882f, 0.545516f, 0.075288f, -0.102379f, 0.718035f, 0.933229f, 0.643618f, 0.002603f, -0.437155f, -0.233662f, -0.552482f, -0.488408f, -0.401072f, -0.177706f, 0.415205f, 0.289958f, -0.050217f, 1.0f, 0.950596f, 0.644091f, 0.239744f, 0.320463f, 0.163556f, -0.02515f, -0.124136f, -0.337695f, -0.452052f, -0.303865f, 0.083033f, 0.262927f, 0.30763f, 0.167643f, 0.655762f, 0.460417f, 0.166018f, -0.302726f, -0.758407f, -0.981022f, -0.698582f, -0.482338f, -0.377948f, -0.25483f, 0.342f, 0.109242f, -0.11842f, 0.476998f, 0.452635f, 0.32036f, 0.177818f, 0.218577f, 0.317753f, 0.131437f, 0.048311f, -0.041384f, -0.279532f, -0.560191f, -0.483279f, -0.043563f, 0.181046f, -0.050167f, 0.034554f, -0.141089f, 0.13165f, -0.023637f, -0.788369f, -1.0f, -0.622759f, -0.383637f, -0.190343f, -0.183488f, 0.253234f, -0.3865f, -0.08446f, 0.066736f, -0.0053f, -0.0959f, 0.119898f, 0.100288f, -0.205133f, 0.027807f, -0.388121f, -0.628278f, -0.798462f, -0.71702f, -0.531337f, -0.076945f, 0.049346f, -0.272302f, -0.123029f, -0.212804f, -0.210602f, -0.044092f, -0.720716f, -0.832245f, -0.639201f, -0.288973f, 0.087826f, 0.002081f, 0.007349f, -0.411695f, -0.489104f, -0.487275f, -0.365f, -0.524317f, -0.333842f, -0.09704f, -0.389815f, -0.301555f, -0.867412f, -0.746854f, -0.46278f, -0.375537f, -0.026497f, -0.0966f, 0.323996f, 0.017271f, -0.111595f, -0.376976f, -0.442061f, -0.38667f, -1.0f, -0.670182f, -0.183849f, 0.039197f, -0.132951f, 0.159099f, -0.029522f, -0.578186f, -0.540433f, -0.683171f, -0.743964f, -0.75137f, -0.536445f, -0.576146f, -0.905668f, -0.608252f, -0.20425f, 0.48965f, 0.478128f, 0.279749f, -0.427986f, -0.310724f, 0.155338f, -0.139994f, -0.076107f, -0.103466f, -0.675063f, -0.501286f, -0.726221f, -0.67626f, -0.594786f, -0.060134f, -0.163991f, 0.173745f, 0.181463f, -0.216658f, -0.327805f, -0.497682f, -0.360573f, -0.809289f, -0.780954f, -0.940516f, -1.0f, -0.813077f, -0.320027f, 0.478714f, 0.374356f, -0.124545f, -0.582441f, -0.204416f, 0.125411f, -0.146972f, -0.021146f, -0.159771f, -0.298909f, -0.128301f, -0.102561f, -0.45264f, -0.628536f, 0.062367f, -0.14665f, 0.004749f, 0.25655f, -0.63649f, -0.485034f, -0.554894f, -0.330342f, -0.51843f, -0.906065f, -0.991925f, -0.846249f, -0.533446f, -0.37033f, -0.068265f, -0.27404f, -0.305548f, -0.140542f, 0.205803f, 0.177187f, 0.025377f, -0.00707f, 0.129574f, -0.135737f, 0.036676f, -0.393666f, -0.459434f, 0.262363f, 0.017619f, -0.31886f, 0.090304f, 0.153142f, -0.508142f, -0.659456f, -0.429698f, -0.293031f, -0.69309f, -0.707906f, -0.547158f, -0.448707f, -0.241144f, -0.281518f, -0.480299f, -0.439431f, -0.183527f, -0.14432f, 0.142947f, -0.004462f, 0.06189f, 0.019966f, 0.228999f, -0.029741f, 0.089323f, -0.229943f, -0.265077f, 0.207275f, -0.09385f, 0.152302f, 0.080126f, 0.002337f, -0.529239f, -0.56518f, -0.390636f, -0.125586f, -0.358313f, 0.08915f, 0.010312f, -0.210998f, -0.172823f, -0.492633f, -0.57247f, -0.662113f, -0.256766f, 0.005137f, -0.084231f, 0.107714f, 0.303792f, 0.066278f, 0.267844f, 0.367553f, 0.260995f, 0.06556f, -0.273904f, -0.30604f, -0.236762f, 0.153439f, 0.034329f, 0.027443f, -0.651929f, -0.946452f, -0.598223f, -0.124514f, 0.24119f, 0.412751f, 0.200762f, -0.080934f, -0.455107f, -0.645673f, -0.313057f, -0.355328f, -0.165705f, -0.072567f, -0.246419f, 0.252044f, 0.466473f, 0.248327f, 0.471282f, 0.578697f, 0.597617f, 0.19011f, -0.153693f, -0.507201f, -0.133033f, 0.018185f, -0.006719f, -0.002044f, -0.044383f, -0.962175f, -0.412744f, 0.508196f, 0.905233f, 0.981946f, 0.522719f, -0.105591f, 0.008406f, 0.149527f, 0.348212f, 0.161863f, 0.004961f, -0.062715f, -0.081763f, 0.615824f, 0.41663f, 0.307131f, 0.633413f, 0.499565f, 0.688927f, 0.43451f, -0.439819f, -0.434644f, -0.331537f, 0.028316f, -0.003435f, -0.023763f, -0.066003f, -0.30044f, 0.283842f, 1.0f, 1.0f, 0.827351f, 0.521536f, 0.108551f, 0.47282f, 0.432267f, 0.560659f, 0.56054f, -0.159281f, 0.065557f, 0.175154f, 0.367495f, 0.372799f, -0.393883f, 0.259117f, 0.35656f, 0.628295f, 0.160632f, -0.459489f, -0.359715f, -0.17243f, 0.001443f, 0.005147f, 0.025795f, -0.033885f, -0.199286f, 0.233355f, 0.343244f, 0.11862f, -0.055024f, -0.030602f, -0.498536f, -0.270364f, -0.08684f, -0.120246f, -0.005328f, -0.242252f, 0.076142f, 0.220391f, 0.100156f, 0.242757f, 0.138592f, 0.204897f, 0.476122f, 0.553621f, 0.276514f, 0.154032f, -0.176909f, 0.020511f, -0.011251f, 0.018237f, 0.010719f, -0.023126f, -0.007501f, -0.328559f, 0.118896f, 0.202059f, -0.469594f, -0.59096f, -0.999447f, -0.158908f, -0.103641f, -0.31006f, -0.206987f, 0.008529f, -0.475558f, -0.770157f, -0.558527f, -1.0f, -0.839232f, -0.256537f, 0.036476f, 0.025224f, -0.239188f, -0.01533f, 0.026131f, 0.031074f, 0.003385f},
{0.000566f, -0.027098f, 0.02125f, -0.009941f, 0.003456f, -0.007184f, 0.012446f, 0.008419f, -0.008143f, -0.005642f, -1.7e-05f, -0.028211f, 0.153019f, 0.137315f, 0.095798f, 0.022627f, -0.003693f, 0.024742f, 0.003243f, 0.032723f, 0.007257f, 0.016925f, 0.00555f, -0.020141f, -0.033411f, -0.014105f, 0.028032f, 0.018348f, -0.011579f, -0.022127f, 0.035258f, 0.00396f, -0.094876f, -0.173402f, -0.159905f, -0.191984f, -0.120656f, -0.466541f, -0.370901f, -0.149387f, -0.206508f, -0.332175f, -0.189707f, 0.053995f, -0.221543f, -0.358644f, -0.330244f, -0.553948f, -0.752815f, -0.49024f, -0.341028f, -0.362533f, -0.027806f, 0.005005f, -0.015563f, 0.025149f, 0.031318f, -0.008289f, 0.133078f, -0.137575f, -0.088926f, -0.076823f, -0.368176f, 0.016467f, -0.486158f, -0.539011f, -0.804076f, -0.422951f, -0.668537f, -0.913267f, -0.742242f, -0.915468f, -0.904902f, -0.872092f, -1.0f, -1.0f, -0.397971f, -0.827096f, -0.605904f, -0.487169f, -0.337421f, -0.190507f, 0.025794f, -0.001392f, -0.018405f, 0.030684f, -0.047721f, -0.400825f, 0.275397f, -0.038453f, 0.077853f, -0.129128f, -0.395628f, -0.453242f, -0.947682f, -0.960545f, -0.958163f, -0.948611f, -0.993975f, -0.996179f, -0.783087f, -0.535779f, -0.494342f, -0.508722f, -0.599638f, -0.779878f, -0.801446f, -0.468133f, -0.471013f, -0.209966f, -0.358831f, 0.015714f, -0.030541f, -0.083517f, -0.26457f, -0.384048f, 0.103599f, -0.139762f, -0.239975f, -0.155426f, 0.022583f, -0.161983f, -0.065134f, -0.247645f, -0.35963f, -0.202433f, -0.306931f, -0.638612f, -0.271026f, -0.253065f, -0.239324f, -0.194055f, -0.224316f, -0.503265f, -0.509432f, -0.302796f, 0.240311f, -0.060858f, 0.047501f, 0.113532f, 0.022433f, -0.02778f, -0.449742f, -0.256495f, -0.477208f, -0.363766f, -0.143524f, -0.17349f, -0.019419f, -0.01912f, -0.008114f, -0.025663f, -0.065428f, 0.134878f, 0.355981f, 0.104618f, -0.318943f, -0.182855f, -0.374857f, -0.397335f, -0.264319f, -0.533061f, -0.558155f, -0.456545f, -0.309714f, -0.004758f, -0.307724f, -0.088308f, 0.00127f, -0.01627f, -0.267148f, -0.236416f, -0.405272f, -0.75268f, -0.261758f, -0.26213f, -0.079396f, -0.160503f, 0.091138f, 0.056999f, -0.199266f, -0.059406f, -0.23105f, -0.028576f, 0.015568f, -0.112995f, -0.459523f, -0.240809f, -0.392271f, -0.572326f, -0.25819f, -0.114914f, -0.274087f, 0.253766f, -0.222302f, 0.060091f, -0.05451f, -0.320696f, 0.111272f, -0.295064f, -0.231694f, -0.414036f, -0.277357f, -0.237696f, -0.116005f, -0.1237f, -0.093199f, -0.167366f, -0.217661f, -0.435334f, -0.32651f, -0.244032f, -0.060585f, -0.038191f, -0.250364f, -0.266171f, -0.377635f, -0.209351f, -0.164922f, 0.055239f, 0.08934f, 0.495793f, 0.049286f, -0.189894f, -0.306471f, 0.184696f, -0.044304f, -0.542228f, -0.439053f, -0.114633f, -0.04559f, 0.024056f, -0.065707f, 0.04615f, 0.102307f, -0.040497f, -0.075045f, -0.10384f, -0.320298f, -0.442831f, -0.319757f, 0.295897f, 0.111627f, -0.173252f, -0.143502f, 0.036972f, 0.1966f, 0.52622f, 0.842101f, 0.574965f, 0.057727f, -0.479821f, -0.103357f, 0.035582f, -0.210915f, -0.399299f, -0.693167f, -0.114674f, -0.017739f, -0.081248f, -0.206719f, 0.118545f, 0.315383f, 0.249052f, 0.025164f, -0.144023f, -0.545491f, -0.417597f, -0.413347f, -0.21216f, -0.089072f, 0.000863f, 0.218882f, 0.61614f, 0.788491f, 0.997877f, 0.986349f, 0.988575f, 0.394332f, -0.03542f, -0.005334f, 0.639967f, -0.278252f, -0.570066f, -0.467205f, -0.031737f, -0.118805f, -0.064625f, -0.09717f, 0.136919f, 0.237087f, 0.212659f, 0.136214f, -0.113707f, -0.367266f, -0.212666f, -0.164806f, 0.013632f, 0.15525f, 0.27561f, 0.400596f, 0.872582f, 0.825623f, 0.999133f, 0.996912f, 0.897632f, 0.293892f, -0.071102f, 0.359277f, 0.836442f, -0.454624f, -0.338291f, -0.054718f, -0.112894f, -0.061993f, 0.177295f, 0.064507f, -0.02055f, 0.013571f, 0.110337f, 0.324971f, 0.308258f, -0.207299f, -0.026643f, -0.123405f, -0.277259f, -0.154053f, -0.065317f, 0.120105f, 0.586294f, 0.701004f, 0.98416f, 1.0f, 0.985657f, 0.344041f, 0.328208f, 0.12699f, 0.380839f, -0.456623f, -0.234929f, -0.094364f, -0.027371f, -0.194223f, -0.058389f, 0.024775f, -0.158363f, -0.184994f, 0.705991f, 0.910952f, 0.639716f, -0.185033f, -0.194162f, -0.122445f, -0.472876f, -0.373373f, -0.253079f, -0.168532f, 0.212202f, 0.365295f, 0.399192f, 0.302672f, 0.738592f, 0.862536f, 0.621177f, -0.187705f, 0.220059f, -0.280485f, -0.246544f, -0.347418f, -0.234559f, -0.172112f, -0.184846f, 0.023442f, 0.044855f, 0.272253f, 0.888151f, 0.930347f, 0.484291f, -0.009091f, 0.088062f, 0.144155f, -0.202562f, -0.130002f, 0.028115f, -0.10627f, -0.082471f, 0.062809f, 0.164171f, 0.076827f, 0.574134f, 0.826186f, 0.552795f, -0.196944f, -0.037414f, 0.155356f, -0.102295f, -0.139405f, -0.067209f, 0.092368f, -0.08094f, -0.065417f, 0.033753f, 0.687771f, 0.963212f, 0.887131f, 0.078127f, -0.075607f, 0.008139f, 0.101723f, -0.030783f, 0.024068f, -0.136955f, -0.229217f, -0.170557f, -0.226992f, 0.094812f, 0.232911f, 0.542087f, 0.9748f, 0.459299f, -0.069651f, -0.105553f, -0.141039f, 0.075415f, -0.149864f, -0.317161f, -0.261577f, -0.069805f, -0.129334f, 0.074814f, 0.560027f, 0.526782f, 0.186932f, -0.096174f, -0.187885f, 0.101587f, 0.211235f, -0.118521f, -0.178797f, -0.422259f, -0.732045f, -0.333006f, -0.301458f, -0.020471f, 0.099931f, 0.667021f, 0.856521f, -0.502912f, 0.135463f, -0.045948f, -0.324623f, -0.039343f, -0.355513f, -0.277815f, 0.068061f, 0.168789f, 0.232854f, 0.128046f, 0.08779f, 0.083786f, 0.284071f, 0.34593f, 0.006069f, 0.128351f, 0.437219f, 0.131944f, -0.269757f, -0.575417f, -0.69509f, -0.142235f, 0.017098f, 0.125134f, 0.05681f, 0.72061f, 0.585126f, -0.489956f, 0.033442f, 0.002317f, -0.176087f, 0.115695f, -0.348273f, 0.144731f, 0.744491f, 0.801981f, 0.861146f, 0.137033f, -0.024141f, 0.374818f, 0.530021f, 0.861958f, 0.481654f, 0.319642f, 0.004421f, -0.074537f, -0.515496f, -0.430782f, -0.255117f, -0.099334f, -0.062664f, 0.084266f, 0.096791f, 0.052232f, -0.393763f, -0.125755f, -0.112723f, -0.098422f, 0.140772f, -0.208489f, -0.578736f, 0.286758f, 0.971764f, 0.949971f, 0.888622f, 0.425696f, 0.116522f, 0.421874f, 0.988014f, 0.996035f, 0.208298f, -0.333104f, -0.352092f, -0.385095f, -0.620293f, -0.388701f, -0.033057f, -0.092393f, -0.165657f, 0.098553f, 0.231318f, -0.099414f, -0.540076f, -0.506344f, -0.171025f, -0.214166f, 0.301543f, -0.392827f, -0.640645f, -0.293199f, 0.625271f, 0.774362f, 0.521676f, 0.351396f, -0.190768f, 0.117822f, 0.825796f, 0.260798f, -0.762624f, -0.678378f, -0.485395f, -0.524356f, -0.546331f, -0.256629f, -0.03537f, -0.212797f, 0.056257f, 0.281615f, 0.10556f, -0.104212f, -0.5601f, -0.458809f, 0.032269f, -0.127437f, -0.148975f, -0.66402f, -0.629257f, -0.338835f, 0.096774f, 0.172685f, 0.234194f, 0.072339f, -0.162961f, -0.196823f, 0.112851f, -0.279678f, -0.493757f, -0.237099f, -0.229656f, -0.147734f, -0.16718f, -0.37197f, -0.205941f, -0.148981f, 0.074076f, 0.15255f, 0.093114f, -0.048046f, -0.246167f, -0.216359f, -0.100344f, -0.188794f, -0.068703f, -0.560277f, -0.495364f, -0.152571f, -0.140772f, -0.138238f, 0.033925f, 0.067797f, -0.323584f, -0.439687f, 0.035208f, 0.004063f, -0.131331f, 0.006889f, 0.115414f, 0.17679f, -0.043059f, -0.270744f, 0.076661f, -0.03118f, 0.293145f, 0.203238f, 0.102359f, 0.087885f, -0.129532f, -0.00334f, -0.086082f, -0.132414f, 0.15578f, -0.167935f, -0.110957f, -0.035828f, -0.037917f, -0.16959f, 0.180803f, 0.107858f, -0.002333f, -0.273655f, 0.02687f, -0.087894f, -0.135455f, -0.117748f, 0.185732f, 0.160681f, 0.073357f, 0.040858f, 0.255115f, 0.407915f, 0.712569f, 0.413904f, -0.215887f, -0.123123f, -0.108673f, 0.007723f, 0.01334f, -0.018767f, -0.153129f, -0.23607f, -0.015783f, -0.121878f, -0.172483f, -0.113864f, -0.01826f, 0.008319f, -0.257787f, -0.479458f, -0.415819f, -0.510118f, -0.70357f, -0.658484f, -0.292564f, -0.127601f, 0.034f, 0.164254f, 0.415227f, 0.578227f, 0.752369f, 0.607394f, 0.103452f, -0.118618f, -0.154688f, -0.013495f, -0.013306f, 0.033509f, 0.278506f, -0.098276f, -0.167102f, -0.125402f, -0.25673f, -0.276987f, -0.044111f, -0.020638f, -0.348376f, -0.683433f, -0.898441f, -0.902433f, -0.643937f, -0.635381f, -0.761252f, -0.586655f, -0.298181f, -0.234166f, -0.017777f, 0.165174f, 0.131222f, 0.364717f, 0.364833f, 0.289718f, 0.111042f, -0.008256f, 0.028895f, -0.034239f, 0.200527f, -0.175442f, -0.612233f, -0.405924f, -0.376929f, -0.39759f, -0.284907f, -0.185336f, -0.076387f, -0.670521f, -0.828141f, -0.775263f, -0.627101f, -0.692429f, -0.987546f, -0.997338f, -0.972591f, -1.0f, -1.0f, -0.422643f, -0.271163f, -0.128116f, 0.231149f, 0.214537f, 0.243469f, -0.020185f, -0.028241f, -0.02342f, 0.019587f, 0.112906f, 0.265961f, -0.093331f, -0.712853f, -0.746528f, -0.854156f, -0.718361f, -0.422796f, -0.774645f, -0.760753f, -0.402352f, -0.413085f, -0.716231f, -0.815654f, -0.869092f, -0.902847f, -0.811591f, -0.556324f, -0.237397f, -0.27115f, -0.15985f, 0.152687f, -0.182904f, 0.028305f, -0.019401f, -0.014277f, -0.017575f, -0.02977f, 0.013864f, -0.263841f, -0.253016f, -0.416316f, -0.411256f, -0.370849f, -0.641146f, -0.183522f, 0.190641f, 0.187874f, -0.069159f, -0.122768f, -0.076274f, -0.038038f, 0.026953f, -0.054627f, 0.027452f, -0.177377f, -0.23161f, -0.328192f, -0.090883f, -0.019572f, -0.028338f, 0.012258f, -0.020407f},
{0.035712f, -0.022292f, 0.017639f, -0.010948f, -0.029303f, -0.034768f, 0.015565f, -0.010838f, -0.022929f, 0.035298f, 0.021f, 0.023568f, -0.069134f, 0.041134f, 0.170811f, 0.038093f, 0.017212f, -0.008635f, -0.007927f, -0.003684f, -0.014003f, -0.024433f, -0.003955f, -0.012724f, -0.011233f, -0.015559f, 0.016591f, -0.005751f, 0.027564f, 0.01052f, -0.011833f, 0.035589f, -0.010996f, -0.129032f, 0.144681f, 0.181219f, -0.21044f, -0.259164f, -0.076286f, -0.149722f, -0.147401f, -0.229688f, -0.056104f, -0.036889f, -0.160645f, -0.053203f, -0.007994f, -0.112264f, -0.140634f, -0.271029f, -0.411947f, -0.274322f, -0.035458f, -0.020291f, 0.004624f, 0.024284f, -0.029698f, 0.014854f, -0.125397f, -0.041069f, 0.016689f, 0.181941f, 0.270429f, 0.344785f, -0.108856f, -0.589502f, -0.535474f, -0.589006f, -0.451758f, -0.341015f, -0.260573f, 0.037457f, -0.397461f, -0.501924f, -0.246976f, -0.219159f, -0.422303f, -0.644212f, -0.700709f, -0.831912f, -0.3943f, -0.21846f, -0.028553f, -0.002862f, 0.020964f, -0.020013f, -0.380391f, -0.133845f, -0.125661f, 0.209807f, 0.339157f, -0.09186f, -0.329483f, -0.297534f, -0.525044f, -0.583549f, -0.317089f, -0.487964f, -0.168796f, 0.040341f, -0.444558f, -0.499501f, -0.372165f, -0.499744f, -0.716546f, -0.808326f, -0.773252f, -0.504087f, -0.622895f, -0.586006f, -0.138785f, 0.017752f, 0.016812f, 0.075285f, -0.175835f, -0.394143f, 0.129733f, 0.261946f, 0.012524f, -0.247324f, -0.012121f, 0.213711f, 0.053622f, -0.236338f, -0.157078f, -0.204746f, -0.083284f, -0.036424f, -0.503715f, -0.467171f, -0.447284f, -0.44923f, -0.36022f, -0.460378f, -0.663885f, -0.502575f, -0.909592f, -0.709081f, -0.003803f, 0.254663f, 0.03167f, 0.010464f, -0.250891f, -0.455568f, -0.297669f, -0.225232f, -0.104672f, -0.050938f, -0.017463f, -0.031983f, -0.032557f, 0.140754f, -0.079879f, -0.337161f, -0.103372f, -0.167946f, -0.441248f, -0.31169f, -0.256191f, -0.203695f, 0.094538f, 0.195512f, -0.026374f, -0.285984f, -0.70269f, -0.400824f, -0.230135f, -0.007994f, 0.004623f, -0.075153f, -0.075207f, -0.304356f, -0.341943f, -0.429156f, -0.067359f, -0.511969f, -0.316843f, -0.134344f, -0.045376f, 0.172223f, -0.305166f, -0.376881f, -0.249317f, -0.244061f, -0.286169f, -0.135849f, -0.120715f, -0.18938f, 0.065098f, 0.209162f, 0.314661f, -0.012062f, -0.264519f, -0.252015f, -0.158242f, 0.135393f, -0.065404f, -0.470773f, -0.188245f, -0.068671f, -0.442762f, -0.284773f, -0.369355f, -0.400938f, -0.269241f, 0.037945f, 0.156666f, 0.110679f, -0.096856f, -0.242562f, 0.051026f, 0.041189f, -0.154581f, -0.454823f, -0.274682f, -0.098643f, -0.103318f, -0.192263f, -0.303078f, -0.315297f, -0.04322f, 0.290563f, 0.041174f, 0.099592f, 0.055973f, -0.813597f, -0.320118f, 0.028225f, -0.055552f, -0.409397f, -0.482304f, -0.420689f, -0.247477f, -0.063033f, 0.006989f, 0.177088f, 0.156635f, -0.079857f, -0.110531f, 0.154503f, -0.050994f, -0.103492f, 0.039516f, -0.042598f, -0.16371f, -0.342761f, -0.088753f, 0.137619f, 0.352873f, 0.420585f, 0.46502f, 0.069594f, -0.385279f, -0.75544f, -0.283036f, 0.140147f, -0.102362f, -0.312429f, -0.228309f, -0.250401f, -0.423381f, -0.417121f, -0.14303f, 0.087721f, 0.318411f, 0.073126f, 0.056314f, 0.241658f, 0.185047f, 0.301602f, 0.09487f, 0.152042f, 0.212109f, 0.099189f, 0.472983f, 0.600094f, 0.750862f, 0.865435f, 0.89354f, 0.300433f, -0.371568f, -0.386804f, -0.493816f, 0.172516f, -0.110637f, -0.160464f, -0.039153f, -0.143579f, -0.341149f, -0.556228f, -0.245573f, 0.040779f, 0.5971f, 0.780748f, 0.772167f, 0.732687f, 0.701854f, 0.322596f, 0.104378f, 0.376786f, 0.312451f, 0.235052f, 0.574581f, 0.810639f, 0.86167f, 0.862416f, 0.365295f, 0.024403f, -0.374951f, -0.479176f, -0.347023f, -0.072095f, -0.049465f, -0.065257f, -0.130135f, -0.092506f, -0.214704f, -0.358341f, 0.033858f, 0.348346f, 0.940683f, 0.952322f, 0.949613f, 0.93753f, 0.876195f, 0.255537f, 0.223104f, 0.241668f, -0.056677f, -0.238555f, 0.212981f, 0.423315f, 0.694015f, 0.678072f, -0.194699f, 0.298581f, 0.100271f, -0.49009f, -0.333815f, -0.259501f, -0.053665f, 0.107723f, 0.08446f, -0.222641f, -0.257421f, -0.15662f, -0.10622f, 0.239152f, 0.945773f, 0.941223f, 0.981787f, 1.0f, 0.639713f, 0.050931f, -0.105745f, -0.148981f, -0.368145f, -0.752722f, -0.577327f, -0.364507f, -0.126585f, -0.643309f, -0.067122f, 0.165418f, -0.224809f, -0.369903f, -0.135607f, -0.215516f, -0.242579f, -0.116112f, -0.086821f, -0.269769f, 5.2e-05f, -0.310456f, -0.7663f, -0.12088f, 0.849041f, 0.951767f, 1.0f, 0.926489f, 0.522981f, -0.252419f, -0.199844f, -0.067697f, -0.114254f, -0.637578f, -0.842161f, -0.594497f, -0.546142f, -0.856297f, -0.307528f, -0.229225f, 0.140792f, -0.422972f, -0.39158f, -0.091945f, -0.644997f, -0.381019f, -0.459792f, -0.579514f, -0.667439f, -0.757234f, -0.903823f, -0.483022f, 0.32634f, 0.211071f, 0.445641f, 0.337945f, 0.119301f, -0.364822f, -0.152948f, -0.286114f, -0.164332f, -0.47238f, -0.913165f, -0.641738f, -0.625464f, -0.883327f, -0.626737f, -0.447097f, 0.008536f, -0.159361f, -0.370371f, -0.108694f, -0.332649f, -0.186242f, -0.398608f, -0.676457f, -0.481847f, -0.5855f, -0.4818f, -0.458016f, -0.30176f, -0.013501f, 0.127026f, 0.024733f, 0.006462f, -0.449684f, -0.207374f, -0.58208f, -0.37238f, -0.560897f, -0.655848f, -0.454294f, -0.600665f, -0.800029f, -0.59888f, -0.102295f, -0.155164f, -0.299891f, -0.105144f, 0.038698f, 0.187676f, 0.13744f, -0.258917f, -0.629605f, -0.399048f, -0.237526f, -0.315843f, -0.7397f, -0.827721f, -0.196721f, 0.170554f, -0.005712f, -0.071534f, -0.622677f, -0.687913f, -0.884329f, -0.667065f, -0.563078f, -0.234446f, -0.203428f, -0.169699f, -0.372263f, -0.134605f, 0.107745f, -0.035128f, -0.257261f, -0.204798f, 0.058122f, 0.18153f, 0.054151f, -0.206447f, -0.261575f, -0.251933f, -0.212819f, -0.302557f, -0.754049f, -0.494005f, -0.049793f, 0.039555f, -0.062978f, -0.191521f, -0.289606f, -0.402572f, -0.610117f, -0.615888f, -0.26577f, -0.030697f, -0.101399f, 0.012905f, -0.09034f, 0.162313f, 0.247364f, -0.140636f, -0.108547f, -0.457101f, 0.025081f, -0.02227f, 0.16196f, 0.057055f, 0.097398f, 0.085839f, -0.041219f, -0.310419f, -0.11552f, 0.235942f, 0.08316f, 0.068775f, -0.048313f, -0.106325f, -0.149152f, -0.101481f, -0.251132f, -0.292209f, -0.111937f, -0.002012f, -0.271288f, -0.481426f, -0.150648f, 0.196503f, 0.147105f, -0.00707f, 0.042015f, -0.425261f, -0.333784f, 0.015834f, 0.004111f, 0.206403f, 0.288096f, 0.526514f, 0.442749f, -0.035807f, -0.093809f, 0.218733f, 0.017449f, -0.337066f, -0.21219f, -0.126635f, 0.045143f, -0.116584f, -0.178329f, -0.107254f, -0.167726f, -0.278115f, -0.467021f, -0.360971f, -0.46327f, -0.08063f, 0.104936f, -0.022244f, 0.01016f, -0.281222f, -0.563369f, -0.281253f, -0.049309f, 0.207296f, 0.204804f, 0.318656f, 0.481352f, 0.114135f, -0.117559f, -0.076926f, 0.003359f, -0.232985f, -0.175983f, 0.036303f, 0.176281f, 0.043297f, 0.108426f, 0.10281f, -0.115614f, -0.484245f, -0.568732f, -0.406881f, -0.469136f, -0.033682f, 0.271122f, -0.05795f, -0.199235f, -0.20081f, -0.880754f, -0.489741f, 0.156062f, 0.415644f, 0.322084f, 0.233582f, 0.049104f, -0.421584f, -0.601746f, -0.300091f, 0.087228f, -0.190881f, 0.010757f, 0.086811f, 0.085363f, 0.101864f, 0.211234f, 0.235042f, -0.057714f, -0.376011f, -0.39187f, -0.273488f, -0.291958f, 0.157635f, -0.076241f, -0.109408f, 0.055306f, -0.209598f, -0.600942f, -0.334358f, 0.20468f, 0.373069f, 0.247671f, 0.03494f, -0.172427f, -0.506093f, -0.624462f, -0.25892f, 0.032f, -0.101739f, 0.019074f, -0.021946f, 0.013153f, 0.173018f, 0.177377f, 0.310344f, 0.004214f, -0.043053f, -0.185599f, -0.194117f, -0.030155f, 0.265289f, -0.096337f, -0.028337f, 0.011099f, -0.586586f, -0.150396f, 0.476787f, 0.647997f, 0.515338f, 0.082222f, -0.308518f, -0.531891f, -0.856342f, -0.760575f, -0.107901f, 0.098631f, 0.012867f, 0.066234f, -0.091458f, 0.11931f, -0.001563f, 0.446609f, 0.280753f, 0.193315f, -0.089466f, -0.072706f, -0.606658f, -0.474577f, 0.2304f, 0.00727f, -0.002961f, -0.035467f, 0.001425f, 0.304537f, 0.548247f, 0.525701f, -0.026739f, -0.183644f, -0.12155f, -0.299407f, -0.528675f, -0.428928f, -0.056323f, 0.19172f, 0.013629f, -0.170778f, -0.324891f, -0.175512f, 0.115731f, 0.418769f, 0.293275f, 0.121565f, 0.130011f, 0.096511f, -0.172029f, 0.0227f, -0.102088f, 0.013782f, 0.029325f, -0.028858f, 0.118779f, -0.048805f, 0.175829f, -0.090851f, -0.412084f, -0.380426f, -0.572646f, -0.868405f, -0.581451f, -0.406352f, -0.131537f, -0.189189f, -0.303801f, -0.259615f, -0.026952f, -0.072033f, -0.018394f, 0.130368f, 0.035423f, -0.273097f, -0.067744f, 0.390223f, 0.217665f, -0.0777f, -0.163693f, 0.00302f, -0.035283f, -0.034937f, 0.005291f, 0.07436f, -0.142214f, -0.835322f, -0.998752f, -0.998725f, -0.744321f, -0.533092f, -0.128765f, -0.406484f, -0.94873f, -0.762399f, -0.753748f, -0.562545f, -0.083888f, -0.063356f, 0.062794f, -0.034399f, 0.024921f, -0.039853f, -0.063957f, 0.213685f, 0.201336f, -0.16804f, -0.019805f, 0.001143f, 0.007162f, -0.00482f, -0.032112f, -0.021134f, -0.268022f, -0.147055f, -0.591804f, -0.604962f, -0.480966f, -0.747206f, -0.294178f, -0.448741f, -0.56576f, -0.761944f, -0.749867f, -0.61722f, -0.168831f, -0.165125f, -0.23942f, -0.192937f, -0.063411f, -0.133219f, -0.130073f, 0.059678f, 0.002301f, 0.001937f, 0.020746f, -0.019212f},
{0.000626f, 0.010134f, -0.002306f, -0.006206f, 0.017873f, 0.015221f, -0.025273f, -0.008385f, -0.02126f, 0.01894f, 0.00593f, 0.004005f, 0.124032f, 0.040027f, -0.11977f, -0.028754f, 0.019955f, 0.015889f, 0.03148f, -0.005037f, 0.005002f, -0.034766f, 0.029971f, 0.003007f, 0.012218f, -0.032081f, -0.005361f, 0.030154f, -0.016947f, 0.010223f, 0.021101f, 0.019667f, -0.05563f, -0.134095f, 0.314096f, 0.169773f, 0.043119f, 0.41849f, 0.412155f, 0.262247f, 0.190604f, 0.052924f, -0.229849f, -0.284813f, -0.011093f, 0.351453f, 0.109519f, 0.2335f, -0.068617f, -0.208793f, -0.19185f, -0.092862f, 0.011029f, 0.02472f, -0.016852f, 0.023176f, -0.007203f, 0.000997f, 0.212902f, 0.037614f, -0.119158f, -0.094837f, 0.216497f, 0.417225f, 0.397225f, 0.500632f, -0.029903f, 0.12339f, -0.04714f, -0.365191f, -0.242138f, -0.15983f, -0.087074f, -0.038014f, -0.252362f, -0.454743f, 0.141741f, 0.503867f, 0.141052f, 0.040339f, 0.426071f, 0.32317f, -0.010932f, -0.028391f, 0.016213f, 0.021222f, -0.096658f, -0.241664f, -0.184858f, -0.306299f, -0.692323f, -0.189595f, -0.064575f, 0.020818f, 0.349401f, 0.542346f, 0.392662f, -0.034377f, 0.077027f, 0.228997f, -0.009572f, -0.187991f, -0.11747f, 0.299116f, 0.134885f, -0.472046f, -0.940241f, -0.510929f, -0.052495f, 0.068142f, -0.049634f, -0.004182f, 0.004829f, 0.055682f, -0.291225f, -0.658888f, -0.427786f, -0.373592f, -1.0f, -0.669949f, -0.747455f, -0.105059f, 0.111482f, 0.225167f, 0.275719f, 0.3274f, 0.448126f, 0.324505f, 0.275283f, 0.068525f, -0.06302f, -0.159663f, 0.151407f, -0.483173f, -0.498538f, -0.435924f, -0.607105f, -0.480672f, -0.614571f, -0.110822f, 0.007814f, -0.018454f, -0.566574f, -0.568132f, -0.57047f, -0.423768f, -0.372864f, -0.091305f, -0.225215f, -0.05229f, 0.400307f, 0.531814f, 0.885781f, 1.0f, 1.0f, 0.974384f, 0.5346f, 0.224264f, 0.02222f, -0.219012f, -0.126907f, 0.215856f, 0.23814f, -0.139007f, -0.573314f, 0.028609f, -0.233801f, 0.414339f, -0.033779f, -0.269874f, 0.032612f, -0.090294f, -0.547217f, -0.101331f, 0.044874f, -0.137083f, 0.100427f, 0.263101f, 0.525261f, 0.362356f, 0.459208f, 0.884901f, 1.0f, 1.0f, 1.0f, 0.558353f, 0.356808f, 0.10322f, 0.054761f, 0.315952f, 0.382316f, -0.085854f, -0.474277f, -0.074043f, -0.558184f, -0.302236f, -0.105297f, -0.332796f, 0.210314f, 0.395077f, 0.108117f, 0.288848f, 0.098011f, -0.216934f, -0.251495f, -0.073086f, -0.052674f, -0.125894f, 0.031524f, 0.110464f, 0.480841f, 0.706608f, 0.673343f, -0.050666f, -0.12424f, -0.157369f, -0.189359f, 0.049162f, 0.103375f, -0.092661f, -0.453519f, -0.29114f, -0.154644f, -0.475879f, 0.092779f, -0.295978f, -0.004703f, 0.233649f, 0.179466f, 0.245656f, -0.130423f, -0.298454f, -0.153094f, -0.2081f, -0.563763f, -0.759354f, -0.628832f, -0.20223f, 0.130742f, 0.362515f, 0.273035f, 0.559983f, 0.284346f, 0.269259f, 0.019193f, 0.206516f, 0.34591f, -0.034212f, -0.908712f, -0.990858f, -0.549035f, -0.345127f, -0.239331f, -0.167152f, 0.025476f, -0.120617f, -0.145425f, 0.296733f, 0.007863f, -0.016013f, -0.083731f, -0.1978f, -0.671994f, -0.774875f, -0.47072f, -0.175564f, -0.514458f, -0.487726f, -0.00895f, 0.413161f, 0.549121f, 0.405605f, 0.467808f, 0.517038f, 0.589883f, 0.29824f, -0.653414f, -0.982165f, -0.506561f, -0.048177f, -0.18724f, 0.068623f, 0.08727f, -0.287577f, 0.04462f, 0.291758f, 0.09456f, 0.124133f, 0.034514f, -0.231143f, -0.623282f, -0.654906f, -0.229116f, -0.068253f, -0.657054f, -0.95661f, -0.120423f, 0.66946f, 0.829443f, 0.658588f, 0.636789f, 0.624287f, 0.503109f, 0.193347f, -0.448737f, -0.767068f, -0.377603f, -0.09377f, -0.287176f, 0.113904f, 0.113951f, 0.199605f, 0.511798f, 0.459254f, 0.169392f, 0.094027f, 0.192425f, -0.038132f, -0.653014f, -0.696731f, -0.452312f, -0.737041f, -0.771424f, -0.461266f, -0.1807f, 0.840052f, 0.970072f, 0.820165f, 0.724266f, 0.698789f, 0.755641f, 0.399485f, -0.024827f, -0.151238f, -0.341828f, 0.20534f, 0.260673f, -0.585826f, -0.156516f, 0.020002f, 0.438347f, 0.383639f, 0.151033f, 0.162464f, 0.091754f, -0.031196f, -0.777615f, -0.927572f, -0.999521f, -0.745466f, -0.518298f, -0.526741f, 0.07083f, 0.645474f, 0.644682f, 0.753448f, 0.790889f, 0.858647f, 0.212395f, -0.221918f, -0.060089f, -0.085567f, -0.27511f, 0.178519f, 0.197895f, -0.454964f, -0.016346f, 0.029169f, 0.644987f, 0.252262f, 0.011055f, -0.122102f, -0.195057f, -0.31457f, -0.810915f, -0.851541f, -0.738955f, -0.809256f, -0.465992f, -0.171722f, 0.191644f, 0.333791f, 0.305322f, 0.564765f, 0.85571f, 0.667386f, -0.200222f, -0.327977f, -0.241655f, -0.26888f, -0.28403f, 0.244997f, 0.172636f, 0.003156f, -0.390855f, -0.401386f, 0.205518f, -0.27846f, -0.39148f, -0.288418f, -0.768176f, -0.668282f, -0.28196f, -0.151366f, -0.082733f, -0.651309f, -0.125177f, 0.134861f, 0.660019f, 0.792385f, -0.02322f, 0.251892f, 0.514861f, 0.073198f, -0.806994f, -0.734025f, -0.265269f, -0.047523f, -0.652421f, -0.045069f, 0.192332f, 0.093969f, -0.210113f, 0.084159f, 0.144915f, -0.417338f, -0.340432f, -0.476171f, -0.663508f, -0.599098f, -0.439075f, -0.08378f, -0.097932f, -0.154838f, -0.167442f, 0.295701f, 0.750792f, 0.460204f, -0.048126f, 0.131516f, -0.174982f, -0.500481f, -1.0f, -0.774762f, -0.258984f, 0.285032f, 0.080308f, -0.036082f, 0.158399f, 0.066382f, -0.17626f, 0.578309f, 0.45783f, -0.085603f, -0.37604f, -0.574285f, -0.527427f, -0.399558f, -0.313479f, -0.014763f, -0.041222f, 0.105941f, -0.061322f, 0.076352f, 0.159326f, 0.196523f, -0.029329f, -0.266212f, -0.463455f, -0.6357f, -0.713134f, -0.664218f, -0.109474f, 0.048683f, 0.234834f, 0.387152f, 0.027246f, -0.294144f, -0.102162f, 0.578613f, 0.53799f, 0.119677f, -0.323639f, -0.383373f, -0.494724f, -0.247859f, 0.227733f, 0.172924f, 0.189935f, 0.272121f, 0.044035f, -0.087902f, -0.320915f, -0.063014f, -0.055647f, -0.088128f, -0.780284f, -0.883682f, -0.844258f, -0.685202f, 0.2185f, -0.427517f, -0.091914f, 0.049373f, -0.245066f, -0.300632f, -0.737687f, 0.21629f, 0.718862f, 0.290998f, -0.174235f, -0.441075f, -0.572465f, -0.131295f, 0.462014f, 0.511657f, 0.379883f, 0.3108f, 0.323501f, 0.101809f, 0.003821f, -0.117289f, -0.261941f, -0.190046f, -0.64885f, -0.804992f, -0.896939f, -0.553872f, -0.192641f, -0.066628f, -0.06481f, -0.197002f, -0.185854f, -0.130542f, -1.0f, -0.133243f, 0.820534f, 0.135982f, 0.196623f, -0.151616f, -0.14159f, 0.235091f, 0.449834f, 0.230674f, 0.083249f, 0.272854f, 0.541689f, 0.408898f, 0.103098f, -0.261545f, -0.607169f, -0.371136f, -0.580139f, -0.830184f, -0.939395f, -0.697757f, -0.727445f, -0.547399f, 0.434687f, -0.211961f, 0.002045f, -0.103991f, -0.667884f, -0.214855f, 0.42717f, -0.09342f, 0.141945f, 0.017818f, 0.037969f, 0.407085f, 0.221882f, -0.234738f, 0.064966f, 0.425095f, 0.942416f, 0.847974f, 0.32509f, -0.240343f, -0.12479f, 0.000572f, -0.055051f, -0.20857f, -0.512077f, -0.570903f, -0.821068f, -0.445931f, 0.10217f, -0.071092f, -0.171031f, -0.384476f, -0.249669f, -0.282502f, -0.039347f, -0.003987f, 0.213737f, 0.31128f, 0.760036f, 0.494963f, 0.277321f, 0.216818f, 0.497191f, 0.913686f, 0.715128f, 0.374269f, 0.249994f, 0.280423f, 0.379977f, 0.2829f, 0.202367f, 0.210591f, -0.043108f, -0.32689f, -0.362798f, 0.021041f, 0.281198f, -0.093819f, -0.154116f, -0.226488f, -0.494147f, -0.866774f, -0.356617f, 0.116171f, 0.242714f, 0.105792f, 0.423455f, 0.424287f, 0.31577f, 0.20345f, 0.471946f, 0.620987f, 0.067346f, -0.076921f, 0.261568f, 0.841455f, 0.737584f, 0.478269f, 0.438042f, 0.113607f, 0.344368f, -0.155761f, -0.803411f, -0.442731f, 0.169119f, -0.136967f, -0.027134f, -0.008028f, -1.0f, -0.510914f, -0.195808f, -0.119394f, 0.074358f, -0.033206f, 0.026089f, -0.04224f, -0.133912f, -0.226812f, -0.2666f, -0.240186f, -0.085687f, 0.268207f, 0.802305f, 0.90387f, 0.652877f, 0.837963f, 0.755628f, 0.877419f, 0.97604f, 0.020022f, -0.988497f, -0.909282f, -0.016901f, -0.024159f, 0.010803f, 0.031221f, -0.568803f, -0.060634f, 0.376319f, 0.659657f, 0.417735f, 0.289606f, -0.085441f, -0.101032f, -0.060564f, -0.212826f, -0.103596f, 0.365974f, 0.574358f, 0.746237f, 0.641575f, 0.624109f, 0.963986f, 0.983829f, 0.922409f, 0.873766f, 0.86336f, 0.336196f, -0.726891f, -0.017377f, 0.173063f, -0.012398f, -0.003918f, 0.014667f, -0.17773f, -0.494319f, -0.232638f, 0.167078f, 0.092085f, -0.254778f, -0.295698f, -0.63558f, -0.639528f, -0.701872f, -0.527839f, 0.056179f, -0.004594f, -0.037899f, 0.049585f, 0.382009f, 0.516481f, 0.00958f, 0.195797f, 0.210426f, 0.580456f, 0.246146f, -0.78389f, -0.075481f, 0.195818f, -0.0161f, 0.009454f, 0.000856f, 0.010692f, 0.20375f, -0.226317f, -0.486902f, -1.0f, -1.0f, -1.0f, -1.0f, -0.884337f, -0.899101f, -1.0f, -0.998934f, -0.998826f, -0.998999f, -0.748037f, -0.119055f, 0.183879f, 0.128097f, -0.4235f, -0.100553f, 0.437843f, -0.011668f, 0.028134f, -0.211049f, 0.004174f, -0.019887f, 0.028335f, 0.017543f, 0.031055f, -0.016194f, -0.301364f, 0.130465f, 0.124685f, -0.191996f, -0.496682f, -0.915297f, -0.955268f, -0.790096f, -0.183401f, 0.026272f, 0.170369f, -0.338218f, -0.154342f, 0.151224f, -0.001397f, -0.2012f, -0.323676f, -0.231717f, 0.108819f, 0.063644f, 0.013488f, -0.002481f, 0.011297f, -0.018418f},
{-0.035504f, 0.01313f, 0.019324f, 0.018918f, 0.029657f, -0.034787f, 0.010666f, 0.028405f, -0.018201f, 0.019955f, 0.018509f, 0.007648f, -0.194504f, -0.163394f, -0.119777f, -0.033939f, 0.014285f, 0.027259f, -0.02662f, -0.033184f, 0.013971f, -0.001453f, -0.016744f, -0.033323f, -0.022114f, 0.009696f, -0.006526f, -0.03099f, -0.003568f, -0.001761f, -0.033281f, 0.021457f, 0.129438f, 0.083118f, -0.712821f, -0.573455f, -0.436044f, -0.718569f, -0.380312f, -0.445388f, -1.0f, -0.774295f, -0.119865f, -0.321064f, -0.130181f, 0.104712f, -0.153633f, -0.179711f, -0.115928f, 0.145643f, -0.025517f, -0.084025f, 0.005823f, 0.022076f, 0.027331f, -0.02991f, -0.015773f, -0.003164f, -0.235043f, -0.163607f, 0.027872f, -0.275734f, -0.841112f, -0.976593f, -0.982717f, -0.986976f, -0.120697f, -0.328956f, -0.967658f, -0.631193f, -0.041073f, -0.362401f, -0.370265f, 0.025858f, -0.062668f, -0.306989f, -0.365614f, 0.282987f, 0.392602f, -0.536665f, -0.425354f, -0.283053f, 1.2e-05f, 0.027966f, 0.010867f, -0.033117f, -0.138762f, -0.1117f, -0.277179f, -0.634328f, -0.492408f, -0.516148f, -0.646022f, -0.475369f, -0.120533f, -0.302266f, -0.474446f, -0.412029f, -0.012238f, 0.32264f, 0.688123f, 0.812029f, 0.82421f, 0.382135f, 0.479266f, 0.226269f, 0.227853f, 0.464866f, 0.131813f, -0.159985f, 0.18793f, 0.008007f, -0.02223f, -0.087503f, 0.30759f, 0.097906f, 0.038576f, 0.000315f, 0.504269f, 0.353889f, -0.046394f, -0.051285f, -0.030647f, -0.093131f, -0.248757f, -0.065105f, 0.120079f, 0.259266f, 0.904482f, 0.798911f, 0.515273f, 0.223801f, 0.331867f, 0.173616f, -0.224277f, -0.268026f, 0.224584f, 0.060951f, -0.17292f, -0.095723f, -0.013121f, 0.007362f, 0.257326f, -0.157103f, 0.225911f, 0.436521f, 0.82233f, 0.58858f, -0.044193f, 0.010282f, -0.049014f, 0.060357f, 0.030638f, 0.135321f, 0.213105f, 0.227568f, 0.36735f, 0.401001f, 0.414948f, 0.027618f, -0.160895f, -0.304846f, -0.315088f, -0.268264f, -0.107765f, 0.19905f, 0.1629f, -0.009839f, 0.035625f, 0.028109f, 0.09594f, -0.100746f, 0.183112f, 0.743302f, 0.770463f, 0.470683f, 0.295132f, 0.388741f, 0.275086f, 0.098104f, 0.009867f, 0.015795f, -0.055615f, -0.25581f, -0.07219f, 0.143953f, 0.2089f, -0.039363f, -0.006717f, 0.107306f, -0.125499f, -0.090412f, -0.203097f, 0.245389f, -0.131187f, 0.106959f, -0.059343f, -0.235598f, -0.334314f, -0.342079f, 0.034682f, 0.355946f, 0.446145f, 0.663001f, 0.774772f, 0.309515f, 0.098664f, 0.031721f, -0.081017f, -0.236128f, -0.200505f, -0.447228f, -0.456879f, -0.230005f, -0.084022f, -0.339279f, -0.174938f, 0.166615f, -0.14067f, -0.328502f, -0.011929f, 0.013978f, -0.383765f, 0.22195f, -0.269739f, -0.057016f, -0.581886f, 0.177034f, 0.14603f, 0.405513f, 0.332866f, 0.6508f, 0.32499f, 0.116156f, 0.084347f, 0.145462f, 0.081243f, -0.101443f, -0.155508f, -0.478958f, -0.45632f, -0.403175f, -0.409845f, -0.483955f, -0.21517f, 0.236639f, 0.008294f, -0.084198f, 0.0183f, 0.063009f, -0.057947f, 0.256089f, -0.412879f, -0.220305f, 0.121876f, 0.472921f, 0.265577f, 0.400782f, 0.554552f, 0.602537f, 0.275601f, 0.065238f, -0.145819f, 0.115606f, 0.030402f, -0.307392f, -0.080489f, -0.216326f, -0.495976f, -0.726795f, -0.666178f, -0.482932f, -0.089146f, 0.158819f, 0.151149f, 0.148012f, -0.052989f, 0.03474f, 0.659785f, -0.158951f, -0.355677f, -0.040438f, 0.00429f, 0.398862f, 0.120312f, 0.161941f, 0.271929f, 0.276507f, -0.085224f, -0.499203f, -0.381034f, 0.060072f, 0.08117f, 0.1784f, 0.086046f, 0.305945f, -0.311904f, -0.308173f, -0.361509f, -0.293148f, 0.212141f, 0.002532f, 0.029433f, 0.099381f, 0.182853f, 0.268929f, 0.346971f, -0.060131f, -0.419287f, -0.11044f, 0.024746f, -0.065007f, 0.106891f, -0.143262f, -0.189805f, -0.185916f, -0.080345f, -0.539278f, -0.304493f, -0.127942f, 0.53646f, 0.949485f, 0.646324f, 0.352602f, 0.075762f, 0.034997f, -0.160373f, -0.320017f, -0.284097f, -0.248704f, -0.606997f, -0.690342f, -0.213841f, 0.500957f, -0.162573f, -0.108233f, -0.046116f, -0.295242f, 0.210233f, -0.014419f, -0.042831f, -0.149143f, -0.444202f, -0.385293f, 0.022521f, -0.447699f, -0.022198f, 0.555587f, 0.981202f, 0.992959f, 0.37523f, 0.150649f, 0.246615f, -0.189391f, -0.276003f, -0.284082f, -0.666157f, -0.544012f, -0.594698f, -0.703212f, -0.641755f, 0.398508f, 0.506873f, 0.201719f, 0.169192f, -0.193818f, -0.105627f, 0.017986f, -0.52231f, -0.436468f, -0.559114f, -0.313206f, -0.204077f, -0.379534f, 0.138841f, 0.647769f, 0.796811f, 0.318952f, -0.326314f, -0.121246f, 0.346876f, 0.218696f, 0.019883f, -0.277033f, -0.094722f, -0.640046f, -0.721004f, -0.495029f, 0.100566f, 0.427624f, 0.737032f, 0.268237f, -0.201287f, -0.33061f, -0.193068f, -0.060646f, -0.48677f, -0.581667f, -0.568572f, -0.405344f, -0.216617f, 0.014293f, 0.036932f, 0.324042f, 0.041192f, -0.39773f, -0.320627f, 0.244445f, 0.671116f, 0.306115f, 0.349758f, 0.270517f, 0.279857f, -0.272431f, -0.457059f, -0.046081f, 0.20916f, 0.460705f, 0.58697f, 0.242053f, -0.184494f, -0.102104f, -0.059318f, 0.065065f, -0.388694f, -0.59251f, -0.315371f, -0.18358f, 0.002877f, 0.070531f, -0.256239f, -0.513791f, -0.337834f, -0.328496f, -0.204182f, 0.278431f, 0.059134f, 0.125946f, 0.444409f, 0.475551f, 0.802339f, -0.018181f, -0.181502f, -0.050414f, 0.242522f, 0.532405f, 0.634709f, 0.455228f, -0.181617f, -0.271394f, 0.137314f, -0.14737f, -0.354288f, -0.43235f, 0.084935f, 0.092997f, 0.000188f, -0.040727f, -0.356003f, -0.19223f, 0.196435f, 0.18382f, 0.145121f, 0.384449f, 0.489394f, 0.74843f, 0.811124f, 0.939938f, 1.0f, 0.380703f, 0.077221f, 0.257859f, 0.359516f, 0.398402f, 0.471104f, 0.472039f, 0.031366f, 0.082286f, 0.197468f, 0.094668f, -0.015503f, 0.126919f, 0.404431f, 0.26841f, 0.226512f, 0.056223f, -0.145699f, 0.212436f, 0.455426f, 0.283104f, 0.358138f, 0.508526f, 0.695416f, 0.661614f, 0.67513f, 0.880882f, 0.659504f, 0.430754f, 0.176547f, 0.432415f, 0.056827f, -0.143852f, -0.1134f, 0.093297f, -0.314196f, 0.073806f, 0.105312f, 0.663672f, 0.118237f, 0.508163f, 0.276526f, 0.108966f, 0.533405f, 0.640821f, 0.188203f, 0.472227f, 0.172535f, -0.216436f, -0.346099f, -0.156995f, 0.080344f, -0.081391f, 0.168497f, 0.473368f, 0.291351f, 0.230724f, 0.098512f, 0.439285f, 0.075132f, -0.043795f, -0.275399f, -0.00105f, 0.089553f, 0.003122f, 0.328749f, 0.483951f, 0.412182f, 0.275979f, 0.065383f, 0.034374f, 0.35211f, 0.469741f, 0.205156f, 0.145641f, -0.012491f, -0.524519f, -0.97363f, -0.671712f, -0.448209f, -0.242399f, 0.219265f, 0.528561f, 0.258538f, 0.08594f, 0.340111f, 0.418326f, 0.114373f, -0.039611f, -0.67091f, -0.141996f, 0.013412f, -0.076254f, 0.243996f, 0.499149f, 0.645048f, 0.060738f, -0.265131f, -0.088171f, -0.014203f, -0.054196f, -0.20662f, -0.18997f, -0.288749f, -0.524912f, -0.87714f, -0.987339f, -0.579853f, 0.04046f, 0.522246f, 0.245561f, 0.243123f, 0.251094f, 0.352009f, 0.329202f, 0.143001f, -0.017526f, -0.163796f, -0.288518f, 0.118835f, 0.054688f, 0.084949f, 0.449621f, 0.630533f, 0.293732f, 0.016032f, -0.183051f, -0.105892f, -0.302213f, -0.427973f, -0.088834f, -0.231508f, -0.218539f, -0.191734f, -0.393616f, -0.064328f, 0.300538f, 0.548716f, 0.464952f, 0.250093f, 0.304887f, 0.048061f, -0.077497f, -0.101222f, -0.362389f, 0.015971f, 0.075916f, 0.112114f, -0.096621f, -0.070133f, 0.090861f, 0.662555f, 0.346225f, 0.015918f, 0.085351f, 0.143258f, -0.101053f, -0.141889f, -0.006902f, 0.120428f, 0.264993f, 0.191043f, -0.098785f, 0.131445f, 0.214501f, 0.154614f, 0.26809f, 0.003293f, -0.019013f, -0.069598f, -0.052707f, -0.072271f, -0.446938f, -0.309926f, 0.140452f, 0.027921f, -0.022143f, -0.025537f, 0.12628f, 0.48688f, 0.141847f, 0.116856f, 0.352364f, 0.313011f, 0.418356f, 0.519282f, 0.310175f, 0.154416f, -0.074425f, -0.280239f, -0.261852f, 0.023777f, 0.026799f, -0.157667f, -0.171928f, -0.350399f, -0.18872f, -0.314414f, 0.041455f, -0.248208f, 0.175912f, 0.081876f, -0.014449f, -0.01672f, -0.000296f, -0.203253f, 0.25415f, 0.073101f, -0.176431f, 0.231867f, 0.441586f, 0.379478f, 0.307395f, 0.394456f, 0.141817f, -0.065903f, -0.174014f, -0.178416f, -0.239394f, -0.112203f, -0.263801f, -0.606995f, -0.845814f, -0.846972f, -0.38364f, -0.232077f, -0.413103f, -0.584319f, 0.176199f, 0.283571f, -0.005649f, -0.034293f, -0.000108f, -0.090673f, 0.300166f, -0.075277f, -0.122726f, 0.041925f, 0.210842f, 0.280872f, 0.316617f, 0.105541f, 0.157245f, -0.051267f, -0.084918f, -0.007767f, -0.160139f, -0.116384f, -0.242975f, -0.77215f, -0.779591f, -0.936375f, -0.84546f, -0.571503f, -0.544692f, 0.069437f, 0.193433f, 0.211782f, -0.007931f, -0.027588f, 0.015782f, -0.020387f, -0.1734f, -0.198264f, -0.250712f, 0.006805f, 0.168247f, 0.12809f, 0.477942f, 0.398741f, -0.008606f, -0.454912f, -0.157494f, -0.000758f, -0.30351f, 0.273688f, -0.002581f, -0.868936f, -0.42441f, -0.47467f, -0.763913f, -0.898186f, -0.458062f, -0.153364f, -0.129257f, 0.008142f, -0.019465f, 0.011088f, 0.029568f, -0.030539f, 0.030607f, -0.151518f, 0.228955f, 0.13141f, -0.10449f, -0.169772f, 0.039063f, 0.131727f, -0.200235f, -0.410863f, -0.194714f, 0.113231f, -0.139542f, -0.110068f, -0.196605f, -0.598008f, -0.358687f, -0.390734f, -0.403794f, -0.571641f, -0.230541f, 0.004985f, -0.032609f, 0.031421f, 0.011734f},
{0.017735f, 0.01953f, 0.011305f, -0.018652f, 0.021697f, 0.0026f, -0.017721f, 0.02025f, -0.001347f, 0.006288f, 0.023525f, 0.027213f, -0.169668f, -0.220208f, -0.175825f, -0.073054f, 0.013421f, 0.022441f, -0.010858f, -0.016765f, -0.008381f, 0.02071f, 0.028878f, -0.01531f, 0.01823f, 0.03441f, 0.025246f, 0.002985f, -0.006767f, 0.034859f, 0.011968f, -0.013443f, -0.085972f, -0.211133f, 0.048597f, -0.374312f, -0.811087f, -0.790299f, -0.334429f, -0.532548f, -1.0f, -1.0f, -0.586542f, -0.101377f, -0.84947f, -0.993625f, -0.533468f, -0.788737f, -0.263557f, 0.186545f, 0.037718f, 0.14321f, 0.02899f, -0.017344f, 0.026635f, -0.021484f, -0.029487f, 0.009466f, 0.202731f, -0.13857f, 0.033108f, -0.285016f, -0.485602f, -0.965921f, -0.855685f, -0.974673f, -0.618437f, -0.229255f, -0.369757f, -0.786229f, -0.999225f, -0.822076f, -0.685251f, -0.531298f, -0.736095f, -1.0f, -0.759959f, 0.10923f, 0.507768f, -0.038346f, -0.192552f, -0.233935f, 0.027484f, 0.030175f, -0.003623f, -0.012024f, 0.044046f, -0.06024f, -0.148396f, -0.112402f, -0.260326f, -0.568721f, -0.840054f, -0.431203f, -0.218374f, -0.164339f, 0.113692f, 0.268138f, 0.164095f, 0.247319f, 0.246714f, 0.082703f, -0.428082f, -0.441891f, -0.253413f, 0.102098f, -0.111615f, -0.295465f, -0.081077f, -0.451441f, -0.303225f, 0.032763f, -0.007578f, -0.052787f, -0.053809f, 0.101013f, 0.163631f, 0.233876f, 0.255904f, 0.126221f, 0.084703f, 0.025244f, 0.036019f, -0.174023f, -0.33303f, -0.139725f, 0.059633f, 0.123042f, 0.023886f, 0.002172f, -0.331184f, -0.407128f, -0.475185f, -0.352242f, -0.337142f, 0.066819f, 0.202422f, 0.083756f, -0.595335f, -0.257834f, -0.004711f, 0.028137f, -0.34773f, 0.03542f, 0.165723f, -0.027453f, 0.067353f, -0.148481f, -0.225747f, 0.084543f, -0.21049f, -0.481551f, -0.580884f, -0.411806f, -0.183108f, -0.009388f, -0.193062f, -0.430328f, -0.538721f, -1.0f, -0.731803f, -0.142733f, -0.298441f, -0.364022f, -0.561219f, -0.713287f, -0.451058f, -0.083901f, 0.028607f, 0.034553f, 0.043122f, 0.256198f, 0.030104f, -0.282779f, -0.174843f, -0.59053f, -0.486245f, 0.043903f, -0.241123f, -0.17547f, -0.362915f, -0.050291f, -0.252579f, -0.335978f, -0.403843f, -0.654305f, -0.653313f, -0.555867f, -0.364604f, -0.098622f, -0.102979f, -0.214998f, -0.500862f, -0.334099f, -0.300876f, 0.23315f, 0.025896f, 0.023674f, 0.043643f, 0.219015f, -0.101062f, -0.231036f, -0.233618f, -0.582335f, 0.069532f, 0.161647f, -0.187834f, 0.072145f, -0.049775f, -0.136025f, -0.14176f, -0.227705f, -0.525532f, -0.893262f, -0.687429f, -0.53567f, -0.43607f, -0.236789f, -0.157978f, -0.181559f, -0.216709f, 0.158883f, -0.541713f, -0.071324f, 0.247958f, 0.004014f, -0.474384f, -0.278103f, -0.029534f, 0.088402f, -0.11587f, -0.236197f, 0.131345f, 0.217229f, -0.001762f, 0.104741f, -0.146269f, -0.116292f, -0.135111f, 0.032352f, -0.354364f, -0.385369f, -0.563531f, -0.536211f, -0.335628f, -0.252951f, -0.08884f, 0.323973f, 0.473027f, 0.206058f, 0.324679f, 0.233767f, -0.075517f, -0.16039f, -0.431649f, -0.641136f, -0.400534f, -0.405017f, -0.12856f, 0.053408f, 0.129949f, 0.098652f, 0.113901f, 0.258459f, 0.089681f, -0.336066f, 0.023899f, 0.47942f, 0.113206f, -0.320356f, -0.543586f, -0.274995f, -0.080895f, -0.09847f, 0.296756f, 0.713568f, 0.875614f, 0.924341f, 0.971384f, 0.165486f, -0.057717f, -0.287145f, -0.2873f, -0.583381f, -0.613895f, -0.562328f, -0.208866f, -0.085624f, -0.21004f, -0.121168f, -0.25527f, -0.245374f, -0.141106f, 0.56827f, 0.664098f, 0.701431f, 0.336328f, -0.063155f, -0.158771f, 0.084571f, 0.178087f, 0.169833f, 0.131723f, 0.680688f, 0.846719f, 0.855451f, 0.714013f, -0.03858f, 0.025582f, -0.247865f, -0.0143f, -0.395314f, -0.610544f, -0.423821f, -0.125366f, 0.078701f, -0.287131f, -0.24205f, -0.63292f, -0.515045f, 0.228852f, 0.672287f, 0.687998f, 0.817507f, 0.181872f, 0.115698f, 0.289919f, 0.173907f, 0.159524f, 0.263413f, -0.029495f, 0.475533f, 0.774221f, 0.9634f, 0.397763f, -0.141369f, -0.056713f, -0.2646f, -0.078948f, -0.247117f, -0.213373f, 0.0872f, 0.231067f, 0.072814f, -0.07639f, -0.067785f, -0.316161f, 0.318042f, 0.569095f, 0.805907f, 0.940626f, 0.049426f, 0.122096f, 0.237671f, 0.20153f, 0.038352f, -0.010305f, -0.043897f, -0.196532f, 0.007852f, -0.186381f, 0.468753f, 0.749317f, 0.283346f, -0.230877f, -0.516392f, -0.397717f, -0.350093f, -0.148545f, 0.389729f, 0.506709f, 0.292632f, 0.21556f, -0.190678f, 0.153894f, 0.859099f, 0.930407f, 0.96482f, -0.17931f, -0.666178f, -0.007939f, -0.119779f, -0.229541f, -0.170326f, -0.038693f, -0.478302f, -0.167382f, -0.000305f, 0.342681f, 0.427292f, 0.709701f, 0.057464f, -0.098297f, 0.094676f, -0.145494f, -0.192809f, -0.128238f, 0.689392f, 0.364104f, 0.247111f, 0.163404f, -0.114583f, 0.158598f, 0.541031f, 0.500511f, 0.074282f, -0.655001f, -0.573101f, -0.144078f, -0.303336f, -0.222351f, -0.0679f, 0.006724f, -0.223304f, -0.138931f, 0.220111f, 0.465079f, 0.474755f, 0.602871f, 0.072673f, -0.238625f, 0.104331f, 0.174896f, 0.63521f, 0.446386f, 0.825319f, 0.544263f, 0.102591f, -0.582369f, -0.390597f, 0.421542f, 0.387977f, 0.10793f, -0.80636f, -0.804216f, -0.39624f, -0.287704f, -0.189364f, 0.09697f, 0.148775f, 0.123349f, -0.268718f, -0.221272f, 0.111238f, 0.709318f, 0.666426f, 0.282063f, -0.251607f, -0.206838f, -0.062049f, 0.536661f, 0.817297f, 0.690696f, 0.798817f, 0.614958f, 0.144043f, -0.55698f, -0.48026f, 0.338047f, 0.35f, -0.09013f, -0.778013f, -0.778389f, -0.059086f, 0.17445f, 0.322993f, 0.561443f, 0.270216f, 0.061367f, -0.164572f, -0.133269f, 0.076011f, 0.828635f, 0.415919f, 0.261261f, 0.077794f, 0.021081f, -0.239891f, 0.561292f, 0.311731f, 0.587045f, 0.695345f, 0.915933f, 0.398449f, -0.08772f, 0.001489f, 0.265071f, 0.477311f, -0.128809f, -0.61122f, -0.052431f, 0.355512f, 0.42162f, 0.29658f, 0.484646f, -0.07276f, -0.011508f, 0.368951f, 0.274915f, 0.623891f, 1.0f, -0.098341f, -0.38982f, -0.153643f, -0.167903f, 0.0146f, 0.186906f, 0.076357f, 0.148534f, 0.648178f, 0.810819f, 0.884047f, 0.56924f, 0.691891f, 0.85356f, 0.456587f, 0.017098f, -0.357797f, 0.226483f, 0.320625f, 0.37049f, 0.259082f, 0.099651f, 0.012881f, 0.287438f, 0.48008f, 0.458959f, 0.7185f, 0.72793f, -0.263955f, -0.093519f, -0.109584f, -0.063748f, 0.072132f, 0.053704f, 0.014891f, -0.266535f, 0.074276f, 0.44181f, 0.634477f, 0.719852f, 0.739178f, 0.823991f, 0.649493f, 0.052033f, -0.152395f, -0.109588f, -0.028393f, -0.134117f, -0.319894f, -0.145185f, 0.147f, 0.127531f, 0.064577f, 0.342993f, 0.233973f, -0.206723f, -0.319087f, -0.39568f, -0.014945f, 0.030804f, 0.143441f, 0.172503f, -0.076913f, -0.271632f, -0.046616f, -0.077338f, -0.081712f, 0.234644f, 0.568869f, 0.54328f, 0.027034f, -0.160814f, -0.207214f, -0.553388f, -0.806729f, -0.789454f, -0.579807f, -0.034113f, -0.06499f, -0.357951f, -0.390366f, -0.460867f, -0.31141f, -0.243895f, 0.115583f, 0.049728f, -0.218804f, -0.05492f, -0.003461f, -0.330278f, -0.562416f, -0.424937f, -0.292859f, -0.169114f, -0.231413f, -0.254298f, -0.028618f, -0.002133f, -0.220282f, -0.326912f, -0.45144f, -0.658886f, -0.583864f, -0.411391f, -0.134052f, -0.420281f, -0.553945f, -0.640043f, -0.478043f, -0.662098f, -0.696244f, -0.465396f, 0.222769f, 0.274044f, -0.072322f, 0.001172f, -0.144938f, -0.3868f, -0.719257f, -0.326657f, -0.290787f, -0.213532f, -0.250516f, -0.436494f, -0.530729f, -0.48195f, -0.213303f, -0.088644f, -0.143408f, -0.208626f, -0.162078f, -0.071692f, -0.245147f, -0.49194f, -0.302034f, -0.132423f, -0.226729f, -0.45424f, -0.861547f, -0.787609f, -0.530159f, -0.081962f, -0.080962f, -0.017471f, -0.022285f, 0.129556f, -0.075512f, -0.087602f, -0.255319f, -0.248556f, -0.343027f, -0.697339f, -0.935802f, -0.947823f, -0.528684f, -0.50634f, -0.323492f, -0.464288f, -0.746836f, -0.627715f, -0.528205f, -0.540539f, -0.064666f, -0.053666f, -0.356589f, -0.105308f, -0.475754f, 0.036839f, -0.062774f, 0.043963f, -0.009118f, -0.005664f, -0.001866f, 0.02647f, -0.148858f, -0.279796f, -0.280244f, -0.351931f, -0.500674f, -0.494054f, -0.398163f, -0.291647f, -0.220706f, -0.18924f, -0.074079f, -0.41585f, -0.465372f, -0.483002f, -0.356816f, -0.42714f, -0.328842f, -0.190789f, -0.226858f, -0.080489f, -0.0631f, -0.107877f, 0.11934f, 0.236605f, -0.006256f, -0.001839f, 0.010008f, 0.106214f, -0.331084f, -0.651146f, -0.80864f, -0.568457f, -0.523262f, -0.792126f, -0.637201f, -0.820012f, -0.593427f, -0.580875f, -0.298843f, -0.299586f, -0.307951f, -0.282169f, -0.271408f, -0.500957f, -0.55852f, -0.361236f, -0.561466f, -0.41441f, -0.193691f, -0.243963f, -0.072361f, 0.143312f, -0.00418f, -0.018571f, 0.004091f, -0.017338f, -0.181809f, -0.249093f, -0.370055f, -0.450844f, -0.340574f, -0.777493f, -0.525933f, -0.92256f, -0.94539f, -1.0f, -0.22326f, -0.278123f, -0.571365f, -0.209868f, -0.281625f, -0.567556f, -0.300581f, -0.056347f, -0.375475f, -0.162851f, -0.010108f, 0.044581f, -0.110255f, 0.002985f, 0.026247f, 0.033591f, 0.030454f, 0.035298f, -0.026498f, -0.21322f, -0.036559f, -4.2e-05f, -0.751235f, -0.989867f, -0.998893f, -0.927172f, -0.929005f, -1.0f, -0.871537f, -0.734515f, -0.613883f, -0.795558f, -0.837185f, -0.567728f, -0.101265f, 0.043885f, -0.087802f, -0.168676f, 0.06753f, -0.024587f, 0.025269f, -0.004164f, 0.025199f},
{0.030338f, -0.00108f, -0.01831f, -0.006094f, 0.016571f, 0.023216f, -0.023089f, -0.030978f, -0.029616f, 0.013881f, 0.021604f, 0.030449f, 0.040233f, 0.033852f, -0.065389f, -0.010289f, -0.027297f, 0.003987f, -0.013109f, 0.028873f, 0.027161f, 0.024913f, 0.026376f, -0.003019f, -0.001803f, 0.022858f, -0.030091f, 0.017271f, 0.023808f, -0.002065f, 0.008785f, -0.027882f, 0.036134f, 0.032679f, 0.220953f, 0.144978f, 0.001332f, -0.115074f, 0.011481f, 0.187217f, 0.14737f, 0.146936f, 0.376539f, -0.169395f, -0.179737f, -0.006285f, 0.035448f, 0.345512f, 0.019457f, -0.231426f, -0.380157f, -0.307823f, 0.004477f, 0.008637f, 0.002918f, 0.010439f, -0.034882f, -0.004274f, -0.14492f, 0.168538f, 0.160373f, -0.000541f, -0.065608f, 0.416008f, -0.019397f, -0.075876f, -0.120204f, -0.223251f, -0.340627f, -0.535411f, -0.601912f, -0.243437f, -0.501627f, -0.574662f, -0.413443f, -0.467598f, -0.538725f, -0.619649f, -0.470583f, -0.549649f, -0.20509f, -0.065223f, 0.01971f, 0.009505f, -0.035455f, -0.025413f, -0.392728f, 0.03831f, 0.286542f, 0.304119f, 0.564419f, 0.066912f, -0.100411f, -0.066347f, -0.224537f, -0.499247f, -0.213493f, -0.381056f, -0.466066f, -0.261038f, -0.752916f, -0.886281f, -0.577997f, -0.606538f, -0.959497f, -0.953293f, -0.890067f, -0.621345f, -0.510625f, -0.433853f, -0.251819f, 0.002135f, 0.000683f, -0.031533f, -0.321523f, 0.072711f, -0.202496f, 0.211615f, 0.097918f, -0.137321f, -0.151084f, -0.147757f, -0.419411f, -0.598552f, -0.369122f, -0.040998f, 0.252321f, 0.293986f, -0.079673f, -0.242786f, -0.434969f, -0.509669f, -0.880252f, -0.99256f, -0.905258f, -0.723498f, -0.856557f, -0.903842f, -0.116895f, 0.000244f, 0.017962f, 0.009828f, -0.419037f, -0.150064f, -0.365474f, -0.282665f, -0.281397f, -0.296227f, -0.341864f, -0.04393f, 0.056736f, 0.097537f, -0.269387f, -0.276728f, 0.08925f, -0.105504f, -0.341871f, -0.331294f, -0.554622f, -0.628211f, -0.589765f, -0.629155f, -0.568699f, -0.805645f, -0.766282f, -0.619149f, -0.449801f, -0.277273f, 0.007445f, -0.076717f, -0.276556f, -0.443955f, -0.249797f, -0.280617f, -0.179336f, -0.278146f, 0.087999f, 0.069216f, 0.123676f, 0.005031f, -0.235239f, -0.060279f, -0.042155f, -0.257082f, -0.441697f, -0.187731f, -0.238153f, -0.309364f, -0.024887f, -0.125247f, 0.014129f, -0.17963f, -0.12608f, -0.423854f, -0.6955f, -0.355798f, 0.100832f, -0.076878f, -0.276449f, -0.260568f, -0.247359f, -0.318426f, -0.413252f, 0.017026f, -0.041233f, -0.128588f, -0.067822f, -0.132639f, -0.299386f, -0.363185f, -0.207579f, -0.268556f, -0.262629f, -0.318379f, -0.031799f, 0.17622f, -0.039331f, -0.055095f, 0.171004f, 0.476183f, 0.585903f, 0.273944f, -0.678608f, -0.43052f, -0.076651f, 0.100657f, -0.101353f, -0.025083f, -0.065301f, -0.466217f, -0.536881f, -0.23956f, -0.355558f, -0.15547f, -0.235451f, -0.346249f, -0.501619f, -0.238464f, 0.127033f, 0.294611f, 0.041362f, -0.103723f, 0.11987f, 0.555962f, 0.418991f, 0.153689f, 0.555244f, 0.766933f, 0.866728f, 0.737217f, -0.108219f, -0.827427f, -0.059033f, 0.007679f, -0.201372f, -0.119871f, -0.206776f, -0.438209f, -0.366661f, -0.120994f, -0.211706f, -0.372444f, -0.380266f, -0.440819f, -0.459712f, -0.103461f, 0.044822f, 0.155331f, 0.319746f, 0.437247f, 0.214182f, 0.665432f, 0.686915f, 0.499057f, 0.888295f, 0.861285f, 0.879415f, 0.949949f, 0.752848f, -0.038687f, -0.064426f, -0.071636f, -0.556694f, -0.013425f, -0.106784f, -0.419917f, -0.165304f, 0.178311f, -0.239585f, -0.48979f, -0.323968f, -0.356636f, 0.200873f, 0.439776f, 0.263282f, 0.565197f, 0.67421f, 0.254851f, 0.180292f, 0.372f, 0.270704f, 0.315788f, 0.836882f, 0.91295f, 0.974365f, 1.0f, 0.451532f, -0.047226f, -0.319643f, -0.571898f, -0.11054f, 0.015795f, -0.125653f, -0.086114f, -0.073715f, 0.256532f, -0.101328f, -0.037527f, 0.246902f, 0.517077f, 0.721742f, 0.802057f, 0.892637f, 0.804478f, 0.412941f, -0.136593f, 0.080309f, 0.172113f, 0.052207f, -0.078956f, 0.544483f, 0.89899f, 0.957191f, 0.993313f, -0.047786f, 0.035191f, -0.033824f, -0.535986f, -0.020863f, 0.183252f, 0.089928f, 0.055625f, -0.18368f, 0.212113f, -0.010723f, -0.002238f, 0.042035f, 0.450686f, 0.401523f, 0.590566f, 0.667399f, 0.528961f, -0.22161f, -0.676551f, -0.502188f, -0.151557f, -0.152963f, -0.283561f, -0.12869f, -0.233437f, 0.13776f, 0.171418f, 0.007469f, -0.029888f, -0.179213f, -0.554467f, -0.077609f, 0.356199f, 0.237452f, -0.303385f, -0.333732f, -0.012513f, 0.079517f, -0.242481f, -0.075374f, 0.221741f, 0.239974f, 0.256554f, 0.453738f, 0.494637f, -0.096253f, -0.63486f, -0.58934f, -0.344368f, -0.204624f, -0.121192f, -0.295261f, -0.615551f, -0.41591f, 0.04389f, -0.136236f, -0.121374f, 0.118237f, -0.343085f, -0.208589f, 0.067664f, 0.141176f, -0.48385f, -0.559757f, -0.252619f, -0.31698f, -0.602252f, -0.434207f, -0.175442f, 0.192158f, 0.149328f, 0.51307f, 0.468944f, 0.191881f, -0.26263f, -0.426942f, -0.367963f, -0.359139f, -0.206064f, -0.445578f, -0.684523f, -0.546442f, -0.050829f, -0.248675f, -0.12323f, -0.066251f, 0.068775f, 0.019394f, 0.084528f, -0.025136f, -0.338267f, -0.28726f, -0.405324f, -0.563323f, -0.497148f, -0.354097f, -0.402314f, -0.266384f, 0.115504f, 0.199458f, 0.283406f, 0.082357f, -0.80094f, -0.821776f, -0.907715f, -0.677745f, -0.27923f, -0.264592f, -0.644854f, -0.816781f, -0.468616f, -0.127168f, -0.394715f, -0.138676f, -0.128236f, 0.069976f, 0.01988f, -0.119482f, -0.193093f, -0.343183f, -0.723398f, -0.478783f, -0.24421f, -0.333953f, -0.582577f, -0.505253f, 0.104293f, -0.11476f, -0.086927f, -0.557608f, -1.0f, -1.0f, -1.0f, -0.922677f, -0.387003f, -0.329636f, -0.536322f, -0.696689f, -0.458369f, -0.020741f, -0.055403f, 0.020923f, -0.220337f, -0.14766f, -0.514966f, -0.429605f, -0.353665f, -0.204948f, -0.176999f, -0.348396f, -0.171217f, -0.467002f, -0.66594f, -0.230886f, 0.075529f, -0.223133f, -0.090483f, -0.758482f, -1.0f, -1.0f, -0.967014f, -0.687366f, -0.202124f, -0.165472f, -0.309311f, -0.416446f, -0.206922f, -0.155276f, -0.163588f, 0.09538f, -0.013384f, -0.217995f, -0.206703f, -0.28458f, -0.023213f, 0.008258f, 0.164648f, 0.168794f, -0.11718f, -0.398892f, -0.104445f, 0.100731f, -0.034663f, -0.266421f, -0.239378f, -0.554517f, -0.939315f, -0.967077f, -0.716412f, -0.242435f, -0.03051f, 0.005277f, -0.256938f, -0.530861f, 0.203046f, 0.279263f, -0.240332f, 0.080788f, -0.060817f, -0.057126f, -0.098245f, -0.272678f, -0.060697f, 0.199069f, 0.330755f, 0.292164f, 0.18939f, 0.081375f, 0.058096f, 0.050403f, -0.097904f, -0.181202f, -0.212941f, -0.620129f, -0.670248f, -0.631872f, -0.518703f, -0.309438f, -0.307824f, -0.11284f, -0.248892f, -0.524451f, 0.61949f, -0.114026f, -0.245548f, 0.023804f, -0.339704f, 0.249403f, -0.234548f, -0.446309f, -0.198918f, 0.129353f, 0.116172f, 0.320951f, 0.377048f, 0.306975f, -0.132332f, -0.21928f, -0.14623f, -0.066194f, -0.1531f, -0.594647f, -0.587128f, -0.322287f, 0.109451f, 0.069923f, -0.091974f, -0.044881f, -0.144893f, -0.397847f, 0.174058f, 0.038619f, -0.325725f, -0.218394f, -0.657206f, 0.025013f, -0.032063f, -0.005505f, 0.230209f, 0.221555f, 0.211802f, 0.166157f, 0.234567f, 0.021456f, -0.495349f, -0.543348f, -0.261426f, -0.179054f, -0.073115f, -0.281028f, -0.304154f, 0.040179f, 0.063321f, 0.164845f, 0.1267f, -0.070521f, -0.118987f, 0.182648f, 0.123434f, -0.067016f, 0.024708f, -0.212757f, -0.173526f, 0.094799f, 0.100509f, 0.137607f, 0.244428f, 0.498392f, 0.271162f, 0.228782f, 0.182733f, 0.11979f, -0.079405f, -0.183647f, -0.108844f, -0.13638f, -0.060122f, -0.22374f, -0.157567f, -0.040176f, 0.181819f, 0.368855f, -0.049407f, -0.330274f, -0.027205f, 0.374149f, 0.280643f, 0.136588f, 0.05801f, -0.011675f, -0.018656f, 0.114856f, -0.18745f, 0.390565f, 0.163096f, 0.162498f, 0.188516f, -0.067192f, -0.167816f, -0.124976f, -0.044907f, 0.248387f, 0.031287f, 0.031837f, -0.169704f, -0.192739f, -0.088768f, 0.03181f, 0.451876f, 0.576773f, -0.26194f, -0.421736f, -0.22476f, 0.198362f, 0.051996f, 0.088709f, -0.008758f, 0.027251f, -0.026005f, 0.190106f, 0.064482f, 0.078287f, 0.144912f, -0.133957f, 0.00493f, 0.164412f, 0.01219f, -0.205815f, -0.117329f, -0.239829f, -0.036504f, 0.146682f, -0.130132f, -0.131708f, -0.199777f, 0.052515f, 0.483335f, 0.512019f, 0.12409f, -0.163748f, -0.322018f, 0.013366f, -0.044161f, -0.043242f, 0.023469f, -0.010833f, 0.029435f, -0.097446f, 0.007246f, -0.421097f, -0.050484f, -0.100299f, 0.180662f, 0.39787f, -0.054454f, 0.220311f, -0.061468f, -0.075272f, 0.068076f, 0.03484f, -0.081371f, -0.061034f, -0.06115f, 0.103313f, 0.4125f, 0.644028f, 0.259339f, 0.458649f, 0.220075f, 0.191339f, -0.177802f, -0.13317f, 0.002837f, -0.032804f, 0.019363f, 0.019547f, 0.147321f, -0.2032f, -0.366743f, -0.527505f, -0.601221f, -0.46983f, -0.408226f, -0.110484f, -0.266955f, -0.600922f, -0.349331f, -0.250686f, -0.171985f, 0.071347f, 0.037225f, 0.021012f, -0.040645f, 0.302785f, 0.204822f, 0.330165f, 0.092323f, -0.024204f, -0.138181f, -0.021545f, 0.007988f, -0.024613f, 0.008407f, -0.003063f, -0.003963f, -0.197778f, 0.024493f, -0.042894f, -0.217188f, -0.461862f, -0.925111f, -0.250953f, -0.180269f, -0.493349f, -0.538446f, -0.362627f, -0.268339f, -0.520421f, -0.598117f, -0.417001f, -0.143257f, -0.004557f, 0.13098f, 0.106119f, -0.128273f, 0.033396f, 0.006791f, 0.00367f, -0.024988f},
{0.030685f, 0.001509f, 0.027723f, 0.017855f, -0.031213f, 0.031834f, 0.000613f, 0.008553f, -0.024558f, 0.013911f, -0.010265f, -0.010586f, 0.126648f, 0.029978f, -0.168769f, -0.093607f, 0.021028f, 0.034241f, -0.005439f, 0.019808f, 0.016063f, -0.014763f, -0.030546f, 0.001322f, -0.017838f, -0.022119f, -0.024201f, -0.03401f, -0.02305f, -0.012236f, -0.002676f, 0.021035f, 0.083452f, 0.149385f, -0.270873f, -0.428941f, -0.469538f, -0.804533f, -0.420571f, -0.326149f, -0.322271f, -0.712635f, -0.565544f, -0.190853f, -0.303057f, -0.113044f, -0.179139f, -0.199077f, -0.468125f, -0.413766f, -0.324907f, -0.156508f, 0.019149f, -0.007829f, -0.026343f, 0.003029f, 0.017833f, -0.009269f, 0.201111f, -0.149389f, -0.104374f, -0.210873f, -0.483539f, -0.430049f, -0.474019f, -0.69104f, -0.903169f, -0.682514f, -0.462898f, -0.341654f, -0.015803f, -0.120045f, -0.601636f, -0.543894f, -0.523427f, -0.787266f, -0.787151f, -0.758573f, -0.772232f, -0.494176f, -0.103771f, -0.063892f, 0.000921f, -0.001525f, -0.022125f, -0.001536f, 0.252574f, -0.128375f, -0.065326f, 0.150117f, -0.061553f, -0.163254f, 0.272985f, 0.288168f, -0.037096f, 0.085662f, -0.185173f, -0.323398f, -0.451255f, 0.073652f, 0.037601f, -0.177986f, -0.133234f, -0.054572f, -0.445766f, -0.767193f, -0.610071f, -0.353249f, -0.172991f, -0.278683f, -0.004992f, -0.016874f, -0.007516f, 0.026439f, -0.078327f, -0.082086f, 0.204278f, 0.274098f, 0.004552f, -0.008142f, 0.268548f, 0.513801f, 0.405999f, 0.353415f, 0.127935f, -0.026233f, 0.084766f, 0.20809f, 0.07916f, -0.069752f, -0.018017f, -0.080474f, -0.164736f, -0.745352f, -0.43093f, -0.108153f, 0.173252f, 0.074166f, -0.233857f, 0.007347f, -0.02429f, 0.023204f, -0.054783f, -0.740028f, -0.276488f, -0.259317f, -0.18234f, -0.630244f, -0.309865f, -0.135157f, -0.106936f, 0.222907f, 0.167636f, 0.058985f, 0.438668f, 0.534148f, 0.108515f, 0.061024f, 0.030876f, 0.014769f, 0.112685f, -0.079075f, 0.0059f, 0.198463f, -0.259534f, -0.354614f, -0.09384f, -0.08319f, 0.014168f, -0.140948f, 0.112891f, -0.10469f, -0.275027f, -0.421629f, -0.607026f, -0.916463f, -0.588129f, -0.315245f, -0.341169f, -0.433159f, -0.345707f, 0.046375f, 0.089104f, 0.10649f, 0.07896f, 0.197207f, 0.171118f, 0.32954f, 0.292181f, -0.044597f, -0.021922f, -0.013469f, -0.063086f, -0.275341f, -0.211721f, 0.002679f, -0.077682f, -0.38945f, -0.178946f, -0.237848f, -0.100618f, -0.375582f, -0.805027f, -0.682803f, -0.466982f, -0.242255f, -0.568347f, -0.693508f, -0.537593f, -0.313443f, -0.06464f, -0.347162f, -0.268168f, -0.269881f, -0.172295f, 0.098971f, 0.167852f, -0.033171f, -0.135549f, -0.404987f, -0.271647f, 0.003898f, -0.185129f, -0.196198f, -0.266715f, -0.377183f, -0.142696f, -0.053129f, -0.036629f, -0.426756f, -0.648976f, -0.275805f, -0.152098f, -0.064483f, -0.215515f, -0.025194f, -0.028764f, -0.007913f, -0.165468f, -0.115817f, -0.297566f, -0.017979f, 0.352669f, 0.249482f, 0.293739f, 0.182571f, -0.086589f, -0.156474f, -0.40998f, -0.457809f, -0.364502f, -0.072442f, -0.412785f, -0.195743f, 0.033018f, 0.060094f, -0.158245f, -0.601039f, -0.503779f, -0.189279f, -0.182865f, 0.200178f, -0.207254f, 0.156111f, -0.029929f, -0.392956f, -0.478106f, -0.1186f, -0.219731f, 0.241887f, 0.454158f, 0.344063f, 0.570187f, 0.634894f, 0.649851f, 0.008504f, -0.466813f, 0.032854f, 0.848536f, 0.410713f, -0.296374f, -0.290332f, -0.147857f, -0.146604f, -0.322765f, -0.371287f, -0.349854f, -0.115493f, -0.130496f, 0.195127f, -0.116903f, -0.298705f, -0.592855f, -0.952681f, -0.683295f, 0.285116f, 0.255939f, 0.446218f, 0.662156f, 0.279367f, 0.449979f, 0.40824f, 0.266014f, -0.089035f, -0.003648f, 0.385844f, 0.553223f, 0.034552f, -0.213059f, -0.271977f, -0.067295f, -0.400275f, -0.703149f, -0.467626f, -0.553717f, -0.345055f, -0.000728f, 0.053635f, -0.423387f, -0.880635f, -1.0f, -0.771097f, -0.033554f, 0.935049f, 0.547168f, 0.593053f, 0.78559f, 0.423491f, 0.288101f, -0.241644f, -0.86033f, -0.978433f, -0.592621f, 0.590379f, -0.078403f, -0.349936f, -0.254463f, 0.207635f, -0.027974f, -0.402486f, -0.527286f, -0.600217f, -0.801181f, -0.666072f, 0.043311f, -0.265308f, -0.610801f, -0.701241f, -0.424419f, 0.457506f, 0.865515f, 0.743587f, 0.580147f, 0.420693f, 0.376113f, 0.502778f, -0.074795f, -0.879939f, -0.946034f, -0.924847f, -1.0f, 0.117639f, 0.554669f, 0.258074f, -0.188503f, 0.228731f, 0.006807f, -0.351798f, -0.477152f, -0.596091f, -0.529797f, -0.447389f, -0.122168f, -0.367673f, -0.42667f, 0.14236f, 0.863258f, 0.834939f, 0.017171f, 0.407001f, 0.680947f, 0.438327f, 0.205856f, 0.111861f, -0.10806f, -0.954654f, -0.977964f, -0.943709f, -0.507601f, 0.540402f, 0.508721f, 0.302133f, 0.117171f, 0.469489f, 0.215641f, 0.064061f, 0.402777f, -0.103989f, -0.053939f, -0.092798f, -0.027038f, -0.053119f, 0.184423f, 0.663873f, 0.899222f, 0.458807f, 0.07399f, 0.263665f, 0.666306f, 0.413553f, -0.037955f, -0.412794f, -0.27818f, -0.456491f, -0.845396f, -0.612783f, -0.129397f, 0.731165f, 0.772023f, 0.414141f, -0.104249f, 0.309848f, 0.516789f, 0.607858f, 0.85403f, 0.456027f, 0.43369f, 0.340473f, 0.110922f, 0.125742f, 0.371916f, 0.406567f, 0.384677f, 0.024822f, -0.480622f, 0.169873f, 0.369695f, 0.046691f, -0.410237f, -0.853741f, -0.769585f, -0.461477f, 0.000927f, 0.04081f, 0.368372f, 0.949696f, 1.0f, 0.180634f, -0.177474f, -0.026884f, 0.508348f, 0.742818f, 0.979408f, 0.982194f, 0.810198f, 0.420606f, 0.29428f, 0.100964f, 0.126601f, 0.180494f, 0.307567f, -0.131981f, -0.265873f, 0.019386f, 0.374341f, 0.038188f, -0.456226f, -0.629058f, -0.280888f, 0.087201f, 0.472054f, 0.396219f, 0.496595f, 0.868867f, 0.789836f, 0.256921f, 0.031961f, 0.096427f, 0.524402f, 0.962665f, 0.991757f, 1.0f, 1.0f, 0.760249f, 0.292917f, -0.046635f, -0.519342f, -0.297746f, -0.088492f, -0.00368f, -0.007326f, 0.4401f, 0.360151f, 0.196791f, -0.020956f, 0.079361f, -0.078226f, 0.250673f, 0.505238f, 0.417203f, 0.629228f, 0.176689f, -0.479968f, 0.194752f, -0.260937f, -0.044457f, 0.326645f, 0.979109f, 1.0f, 1.0f, 1.0f, 0.828562f, 0.374886f, -0.008792f, -0.369488f, -0.412994f, -0.340498f, -0.160684f, 0.062604f, 0.301647f, 0.300075f, -0.000185f, 0.073222f, 0.294079f, -0.118803f, 0.050972f, 0.394307f, 0.875106f, 0.681092f, 0.279236f, -0.73947f, 0.245014f, 0.004769f, -0.136814f, -0.279048f, 0.357962f, 0.940504f, 0.861331f, 1.0f, 0.612327f, 0.299514f, 0.073136f, -0.451249f, -0.537429f, -0.806123f, -0.734816f, -0.683323f, 0.016442f, 0.202159f, -0.026261f, -0.003113f, -0.001131f, -0.416753f, -0.066247f, 0.201398f, 0.507688f, 0.201807f, 0.277503f, -0.374162f, 0.094632f, 0.03545f, -0.249645f, -0.375479f, 0.213016f, 0.336172f, 0.541674f, 0.411217f, -0.035175f, -0.412914f, -0.594489f, -0.704673f, -0.859808f, -0.968233f, -0.992082f, -0.971247f, -0.181702f, 0.121719f, 0.045184f, 0.233716f, -0.10356f, -0.252233f, -0.136791f, 0.093218f, 0.253926f, 0.552635f, 0.719442f, -0.035986f, -0.152923f, -0.067476f, -0.171048f, -0.401985f, 0.020924f, 0.07138f, 0.227949f, 0.340772f, 0.002f, -0.474796f, -0.533239f, -0.420857f, -0.762809f, -0.932386f, -1.0f, -0.772858f, -0.267733f, 0.315415f, 0.13671f, 0.190317f, -0.017166f, 0.136222f, -0.100094f, -0.169301f, -0.217256f, 0.508907f, 0.593799f, -0.072933f, 0.056487f, -0.090076f, -0.160789f, -0.532352f, 0.001418f, -0.196483f, 0.058747f, 0.285797f, 0.1195f, -0.055074f, -0.065852f, -0.100556f, -0.295307f, -0.348298f, -0.523262f, -0.594959f, -0.301909f, -0.042956f, 0.020152f, 0.165224f, -0.067271f, -0.003051f, -0.300667f, -0.284364f, -0.499365f, -0.508595f, 0.086606f, -0.260999f, 0.062659f, 0.02319f, 0.014303f, -0.505652f, -0.010565f, -0.50693f, -0.45602f, -0.161771f, -0.171286f, -0.39965f, -0.30809f, -0.367317f, -0.191837f, -0.133532f, -0.427645f, -0.59841f, -0.723838f, -0.401314f, 0.072079f, 0.435831f, 0.268883f, 0.000114f, -0.103819f, -0.114049f, -0.071436f, 0.182287f, 0.144524f, 0.248371f, 0.005516f, 0.034564f, -0.023149f, -0.127324f, 0.157956f, -0.195873f, -0.303967f, -0.335339f, 0.167316f, 0.107027f, -0.351912f, -0.465364f, -0.39134f, -0.51435f, -0.467183f, -0.548616f, -0.393334f, -0.102028f, 0.085408f, 0.413779f, 0.149406f, 0.030209f, 0.032202f, -0.365859f, -0.193259f, 0.189318f, 0.102739f, 0.145289f, -0.014121f, -0.002178f, 0.010628f, -0.006912f, -0.206408f, -0.27576f, -0.249148f, -0.356693f, -0.097702f, 0.080709f, -0.225638f, -0.00971f, -0.05431f, -0.066468f, -0.206669f, -0.440318f, -0.348674f, -0.655015f, -0.382119f, 0.179385f, -0.676342f, -0.933073f, -0.223837f, -0.266162f, 0.128135f, 0.312194f, 0.178475f, 0.215906f, 0.011343f, 0.008379f, 0.001648f, 0.008769f, 0.122172f, 0.185087f, -0.528932f, -0.589967f, -0.67587f, -0.486238f, -0.12492f, -0.084426f, -0.581947f, -0.759501f, -0.19736f, -0.584745f, -0.88813f, -0.765343f, -0.066607f, 0.292646f, -0.413238f, -0.611293f, -0.44742f, -0.186375f, 0.00402f, 0.145529f, 0.201418f, -0.002048f, 0.012902f, -0.02318f, 0.031683f, 0.006767f, -0.027674f, 0.040294f, -0.254979f, -0.627684f, -0.352699f, -0.275264f, -0.526172f, -0.065035f, -0.138015f, -0.800721f, -0.489461f, -0.307996f, -0.626112f, -0.804075f, -0.600833f, -0.277305f, -0.177111f, -0.283623f, -0.255328f, -0.07428f, -0.025543f, 0.026201f, 0.001453f, -0.021255f, 0.002289f},
