#include <float.h>
#include <math.h>
#include <stdbool.h>
#include <stdint.h>
#include <string.h>
#include<stdio.h>
#define MAX(X,Y) ( X > Y ? X : Y)
#define MIN(X,Y) ( X < Y ? X : Y)
#define CLIP(X,L) ( MAX(MIN(X,L), -L) )
#define BINARISE(X) ( X>=0? 1:-1)
#define RELU(X) MAX(0,X)
#define HARD_SIGMOID(X) MAX( 0 , MIN( 1 ,((X+1)/2) ) )

#define INPUT_LAYER_SIZE_ROW 150
#define INPUT_LAYER_SIZE_COL 784

#define SECOND_LAYER_SIZE_ROW INPUT_LAYER_SIZE_ROW
#define SECOND_LAYER_SIZE_COL INPUT_LAYER_SIZE_ROW

#define IMAGE_SIZE 784
#define GAMMA 0.5

/* layer_1_MatMul*/
static const float tensor_layer_1_MatMul_weights[INPUT_LAYER_SIZE_ROW][784] =
{
    {0.018384f, -0.015781f, -0.006941f, 0.016745f, -0.033641f, 0.021401f, -0.007365f, 0.018152f, 0.004947f, -0.004391f, 0.009888f, 0.001744f, -0.024912f, -0.064513f, 0.006982f, -0.002812f, 0.005159f, -0.00016f, 0.031202f, 0.011096f, -0.013318f, -0.021588f, -0.006004f, -0.015423f, -0.011462f, 0.001692f, 0.021273f, 0.019394f, -0.03493f, 0.022122f, 0.00996f, 0.033859f, 0.058037f, 0.035279f, -0.007183f, 0.139231f, 0.65001f, -0.004031f, -0.037703f, -0.059515f, 0.570208f, 0.277402f, 0.098696f, 0.148586f, 0.194541f, 0.38112f, 0.246404f, -0.071922f, 0.119144f, 0.105661f, 0.033947f, -0.121781f, 0.019362f, -0.008699f, 0.035555f, 0.02861f, -0.00169f, -0.023856f, -0.125059f, 0.018331f, -0.206126f, 0.139795f, 0.524641f, 0.551672f, 0.365987f, -0.109071f, -0.271929f, -0.384883f, -0.445216f, -0.523599f, -0.516875f, -0.241839f, 0.073229f, -0.178961f, -0.194535f, -0.162593f, 0.015175f, 0.063717f, -0.054584f, -0.181482f, 0.077333f, 0.112992f, 0.002154f, -0.006104f, 0.020958f, -0.020701f, -0.214479f, 0.128606f, -0.231678f, -0.071397f, 0.017506f, 0.05871f, 0.032217f, -0.109291f, -0.156933f, -0.395685f, -0.165315f, -0.336668f, -0.462468f, -0.20929f, -0.186775f, -0.316161f, -0.123699f, 0.009478f, -0.208383f, -0.45111f, -0.256432f, -0.123152f, -0.065079f, 0.084942f, 0.104356f, 0.026659f, 0.033847f, 0.031306f, -0.041864f, -0.073711f, 0.473081f, -0.225714f, -0.25673f, -0.042519f, -0.051779f, 0.064483f, 0.103026f, 0.095992f, -0.03177f, -0.125971f, -0.149686f, 0.000349f, -0.245513f, -0.171297f, -0.032299f, 0.193933f, 0.067091f, -0.066712f, -0.076869f, 0.03711f, 0.116273f, -0.140567f, -0.269828f, -0.057776f, -0.016383f, -0.004177f, 0.16637f, -0.091854f, -0.431129f, -0.476243f, -0.067425f, 0.065077f, 0.152016f, 0.181458f, 0.199616f, 0.509039f, 0.459866f, 0.227437f, -0.023348f, 0.05781f, -0.223165f, -0.317788f, 0.039829f, 0.054122f, -0.131009f, -0.342194f, -0.268101f, -0.267612f, -0.569358f, -0.342371f, -0.5809f, -0.157239f, -0.028479f, 0.012428f, -0.429519f, -0.292234f, -0.514545f, -0.317638f, 0.147304f, 0.020639f, -0.036914f, -0.148543f, 0.350739f, 0.748077f, 0.850906f, 0.818287f, 0.641254f, 0.690601f, 0.43509f, 0.174954f, 0.03651f, 0.087214f, -0.079906f, -0.284409f, -0.420982f, -0.441274f, -0.658906f, -0.413347f, -0.681118f, -0.365821f, -0.031477f, -0.087078f, -0.822658f, -0.513153f, -0.106731f, -0.423312f, -0.13794f, 0.005676f, -0.091123f, 0.015249f, 0.330829f, 0.513053f, 0.995704f, 1.0f, 0.704276f, 0.770914f, 0.430362f, 0.128213f, -0.070253f, -0.075664f, 0.158734f, -0.012766f, -0.249982f, -0.102301f, -0.354975f, -0.134365f, -0.635955f, -0.243651f, -0.042855f, -0.431941f, -0.962211f, -0.498905f, -0.217875f, -0.294635f, 0.076441f, 0.170623f, 0.234008f, 0.144201f, 0.215664f, 0.178322f, 0.224382f, 0.237003f, 0.186777f, 0.115874f, 0.306823f, 0.174547f, -0.055037f, -0.479529f, -0.058756f, 0.069136f, -0.140307f, -0.001031f, 0.228431f, 0.421793f, 0.285635f, 0.220286f, -0.022093f, -0.351077f, -0.769825f, -0.512187f, -0.212501f, 0.233707f, 0.550292f, 0.602186f, 0.577787f, 0.213779f, 0.128273f, -0.023948f, 0.110705f, -0.064856f, -0.07267f, -0.141319f, -0.168765f, -0.454155f, -0.710252f, -0.852628f, -0.259016f, -0.089841f, -0.238706f, -0.185712f, -0.054116f, 0.348806f, 0.31143f, -0.039019f, 0.036135f, -0.493663f, -0.647263f, -0.304485f, -0.013439f, 0.422788f, 0.478367f, 0.639618f, 0.594093f, 0.224835f, 0.038584f, -0.043848f, 0.169653f, -0.031405f, -0.10059f, -0.493446f, -0.647174f, -0.98374f, -0.994736f, -0.987215f, -0.532859f, -0.29663f, -0.357949f, -0.32279f, -0.202979f, 0.059484f, -0.015809f, -0.123077f, -0.078704f, -0.336569f, -0.605721f, -0.344719f, 0.047846f, 0.206492f, 0.41304f, 0.308649f, 0.189772f, -0.108287f, -0.073013f, 0.231089f, 0.281175f, 0.248257f, -0.017254f, -0.523214f, -0.591422f, -0.983095f, -0.98129f, -0.575899f, -0.31638f, -0.292405f, -0.364685f, -0.453054f, -0.170129f, -0.02521f, -0.02402f, -0.205989f, 0.107634f, -0.293761f, -0.455485f, -0.103041f, -0.028064f, 0.082781f, 0.599688f, 0.33147f, -0.037462f, -0.145211f, 0.347558f, 0.559497f, 0.644705f, 0.579356f, 0.223885f, -0.28469f, -0.461988f, -0.57509f, -0.202254f, 0.035937f, -0.079776f, -0.002015f, -0.051946f, -0.280123f, -0.433717f, -0.115142f, -0.118604f, -0.250152f, -0.082507f, -0.296073f, -0.323559f, -0.042556f, -0.132865f, 0.172048f, 0.633052f, 0.609822f, 0.107871f, -0.009009f, 0.339726f, 0.680571f, 0.611959f, 0.299543f, -0.116329f, -0.281487f, -0.243588f, -0.234925f, 0.018179f, 0.016308f, -0.013794f, 0.115041f, 0.1645f, -0.049028f, -0.133541f, -0.173094f, -0.086498f, -0.109285f, -0.102984f, -0.160667f, -0.174314f, -0.166969f, -0.115896f, -0.089229f, 0.36263f, 0.285044f, -0.06707f, 0.126571f, 0.05871f, 0.283491f, 0.464274f, 0.059897f, -0.28505f, -0.450163f, -0.141162f, -0.236338f, -0.12019f, 0.026247f, 0.180396f, 0.090482f, -0.012437f, -0.089736f, 0.179626f, 0.073703f, -0.357638f, 0.010814f, -0.162174f, -0.065851f, 0.065333f, -0.117309f, -0.04164f, -0.373839f, -0.031597f, -0.020005f, -0.20126f, -0.208299f, -0.10179f, 0.056192f, 0.308362f, 0.06746f, -0.017768f, -0.287564f, -0.434223f, -0.347353f, -0.205031f, 0.056073f, 0.273911f, 0.333154f, -0.149651f, 0.063654f, 0.112169f, -0.324083f, -0.643748f, -0.134658f, -0.118833f, -0.087479f, 0.117703f, 0.007645f, -0.084951f, -0.211423f, -0.031832f, -0.030728f, -0.346936f, -0.315288f, -0.209939f, -0.254169f, -0.004095f, 0.236526f, 0.199633f, -0.073669f, -0.379005f, -0.445958f, -0.308104f, -0.093714f, 0.1132f, -0.04719f, -0.24373f, -0.003311f, 0.065484f, -0.522497f, -0.524399f, 0.057863f, -0.034222f, 0.088205f, -0.065644f, 0.149505f, 0.000582f, -0.240744f, 0.152084f, -0.046692f, -0.440607f, -0.439786f, -0.320289f, -0.274557f, -0.096906f, 0.068458f, 0.057096f, -0.087493f, -0.031153f, -0.057144f, 0.012717f, 0.022236f, 0.094287f, -0.081812f, -0.213833f, 0.156737f, 0.193218f, -0.658498f, -0.456661f, 0.010858f, -0.08491f, -0.180643f, -0.104474f, 0.244511f, -0.03028f, -0.086971f, 0.129393f, 0.103312f, -0.307117f, -0.402518f, -0.429154f, -0.580851f, -0.235003f, -0.082663f, -0.036374f, -0.183807f, -0.076857f, 0.076237f, 0.327507f, 0.326262f, 0.257399f, 0.09549f, 0.289508f, 0.196272f, -0.056025f, -0.508562f, -0.188255f, -0.021609f, 0.026027f, -0.142549f, 0.159425f, 0.448473f, 0.093344f, -0.035284f, -0.048393f, -0.06003f, 0.000757f, -0.193699f, -0.609461f, -0.659355f, -0.268379f, -0.159193f, -0.250827f, -0.262686f, -0.129281f, -0.058783f, -0.001928f, 0.010266f, 0.27323f, 0.279374f, 0.268407f, 0.309347f, 0.048953f, -0.061999f, -0.375648f, 0.267181f, -0.015763f, -0.048414f, 0.055435f, 0.289152f, 0.168449f, 0.033904f, -0.028069f, -0.112871f, 0.095324f, -0.170821f, -0.446821f, -0.460427f, -0.220209f, -0.319349f, -0.424494f, -0.516686f, -0.094588f, -0.077018f, -0.166796f, -0.047954f, 0.246412f, 0.510651f, 0.42917f, 0.520242f, -0.022163f, 0.094021f, -0.170698f, -0.067975f, -0.019886f, 0.09754f, -0.273292f, 0.105371f, 0.060173f, -0.102021f, 0.001939f, -0.023941f, 0.023584f, -0.046329f, -0.062598f, -0.190042f, -0.107997f, -0.702924f, -0.618574f, -0.345859f, -0.043316f, -0.071809f, 0.062126f, 0.156118f, 0.443156f, 0.649916f, 0.558184f, 0.452222f, 0.042447f, 0.007769f, -0.25884f, 0.139341f, -0.022179f, 0.012269f, -0.281878f, 0.083581f, -0.093355f, -0.328224f, -0.08842f, -0.019971f, -0.365793f, -0.315983f, -0.250489f, -0.033419f, -0.26185f, -0.515704f, -0.40316f, -0.12649f, 0.118132f, 0.105481f, 0.225365f, 0.300976f, 0.676946f, 0.741706f, 0.643064f, 0.652159f, 0.282011f, 0.100833f, 0.299961f, 0.176955f, 0.022734f, 0.015789f, 0.079798f, 0.068853f, -0.23894f, -0.02161f, -0.143557f, 0.066184f, 0.123889f, -0.146703f, -0.154019f, -0.076848f, 0.034657f, 0.046278f, 0.107973f, 0.151342f, -0.028016f, 0.048328f, 0.276256f, 0.321797f, 0.576602f, 0.729716f, 0.42949f, 0.36786f, 0.198382f, -0.105337f, 0.313856f, -0.004023f, -0.033104f, 0.006604f, -0.16161f, -0.177552f, -0.367777f, 0.151995f, 0.38196f, 0.236734f, 0.385612f, 0.356396f, 0.285605f, 0.334523f, 0.337701f, 0.35104f, 0.391582f, 0.248438f, -0.081294f, -0.294097f, 0.064318f, 0.358929f, 0.577053f, 0.305953f, 0.360089f, 0.190466f, -0.15854f, -0.464598f, 0.059118f, 0.025122f, -0.022795f, -0.020838f, -0.028264f, 0.07501f, 0.039953f, 0.136637f, 0.246421f, 0.066504f, 0.015606f, 0.214094f, 0.47946f, 0.282473f, 0.153311f, 0.168742f, -0.213139f, -0.141967f, -0.376964f, -0.44824f, -0.458729f, -0.050297f, 0.252048f, 0.44465f, 0.343921f, 0.511257f, 0.393991f, 0.079118f, -0.047819f, -0.013823f, 0.002378f, -0.013738f, 0.033606f, -0.086931f, -0.160357f, 0.137964f, 0.193085f, -0.038613f, 0.01873f, 0.118346f, -0.12743f, -0.698079f, -0.799326f, -0.680984f, -0.853228f, -0.687932f, -0.794045f, -0.884727f, -0.716526f, -0.474007f, 0.032522f, -0.018163f, -0.068874f, -0.152462f, 0.0971f, -0.027661f, -0.012482f, 0.028276f, 0.02721f, 0.022771f, -0.014945f, -0.007091f, -0.03376f, 0.193288f, -0.014222f, -0.073512f, 0.024093f, 0.025297f, -0.396585f, -0.493139f, -0.392069f, -0.528103f, -0.565405f, -0.272188f, -0.418346f, -0.616958f, -0.478383f, -0.554261f, -0.147719f, -0.166304f, -0.362513f, -0.246898f, -0.017035f, 0.006758f, -0.004115f, 0.002483f},
    {-0.027389f, -0.022458f, -0.030938f, -0.025689f, 0.029888f, 0.013249f, -0.03408f, -0.005981f, 0.002847f, 0.01906f, 0.033104f, 0.008604f, -0.059626f, -0.045393f, 0.162382f, 0.019429f, 0.008208f, 0.032947f, 0.022408f, 0.035519f, -0.016112f, -0.004488f, 0.007347f, 0.028694f, -0.03285f, -0.017559f, 0.005161f, -0.020663f, 0.013322f, -0.002455f, -0.009274f, 0.019134f, 0.027153f, 0.014568f, 0.028254f, -0.147943f, -0.587429f, -0.318795f, -0.103681f, -0.1361f, -0.369013f, -0.299906f, -0.086416f, -0.216056f, -0.310579f, -0.54577f, -0.344512f, -0.515616f, -0.365953f, -0.094593f, -0.229414f, -0.270506f, 0.031875f, -0.03453f, -0.008376f, 0.027677f, 0.01543f, -0.017838f, -0.205555f, 0.073717f, 0.085708f, 0.000295f, -0.357048f, -0.467336f, -0.323222f, -0.16126f, -0.468228f, -0.521172f, -0.692725f, -0.438893f, -0.967446f, -0.974567f, -0.84597f, -0.888685f, -1.0f, -1.0f, -0.543056f, -0.185189f, -0.571456f, -0.454053f, -0.021002f, 0.036649f, -0.011091f, -0.0299f, 0.007824f, 0.022219f, -0.189406f, 0.027753f, -0.352926f, -0.174385f, -0.470729f, -0.650979f, -0.542085f, -0.740037f, -0.870408f, -0.520952f, -0.52959f, -0.858945f, -0.983828f, -0.95728f, -0.944052f, -0.913507f, -0.714468f, -0.50249f, -0.508913f, -0.301924f, -0.277339f, -0.289781f, -0.162471f, -0.172061f, -0.186219f, -0.019932f, -0.016955f, 0.142051f, -0.308864f, 0.075825f, -0.233398f, -0.368247f, -0.099894f, -0.091392f, -0.435262f, -0.547958f, -0.068351f, -0.05539f, -0.216028f, -0.282408f, -0.502557f, -0.435863f, -0.617239f, -0.338928f, -0.229584f, -0.171301f, -0.259092f, -0.42869f, -0.735866f, -0.592233f, 0.088601f, 0.145138f, -0.139663f, -0.145804f, 0.005612f, -0.033289f, -0.14148f, 0.19043f, 0.002419f, -0.32204f, 0.220762f, 0.114823f, -0.002673f, 0.003155f, 0.107957f, 0.187804f, 0.140055f, -0.051709f, -0.132598f, -0.130184f, -0.274523f, -0.313957f, -0.235135f, -0.074507f, -0.253914f, -0.215162f, -0.253029f, -0.601216f, -0.566481f, -0.035099f, -0.466669f, 0.016518f, 0.001476f, -0.0057f, -0.481097f, -0.182381f, -0.151648f, -0.042567f, 0.142622f, -0.009832f, -0.053659f, 0.259131f, 0.283482f, 0.253498f, 0.11151f, 0.03913f, 0.027036f, -0.077535f, -0.061525f, -0.153915f, -0.073491f, 0.093857f, 0.036349f, -0.027501f, -0.028518f, -0.020778f, 0.052905f, -0.210518f, -0.554358f, -0.146375f, -0.104204f, 0.007641f, -0.169875f, -0.220216f, -0.555007f, 0.054639f, 0.140299f, 0.179993f, 0.229911f, -0.057508f, -0.048008f, -0.229882f, -0.318908f, 0.087485f, 0.034815f, 0.196231f, 0.139594f, -0.137418f, -0.031298f, -0.004186f, 0.223904f, 0.301641f, -0.135947f, 0.2656f, 0.527984f, 0.591037f, 0.078212f, -0.394169f, 0.170623f, -0.185888f, -0.082538f, -0.382082f, -0.535964f, -0.041042f, 0.032765f, 0.186766f, 0.111028f, -0.125957f, -0.265758f, -0.650685f, -0.449313f, -0.018956f, 0.12055f, 0.045122f, 0.239659f, 0.273845f, -0.10973f, -0.152954f, 0.110507f, 0.078366f, -0.147471f, 0.513914f, 1.0f, 0.858165f, 0.472212f, -0.450077f, -0.087601f, -0.122187f, -0.418011f, -0.532876f, -0.572405f, -0.39287f, 0.069833f, 0.37015f, 0.064187f, -0.12711f, -0.223136f, -0.190034f, -0.06482f, 0.008867f, -0.271204f, -0.053429f, 0.260939f, -0.090273f, -0.034578f, -0.034754f, 0.214494f, 0.096621f, 0.156567f, 0.98423f, 0.997246f, 1.0f, 0.546107f, -0.18567f, -0.025151f, -0.281264f, -0.450378f, -0.752826f, -0.298398f, -0.248439f, 0.324951f, 0.427472f, 0.272869f, 0.115919f, 0.084459f, -0.046945f, -0.145436f, -0.12358f, -0.240255f, 0.166858f, 0.211928f, 0.004065f, -0.052257f, 0.171628f, 0.06771f, 0.07374f, 0.170611f, 0.995782f, 0.998585f, 0.973232f, 0.365811f, -0.075996f, -0.034737f, -0.259483f, -0.623137f, -0.592519f, 0.038058f, 0.312932f, 0.511472f, 0.358502f, 0.330977f, 0.594683f, 0.304516f, 0.066721f, -0.015756f, -0.366793f, -0.439731f, 0.020686f, -0.029405f, -0.042578f, -0.225389f, 0.246617f, -0.072919f, -0.193032f, 0.07188f, 0.184521f, 0.303075f, 0.674612f, 0.467847f, 0.250058f, -0.04033f, -0.374066f, -0.723375f, -0.256551f, 0.333234f, 0.502597f, 0.513137f, 0.345523f, 0.238776f, 0.397908f, 0.635538f, 0.421778f, 0.265016f, -0.21619f, -0.495234f, -0.158882f, -0.011434f, -0.30043f, -0.181744f, 0.245682f, -0.091416f, -0.075123f, -0.173619f, -0.758415f, -0.309957f, 0.145911f, 0.566945f, 0.297857f, 0.029492f, -0.324595f, -0.394903f, -0.275391f, 0.032073f, 0.355469f, 0.353294f, 0.363794f, 0.488453f, 0.595088f, 0.991435f, 1.0f, 0.816953f, 0.15021f, -0.145538f, -0.143739f, -0.029609f, -0.33616f, -0.090683f, 0.387853f, 0.236045f, 0.097469f, -0.455954f, -0.995419f, -0.693124f, 0.125862f, 0.923862f, 0.247567f, 0.109608f, 0.056092f, -0.222619f, -0.116726f, -0.025047f, -0.148501f, 0.082564f, 0.25377f, 0.500226f, 0.681129f, 0.849414f, 0.956918f, 0.82955f, 0.237028f, -0.067729f, 0.031918f, 0.02479f, 0.011927f, 0.113367f, 0.231594f, -0.054816f, -0.448812f, -0.895954f, -0.945552f, -0.570327f, 0.152744f, 0.844353f, 0.112344f, 0.059713f, 0.154524f, 0.074327f, 0.253643f, 0.148521f, -0.366328f, 0.005917f, -0.04701f, 0.186474f, 0.185911f, 0.51841f, 0.628729f, 0.40905f, -0.063773f, -0.240121f, 0.003252f, 0.371053f, 0.330662f, 0.116765f, -0.024542f, -0.244717f, -0.66957f, -0.828977f, -0.73834f, -0.408467f, 0.045403f, 0.816677f, 0.127566f, 0.017579f, 0.077429f, 0.391007f, 0.653448f, 0.494179f, 0.043617f, 0.192128f, -0.087677f, -0.02302f, -0.064531f, 0.064842f, -0.011226f, 0.089314f, -0.052589f, 0.113845f, 0.375948f, 0.511459f, 0.339337f, -0.140546f, -0.265288f, -0.213098f, -0.310449f, -0.378517f, -0.345731f, -0.214586f, 0.212767f, 1.0f, -0.345426f, 0.010228f, -0.220913f, 0.537213f, 0.63531f, 0.608742f, 0.501232f, 0.804126f, 0.58596f, 0.197606f, 0.053889f, -0.069151f, -0.065975f, 0.131994f, 0.350485f, 0.460969f, 0.670246f, 0.444631f, -0.122296f, -0.219199f, -0.292078f, -0.240443f, -0.245989f, -0.03145f, 0.350187f, 0.541901f, 0.308527f, 0.641093f, -0.158075f, -0.149715f, -0.283386f, 0.489429f, 0.522193f, 0.173629f, 0.414203f, 0.803101f, 0.820655f, 0.39725f, 0.052717f, 0.190064f, -0.003051f, 0.285948f, 0.478071f, 0.423831f, 0.090837f, -0.274034f, -0.304692f, -0.098341f, 0.052897f, -0.237669f, -0.347523f, -0.083958f, 0.488874f, 0.825208f, 0.299663f, -0.104688f, -0.162233f, -0.098564f, -0.154202f, 0.040292f, 0.126623f, -0.134991f, 0.26406f, 0.576596f, 0.472743f, 0.139414f, 0.12569f, -0.158409f, -0.061609f, 0.173254f, 0.017576f, -0.610756f, -0.68654f, -0.540479f, -0.414482f, -0.112313f, -0.042483f, -0.16793f, -0.235338f, -0.18036f, 0.846271f, 0.957291f, 0.469744f, 0.198845f, -0.085422f, -0.019703f, 0.014657f, 0.083866f, -0.245521f, -0.215013f, 0.235602f, 0.27221f, -0.045051f, -0.377286f, -0.275945f, -0.307168f, -0.288803f, -0.326143f, -0.288988f, -0.780843f, -0.783244f, -0.42845f, -0.309979f, -0.122681f, -0.008706f, 0.047928f, -0.004756f, 0.110026f, 0.824338f, 0.987957f, 0.293121f, 0.237354f, -0.105347f, -0.060719f, 0.029157f, 0.265505f, -0.202947f, -0.02418f, 0.108651f, 0.202962f, -0.149393f, -0.475392f, -0.29986f, -0.148107f, -0.362849f, -0.350702f, -0.514627f, -0.385886f, -0.436213f, -0.15457f, -0.0935f, -0.260255f, -0.076805f, 0.196488f, 0.430723f, 0.554241f, 0.937085f, 0.943921f, 0.666189f, 0.225234f, 0.047291f, -0.041272f, 0.125139f, 0.190053f, 0.147494f, 0.175741f, 0.017502f, -0.060363f, -0.496072f, -0.501731f, -0.020428f, -0.020623f, -0.242988f, -0.078883f, -0.005072f, -0.068713f, -0.118255f, 0.019954f, -0.205124f, -0.33152f, -0.158309f, 0.531499f, 0.920947f, 0.942526f, 1.0f, 0.999626f, 0.879955f, -0.061825f, 0.094279f, 0.007429f, 0.031269f, 0.046258f, 0.153823f, 0.456143f, 0.080822f, -0.333001f, -0.55265f, -0.607772f, -0.443539f, -0.23695f, -0.238786f, -0.236869f, -0.262389f, -0.22263f, -0.287362f, -0.390798f, -0.466491f, -0.149674f, 0.569951f, 1.0f, 1.0f, 0.973236f, 1.0f, 0.93765f, 0.624303f, -0.025331f, -0.000639f, 0.018387f, -0.03029f, -0.036436f, -0.460361f, -0.337556f, -0.17534f, -0.501618f, -0.579671f, -0.753561f, -0.653367f, -0.645197f, -0.271862f, -0.073712f, -0.212478f, -0.17915f, -0.324302f, -0.413939f, -0.093561f, 0.666131f, 1.0f, 1.0f, 1.0f, 0.934871f, 0.953403f, 0.751871f, 0.694148f, 0.180687f, -0.035567f, -0.002509f, -0.006121f, -0.259925f, -0.565211f, -0.54467f, -0.345615f, -0.458879f, -0.94876f, -0.844212f, -0.396926f, -0.172535f, -0.437946f, -0.141965f, -0.053721f, -0.022059f, 0.137071f, -0.281118f, -0.454535f, -0.177156f, -0.142536f, 0.071749f, 0.260554f, 0.119744f, 0.32037f, 0.132587f, -0.130779f, 0.121833f, 0.004535f, -0.024593f, 0.024865f, 0.033338f, -0.084011f, -0.310804f, -0.345892f, -0.40286f, -0.770513f, -0.561229f, -0.359827f, -0.547237f, -0.072333f, 0.282014f, -0.116775f, -0.374203f, -0.140351f, -0.700783f, -0.686024f, -0.473883f, -0.309603f, -0.184465f, 0.10408f, 0.200104f, -0.187343f, -0.218973f, -0.089229f, 0.022299f, 0.014869f, 0.014708f, 0.010017f, -0.027474f, -0.021627f, -0.065255f, -0.183942f, -0.092663f, -0.206123f, -0.384118f, -0.520065f, -0.534457f, -0.215145f, -0.173329f, -0.16056f, -0.211762f, -0.551209f, -0.51986f, -0.259346f, -0.143706f, -0.118442f, 0.19036f, 0.298501f, 0.089427f, -0.019695f, -0.03561f, -0.002939f, 0.001242f, -0.0167f},
    {0.028148f, -0.009501f, -0.034071f, -0.021345f, 0.001124f, -0.026598f, 0.008137f, 0.034722f, 0.001441f, -0.008819f, 0.033626f, 0.026345f, 0.103515f, 0.175685f, 0.130505f, -0.012058f, 0.003615f, 0.034717f, 0.001867f, -0.031892f, 0.019581f, 0.032031f, 0.02992f, 0.001664f, 0.006689f, 0.005759f, -0.014658f, -0.005232f, 0.029115f, 0.003623f, 0.033639f, -0.023738f, -0.008362f, 0.017238f, 0.002935f, 0.211467f, 0.138992f, -0.43335f, -0.238411f, 0.111465f, -0.071705f, 0.017059f, 0.048559f, -0.216597f, 0.071727f, 0.206342f, 0.157367f, 0.228085f, 0.250089f, -0.039604f, 0.010058f, 0.051506f, 0.001728f, -0.002785f, 0.012932f, 0.01665f, -0.017781f, -0.014089f, 0.110643f, 0.086224f, -0.288494f, 0.033431f, 0.11449f, 0.147061f, -0.137694f, -0.054506f, 0.213658f, 0.120228f, 0.224732f, 0.019124f, -0.072362f, -0.116298f, -0.120284f, 0.031583f, -0.102186f, -0.278577f, -0.154573f, -0.212784f, -0.525856f, -0.594008f, -0.199317f, -0.045556f, -0.020588f, 0.019493f, 0.032752f, -0.010887f, 0.064634f, 0.024126f, 0.252322f, 0.067457f, -0.205474f, -0.354538f, -0.52076f, -0.245136f, 0.022193f, -0.035443f, 0.36697f, 0.42176f, 0.797493f, 1.0f, 0.812704f, 0.421633f, -0.098055f, 0.144469f, 0.129458f, -0.054147f, -0.579958f, -0.77942f, -0.477644f, -0.227241f, -0.193694f, -0.005f, -0.010967f, 0.080954f, -0.342979f, -0.192288f, -0.354206f, 0.395835f, -0.593739f, -0.758413f, -0.321049f, 0.031239f, -0.030553f, -0.119343f, -0.18297f, 0.08587f, 0.289079f, 0.544902f, 0.337857f, 0.041065f, -0.088682f, 0.007235f, 0.016537f, -0.151196f, -0.245913f, -0.325511f, -0.033084f, -0.28629f, -0.174538f, -0.275518f, -0.002128f, 0.016667f, -0.29358f, -0.084129f, -0.524861f, 0.193423f, -0.116055f, -0.316465f, 0.023953f, 0.055916f, 0.032519f, -0.406942f, -0.449739f, -0.22284f, 0.020696f, 0.416407f, 0.370155f, 0.118111f, 0.021818f, -0.034026f, 0.12461f, 0.40526f, 0.15973f, 0.078954f, -0.207924f, -0.704189f, -0.43524f, -0.380017f, 0.005225f, -0.050061f, 0.080971f, -0.042641f, -0.188359f, 0.133029f, 0.091621f, 0.198885f, -0.093863f, 0.071116f, -0.273644f, -0.628697f, -0.722752f, -0.19164f, -0.009259f, 0.148854f, 0.174942f, 0.085812f, -0.054121f, 0.079904f, 0.010175f, 0.170005f, 0.208928f, 0.075868f, -0.060797f, -0.70443f, -0.350192f, -0.004065f, 0.06638f, 0.249491f, 0.150569f, -0.02314f, 0.041057f, 0.139715f, -0.154288f, 0.127007f, 0.151935f, 0.074873f, -0.471738f, -0.508719f, -0.606584f, -0.317157f, 0.048636f, 0.008573f, 0.191047f, 0.007659f, -0.017288f, 0.264756f, 0.105959f, 0.064194f, 0.071958f, -0.079775f, -0.373321f, -0.509103f, -0.535585f, -0.277609f, -0.198679f, 0.170646f, -0.054329f, -0.165247f, 0.090252f, -0.007778f, 0.057247f, 0.139672f, 0.171546f, -0.059677f, -0.434322f, -0.595987f, -0.690783f, -0.340847f, -0.118097f, -0.084732f, -0.090958f, -0.106601f, -0.17427f, -0.066136f, 0.243521f, 0.210635f, 0.326086f, 0.136183f, -0.156579f, 0.102206f, -0.24197f, -0.209726f, -0.098216f, 0.147424f, -0.129727f, -0.226569f, 0.004435f, 0.158851f, 0.214582f, -0.013284f, 0.214707f, -0.111807f, -0.313391f, -0.74623f, -0.641555f, -0.480182f, -0.348508f, -0.190971f, 0.101392f, -0.015261f, -0.052774f, -0.083957f, 0.473955f, 0.269591f, 0.282395f, 0.206347f, 0.421854f, 0.973445f, 0.480129f, 0.363001f, -0.112615f, 0.137249f, -0.338138f, -0.393538f, -0.221833f, 0.15555f, 0.153335f, -0.069254f, -0.079199f, -0.164333f, -0.635492f, -0.972767f, -0.472118f, -0.408215f, -0.476964f, 0.087398f, 0.485715f, 0.253606f, -0.020852f, 0.134473f, 0.341107f, 0.096502f, 0.181384f, 0.292299f, 0.692012f, 0.859191f, 0.294707f, 0.465394f, -0.131814f, 0.038365f, -0.501528f, -0.223103f, -0.001746f, 0.090353f, 0.254324f, 0.114491f, -0.41457f, -0.485572f, -0.654963f, -0.907246f, -0.566003f, -0.499838f, -0.104293f, 0.676498f, 0.660755f, 0.184793f, 0.231267f, 0.210644f, 0.081813f, -0.23768f, -0.275995f, -0.134336f, 0.212722f, 0.588645f, 0.193051f, 0.225703f, -0.222354f, -0.09229f, -0.46828f, -0.417216f, -0.314649f, -0.137601f, 0.11376f, 0.065461f, -0.460981f, -0.415545f, -0.651371f, -0.820265f, -0.373297f, -0.454903f, -0.081099f, 0.311395f, 0.098614f, -0.250445f, 0.022565f, 0.235661f, -0.120757f, -0.648855f, -0.714994f, -0.83259f, -0.870506f, -0.058682f, 0.171705f, 0.09015f, 0.028613f, -0.085339f, -0.27071f, -0.05762f, 0.017366f, -0.13399f, -0.217283f, -0.250285f, -0.337643f, -0.551878f, -0.294076f, -0.45373f, -0.15732f, -0.339256f, -0.054155f, -0.145258f, -0.030095f, -0.205297f, -0.016037f, 0.184436f, -0.054179f, -0.619487f, -0.592852f, -0.638805f, -0.724337f, 0.002674f, 0.24862f, 0.111028f, 0.063936f, -0.183609f, -0.125691f, 0.391002f, 0.665619f, -0.029883f, -0.115058f, -0.106995f, -0.172263f, -0.094747f, -0.307889f, -0.356117f, -0.206328f, -0.499545f, -0.347566f, -0.127741f, 0.076517f, -0.098755f, -0.081277f, 0.129493f, -0.02493f, -0.438774f, -0.371721f, -0.466407f, -0.278703f, -0.009659f, 0.391842f, 0.137913f, 0.064157f, -0.139425f, 0.047846f, 0.653337f, 0.710375f, 0.224506f, 0.01108f, 0.111337f, -0.158283f, -0.403237f, -0.538596f, -0.492434f, -0.400545f, -0.658837f, -0.524772f, 0.030234f, 0.264663f, 0.19588f, -0.078039f, -0.020761f, -0.028016f, -0.232574f, -0.132408f, -0.347224f, 0.097122f, -0.26396f, 0.406539f, -0.074025f, 0.01068f, -0.264855f, 0.053093f, 0.998472f, 0.738092f, 0.349716f, 0.325619f, -0.084748f, -0.543499f, -0.898961f, -0.823543f, -0.889641f, -0.680139f, -0.700845f, -0.819444f, -0.223179f, 0.340914f, 0.262453f, -0.01869f, -0.075282f, -0.027397f, 0.090399f, -0.061627f, -0.307402f, 0.171494f, -0.042324f, 0.235215f, -0.199454f, 0.013053f, -0.511018f, 0.005006f, 0.993897f, 0.981432f, 0.732688f, 0.546407f, 0.184026f, -0.303242f, -0.552458f, -0.560709f, -0.486832f, -0.361632f, -0.506665f, -0.300034f, 0.368873f, 0.839336f, 0.100551f, -0.293606f, -0.386796f, 0.029484f, 0.002552f, -0.03634f, -0.016967f, 0.511353f, 0.192889f, 0.22137f, -0.050514f, -0.173448f, -0.376172f, -0.325727f, 0.991322f, 0.950642f, 0.824868f, 0.821599f, 0.308545f, 0.128221f, 0.104983f, 0.018682f, -0.064679f, -0.068792f, -0.100701f, 0.432734f, 0.667728f, 0.840361f, -0.19634f, -0.757434f, -0.517867f, 0.000994f, 0.060927f, -0.048366f, 0.119212f, 0.445843f, 0.230733f, 0.016749f, 0.070031f, 0.034955f, 0.093595f, -0.003192f, 0.615951f, 0.695229f, 0.785338f, 0.662222f, 0.442377f, 0.54248f, 0.699698f, 0.577101f, 0.472462f, 0.352123f, 0.366847f, 0.674646f, 0.789504f, 0.659908f, 0.02036f, -0.448811f, -0.423863f, 0.088466f, -0.062208f, -0.301063f, -0.238566f, -0.101599f, -0.065271f, -0.237557f, 0.026494f, -0.014554f, -0.12763f, 0.055373f, 0.158259f, 0.262814f, 0.422161f, 0.552302f, 0.493909f, 0.452228f, 0.703917f, 0.576046f, 0.664438f, 0.596342f, 0.380255f, 0.364323f, 0.601333f, 0.576054f, 0.281721f, 0.368177f, 0.193309f, 0.24164f, -0.058177f, -0.190086f, -0.486245f, -0.821731f, -0.404049f, -0.111868f, -0.02148f, 0.087242f, -0.178132f, -0.129476f, 0.08505f, 0.127368f, 0.306335f, 0.545848f, 0.227145f, 0.090522f, 0.182009f, 0.327441f, 0.300031f, 0.366743f, 0.028222f, 0.355357f, 0.420979f, 0.372942f, 0.483845f, 0.426502f, 0.346302f, 0.187917f, -0.197816f, -0.731631f, -0.829941f, -0.871004f, -0.835827f, 0.155053f, 0.045593f, 0.053074f, -0.013223f, -0.448889f, 0.259335f, 0.425178f, 0.208494f, 0.581701f, 0.13184f, -0.091987f, 0.000205f, 0.020086f, -0.011388f, -0.105767f, -0.147719f, 0.082084f, 0.11445f, 0.208574f, 0.326171f, 0.201978f, 0.036383f, -0.001462f, -0.281074f, -0.762051f, -0.79504f, -0.997435f, -0.670996f, 0.147911f, 0.04089f, 0.030601f, 0.021531f, -0.394515f, 0.114008f, 0.304867f, 0.142234f, 0.007448f, -0.118511f, -0.477158f, -0.436516f, -0.480718f, -0.626456f, -0.541202f, -0.630489f, -0.400395f, -0.093855f, 0.178979f, 0.266563f, 0.419054f, 0.445992f, 0.241844f, 0.225077f, -0.077127f, -0.059819f, 0.244367f, 0.270452f, 0.185268f, -0.019437f, 0.011157f, 0.033669f, -0.272718f, 0.011944f, -0.481344f, -0.708691f, -0.738591f, -0.767029f, -0.77575f, -0.727549f, -0.389246f, -0.207265f, -0.161452f, -0.390329f, -0.377844f, -0.293959f, -0.170001f, 0.190076f, 0.35495f, 0.388397f, 0.542591f, 0.52141f, 0.163979f, 0.067865f, 0.0485f, -0.042064f, 0.063422f, -0.00023f, -0.025977f, -0.014376f, -0.218454f, -0.041104f, -0.40046f, -0.855488f, -0.860707f, -0.734892f, -0.76494f, -0.764312f, -0.566198f, -0.397718f, -0.340974f, -0.604575f, -0.925323f, -0.687393f, -0.782688f, -0.626929f, -0.242204f, 0.111157f, 0.500019f, -0.033688f, 0.202234f, 0.609692f, 0.344073f, 0.113216f, 0.004914f, 0.005753f, -0.009893f, 0.011759f, 0.01077f, 0.003127f, -0.115904f, -0.310682f, -0.147007f, -0.43454f, -0.564257f, -0.531466f, -0.067445f, -0.166106f, -0.614995f, -0.521051f, -0.79905f, -0.82557f, -0.678885f, -0.537526f, -0.339231f, -0.270345f, -0.095487f, -0.12041f, 0.10466f, 0.554387f, 0.039855f, -0.043176f, -0.003108f, 0.031857f, -0.003666f, -0.021007f, 0.006567f, -0.018925f, -0.067685f, -0.077372f, -0.116497f, 0.038487f, 0.05224f, -0.339681f, 0.075586f, 0.052261f, -0.20527f, -0.38788f, -0.429108f, -0.090935f, -0.072428f, -0.254124f, -0.299414f, -0.280378f, -0.149924f, -0.017346f, -0.17111f, -0.101364f, 0.016092f, -0.014122f, 0.005583f, -0.033571f},
    {0.0057f, 0.031017f, 0.031001f, -0.000605f, 0.012914f, -0.005962f, -0.010059f, 0.000652f, -0.020838f, 0.014345f, 0.017475f, -0.009716f, -0.078018f, -0.140308f, -0.067632f, 0.009412f, 0.033873f, -0.033685f, -0.030145f, 0.000976f, 0.032971f, 0.002264f, 0.009879f, 0.005036f, -0.004305f, 0.025455f, 0.026183f, -0.020625f, -0.021423f, -0.027805f, -0.00872f, -0.000839f, 0.082489f, 0.006656f, -0.33293f, -0.381687f, -0.135912f, -0.09562f, -0.098705f, -0.237223f, -0.192734f, -0.068979f, 0.066287f, -0.083078f, -0.475644f, -0.360592f, -0.063312f, 0.292017f, -0.006374f, 0.035009f, -0.044785f, -0.070358f, 0.022336f, -0.027665f, -0.034297f, 0.003956f, 0.010336f, -0.027506f, -0.099105f, -0.019094f, 0.193439f, -0.269459f, -0.504702f, -0.334947f, -0.183536f, -0.234716f, -0.506499f, -0.773991f, -0.46897f, -0.633786f, -0.664362f, -0.467401f, -0.141478f, -0.026975f, -0.186589f, -0.070819f, -0.067479f, -0.149492f, -0.521118f, -0.127082f, 0.335929f, 0.186485f, 0.012423f, -0.01177f, -0.030846f, 0.005557f, -0.110548f, 0.013624f, -0.024052f, -0.488194f, -0.452758f, -0.137237f, -0.026894f, -0.289509f, -0.486756f, -0.765272f, -0.779204f, -0.996374f, -0.671406f, -0.397841f, -0.214062f, -0.081381f, -0.235161f, -0.257375f, -0.311356f, -0.160713f, 0.022591f, 0.028097f, -0.081765f, 0.029828f, 0.075097f, 0.008514f, 0.030937f, -0.037732f, 0.265152f, 0.084393f, -0.016107f, -0.297143f, -0.025602f, -0.039418f, -0.082532f, -0.438504f, -0.199385f, -0.452506f, -0.287541f, -0.453156f, -0.398789f, -0.228994f, -0.174226f, -0.216357f, -0.346918f, 0.066456f, 0.045546f, -0.174842f, -0.216695f, -0.008968f, -0.204257f, -0.138078f, 0.029275f, -0.034943f, -0.003791f, -0.011327f, 0.252646f, -0.278494f, -0.233877f, -0.213656f, 0.160457f, -0.026487f, -0.089f, -0.365274f, -0.383852f, -0.335947f, -0.285455f, -0.322094f, -0.166805f, 0.00707f, -0.359014f, -0.226435f, 0.074331f, 0.112428f, 0.009364f, -0.106491f, -0.338626f, -0.412343f, 0.004639f, 0.161777f, -0.00916f, 0.201643f, -0.017369f, 0.011712f, 0.018306f, -0.347074f, -0.182135f, -0.200143f, -0.157167f, -0.092524f, -0.155998f, -0.424745f, -0.455591f, -0.355416f, -0.417003f, -0.355968f, -0.215598f, -0.2405f, -0.11355f, 0.067891f, 0.218146f, 0.277237f, 0.284503f, 0.048591f, -0.100301f, -0.310073f, -0.206758f, -0.250681f, -0.262195f, -0.128473f, -0.127602f, -0.23757f, -0.070365f, -0.176456f, -0.243386f, 0.018628f, 0.145469f, 0.258266f, -0.048341f, -0.183564f, -0.178169f, -0.289588f, -0.281192f, -0.12191f, -0.227399f, 0.054863f, 0.013415f, -0.035437f, -0.000988f, -0.041809f, -0.01212f, -0.122556f, -0.316966f, -0.489354f, -0.65461f, -0.533251f, -0.34852f, -0.431936f, -0.248964f, -0.10044f, 0.143275f, 0.034942f, -0.181448f, 0.090992f, 0.408322f, 0.294832f, 0.173156f, -0.097254f, -0.136265f, -0.210956f, -0.111506f, -0.115631f, -0.264536f, -0.110655f, 0.067061f, -0.105279f, 0.095212f, -0.123171f, -0.300818f, -0.323189f, -0.439397f, -0.788586f, -0.669423f, -0.834972f, -0.161434f, 0.007248f, -0.146479f, -0.266111f, 0.168829f, 0.093006f, -0.071675f, 0.072243f, 0.077247f, 0.090755f, 0.094789f, 0.019168f, -0.06021f, 0.200931f, 0.219737f, 0.015053f, 0.129599f, 0.228235f, 0.310264f, 0.022703f, 0.325023f, 0.147945f, -0.125852f, -0.432309f, -0.538543f, -0.824634f, -0.982589f, -0.920745f, -0.474086f, 0.254101f, -0.051119f, -0.049734f, 0.248211f, -0.011812f, -0.147901f, 0.009416f, -0.17032f, -0.116391f, -0.023544f, -0.002114f, 0.132648f, 0.296505f, 0.237006f, -0.035938f, 0.167568f, 0.36824f, 0.452201f, 0.041118f, 0.036182f, 0.223271f, 0.034717f, -0.027272f, -0.001507f, -0.535353f, -0.956013f, -0.929562f, -0.652747f, -0.057578f, 0.151137f, 0.310306f, 0.510081f, 0.085553f, -0.038793f, -0.093053f, -0.057553f, 0.19239f, 0.058692f, 0.202301f, 0.461209f, 0.491411f, 0.006827f, -0.081535f, 0.301424f, 0.663893f, 0.647703f, 0.11192f, -0.211165f, -0.005921f, 0.17393f, 0.512676f, 0.775949f, 0.120319f, -0.480358f, -0.81887f, -0.425412f, -0.030105f, -0.007987f, 0.074516f, 0.461428f, 0.252447f, 0.44744f, 0.36065f, 0.464027f, 0.193143f, 0.139178f, 0.068061f, 0.130723f, 0.176114f, -0.218478f, -0.210122f, 0.255227f, 0.767674f, 0.678764f, 0.139241f, 0.103482f, -0.153836f, 0.257457f, 0.809882f, 0.866607f, 0.590251f, 0.034144f, -0.567528f, -0.308722f, 0.391985f, -0.081607f, 0.09521f, 0.307469f, 0.319382f, 0.634281f, 0.445069f, 0.54197f, 0.365498f, 0.093482f, 0.122582f, -0.034655f, -0.180404f, -0.337062f, -0.257407f, 0.197958f, 0.72388f, 0.443849f, 0.1708f, 0.115014f, 0.158945f, 0.200606f, 0.538019f, 0.571641f, 0.388735f, -0.182476f, -0.180282f, 0.007235f, 0.101863f, -0.05193f, 0.257104f, 0.287984f, 0.19346f, 0.491664f, 0.584039f, 0.600304f, 0.408061f, 0.320869f, 0.02367f, -0.041357f, -0.291687f, -0.23962f, -0.024358f, 0.241465f, 0.250759f, 0.073998f, 0.178649f, 0.199425f, 0.102119f, -0.038923f, 0.088313f, 0.320053f, 0.028019f, -0.272511f, -0.22283f, -0.227198f, 0.057932f, 0.027628f, 0.01778f, -0.088892f, -0.043876f, 0.27479f, 0.40966f, 0.349167f, 0.325959f, 0.274155f, 0.061309f, -0.02453f, -0.080403f, 0.083245f, 0.260444f, 0.601585f, 0.442257f, 0.167817f, 0.095678f, 0.024941f, -0.052034f, -0.079213f, 0.223763f, 0.287168f, -0.094804f, -0.376153f, -0.511565f, -0.42976f, -0.095362f, 0.104871f, -0.125032f, -0.277226f, -0.405555f, 0.256787f, 0.068266f, -0.105945f, 0.081437f, 0.007795f, -0.252315f, -0.191433f, -0.201796f, -0.200323f, 0.382741f, 0.886814f, 0.646674f, 0.075708f, -0.098114f, -0.121951f, -0.163526f, -0.084267f, 0.08243f, 0.082861f, -0.216331f, -0.273432f, -0.826709f, -0.587494f, -0.147415f, 0.00235f, -0.300213f, -0.169668f, -0.384285f, -0.215324f, -0.169411f, -0.414446f, -0.459007f, -0.48817f, -0.671148f, -0.487958f, -0.48853f, -0.033775f, 0.63087f, 0.909781f, 0.379871f, -0.278037f, -0.297786f, -0.16636f, -0.14853f, -0.139266f, -0.007934f, -0.155292f, -0.336856f, -0.623827f, -0.774725f, -0.270654f, -0.119586f, 0.164103f, -0.179005f, -0.018974f, -0.405257f, -0.275961f, -0.533697f, -0.820899f, -0.667775f, -0.597457f, -0.493344f, -0.440657f, -0.431868f, 0.022893f, 0.417522f, 0.47058f, -0.030152f, -0.425096f, -0.5256f, -0.510091f, -0.274704f, -0.095713f, -0.229054f, -0.359998f, -0.378896f, -0.64023f, -0.702884f, 0.106623f, -0.010136f, -0.009604f, 0.188602f, 0.003841f, -0.358862f, -0.281889f, -0.601809f, -0.958831f, -0.959072f, -0.730609f, -0.64777f, -0.542374f, -0.388514f, 0.029023f, 0.364618f, 0.438591f, -0.156137f, -0.460493f, -0.629171f, -0.636702f, -0.090402f, -0.184752f, -0.404404f, -0.554189f, -0.3394f, -0.37716f, -0.243883f, 0.545633f, -0.172573f, 0.005017f, 0.173213f, 0.049873f, -0.112615f, -0.327357f, -0.627304f, -0.955091f, -0.973058f, -0.900083f, -0.718528f, -0.370039f, -0.349189f, 0.067798f, 0.194062f, 0.179029f, -0.135971f, -0.274365f, -0.428624f, -0.590767f, -0.335951f, -0.19695f, -0.321056f, -0.282805f, -0.315909f, -0.516018f, 0.000809f, 0.121038f, 0.021242f, 0.093554f, 0.205287f, -0.238671f, -0.126673f, 0.025004f, -0.270601f, -0.819441f, -0.616395f, -0.612526f, -0.53633f, -0.175691f, -0.264661f, 0.045775f, 0.11882f, 0.138994f, 0.009619f, -0.243253f, -0.257603f, -0.402956f, -0.357921f, -0.04529f, -0.006908f, -0.154143f, -0.304142f, -0.351042f, -0.301365f, -0.150065f, 0.029285f, 0.083522f, 0.074938f, -0.17537f, 0.077811f, 0.192315f, -0.13808f, -0.339741f, -0.297244f, -0.387583f, -0.417897f, -0.110017f, -0.066921f, 0.112708f, 0.33389f, 0.607974f, 0.50063f, 0.069394f, -0.21609f, -0.355527f, -0.243312f, -0.15539f, -0.066205f, 0.005891f, -0.042113f, -0.272205f, -0.336908f, 0.085959f, 0.04421f, 0.034597f, 0.027711f, -0.074005f, -0.003237f, -0.241767f, -0.396395f, -0.497293f, -0.42209f, -0.250039f, -0.114987f, -0.111046f, -0.072083f, 0.003205f, 0.199248f, 0.397676f, 0.376417f, 0.075072f, -0.211222f, -0.467588f, -0.393484f, -0.240089f, -0.249115f, -0.204468f, -0.20988f, -0.731257f, -0.341085f, 0.210906f, 0.018454f, -0.006451f, -0.001776f, -0.320357f, -0.064172f, -0.191161f, -0.281f, -0.491991f, -0.358485f, -0.191358f, -0.058268f, 0.115407f, -0.020395f, -0.039491f, -0.172832f, 0.328182f, 0.628969f, 0.095554f, -0.265505f, -0.518508f, -0.300909f, -0.317672f, -0.104858f, -0.065295f, -0.076952f, -0.450135f, -0.081842f, 0.047009f, 0.028584f, -0.003167f, -0.023494f, -0.175224f, -0.032734f, -0.017782f, -0.017591f, -0.209344f, -0.318948f, -0.04341f, -0.090598f, 0.152025f, 0.08318f, -0.028286f, -0.153144f, 0.101149f, 0.391076f, 0.101087f, 0.016723f, 0.0282f, -0.006043f, -0.060886f, -0.175287f, -0.126878f, 0.150843f, -0.036881f, -0.099768f, 0.064237f, 0.001711f, 0.005415f, 0.026063f, -0.033617f, -0.107391f, -0.056393f, 0.188336f, 0.076814f, 0.073824f, -0.148007f, -0.225515f, -0.384103f, -0.211632f, 0.12563f, -0.007456f, -0.056491f, 0.020056f, 0.24719f, 0.169741f, 0.162974f, 0.01989f, -0.027514f, 0.271684f, 0.397087f, 0.061421f, -0.128235f, 0.087386f, 0.020779f, -0.010983f, 0.018506f, 0.010988f, -0.022858f, -0.007233f, -0.13095f, -0.239423f, -0.068311f, 0.143113f, 0.068063f, 0.046286f, -0.224426f, -0.410229f, -0.119159f, 0.092363f, 0.147482f, 0.086425f, 0.024813f, 0.039358f, 0.145259f, 0.107807f, 0.115055f, 0.244559f, 0.298425f, 0.190959f, -0.015216f, 0.026245f, 0.031188f, 0.003499f},
    {0.00051f, -0.027154f, 0.021194f, -0.009997f, 0.0034f, -0.00724f, 0.01239f, 0.008363f, -0.008199f, -0.005698f, -7.3e-05f, -0.028267f, 0.088197f, 0.069487f, 0.069264f, 0.020401f, -0.003749f, 0.024686f, 0.003186f, 0.032667f, 0.007201f, 0.016869f, 0.005494f, -0.020197f, -0.033468f, -0.014161f, 0.027976f, 0.018292f, -0.011635f, -0.022184f, 0.035202f, 0.003904f, -0.06296f, -0.101069f, 0.097092f, 0.171862f, -0.028607f, -0.091596f, -0.02705f, 0.302265f, 0.1407f, 0.155635f, 0.229865f, 0.426961f, 0.253324f, 0.145232f, 0.029963f, 0.191185f, 0.235932f, 0.114966f, 0.288905f, 0.304968f, -0.027862f, 0.004949f, -0.015619f, 0.025093f, 0.031262f, -0.008345f, 0.141653f, 0.105013f, -0.303769f, -0.243834f, -0.264663f, 0.03589f, 0.551317f, 0.392998f, 0.38252f, 0.576319f, 0.740695f, 0.637317f, 0.502739f, 0.465404f, 0.181944f, -0.044802f, -0.228483f, -0.18063f, -0.428946f, -0.065677f, 0.193072f, 0.110974f, 0.078398f, 0.073968f, 0.025738f, -0.001448f, -0.018461f, 0.030628f, 0.140844f, 0.015267f, -0.24573f, -0.3228f, -0.045137f, 0.410597f, 0.330024f, 0.351607f, 0.547084f, 0.481892f, 0.388384f, 0.431568f, 0.530627f, 0.62768f, 0.251097f, 0.050308f, -0.233982f, -0.155773f, 0.105023f, 0.421794f, 0.116465f, 0.151154f, 0.293398f, 0.246625f, 0.135248f, 0.015658f, -0.030597f, 0.033105f, -0.397211f, -0.092361f, 0.197619f, 0.547488f, 0.389021f, 0.211017f, 0.500021f, 0.611184f, 0.430585f, 0.153256f, 0.208913f, 0.148398f, 0.186611f, 0.084716f, -0.101846f, -0.089584f, -0.239328f, -0.250898f, -0.002724f, 0.169129f, 0.279377f, 0.375666f, 0.132372f, 0.224824f, 0.220934f, 0.198827f, 0.022377f, -0.027837f, -0.175719f, 0.389991f, 0.406864f, 0.622455f, 0.374442f, 0.180487f, 0.411999f, 0.243223f, -0.176598f, -0.201749f, -0.144522f, -0.066907f, 0.087697f, 0.02158f, -0.302987f, -0.172377f, 0.053291f, -0.077926f, -0.002355f, 0.156194f, 0.211701f, 0.351424f, 0.363835f, -0.070059f, 0.349363f, 0.12734f, 0.001214f, -0.052205f, -0.177021f, 0.165552f, 0.398712f, 0.342225f, 0.416688f, 0.284307f, -0.080151f, -0.250155f, -0.190763f, 0.010044f, -0.112064f, -0.089742f, -0.372737f, -0.245019f, -0.182967f, -0.168865f, 0.089452f, 0.08902f, -0.086164f, -0.023372f, 0.011806f, 0.238572f, 0.303579f, -0.228857f, -0.149741f, -0.224045f, 0.103908f, 0.110579f, -0.18538f, 0.116701f, 0.448978f, 0.599322f, 0.183065f, -0.19399f, -0.48107f, -0.373563f, -0.050827f, -0.015665f, -0.220914f, -0.318142f, -0.176273f, -0.407229f, -0.227572f, -0.265335f, 0.055929f, 0.216849f, 0.255727f, 0.081568f, -0.338093f, -0.306769f, -0.353849f, -0.308282f, -0.300655f, -0.075345f, -0.210537f, 0.0895f, -0.059838f, 0.043629f, 0.209633f, 0.035428f, -0.308374f, -0.495583f, -0.626291f, -0.29607f, -0.138367f, -0.324814f, -0.505727f, -0.172243f, -0.052433f, -0.236732f, -0.194063f, -0.109305f, -0.024975f, -0.077583f, 0.303486f, 0.207472f, -0.463632f, -0.904011f, -0.936965f, -0.998088f, -0.069929f, 0.112982f, 0.216428f, 0.262029f, -0.081472f, -0.141234f, 0.030428f, -0.35739f, -0.530337f, -0.425743f, -0.20857f, -0.159601f, -0.309492f, -0.321466f, -0.166821f, -0.068375f, -0.066712f, -0.158483f, -0.126856f, -0.229333f, -0.287328f, -0.019105f, 0.268298f, -0.052704f, -0.803401f, -0.958274f, -0.94179f, -1.0f, -0.264973f, -0.313711f, 0.218677f, 0.473543f, -0.205044f, -0.433918f, -0.363312f, -0.631828f, -0.708937f, -0.227939f, -0.030206f, -0.079128f, 0.055729f, -0.130576f, -0.322802f, -0.466309f, -0.504216f, -0.465417f, -0.497072f, -0.460032f, -0.199979f, 0.240662f, 0.351573f, -0.085013f, -0.911323f, -0.974403f, -1.0f, -1.0f, -0.196226f, -0.090999f, 0.020871f, 0.029352f, -0.158366f, -0.352602f, -0.188633f, -0.510246f, -0.424777f, -0.252114f, -0.107778f, -0.099975f, -0.123134f, -0.484001f, -0.501146f, -0.751274f, -0.651366f, -0.446433f, -0.437694f, -0.386158f, 0.110772f, 0.342938f, 0.393645f, 0.289231f, -0.350542f, -0.885703f, -0.968866f, -0.721309f, 0.08014f, -0.24414f, 0.066601f, -0.098246f, -0.167346f, -0.380675f, -0.153528f, -0.576188f, -0.375123f, -0.097493f, -0.085582f, -0.189176f, -0.221992f, -0.344912f, -0.422765f, -0.349354f, -0.292401f, -0.259793f, -0.324513f, -0.101043f, 0.164019f, 0.519711f, 0.687212f, 0.63622f, -0.031773f, -0.319368f, -0.30988f, 0.070482f, 0.18051f, 0.050407f, 0.112897f, 0.131436f, -0.004f, -0.281075f, -0.251311f, -0.138139f, 0.066493f, 0.226409f, 0.25606f, -0.143884f, -0.142859f, -0.095532f, -0.103149f, -0.143033f, 0.149305f, -0.038001f, 0.012292f, -0.025674f, 0.154052f, 0.489889f, 0.315825f, 0.084558f, -0.351731f, -0.047959f, 0.279047f, 0.460602f, 0.665708f, 0.244371f, 0.048096f, 0.107339f, 0.025662f, -0.064582f, 0.258149f, 0.231956f, 0.317895f, 0.798649f, 0.450456f, -0.040285f, -0.222301f, -0.032484f, 0.192424f, 0.176115f, 0.173119f, 0.017522f, -0.043144f, -0.003256f, 0.025968f, 0.303344f, 0.174354f, -0.096317f, -0.252762f, 0.027937f, 0.251859f, 0.556318f, 0.800284f, 0.44132f, 0.065811f, -0.144055f, -0.317273f, 0.132074f, 0.503806f, 0.541441f, 0.611445f, 0.787306f, 0.472515f, -0.0562f, -0.216728f, -0.009574f, 0.396554f, 0.418319f, 0.233006f, -0.05362f, -0.057673f, 0.122779f, 0.239825f, 0.294796f, 0.201597f, 0.078675f, -0.05418f, -0.058394f, 0.220906f, 0.669322f, 0.990004f, 0.386041f, 0.027302f, -0.056302f, 0.298777f, 0.479489f, 0.773334f, 0.434231f, 0.706212f, 0.631759f, 0.165708f, -0.251761f, 0.127489f, 0.606503f, 0.423594f, 0.175748f, 0.267424f, 0.174614f, 0.27913f, 0.336341f, 0.418041f, 0.260506f, 0.231532f, 0.347235f, 0.379034f, 0.149973f, 0.272545f, 0.961838f, 0.988888f, -0.014917f, 0.033385f, 0.06612f, 0.367453f, 0.711005f, 0.545111f, 0.35822f, 0.445016f, 0.56832f, 0.253182f, 0.101822f, 0.418753f, 0.627202f, 0.472484f, 0.377181f, 0.612711f, 0.769073f, 0.866173f, 0.672429f, 0.32289f, 0.060164f, 0.168773f, 0.149926f, 0.373065f, 0.345522f, 0.406367f, 0.868031f, 0.773902f, -0.045549f, -0.14874f, 0.07421f, 0.199435f, 0.602032f, 0.42251f, 0.009784f, 0.166151f, 0.091114f, 0.213773f, 0.274099f, 0.431568f, 0.41222f, 0.297698f, 0.222503f, 0.49986f, 0.61203f, 0.833288f, 0.736308f, 0.336309f, -0.085575f, -0.003998f, 0.31423f, 0.19928f, 0.40344f, 0.436916f, 0.784606f, 0.157285f, 0.03046f, -0.040115f, 0.263398f, -0.173343f, 0.342431f, 0.027141f, -0.009544f, 0.065304f, 0.139257f, 0.171435f, -0.015226f, -0.157359f, -0.090567f, -0.089791f, 0.027764f, -0.000494f, 0.278614f, 0.493046f, 0.590279f, 0.342874f, -0.168661f, 0.004426f, 0.238687f, 0.461759f, 0.209783f, -0.074148f, 0.450007f, 0.116616f, -0.121263f, 0.032213f, 0.203233f, -0.095446f, 0.252724f, -0.162224f, -0.271721f, 0.114467f, 0.357946f, 0.2055f, -0.052929f, -0.400621f, -0.400576f, -0.089281f, -0.296379f, -0.18758f, -0.00361f, 0.225669f, 0.509876f, 0.359091f, 0.069673f, 0.204777f, 0.564217f, 0.574247f, 0.256541f, -0.085713f, 0.06693f, 0.08855f, 0.056849f, -0.105453f, -0.072785f, 0.422459f, 0.47766f, -0.315709f, -0.27073f, 0.013484f, 0.24327f, 0.335751f, 0.04773f, -0.12208f, -0.081017f, -0.217244f, -0.275813f, -0.281076f, -0.338465f, -0.132154f, 0.093597f, 0.044648f, 0.234219f, 0.284049f, 0.424564f, 0.437641f, 0.129206f, -0.098078f, 0.060683f, 0.05134f, 0.034782f, -0.091285f, -0.061911f, -0.004887f, 0.461554f, -0.135472f, -0.055286f, -0.19092f, -0.270656f, 0.046819f, -0.024758f, -0.067924f, -0.026301f, -0.233335f, -0.368832f, -0.287092f, -0.247341f, -0.238093f, -0.136011f, -0.100907f, -0.068712f, -0.018671f, 0.26315f, -0.022683f, -0.16578f, -0.574745f, -0.131241f, -0.334898f, 0.070954f, 0.013283f, -0.018823f, -0.549775f, 0.07094f, -0.042612f, 0.062997f, -0.176784f, -0.294471f, -0.459552f, -0.280838f, -0.0778f, -0.171177f, -0.419643f, -0.432793f, -0.222067f, -0.294627f, -0.238801f, -0.349665f, -0.271376f, -0.062736f, -0.098261f, -0.022367f, -0.130825f, -0.07774f, -0.411691f, -0.524369f, -0.244558f, -0.013551f, -0.013362f, 0.033453f, -0.308378f, -0.048402f, 0.093269f, -0.082749f, -0.088284f, -0.418675f, -0.293686f, -0.214621f, -0.161506f, -0.181476f, -0.305614f, -0.171829f, 0.146027f, -0.217837f, -0.345735f, -0.454015f, -0.602211f, -0.504794f, -0.36359f, -0.444928f, -0.194623f, 0.244267f, -0.194946f, 0.136415f, 0.191136f, -0.008312f, 0.028839f, -0.034296f, -0.202337f, -0.019633f, 0.056777f, -0.123134f, -0.198344f, -0.274256f, -0.218502f, -0.077104f, 0.118221f, -0.049352f, -0.233638f, -0.013289f, 0.153581f, -0.407833f, -0.830124f, -0.951227f, -0.845131f, -0.307427f, -0.376537f, -0.54804f, -0.481771f, -0.071482f, -0.320774f, -0.000726f, 0.205934f, -0.020241f, -0.028298f, -0.023476f, 0.019531f, -0.164186f, -0.2063f, -0.020291f, 0.158695f, 0.095533f, 0.120442f, 0.201543f, 0.134475f, 0.047145f, 0.200086f, -0.120177f, -0.085981f, 0.007917f, -0.095669f, -0.235f, -0.523016f, -0.499084f, -0.603699f, -0.506496f, -0.445146f, -0.116433f, -0.07984f, -0.132267f, 0.028249f, -0.019457f, -0.014333f, -0.017631f, -0.029826f, 0.013808f, -0.07553f, 0.050951f, -0.0071f, -0.064807f, 0.10133f, 0.854404f, 0.650551f, 0.714055f, 0.865471f, 0.26543f, 0.04566f, 0.223833f, 0.615817f, 0.023106f, -0.322326f, -0.19245f, -0.393508f, -0.239108f, -0.007327f, 0.242161f, -0.019709f, -0.028475f, 0.012121f, -0.020544f},
    {0.035585f, -0.02242f, 0.017512f, -0.011075f, -0.02943f, -0.034896f, 0.015438f, -0.010965f, -0.023057f, 0.035171f, 0.020872f, 0.023441f, -0.039141f, -0.077642f, -0.034928f, -0.006462f, 0.017084f, -0.008763f, -0.008055f, -0.003811f, -0.01413f, -0.02456f, -0.004083f, -0.012852f, -0.01136f, -0.015687f, 0.016464f, -0.005878f, 0.027436f, 0.010393f, -0.011961f, 0.035462f, 0.003934f, 0.023705f, 0.271225f, 0.320393f, 0.518373f, 0.125683f, -0.022005f, -0.051887f, -0.207334f, -0.269561f, -0.177811f, -0.200607f, -0.258502f, 0.340232f, 0.31413f, 0.079503f, 0.016144f, 0.117701f, 0.152412f, 0.106065f, -0.035585f, -0.020419f, 0.004496f, 0.024157f, -0.029825f, 0.014727f, -0.115575f, 0.134201f, 0.010972f, -0.105688f, -0.241653f, -0.444299f, 0.085089f, -0.324515f, -0.272922f, -0.290483f, -0.343538f, -0.567023f, -0.656235f, -0.545272f, -0.431766f, -0.082713f, -0.001634f, 0.210529f, 0.475769f, 0.255537f, 0.505575f, 0.462807f, 0.530443f, 0.252421f, -0.02868f, -0.002989f, 0.020837f, -0.02014f, -0.054146f, 0.268336f, 0.146498f, -0.252611f, -0.194955f, -0.164053f, -0.065171f, -0.250133f, -0.391445f, -0.283494f, -0.265416f, -0.395339f, -0.419976f, -0.04382f, -0.067715f, 0.017527f, -0.029237f, -0.206172f, -0.241442f, -0.268763f, -0.257071f, -0.374316f, -0.169521f, -0.202854f, -0.142468f, 0.017624f, 0.016684f, -0.157108f, 0.427082f, 0.091542f, 0.056164f, 0.04795f, 0.005263f, 0.04547f, 0.069218f, -0.060111f, -0.014391f, -0.015029f, -0.038499f, -0.179329f, -0.22444f, 0.097386f, -0.105023f, -0.184294f, -0.277663f, -0.157039f, -0.496946f, -0.340806f, -0.223819f, -0.480089f, -0.380574f, -0.164746f, -0.110129f, -0.222856f, 0.031542f, 0.010336f, 0.620765f, 0.128502f, -0.259976f, 0.07585f, -0.203904f, -0.205503f, -0.221958f, -0.341244f, -0.035917f, -0.004018f, -0.181663f, -0.1578f, -0.095485f, -0.065534f, -0.191318f, -0.383424f, -0.583598f, -0.449665f, -0.291663f, -0.610121f, -0.40796f, -0.303542f, -0.407899f, -0.409453f, -0.355854f, -0.440835f, 0.004496f, -0.051736f, -0.371357f, 0.292826f, 0.141828f, -0.088865f, -0.124581f, -0.228851f, -0.233357f, -0.139166f, 0.109036f, 0.266326f, 0.197539f, 0.125504f, 0.122985f, -0.028007f, -0.06354f, -0.314006f, -0.330397f, -0.241596f, 0.023242f, -0.151944f, -0.234549f, -0.424803f, -0.597262f, -0.151923f, -0.125341f, -0.354822f, 0.045096f, 0.082557f, -0.471052f, 0.171731f, 0.157726f, -0.205766f, -0.201153f, -0.407051f, -0.189558f, -0.024043f, 0.229643f, 0.441237f, 0.294427f, 0.075687f, -0.034677f, 0.230768f, -0.022745f, -0.207833f, -0.378759f, -0.140851f, 0.129714f, -0.016083f, 0.040425f, 0.026376f, -0.279865f, 0.170639f, -0.240469f, -0.184577f, 0.181847f, 0.115482f, -0.380676f, -0.304375f, -0.13799f, -0.287061f, -0.16365f, -0.179058f, -0.012987f, -0.178813f, 0.063277f, 0.188268f, -0.029453f, -0.105802f, -0.088814f, -0.125973f, -0.224404f, -0.187081f, -0.217093f, -0.354712f, -0.198909f, -0.237194f, 0.279597f, 0.484968f, 0.330155f, 0.466389f, -0.166073f, 0.029949f, -0.134398f, -0.048663f, -0.22734f, -0.259681f, -0.435323f, -0.141222f, -0.248833f, 0.08198f, -0.007963f, -0.39899f, -0.418548f, -0.381927f, -0.360067f, -0.164012f, -0.023343f, 0.022213f, -0.041833f, -0.058545f, 0.052658f, -0.095005f, -0.010131f, 0.047222f, 0.645884f, 0.764985f, 0.787539f, 0.798241f, 0.577884f, -0.301641f, -0.18122f, -0.0029f, 0.08151f, 0.005901f, -0.070818f, 0.068045f, -0.079131f, -0.005899f, -0.1232f, -0.573912f, -0.619083f, -0.296277f, 0.398247f, 0.271928f, 0.263382f, 0.322731f, 0.184505f, 0.048709f, -0.046811f, -0.172059f, 0.171294f, 0.190575f, 0.408534f, 0.593178f, 0.905831f, 0.542077f, 0.332446f, -0.219432f, -0.445846f, 0.078179f, 0.440115f, 0.480768f, 0.200998f, -0.201938f, -0.263341f, -0.230619f, -0.161798f, -0.320185f, -0.225658f, 0.766551f, 1.0f, 0.768555f, 0.636024f, 0.458298f, 0.361445f, 0.190873f, -0.049484f, 0.046127f, 0.365393f, -0.171076f, -0.204491f, -0.154166f, 0.375272f, 0.393312f, 0.129875f, -0.223833f, -0.294035f, -0.437129f, 0.373604f, 0.599694f, -0.033588f, -0.066606f, 0.086081f, 0.123764f, 0.219737f, 0.079375f, 0.725986f, 1.0f, 1.0f, 0.970128f, 0.7441f, 0.691521f, 0.485133f, 0.004909f, 0.026658f, 0.028958f, 0.100298f, -0.293503f, -0.467159f, -0.697443f, -0.453161f, 0.014258f, -0.064001f, -0.030384f, -0.130516f, -0.349468f, 0.282791f, 0.599f, 0.242507f, 0.118795f, 0.217237f, 0.306389f, 0.333398f, 0.468367f, 0.87461f, 0.903361f, 0.926604f, 0.530154f, 0.330497f, 0.294351f, 0.277786f, -0.053499f, -0.062453f, 0.208437f, 0.083252f, -0.173002f, -0.383179f, -0.46003f, -0.383469f, -0.268089f, -0.094656f, 0.30905f, 0.108756f, -0.126878f, 0.072077f, 0.443713f, 0.145305f, -0.16698f, -0.17648f, -0.038547f, 0.139905f, 0.458432f, 0.400316f, 0.538626f, 0.637986f, 0.045641f, -0.204384f, -0.149719f, 0.018385f, -0.37412f, -0.171152f, 0.083355f, 0.053222f, 0.125406f, -0.055682f, -0.361442f, -0.548324f, -0.786481f, -0.526676f, -0.072054f, 0.106628f, 0.056379f, 0.007313f, 0.232942f, -0.149118f, -0.347062f, -0.288138f, -0.22312f, -0.16036f, -0.087464f, -0.227111f, 0.016876f, 0.23655f, -0.409719f, -0.392765f, -0.19306f, 0.031322f, -0.373494f, -0.417477f, -0.326783f, -0.163296f, 0.223262f, 0.187111f, 0.095397f, -0.765183f, -1.0f, -0.732515f, -0.236615f, 0.066284f, 0.129682f, -0.571499f, -0.042838f, -0.011854f, -0.091111f, -0.339282f, -0.357711f, -0.430576f, -0.477972f, -0.643184f, -0.43667f, -0.136371f, -0.133725f, -0.257427f, -0.171929f, -0.019792f, -0.458852f, -0.640128f, -0.648972f, -0.603504f, 0.104482f, 0.151274f, 0.092296f, -0.584921f, -0.975692f, -0.961915f, -0.092236f, -0.035256f, -0.2391f, -0.580007f, -0.222294f, 0.226416f, 0.083307f, -0.168731f, -0.647487f, -1.0f, -0.91618f, -0.944197f, -1.0f, -0.748262f, -0.557911f, -0.292031f, 0.045314f, 0.158561f, -0.058289f, -0.6688f, -0.908636f, -0.638131f, -0.236529f, -0.044615f, 0.101371f, -0.443797f, -0.75251f, -0.749614f, -0.280344f, 0.155908f, -0.256624f, -0.679384f, -0.048332f, 0.134032f, 0.227651f, 0.063254f, -0.545006f, -1.0f, -0.823955f, -0.757221f, -0.923566f, -0.827847f, -0.531528f, -0.152444f, 0.09954f, 0.072039f, -0.011415f, -0.591056f, -0.750261f, -0.404136f, -0.100511f, -0.020174f, -0.173012f, -0.501386f, -0.669059f, -0.375642f, -0.116489f, 0.071487f, 0.140214f, -0.029301f, 0.236736f, 0.077019f, 0.07283f, 0.178398f, 0.104103f, -0.225298f, -0.28397f, -0.343042f, -0.483483f, -0.571678f, -0.548584f, -0.134304f, 0.082703f, -0.032784f, -0.034089f, -0.175204f, -0.054398f, 0.071437f, 0.186345f, 0.140986f, -0.120679f, -0.494124f, -0.5392f, 0.122221f, -0.205158f, -0.022371f, -0.336004f, -0.189669f, 0.055024f, 0.105355f, -0.034549f, -0.090256f, 0.177009f, 0.265167f, 0.157728f, 0.036358f, -0.236079f, -0.405713f, -0.538046f, -0.205526f, -0.177561f, -0.220979f, 0.042772f, -0.09064f, 0.16926f, 0.092538f, 0.1914f, 0.154296f, 0.039882f, -0.773751f, -0.346843f, -0.033163f, -0.007313f, -0.058641f, -0.266589f, -0.282712f, -0.131383f, 0.090055f, -0.109514f, -0.263145f, -0.004804f, 0.141338f, -0.068172f, -0.019618f, -0.052369f, -0.124506f, -0.55833f, -0.630835f, -0.289266f, 0.010267f, 0.024192f, 0.017888f, 0.041566f, 0.196316f, 0.08255f, -0.082547f, -0.163323f, -0.171624f, -0.27405f, -0.208467f, 0.17273f, -0.110187f, -0.18332f, -0.058484f, -0.226333f, 0.013219f, 0.049755f, -0.056481f, -0.069381f, -0.13665f, -0.025935f, -0.02212f, -0.064408f, -0.228821f, -0.659528f, -0.598166f, 0.030014f, 0.119096f, 0.108444f, 0.13805f, 0.06196f, 0.210173f, -0.018139f, -0.145525f, -0.020938f, -0.111762f, 0.128168f, 0.49977f, 0.207543f, -0.028464f, 0.010972f, -0.377002f, -0.101243f, 0.236903f, 0.572367f, 0.346869f, 0.060248f, -0.036867f, -0.111847f, -0.202711f, -0.28321f, -0.225937f, -0.283191f, -0.091417f, -0.047233f, -0.194606f, -0.038466f, -0.040346f, 0.020781f, 0.329038f, 0.083097f, -0.179894f, -0.377213f, -0.076617f, 0.004172f, 0.104493f, 0.007143f, -0.003088f, -0.035594f, -0.4428f, 0.093469f, 0.313585f, 0.849121f, 0.833578f, 0.682182f, 0.506468f, 0.290168f, 0.148398f, 0.116311f, -0.063201f, 0.011531f, 0.10292f, -0.062593f, -0.186893f, 0.04677f, 0.103332f, 0.19383f, 0.196793f, -0.010563f, -0.399714f, -0.559734f, -0.462523f, -0.284432f, 0.120499f, 0.013655f, 0.029197f, -0.028985f, -0.026804f, -0.243607f, 0.55635f, 0.645774f, 0.769966f, 0.555093f, 0.480495f, 0.579298f, 0.643732f, 0.520551f, 0.574667f, 0.852509f, 0.582262f, 0.318728f, -0.288379f, -0.127339f, 0.141313f, 0.198378f, -0.141347f, -0.070662f, -0.320457f, -0.718353f, -0.09025f, 0.150017f, 0.115083f, 0.002893f, -0.03541f, -0.035064f, 0.005164f, -0.153523f, 0.222054f, 0.17603f, -0.038954f, -0.183724f, -0.320645f, -0.547597f, -0.512627f, -0.689582f, -0.406646f, 0.034085f, -0.0025f, -0.034632f, -0.34866f, -0.317342f, -0.150153f, -0.190587f, -0.501181f, -0.012339f, 0.152128f, -0.284936f, -0.064826f, -0.00768f, -0.019932f, 0.001016f, 0.007034f, -0.004947f, -0.032239f, -0.021261f, 0.003669f, 0.036471f, -0.031039f, -0.047875f, -0.223446f, -0.912645f, -0.934453f, -0.823654f, -0.97271f, -0.670364f, -0.666968f, -1.0f, -0.43123f, -0.510107f, -0.51239f, -0.308318f, -0.326687f, 0.062054f, 0.262695f, 0.000536f, 0.002216f, 0.001852f, 0.020661f, -0.019296f},
    {0.000434f, 0.009942f, -0.002498f, -0.006398f, 0.017681f, 0.015029f, -0.025465f, -0.008577f, -0.021452f, 0.018748f, 0.005738f, 0.003813f, 0.081441f, 0.021316f, -0.075346f, -0.014341f, 0.019763f, 0.015698f, 0.031289f, -0.005229f, 0.00481f, -0.034957f, 0.02978f, 0.002815f, 0.012027f, -0.032272f, -0.005553f, 0.029962f, -0.017138f, 0.010032f, 0.020909f, 0.019476f, 0.034118f, -0.028039f, -0.262394f, -0.280682f, -0.359472f, -0.069069f, -0.062146f, 0.321884f, 0.24975f, 0.047422f, -0.04927f, -0.10026f, -0.219866f, -0.163066f, -0.084174f, -0.492913f, -0.586251f, -0.107863f, -0.007405f, 0.149273f, 0.010837f, 0.024529f, -0.017044f, 0.022984f, -0.007395f, 0.000806f, 0.092807f, 0.01042f, 0.04609f, -0.007692f, 0.025162f, 0.328392f, -0.061218f, 0.095127f, -0.059717f, -0.158513f, 0.08024f, -0.202506f, -0.736967f, -0.532188f, -0.547057f, -0.25953f, -0.084579f, -0.223495f, -0.355192f, -0.41162f, -0.228563f, 0.035445f, -0.097013f, 0.017974f, -0.011124f, -0.028582f, 0.016022f, 0.021031f, 0.159642f, 0.055899f, -0.123625f, -0.219709f, 0.093234f, -0.030288f, -0.414653f, -0.552684f, -0.216929f, 0.028067f, 0.30672f, 0.222533f, 0.050615f, 0.199334f, 0.440034f, 0.308576f, 0.057179f, 0.068038f, -0.031956f, -0.146494f, -0.014522f, -0.269329f, -0.279546f, -0.120132f, -0.182989f, -0.004373f, 0.004638f, 0.008315f, 0.069232f, 0.164929f, -0.096917f, -0.180836f, -0.113412f, -0.126829f, -0.403547f, -0.181479f, -0.14592f, -0.008081f, -0.088492f, -0.001874f, -0.158546f, 0.088569f, -0.045406f, -0.278454f, -0.129745f, -0.11563f, -0.473437f, -0.20601f, 0.067253f, 0.075124f, 0.098433f, -0.078522f, -0.152294f, 0.292569f, 0.007622f, -0.018646f, -0.152871f, 0.30145f, 0.057663f, 0.062677f, -0.084658f, -0.252592f, -0.254952f, 0.074037f, -0.012758f, -0.252825f, -0.147919f, -0.238271f, -0.212476f, 0.053351f, -0.10629f, -0.270716f, -0.291577f, -0.058707f, -0.155399f, -0.162265f, -0.095067f, -0.055987f, 0.008632f, -0.1644f, -0.127862f, 0.292961f, -0.033971f, -0.052969f, 0.159399f, 0.130966f, -0.136986f, 0.060886f, 0.107352f, 0.011638f, 0.016635f, 0.04094f, 0.004144f, 0.018639f, -0.00757f, -0.200918f, -0.221376f, -0.175519f, -0.130024f, -0.18213f, -0.289852f, -0.170583f, -0.255623f, -0.090692f, -0.121898f, -0.161499f, -0.187406f, -0.480994f, -0.261153f, 0.112317f, 0.006293f, -0.007732f, 0.16627f, -0.109869f, -0.158948f, -0.04033f, 0.125174f, -0.002396f, -0.224665f, -0.005897f, 0.157071f, 0.098484f, -0.016779f, -0.194518f, -0.32011f, -0.317683f, -0.210416f, -0.218274f, -0.131954f, 0.059866f, 0.009311f, -0.026173f, 0.055505f, 0.068796f, -0.105335f, -0.170781f, 0.270177f, -0.253885f, -0.156107f, 0.047941f, 0.169925f, 0.101866f, 0.08014f, -0.07397f, 0.057888f, -0.09869f, -0.192717f, -0.022056f, -0.174508f, -0.142283f, -0.055267f, -0.042587f, -0.072517f, -0.054323f, -8.7e-05f, 0.104948f, 0.193757f, 0.253352f, 0.189653f, 0.17605f, 0.305738f, 0.469615f, 0.510891f, 0.399068f, 0.050814f, -0.354402f, 0.130289f, -0.112312f, 0.126393f, 0.300541f, -0.006318f, -0.031279f, -0.060611f, -0.105144f, 0.006923f, 0.055784f, -0.192028f, -0.308381f, -0.167514f, -0.055045f, 0.027241f, 0.158824f, 0.095045f, 0.291847f, 0.39754f, 0.305447f, 0.260772f, 0.377836f, 0.631109f, 0.629326f, 0.983595f, 0.933933f, 0.25156f, -0.251557f, 0.170443f, 0.079631f, -0.132712f, -0.06884f, -0.180419f, -0.128903f, -0.057317f, -0.162378f, -0.009745f, -0.183176f, -0.203384f, -0.270857f, -0.014174f, 0.282685f, 0.196614f, 0.321223f, 0.511602f, 0.3853f, 0.139849f, 0.158854f, 0.181374f, 0.248876f, 0.499524f, 0.73788f, 1.0f, 0.766815f, 0.352596f, -0.315892f, 0.150163f, 0.117788f, 0.046974f, 0.026336f, -0.123935f, -0.160985f, -0.353898f, -0.255351f, -0.195875f, -0.319498f, -0.283277f, -0.12835f, 0.217112f, 0.47899f, 0.531237f, 0.674133f, 0.4528f, 0.257741f, 0.204898f, -0.113327f, -0.089513f, -0.336704f, -0.139295f, 0.291122f, 0.538686f, 0.411368f, -0.084385f, -0.095296f, 0.023147f, -0.128604f, 0.159666f, -0.05147f, -0.092963f, -0.136019f, -0.306904f, -0.296081f, -0.318595f, -0.053245f, -0.009918f, 0.030132f, 0.458659f, 0.542189f, 0.554043f, 0.316157f, 0.120867f, -0.033602f, -0.22292f, -0.244558f, -0.288693f, -0.532531f, -0.423518f, -0.476309f, -0.331595f, -0.063682f, -0.233543f, 0.142143f, -0.073585f, -0.386117f, -0.060888f, 0.162714f, 0.158401f, -0.193218f, -0.146804f, -0.057421f, -0.069758f, -0.01488f, -0.082777f, -0.07722f, 0.34483f, -0.091285f, -0.079377f, -0.177765f, -0.166086f, -0.421124f, -0.686966f, -0.336823f, -0.077834f, -0.093465f, -0.269246f, -0.550017f, -0.315304f, -0.182429f, 0.079186f, 0.101718f, 0.015325f, -0.119963f, -0.148638f, 0.321676f, 0.054488f, -0.051719f, -0.083684f, -0.142129f, 0.085889f, -0.007243f, -0.137832f, -0.360885f, -0.337712f, -0.565238f, -0.164892f, -0.086638f, -0.119913f, -0.784551f, -0.970587f, -0.489872f, 0.025816f, 0.010623f, -0.247654f, -0.507472f, -0.206318f, -0.327813f, -0.173189f, 0.002559f, -0.086428f, -0.129463f, 0.076831f, 0.287835f, 0.266482f, 0.063356f, 0.104867f, -0.058544f, -0.152069f, -0.025328f, -0.185841f, -0.296982f, -0.353679f, -0.4604f, -0.081682f, -0.126834f, -0.223386f, -0.577718f, -0.801341f, -0.535195f, -0.271718f, -0.060914f, -0.154832f, -0.201389f, -0.281313f, -0.442506f, -0.486857f, -0.163547f, -0.127378f, -0.212371f, -0.265913f, 0.313004f, 0.47077f, 0.158637f, -0.113403f, -0.044024f, -0.168818f, -0.168311f, -0.260972f, -0.419401f, -0.431507f, -0.353777f, -0.088615f, -0.209265f, -0.098999f, -0.403529f, -0.737591f, -0.47778f, -0.390053f, -0.140911f, -0.037427f, 0.150851f, -0.170497f, -0.248768f, -0.269329f, -0.14076f, 0.027054f, -0.420327f, -0.37898f, 0.253593f, 0.601737f, 0.19244f, -0.020033f, 0.090644f, 0.039855f, -0.082174f, -0.235901f, -0.591203f, -0.536229f, -0.34127f, -0.039167f, 0.111761f, 0.019494f, -0.171505f, -0.559246f, -0.671636f, -0.508776f, -0.094077f, 0.132939f, 0.006334f, -0.195531f, -0.240169f, -0.188357f, -0.041317f, -0.138719f, -0.314367f, -0.535223f, 0.141751f, 0.512915f, 0.279461f, 0.292622f, 0.320255f, 0.287996f, 0.079634f, -0.087292f, -0.403052f, -0.401095f, -0.425378f, 0.119224f, 0.207896f, 0.296983f, 0.006667f, -0.523741f, -0.58335f, -0.504621f, -0.139268f, 0.179404f, -0.059082f, -0.274838f, -0.265761f, -0.160411f, 0.041642f, -0.051977f, 0.162361f, -0.104773f, -0.04776f, 0.325086f, 0.446419f, 0.53462f, 0.603915f, 0.575856f, 0.425218f, 0.373834f, -0.078586f, -0.220345f, -0.182081f, 0.182534f, 0.240812f, 0.262463f, 0.122313f, -0.089047f, -0.030055f, -0.109358f, 0.121078f, 0.190952f, -0.035759f, -0.233478f, -0.203339f, -0.196641f, -0.049976f, 0.001853f, -0.134316f, -0.29432f, -0.368854f, 0.023893f, 0.357309f, 0.350391f, 0.49061f, 0.797959f, 0.827544f, 0.602246f, 0.273139f, 0.173469f, 0.086867f, 0.227624f, 0.117148f, 0.127436f, 0.176806f, 0.301199f, 0.313907f, 0.117449f, -0.065744f, 0.032925f, -0.322924f, -0.610919f, -0.206348f, -0.048619f, -0.103109f, 0.010752f, -0.25603f, -0.166235f, -0.100337f, -0.082865f, -0.013381f, 0.065994f, 0.302956f, 0.559066f, 0.453871f, 0.420095f, 0.114007f, -0.070843f, -0.239242f, -0.123004f, -0.006254f, 0.029611f, 0.187122f, 0.444141f, 0.210805f, -0.072969f, 0.016615f, -0.531055f, -0.813826f, -0.456759f, -0.088441f, 0.379166f, -0.015852f, 0.026337f, -0.030309f, -0.327273f, -0.101319f, 0.195384f, 0.023315f, -0.165856f, 0.085964f, 0.041024f, -0.250433f, -0.186976f, -0.194733f, -0.552567f, -0.529908f, -0.500977f, -0.181233f, -0.058658f, 0.058026f, 0.318115f, 0.112728f, -0.073013f, -0.233112f, -0.188039f, -0.371226f, -0.498888f, -0.33143f, 0.6063f, -0.054282f, -0.027326f, -0.008219f, -0.080182f, 0.028307f, 0.200795f, 0.353734f, 0.1204f, -0.024421f, -0.375263f, -0.627957f, -0.738394f, -0.6035f, -0.436546f, -0.378368f, -0.287066f, -0.125886f, -0.101111f, -0.130198f, -0.028531f, 0.003991f, -0.260845f, -0.178323f, 0.212068f, -0.122511f, 0.053827f, 0.046881f, 0.110975f, -0.024351f, 0.010611f, 0.031029f, 0.059664f, 0.244079f, 0.203001f, 0.238428f, 0.154248f, -0.042453f, -0.106096f, -0.25094f, -0.226551f, -0.181524f, -0.12173f, -0.042373f, -0.052092f, -0.122078f, -0.201575f, -0.041463f, -0.072454f, -0.098799f, -0.261077f, 0.065157f, 0.288953f, -0.011009f, 0.292421f, 0.240542f, 0.015052f, -0.01259f, -0.004109f, 0.014475f, 0.03547f, 0.059322f, -0.066477f, -0.458745f, -0.341512f, -0.305158f, -0.35889f, -0.208048f, 0.061673f, -0.037721f, -0.413536f, -0.273921f, 0.002248f, -0.147942f, -0.37522f, -0.28302f, -0.060568f, 0.015756f, -0.090166f, 0.13502f, 0.2025f, -0.000981f, 0.231245f, 0.096878f, -0.014027f, -0.016292f, 0.009262f, 0.000665f, 0.010501f, -0.020841f, -0.280316f, -0.459249f, -0.618757f, -0.23291f, -0.355554f, -0.723384f, -0.455424f, -0.383552f, -0.85249f, -0.608797f, -0.059765f, -0.181014f, -0.105431f, -0.100821f, 0.048263f, -0.105307f, 0.082707f, 0.127958f, 0.004196f, 0.087649f, 0.004358f, -0.030273f, 0.003982f, -0.020078f, 0.028144f, 0.017352f, 0.030863f, -0.016386f, 0.244433f, 0.193626f, -0.025091f, 0.067309f, 0.053012f, -0.400133f, -0.250427f, -0.289267f, -0.630918f, -0.214472f, -0.423701f, -0.105874f, -0.081456f, -0.032127f, -0.170196f, -0.253271f, 0.063628f, -0.029805f, -0.295306f, -0.172414f, 0.013359f, -0.00261f, 0.011169f, -0.018547f},
    {-0.035588f, 0.013046f, 0.01924f, 0.018834f, 0.029573f, -0.034871f, 0.010582f, 0.028321f, -0.018285f, 0.019871f, 0.018426f, 0.007564f, -0.001096f, -0.063196f, -0.13009f, -0.04388f, 0.014201f, 0.027175f, -0.026704f, -0.033268f, 0.013888f, -0.001537f, -0.016828f, -0.033407f, -0.022198f, 0.009612f, -0.006609f, -0.031074f, -0.003652f, -0.001845f, -0.033364f, 0.021373f, 0.009265f, -0.052121f, 0.076609f, 0.235681f, 0.519908f, 0.252746f, -0.125882f, -0.163141f, 0.233442f, 0.147812f, -0.11022f, -0.13788f, -0.10889f, -0.024262f, -0.032557f, -0.514625f, -0.544859f, -0.17138f, -0.054155f, 0.136638f, 0.005739f, 0.021992f, 0.027247f, -0.029994f, -0.015857f, -0.003248f, -0.141783f, -0.106737f, -0.078557f, 0.042067f, 0.295014f, 0.45362f, -0.076919f, -0.077012f, -0.132822f, -0.226722f, -0.231436f, -0.055179f, -0.140484f, -0.434243f, -0.457834f, -0.186015f, -0.352676f, -0.498085f, -0.489069f, -0.356334f, -0.008389f, -0.226452f, -0.048652f, -0.041322f, -7.2e-05f, 0.027883f, 0.010783f, -0.033201f, -0.103472f, -0.103802f, -0.064132f, -0.104573f, -0.035235f, -0.214672f, -0.311201f, -0.304002f, -0.086488f, -0.508968f, -0.518852f, -0.548211f, -0.352246f, -0.229826f, 0.156067f, 0.136151f, -0.013493f, -0.186382f, -0.418281f, -0.489948f, -0.224171f, 0.024093f, 0.034974f, 0.228669f, -0.152478f, 0.007923f, -0.022313f, -0.010572f, 0.290645f, -0.062124f, -0.256717f, -0.14175f, -0.313657f, -0.308949f, -0.503094f, -0.567971f, -0.453811f, -0.42653f, -0.184679f, -0.080918f, -0.206837f, 0.005726f, 0.096174f, -0.067914f, -0.225623f, 0.002052f, 0.053103f, -0.069629f, 0.136469f, 0.051417f, -0.21558f, -0.342337f, -0.234844f, -0.169304f, -0.013205f, 0.007279f, 0.001646f, 0.119667f, 0.083029f, 0.013061f, -0.244827f, -0.401593f, -0.517555f, -0.702856f, -0.481358f, 0.003871f, 0.058888f, -0.055878f, -0.09198f, -0.092285f, -0.258793f, -0.277928f, -0.135315f, -0.080849f, -0.138886f, -0.344323f, -0.247817f, -0.095392f, -0.522142f, -0.61194f, -0.448442f, -0.353784f, 0.035541f, -0.025681f, -0.249114f, 0.274022f, -0.006238f, 0.120863f, -0.027734f, -0.126345f, -0.246035f, -0.18243f, -0.073723f, -0.216664f, -0.476167f, -0.425179f, -0.292254f, -0.171222f, -0.017453f, 0.138665f, 0.222546f, 0.052985f, -0.018708f, -0.359948f, -0.229175f, -0.164396f, -0.508858f, -0.780426f, -0.424012f, -0.202083f, 0.013281f, 0.054064f, -0.314104f, 0.055239f, -0.156687f, -0.180241f, -0.094954f, -0.075383f, -0.407565f, -0.514972f, -0.712609f, -0.636923f, -0.376797f, -0.162244f, 0.285601f, 0.555546f, 0.322791f, 0.222993f, 0.230433f, 0.045471f, -0.275203f, -0.429448f, -0.424516f, -0.099582f, -0.232334f, -0.234326f, -0.067091f, -0.256048f, 0.199284f, -0.045918f, -0.154864f, -0.076914f, -0.321539f, -0.376407f, -0.224182f, -0.2988f, -0.738457f, -0.918971f, -0.809999f, -0.619157f, -0.263642f, 0.044541f, 0.274428f, 0.0901f, 0.249459f, 0.311343f, 0.413533f, 0.161595f, -0.220282f, -0.375542f, -0.166016f, 0.045969f, 0.417818f, 0.054259f, 0.001028f, -0.457743f, -0.161648f, -0.195805f, -0.010695f, -0.053054f, -0.524107f, -0.385408f, -0.353698f, -0.643786f, -0.961134f, -0.905427f, -0.725848f, -0.586415f, -0.223623f, 0.006946f, 0.047029f, -0.248919f, -0.161104f, 0.133359f, 0.452058f, 0.16334f, -0.017189f, 0.120972f, 0.388191f, 0.337465f, 0.541313f, 0.317441f, 0.118821f, 0.038684f, -0.187815f, -0.072168f, 0.06002f, -0.306051f, -0.563773f, -0.242654f, -0.282424f, -0.586789f, -0.723445f, -0.459932f, -0.344708f, -0.264121f, -0.009226f, 0.291719f, 0.150827f, 0.210164f, 0.319415f, 0.677345f, 0.561757f, 0.243327f, 0.271865f, 0.285897f, 0.421554f, 0.569191f, 0.412863f, -0.217113f, -0.103722f, 0.192252f, -0.241304f, 0.141168f, 0.07217f, -0.318484f, -0.456199f, -0.029737f, -0.069546f, -0.038647f, -0.09086f, -0.065662f, 0.028392f, 0.012556f, 0.227805f, 0.546681f, 0.629584f, 0.588086f, 0.706411f, 0.587714f, 0.318006f, 0.292041f, 0.190113f, 0.243665f, 0.550206f, 0.566905f, 0.232465f, -0.488725f, -0.413719f, 0.192498f, -0.107129f, -0.203565f, 0.152383f, 0.223583f, -0.027427f, 0.124437f, 0.201803f, 0.116659f, -0.016529f, 0.034201f, -0.059095f, 0.037052f, 0.272193f, 0.297499f, 0.239085f, 0.559765f, 0.416305f, 0.291993f, 0.235137f, 0.253715f, 0.328525f, 0.3307f, 0.557284f, 0.395379f, -0.026779f, -0.417045f, -0.327108f, -0.07113f, -0.041623f, -0.5641f, 0.030263f, 0.433073f, 0.160228f, -0.049938f, 0.135782f, 0.1409f, -0.265605f, -0.134342f, -0.420946f, -0.203549f, -0.032582f, -0.126462f, -0.043609f, 0.229985f, 0.142095f, -0.005375f, -0.086308f, 0.308463f, 0.361948f, 0.192544f, 0.225811f, 0.043531f, -0.459056f, -0.491421f, -0.310094f, -0.243831f, 0.05354f, -0.138266f, 0.155314f, 0.18725f, -0.096497f, -0.095132f, 0.176156f, -0.034292f, -0.251391f, -0.203925f, -0.190427f, -0.191618f, -0.198758f, -0.343652f, -0.211627f, -0.079941f, 0.095297f, -0.07879f, 0.051249f, 0.126579f, 0.134137f, -0.158566f, -0.10193f, -0.420122f, -0.6272f, -0.312825f, -0.531248f, -0.348191f, -0.008353f, 0.088547f, -0.023685f, 0.171997f, 0.035649f, 0.19962f, 0.146156f, -0.011732f, -0.045511f, -0.005659f, 0.125419f, -0.057029f, -0.330602f, -0.676317f, -0.627471f, -0.214085f, -0.025653f, -0.130787f, -0.031607f, -0.034398f, -0.169142f, -0.32232f, -0.435908f, -0.634552f, -0.695942f, -0.256722f, -0.597139f, -0.355112f, -0.091827f, -0.09037f, -0.104301f, 0.180973f, 0.119004f, 0.142717f, 0.160381f, -0.017686f, 0.161777f, 0.051387f, 0.144403f, 0.013818f, -0.390916f, -0.44966f, -0.533041f, -0.377805f, -0.306049f, 0.047059f, 0.043406f, -0.350046f, -0.354926f, -0.541055f, -0.469158f, -0.477348f, -0.48128f, -0.486854f, -0.637454f, 0.144282f, 0.031283f, 0.100327f, -0.222006f, 0.108648f, 0.153038f, 0.13174f, 0.034862f, -0.094439f, -0.011669f, 0.030913f, 0.335403f, 0.12638f, -0.065468f, -0.351791f, -0.475338f, -0.530139f, -0.195206f, 0.113203f, -0.136184f, -0.555026f, -0.517315f, -0.383625f, -0.330166f, -0.451039f, -0.559775f, -0.534026f, -0.257042f, 0.078111f, 0.178279f, -0.017206f, -0.527703f, -0.018876f, -0.12897f, -0.02788f, -0.025356f, -0.017762f, 0.099433f, 0.295312f, 0.360588f, 0.367225f, 0.326011f, -0.171431f, -0.197798f, -0.202497f, -0.089898f, 0.072619f, -0.309117f, -0.841829f, -0.731217f, -0.377952f, -0.30161f, -0.569435f, -0.626342f, -0.46899f, -0.270465f, -0.037587f, -0.011689f, 0.166787f, -0.529804f, -0.562272f, -0.197967f, 0.023857f, 0.08463f, 0.278069f, 0.175676f, 0.345085f, 0.386644f, 0.288301f, 0.135682f, -0.157882f, -0.046903f, 0.053106f, -0.072271f, -0.036055f, -0.278659f, -1.0f, -0.549542f, -0.280767f, -0.208866f, -0.31197f, -0.158019f, -0.187479f, -0.152426f, 0.048541f, 0.013328f, -0.373964f, -0.763523f, -0.803984f, -0.541873f, 0.055579f, 0.218131f, 0.090405f, 0.176574f, 0.055297f, 0.053568f, -0.15166f, -0.029205f, -0.113721f, 0.085752f, 0.010316f, -0.015719f, -0.246412f, -0.56101f, -0.81103f, -0.501555f, -0.278363f, -0.144394f, 0.000668f, 0.070835f, 0.064488f, -0.048562f, -0.058088f, 0.091951f, -0.234584f, -0.297447f, -0.474793f, -0.538847f, -0.09951f, 0.313573f, 0.262313f, 0.146913f, -0.100087f, -0.098097f, -0.15709f, -0.199669f, 0.066322f, -0.001697f, -0.045343f, -0.452772f, -0.613825f, -0.57769f, -0.578623f, -0.454997f, -0.242431f, -0.087249f, -0.086446f, 0.065568f, -0.076521f, -0.179893f, 0.081387f, 0.085495f, -0.030214f, -0.422258f, -0.167517f, -0.469189f, -0.127483f, 0.300612f, 0.183608f, 0.04025f, 0.020522f, -0.023242f, 0.068642f, -0.038638f, 0.005627f, -0.087436f, -0.383154f, -0.724587f, -0.606567f, -0.45957f, -0.589943f, -0.410421f, -0.328423f, -0.07735f, 0.246135f, 0.051993f, -0.12408f, 0.031421f, 0.150633f, 0.027837f, -0.022226f, -0.683015f, -0.51876f, -0.178222f, 0.362066f, 0.02616f, -0.001625f, -0.073509f, 0.022465f, 0.030491f, 0.137687f, 0.068157f, -0.097265f, -0.210467f, -0.407113f, -0.618718f, -0.25594f, -0.365846f, -0.550096f, -0.53646f, -0.583722f, -0.078021f, 0.105518f, 0.176834f, -0.090284f, -0.116696f, -0.014533f, -0.016804f, -0.00038f, -0.119004f, -0.379526f, -0.010112f, 0.708989f, 0.497617f, 0.439938f, 0.114227f, 0.080124f, -0.010567f, 0.048511f, 0.011501f, 0.077202f, 0.051027f, -0.049941f, -0.180546f, -0.076763f, -0.142685f, -0.170616f, -0.370799f, -0.460684f, -0.007279f, -0.111342f, -0.130935f, -0.11892f, 0.092276f, -0.005733f, -0.034377f, -0.000192f, 0.162162f, 0.113988f, 0.511842f, 0.66584f, 0.483917f, 0.230336f, 0.116294f, -0.272993f, -0.033258f, -0.022709f, -0.090991f, -0.044324f, 0.022113f, -0.005354f, -0.080754f, 0.047257f, 0.072044f, 0.092914f, 0.083333f, -0.139268f, 0.145838f, 0.008721f, -0.123657f, 0.199517f, 0.090506f, -0.008015f, -0.027672f, 0.015698f, -0.020471f, -0.038852f, 0.350764f, 0.361151f, 0.218551f, -0.079775f, -0.428265f, -0.569318f, -0.7694f, -0.828635f, -0.427426f, -0.098077f, 0.152022f, -0.146263f, -0.228808f, 0.164423f, 0.150423f, 0.025195f, 0.074546f, 0.361986f, 0.182025f, 0.064417f, 0.007813f, 0.11925f, 0.008058f, -0.019549f, 0.011004f, 0.029485f, -0.030623f, 0.030523f, -0.096376f, -0.156318f, -0.428042f, -0.196819f, -0.34598f, -0.431202f, -0.843937f, -0.805499f, -0.566171f, -0.345701f, -0.238061f, -0.944657f, -0.452599f, -0.324295f, 0.026484f, -0.129426f, -0.045086f, 0.261423f, 0.235908f, -0.046852f, 0.005214f, -0.03238f, 0.03165f, 0.011963f},
    {0.01781f, 0.019605f, 0.011381f, -0.018576f, 0.021772f, 0.002676f, -0.017646f, 0.020326f, -0.001272f, 0.006364f, 0.0236f, 0.027288f, 0.108281f, 0.249342f, 0.175843f, 0.079624f, 0.013497f, 0.022516f, -0.010783f, -0.01669f, -0.008306f, 0.020785f, 0.028954f, -0.015234f, 0.018306f, 0.034486f, 0.025321f, 0.00306f, -0.006692f, 0.034935f, 0.012044f, -0.013368f, 0.019949f, -0.002537f, -0.399579f, -0.257971f, 0.135047f, -0.424105f, -0.718395f, -0.611025f, -0.527299f, -0.42519f, 0.061365f, 0.279052f, -0.080641f, -0.48112f, -0.312418f, 0.289404f, 0.507078f, -0.041418f, 0.101552f, 0.14392f, 0.029065f, -0.017268f, 0.02671f, -0.021409f, -0.029411f, 0.009542f, 0.133893f, -0.048905f, 0.112844f, 0.092355f, 0.001764f, 0.145464f, 0.041157f, -0.33f, -0.432058f, -0.54295f, -0.879362f, -0.806026f, -0.966032f, -0.90714f, -0.944341f, -0.903384f, -0.94435f, -0.83896f, -0.864037f, -0.13767f, 0.095693f, 0.029375f, -0.193451f, -0.046136f, 0.027559f, 0.03025f, -0.003548f, -0.011949f, 0.174901f, -0.20393f, -0.237501f, -0.257762f, -0.379455f, -0.283299f, -0.197165f, -0.025691f, 0.01428f, -0.246934f, -0.201591f, -0.483662f, -0.98465f, -0.914803f, -0.881011f, -0.840057f, -0.730531f, -0.715323f, -0.445762f, 0.108361f, 0.124958f, -0.067184f, -0.140612f, -0.292163f, -0.192969f, 0.032838f, -0.007502f, 0.184393f, -0.146149f, -0.153519f, -0.516081f, -0.565528f, -0.360821f, 0.050549f, -0.103035f, 0.056496f, -0.037987f, -0.128745f, -0.173245f, -0.363716f, -0.411359f, -0.488756f, -0.303173f, -0.299115f, -0.686725f, -0.528328f, -0.32633f, -0.116137f, -0.064825f, 0.261705f, 0.283047f, 0.125329f, 0.205984f, 0.290645f, -0.004635f, 0.028212f, 0.112789f, -0.334167f, -0.544736f, -0.521343f, -0.005764f, 0.096972f, 0.158534f, 0.238074f, 0.079598f, 0.299244f, 0.320917f, 0.216208f, 0.28914f, 0.180141f, 0.056028f, -0.024605f, -0.113567f, -0.050532f, -0.187219f, -0.233285f, -0.394957f, -0.401665f, -0.052934f, 0.093792f, -0.170992f, 0.505642f, 0.028683f, 0.030788f, -0.03143f, -0.411837f, -0.498757f, -0.33162f, -0.227238f, 0.031379f, 0.146856f, 0.164643f, 0.230813f, 0.238589f, 0.396651f, 0.336737f, 0.309f, 0.158466f, 0.039314f, 0.061868f, -0.189706f, 0.101037f, -0.190131f, -0.134989f, -0.109144f, -0.158723f, -0.135242f, -0.16526f, -0.462183f, -0.072693f, 0.01045f, 0.386717f, 0.127714f, -0.415418f, -0.737264f, -0.251508f, -0.044194f, 0.317033f, 0.480535f, 0.222526f, 0.04583f, 0.015031f, 0.061999f, 0.353973f, 0.1672f, 0.115604f, 0.092348f, 0.004862f, -0.030545f, 0.013482f, 0.367261f, 0.446357f, -0.02876f, 0.076554f, 0.106148f, 0.177851f, -0.249633f, -0.288422f, 0.188243f, 0.24075f, 0.071273f, -0.497251f, -0.980348f, -0.324992f, 0.070955f, 0.405524f, 0.39681f, 0.238132f, 0.15016f, -0.185996f, -0.284725f, -0.097623f, -0.29535f, -0.253351f, -0.022354f, 0.016307f, -0.133466f, -0.069333f, 0.28084f, 0.326924f, -0.038102f, 0.182769f, 0.570546f, 0.311774f, 0.224433f, -0.596369f, -0.138935f, -0.030157f, 0.018878f, -0.39972f, -0.681598f, -0.311466f, 0.454612f, 0.486109f, 0.233295f, 0.233894f, 0.448125f, 0.143497f, -0.27893f, -0.321536f, -0.459202f, -0.484929f, -0.097801f, -0.095953f, 0.032242f, -0.126315f, -0.048831f, -0.062506f, 0.383364f, 0.796552f, 0.973558f, 0.994395f, 0.455391f, -0.330527f, -0.12436f, -0.184804f, -0.200599f, -0.497312f, -0.104203f, 0.265526f, 0.800017f, 0.577987f, 0.3188f, 0.403753f, 0.35297f, 0.042602f, -0.137003f, -0.07666f, -0.305676f, -0.29745f, -0.021964f, 0.173266f, 0.181423f, 0.050334f, -0.072598f, -0.070168f, 0.754688f, 0.996024f, 0.993545f, 0.947573f, 0.274496f, -0.081445f, -0.116111f, -0.465972f, -0.704492f, -0.46002f, 0.016638f, 0.891807f, 0.972195f, 0.38607f, 0.369452f, 0.438014f, 0.159615f, 0.226332f, 0.257229f, -0.032249f, -0.373943f, -0.049137f, -0.177297f, -0.039369f, -0.166634f, -0.127339f, -0.2216f, 0.073675f, 0.696785f, 0.989069f, 0.995892f, 0.979834f, 0.120454f, 0.293123f, -0.270944f, -0.848568f, -0.432186f, -0.114331f, 0.327783f, 0.852212f, 0.707924f, 0.229667f, 0.074871f, -0.063468f, 0.4953f, 0.686266f, 0.416559f, -0.078484f, -0.651207f, -0.265145f, -0.305689f, -0.42902f, -0.27265f, -0.182304f, -0.148217f, 0.252734f, 0.3767f, 0.561284f, 0.717904f, 0.998515f, 0.381767f, 0.501307f, 0.034556f, -0.61661f, -0.2285f, -0.241019f, 0.034176f, 0.375755f, 0.30951f, 0.011574f, -0.085332f, 0.027339f, 0.976384f, 0.987453f, 0.805438f, -0.330171f, -0.720016f, -0.319549f, -0.411715f, -0.622398f, -0.292102f, -0.001855f, 0.290225f, 0.226679f, 0.053433f, 0.195296f, 0.438324f, 0.806487f, 0.555094f, 0.26573f, -0.119077f, -0.205155f, -0.088074f, -0.32714f, -0.222279f, -0.321967f, -0.029806f, -0.341705f, -0.140232f, 0.220625f, 0.823018f, 1.0f, 0.366021f, -0.689647f, -0.946133f, -0.620632f, -0.329323f, -0.192719f, 0.047076f, 0.245439f, 0.226094f, -0.216028f, -0.393377f, -0.155338f, 0.221088f, 0.673519f, 0.235877f, 0.188238f, -0.175145f, 0.054931f, -0.125256f, -0.225322f, -0.255312f, -0.515323f, -0.161844f, -0.403791f, -0.16671f, 0.146951f, 0.455111f, 0.339772f, -0.437371f, -0.929427f, -0.917816f, -0.422255f, 0.046972f, 0.11634f, 0.104449f, -0.009777f, 0.131337f, -0.504109f, -0.567083f, -0.216973f, 0.000544f, 0.286077f, 0.41224f, 0.044985f, -0.106157f, -0.002432f, 0.088327f, -0.100759f, -0.026108f, -0.235049f, 0.213566f, -0.279074f, -0.292466f, -0.241946f, -0.056413f, -0.179284f, -0.240154f, -0.442131f, -0.334385f, 0.116374f, 0.184936f, 0.061342f, -0.108034f, -0.193748f, -0.105325f, -0.615796f, -0.53452f, -0.171074f, -0.027206f, 0.127951f, 0.52334f, -0.289022f, 0.021156f, 0.287496f, 0.113823f, 0.094768f, 0.014486f, 0.164128f, 0.698722f, 0.438759f, -0.002155f, -0.031526f, -0.014425f, 0.060267f, 0.41597f, 0.44158f, 0.262131f, 0.222197f, 0.041282f, -0.079499f, -0.205874f, -0.085561f, -0.279281f, -0.594442f, -0.332381f, 0.197353f, 0.361313f, 0.027162f, 0.202175f, 0.065953f, 0.161285f, 0.214307f, 0.116581f, 0.111234f, 0.082999f, 0.044237f, 0.520222f, 0.546712f, 0.239542f, 0.438589f, 0.554781f, 0.990772f, 0.919116f, 0.791482f, 0.40343f, -0.072348f, -0.293781f, -0.290204f, -0.233093f, -0.012766f, -0.233484f, -0.389709f, -0.20349f, 0.468749f, 0.50433f, -0.089708f, 0.030594f, 0.135069f, 0.041452f, 0.157381f, 0.0729f, -0.002041f, -0.063207f, 0.083297f, 0.075833f, 0.24106f, 0.35402f, 0.498457f, 0.898432f, 0.984059f, 0.866108f, 0.556718f, -0.01343f, -0.306801f, -0.257282f, -0.244789f, -0.147391f, -0.146821f, -0.277155f, -0.281536f, -0.141685f, 0.487987f, 0.264572f, -0.529479f, -0.444095f, 0.040004f, 0.030879f, 0.305087f, 0.613501f, 0.076229f, -0.052059f, -0.096996f, -0.238646f, -0.273098f, -0.128464f, -0.113137f, 0.4017f, 0.727126f, 0.59525f, 0.250843f, -0.199031f, -0.189352f, -0.033964f, -0.138509f, -0.2714f, -0.060072f, 0.005627f, 0.103875f, 0.083744f, 0.380825f, 0.107787f, -0.426751f, -0.532386f, -0.125607f, -0.001756f, 0.430821f, 0.642876f, -0.059013f, 0.000587f, -0.08498f, -0.33364f, -0.38401f, -0.393929f, -0.153539f, -0.127522f, 0.053996f, 0.13403f, -0.025537f, 0.040609f, 0.13052f, 0.091267f, 0.059256f, -0.24834f, -0.018102f, 0.113679f, 0.099395f, 0.036885f, 0.09238f, 0.077159f, 0.109966f, -0.018777f, -0.135047f, 0.052885f, 0.153441f, 0.429576f, 0.040415f, 0.048823f, -0.024541f, -0.054725f, -0.24804f, -0.181717f, -0.128425f, -0.512995f, -0.444142f, 0.039299f, 0.264612f, 0.153154f, 0.181253f, 0.27755f, -0.101837f, -0.056951f, 0.140583f, 0.506267f, 0.577151f, 0.253796f, 0.17037f, 0.390672f, 0.345668f, -0.061479f, -0.143647f, -0.017396f, -0.022209f, 0.49011f, 0.279562f, 0.086243f, -0.044557f, 0.291104f, 0.071416f, 0.070394f, -0.097568f, -0.563044f, -0.47652f, -0.274227f, -0.245714f, 0.06122f, 0.092806f, -0.085556f, -0.137924f, 0.259482f, 0.7754f, 0.99819f, 0.683566f, 0.164148f, 0.361805f, 0.295379f, 0.532095f, 0.117298f, -0.009042f, -0.005589f, -0.001791f, -0.075513f, -0.167042f, -0.243013f, -0.140654f, 0.338963f, 0.228183f, -0.153564f, -0.262643f, -0.345894f, -0.358556f, -0.217476f, -0.216692f, -0.266545f, -0.253002f, -0.310832f, 0.086757f, 0.492759f, 0.810457f, 0.643233f, 0.279027f, 0.207109f, 0.502384f, 0.489709f, 0.587133f, -0.105425f, -0.006181f, -0.001763f, 0.010083f, -0.154489f, -0.130688f, -0.363039f, -0.410618f, -0.367348f, -0.512537f, -0.565171f, -0.401742f, -0.063427f, -0.388981f, -0.535886f, -0.376252f, -0.234152f, -0.04959f, -0.320743f, -0.403806f, -0.33651f, -0.486483f, -0.651414f, -0.577637f, -0.354245f, 0.026834f, -0.242203f, -0.221609f, -0.115604f, -0.004105f, -0.018496f, 0.004166f, -0.017263f, -0.013988f, -0.208734f, -0.127826f, -0.371704f, -0.645785f, -0.650147f, -0.891272f, -0.896372f, -0.821861f, -0.276378f, -0.073987f, -0.503176f, -0.853694f, -0.886469f, -0.824417f, -0.420717f, -0.361205f, -0.366585f, -0.138878f, -0.145441f, -0.337807f, -0.154833f, -0.063721f, 0.00306f, 0.026322f, 0.033666f, 0.030529f, 0.035373f, -0.026423f, -0.083349f, -0.298057f, -0.142497f, -0.335379f, -0.630202f, -0.386245f, -0.882195f, -0.913884f, -0.663277f, -0.577428f, -0.599995f, -0.845295f, -0.557945f, -0.332224f, -0.120767f, -0.051551f, -0.188316f, 0.122157f, 0.183869f, -0.05021f, -0.024523f, 0.025332f, -0.0041f, 0.025263f},
    {0.030279f, -0.00114f, -0.01837f, -0.006154f, 0.016511f, 0.023156f, -0.023149f, -0.031038f, -0.029675f, 0.013821f, 0.021544f, 0.03039f, 0.046303f, -0.046215f, -0.150682f, -0.037437f, -0.027356f, 0.003928f, -0.013169f, 0.028813f, 0.027101f, 0.024853f, 0.026316f, -0.003079f, -0.001863f, 0.022799f, -0.030151f, 0.017211f, 0.023748f, -0.002125f, 0.008725f, -0.027942f, 0.084951f, 0.143339f, 0.002003f, 0.087318f, 0.226181f, -0.022455f, -0.080663f, 0.058252f, 0.236418f, 0.286904f, 0.095162f, 0.036972f, -0.304842f, -0.219491f, -0.106514f, 0.044164f, 0.326883f, 0.154883f, -0.003575f, -0.038007f, 0.004418f, 0.008577f, 0.002858f, 0.010379f, -0.034942f, -0.004334f, 0.176838f, 0.031245f, -0.156208f, 0.097759f, -0.323044f, 0.021755f, 0.499138f, 0.392958f, 0.330185f, 0.367549f, 0.672345f, 0.350238f, 0.360046f, 0.473936f, 0.27808f, -0.143935f, -0.34372f, -0.596636f, -0.436117f, -0.446531f, -0.464732f, -0.045748f, 0.03013f, 0.033328f, 0.019651f, 0.009445f, -0.035515f, -0.025473f, 0.200268f, 0.139123f, -0.100618f, -0.128744f, -0.057851f, 0.204226f, 0.429243f, 0.16838f, 0.254492f, 0.572066f, 0.678274f, 0.541355f, 0.676998f, 0.789734f, 0.404511f, 0.157002f, -0.139224f, 0.072562f, 0.271806f, 0.067302f, -0.427622f, -0.036268f, 0.027147f, -0.014389f, -0.253048f, 0.002076f, 0.000623f, 0.034433f, -0.054169f, -0.218f, 0.161517f, 0.244389f, -0.077006f, 0.113084f, 0.502237f, 0.597096f, 0.258817f, 0.209443f, 0.096199f, 0.333549f, 0.227815f, 0.10953f, 0.246691f, 0.39804f, 0.180247f, 0.012667f, 0.055344f, -0.348461f, -0.426282f, -0.537753f, -0.785567f, -0.299184f, -0.111328f, 0.094851f, 0.017903f, 0.009768f, -0.287925f, -0.071473f, 0.095185f, 0.129374f, -0.054705f, 0.064894f, 0.469307f, 0.363581f, 0.308413f, -0.052637f, -0.163182f, 0.031256f, 0.196313f, 0.197621f, 0.383537f, 0.184433f, 0.170305f, -0.021738f, -0.051171f, 0.014756f, -0.398179f, -0.362687f, -0.659005f, -0.080654f, 0.506089f, -0.061639f, 0.007385f, -0.011127f, -0.340147f, 0.112406f, -0.10024f, 0.03477f, -0.085215f, -0.060681f, 0.265004f, 0.39989f, -0.001736f, -0.382891f, -0.391879f, -0.110804f, 0.113966f, 0.037969f, 0.125578f, 0.023048f, -0.057123f, -0.059804f, -0.088171f, -0.095056f, -0.300761f, -0.545462f, -0.528322f, -0.393529f, 0.053658f, -0.191351f, 0.044832f, 0.12977f, -0.661749f, 0.099355f, 0.093546f, 0.255066f, 0.183674f, 0.033078f, -0.10149f, 0.093292f, -0.121826f, -0.372011f, -0.470263f, -0.16172f, 0.177972f, -0.015225f, 0.216471f, 0.093915f, -0.088037f, -0.007344f, 0.085775f, -0.072335f, -0.252909f, -0.684157f, -0.53311f, -0.526226f, 0.173691f, 0.505709f, 0.198373f, 0.566879f, -0.28564f, 0.106647f, 0.258615f, 0.046659f, -0.147828f, -0.20797f, -0.214049f, -0.011246f, -0.188697f, -0.72735f, -0.669174f, -0.373192f, 0.145746f, 0.395378f, 0.290746f, -0.114559f, -0.475503f, -0.126798f, 0.245878f, -0.099413f, 0.075335f, -0.218996f, -0.713422f, -0.499861f, 0.404215f, 0.675226f, 0.109295f, 0.548643f, -0.345271f, -0.031926f, 0.221698f, 0.064321f, -0.012966f, -0.042327f, 0.076389f, -0.169641f, -0.582465f, -0.997996f, -0.79976f, -0.433267f, 0.034297f, 0.349543f, 0.396872f, 0.007171f, -0.404893f, 0.073318f, 0.511249f, 0.192066f, 0.094693f, -0.277633f, -0.738528f, -0.666301f, -0.151811f, 0.297697f, 0.170879f, 0.647902f, -0.231082f, 0.022f, -0.285516f, 0.014857f, 0.074141f, -0.071302f, -0.385135f, -0.832567f, -0.997061f, -0.997481f, -0.822819f, -0.772881f, -0.578057f, 0.007454f, 0.373948f, 0.568291f, 0.180731f, 0.261296f, 0.660376f, 0.358858f, 0.022033f, -0.476254f, -0.352792f, -0.412941f, -0.372578f, 0.014456f, 0.338016f, 0.444487f, -0.153272f, -0.092171f, -0.445248f, 0.175131f, 0.108028f, -0.221857f, -0.635435f, -0.794008f, -0.990094f, -0.845702f, -0.847312f, -0.972586f, -0.530439f, 0.156434f, 0.29797f, 0.523172f, 0.344041f, 0.341597f, 0.493771f, 0.644797f, 0.450744f, 0.171976f, -0.108285f, -0.264137f, -0.329427f, -0.185479f, 0.225863f, 0.273141f, 0.089441f, -0.077255f, -0.347613f, -0.054939f, -0.040093f, -0.212026f, -0.279886f, -0.353572f, -0.76655f, -0.656446f, -0.609974f, -0.703545f, -0.194715f, -0.126461f, 0.061332f, 0.085285f, -0.261411f, 0.022468f, 0.052375f, 0.407632f, 0.545626f, 0.526573f, 0.378024f, -0.186915f, 0.150349f, -0.018375f, -0.048032f, 0.119523f, 0.113293f, 0.168539f, -0.318666f, -0.052529f, -0.047966f, -0.281387f, -0.134508f, -0.268473f, -0.414731f, -0.376435f, -0.06312f, -0.065723f, -0.124201f, -0.312559f, -0.475878f, -0.431268f, -0.447968f, -0.320045f, -0.163169f, 0.140692f, 0.286422f, 0.40747f, 0.843683f, 0.194888f, -0.031265f, 0.075411f, 0.116433f, -0.108276f, 0.164568f, 0.166971f, -0.122313f, 0.251231f, 0.028587f, -0.004497f, -0.0296f, -0.237988f, -0.316838f, -0.208649f, -0.079774f, -0.065005f, -0.339942f, -0.49839f, -0.557516f, -0.517794f, -0.54807f, -0.366573f, 0.0517f, 0.151237f, -0.065567f, 0.358536f, 0.747084f, 0.436592f, 0.153356f, 0.248491f, 0.055626f, -0.211959f, 0.018109f, 0.364107f, 0.346903f, 0.487073f, -0.069999f, -0.053757f, 0.030717f, -0.038922f, -0.134669f, -0.077282f, -0.225654f, -0.036548f, -0.28212f, -0.226466f, -0.310282f, -0.530838f, -0.159912f, -0.030944f, 0.30397f, 0.14719f, -0.26628f, 0.036129f, 0.539069f, 0.729907f, 0.127814f, -0.11877f, 0.101971f, -0.028267f, 0.360441f, 0.937284f, 0.696432f, 0.406497f, 0.01745f, -0.305337f, -0.280184f, -0.061906f, 0.163877f, -0.006665f, -0.288124f, -0.325583f, -0.623157f, -0.228987f, -0.256485f, -0.162329f, -0.136763f, 0.030705f, 0.087423f, -0.050063f, -0.214894f, -0.281175f, 0.199145f, 0.37863f, 0.008004f, 0.032238f, 0.020863f, 0.092792f, 0.551012f, 0.770713f, 0.577029f, 0.093469f, -0.010032f, -0.182368f, -0.418497f, -0.166078f, 0.326328f, 0.216423f, -0.033684f, -0.23171f, -0.604926f, -0.242488f, 0.105437f, 0.024992f, -0.112617f, -0.036176f, -0.19791f, -0.333291f, -0.07031f, -0.257508f, -0.154518f, -0.118624f, -0.02119f, 0.250292f, -0.020821f, 0.061526f, 0.626484f, 0.74545f, 0.602813f, 0.026617f, -0.058567f, -0.192354f, -0.475758f, -0.134236f, 0.348693f, 0.558761f, 0.349314f, 0.166066f, -0.033004f, 0.128325f, 0.377923f, 0.378037f, 0.081396f, -0.323484f, -0.559545f, -0.373547f, -0.264584f, -0.500067f, -0.577707f, -0.29713f, 0.047074f, -0.076819f, 0.104442f, 0.610032f, 0.309832f, 0.451651f, 0.505742f, -0.01195f, -0.182396f, -0.257864f, -0.440007f, -0.273077f, 0.466179f, 0.996646f, 0.935358f, 0.516365f, 0.444613f, 0.747746f, 0.640314f, 0.465868f, -0.012315f, -0.746577f, -0.851204f, -0.60205f, -0.587859f, -0.865304f, -0.790815f, -0.554995f, -0.10287f, -0.310412f, 0.023744f, 0.399446f, 0.075231f, 0.096276f, -0.033235f, -0.215498f, -0.136745f, -0.233295f, -0.171254f, 0.028646f, 0.544547f, 0.963967f, 0.991442f, 0.384391f, 0.392415f, 0.774906f, 0.959642f, 0.397466f, -0.202426f, -0.646694f, -0.748091f, -0.667813f, -0.655415f, -0.679923f, -0.831043f, -0.663173f, -0.46096f, -0.081171f, 0.067611f, 0.416353f, 0.096181f, -0.000218f, -0.272772f, -0.139326f, 0.118297f, 0.052142f, -0.174219f, -0.192258f, -0.058642f, 0.374561f, 0.311181f, 0.176312f, 0.402169f, 0.904327f, 0.834315f, 0.204401f, -0.02527f, -0.159956f, -0.519428f, -0.472147f, -0.550113f, -0.759006f, -0.817281f, -0.570553f, -0.242974f, 0.086446f, 0.070326f, 0.201738f, -0.214051f, -0.136365f, -0.161397f, -0.165463f, 0.283859f, -0.017075f, -0.081311f, -0.213105f, -0.172183f, 0.433408f, 0.366252f, 0.405611f, 0.538644f, 0.869533f, 0.559809f, 0.506458f, 0.502393f, 0.341448f, 0.143734f, 0.12922f, -0.284148f, -0.587964f, -0.541591f, 0.079034f, -0.414849f, 0.126288f, -0.011734f, -0.018716f, -0.025179f, 0.56176f, 0.366495f, -0.094655f, 0.207518f, 0.564956f, 0.0255f, 0.036812f, 0.059957f, 0.052754f, -0.000206f, 0.126034f, 0.317576f, 0.258933f, 0.335754f, 0.692131f, 0.717281f, 0.657847f, 0.303448f, 0.118785f, 0.089073f, -0.06145f, 0.120795f, 0.103043f, -0.051785f, -0.008817f, 0.027191f, -0.026065f, 0.042977f, 0.503918f, 0.316572f, -0.149438f, 0.038639f, 0.230698f, 0.156624f, -0.177597f, 0.09259f, -0.208026f, -0.220463f, -0.073407f, -0.09015f, -0.193115f, 0.029396f, 0.322167f, 0.278188f, 0.303017f, 0.027412f, -0.102886f, -0.121532f, 0.111014f, 0.187709f, 0.040732f, 0.168939f, 0.023409f, -0.010892f, 0.029375f, -0.087183f, -0.152895f, -0.264502f, -0.553168f, -0.017362f, -0.14149f, -0.450721f, -0.662408f, -0.803263f, -0.923317f, -0.750496f, -0.04202f, -0.095494f, -0.799182f, -0.310979f, 0.033404f, 0.033343f, 0.162862f, 0.162091f, -0.040369f, -0.006754f, -0.181379f, 0.232715f, 0.288665f, 0.219994f, 0.002777f, -0.032864f, 0.019303f, 0.019487f, -0.112003f, -0.181747f, -0.380552f, -0.155394f, -0.131114f, -0.049378f, -0.396007f, -0.268377f, -0.334846f, -0.444926f, -0.161715f, -0.119115f, -0.247168f, 0.180423f, 0.176692f, -0.229543f, -0.00502f, 0.026754f, 0.154713f, 0.31416f, 0.272157f, -0.097635f, -0.013267f, -0.021605f, 0.007928f, -0.024672f, 0.008348f, -0.003123f, -0.004023f, -0.082802f, -0.091952f, 0.115158f, -0.1212f, -0.135644f, -0.130571f, 0.079489f, 0.189493f, 0.024694f, 0.054509f, 0.097897f, 0.46522f, 0.749207f, 0.919681f, 0.385048f, 0.131585f, -0.020019f, 0.137985f, 0.338666f, 0.185008f, 0.033467f, 0.006862f, 0.003741f, -0.024917f},
    {0.03065f, 0.001474f, 0.027688f, 0.01782f, -0.031248f, 0.031799f, 0.000577f, 0.008517f, -0.024594f, 0.013876f, -0.0103f, -0.010622f, 0.030009f, -0.06609f, -0.155049f, -0.041597f, 0.020992f, 0.034205f, -0.005474f, 0.019772f, 0.016027f, -0.014798f, -0.030581f, 0.001287f, -0.017874f, -0.022155f, -0.024237f, -0.034045f, -0.023085f, -0.012271f, -0.002712f, 0.021f, -0.004881f, -0.030395f, 0.202957f, 0.320096f, 0.044208f, -0.046695f, -0.084092f, -0.139643f, -0.093228f, -0.10377f, 0.23727f, 0.206979f, 0.111965f, -0.117303f, -0.300665f, -0.239119f, 0.008283f, -0.135691f, -0.413456f, -0.287855f, 0.019114f, -0.007865f, -0.026378f, 0.002994f, 0.017798f, -0.009304f, 0.119013f, 0.104514f, -0.160664f, 0.279569f, 0.224882f, 0.367406f, 0.035046f, 0.046941f, 0.08525f, -0.026309f, 0.065555f, 0.159061f, 0.399562f, 0.12446f, -0.0447f, 0.022978f, -0.252395f, -0.026173f, 0.116222f, 0.176364f, -0.152967f, -0.239823f, -0.088376f, -0.017169f, 0.000886f, -0.00156f, -0.022161f, -0.001572f, 0.051651f, 0.132824f, -0.073809f, -0.454615f, -0.1029f, -0.299572f, -0.159551f, -0.084013f, -0.069115f, -0.143654f, -0.226814f, 0.019037f, 0.369203f, 0.422054f, 0.218329f, 0.190424f, -0.015335f, -0.339935f, -0.17442f, -0.185745f, -0.339716f, -0.10137f, -0.119146f, 0.002111f, -0.189562f, -0.01691f, -0.007551f, -0.013399f, -0.130148f, -0.393158f, 0.016203f, -0.184815f, -0.063352f, -0.169433f, -0.005508f, 0.146283f, 0.017741f, -0.026566f, -0.02602f, 0.304013f, 0.382538f, 0.243f, 0.293355f, 0.189268f, 0.043213f, -0.170456f, -0.237066f, -0.275188f, -0.382767f, -0.293149f, -0.217847f, 0.088399f, 0.178674f, 0.163621f, -0.024325f, 0.023169f, 0.134523f, -0.071819f, 0.237327f, 0.033871f, 0.014075f, -0.092787f, -0.054819f, 0.062771f, 0.019734f, -0.047567f, -0.053746f, 0.066775f, 0.170247f, 0.228625f, 0.465085f, 0.228274f, 0.015071f, -0.114565f, -0.401061f, -0.243785f, -0.033932f, -0.087433f, -0.109179f, 0.225743f, 0.20719f, 0.233858f, 0.014132f, -0.015954f, 0.133781f, 0.252803f, 0.516892f, 0.308275f, -0.07386f, -0.54942f, -0.259351f, 0.053384f, 0.260445f, 0.300559f, 0.213361f, 0.158324f, 0.091399f, 0.244798f, 0.274731f, -0.042512f, -0.225285f, -0.165829f, -0.111594f, 0.145418f, 0.383322f, 0.041956f, -0.083608f, -0.000727f, 0.176071f, 0.175594f, -0.178292f, 0.131737f, 0.128323f, 0.246611f, 0.362407f, 0.160404f, 0.006644f, -0.283846f, 0.083819f, 0.251846f, 0.13602f, 0.288715f, 0.301935f, 0.348458f, 0.242084f, 0.290845f, 0.009921f, -0.475512f, -0.193103f, 0.092627f, 0.071176f, 0.336799f, 0.125326f, 0.022022f, -0.464919f, -0.107261f, 0.347995f, 0.11193f, -0.198212f, 0.164589f, 0.054624f, 0.228206f, 0.275614f, 0.148017f, 0.083476f, 0.031952f, 0.205576f, 0.162347f, 0.128356f, 0.33073f, 0.31787f, 0.38175f, 0.335377f, 0.212197f, -0.055452f, -0.229443f, 0.03663f, 0.263159f, 0.593104f, 0.538644f, 0.122553f, -0.253655f, -0.907561f, -0.45033f, 0.18307f, 0.247851f, -0.255606f, 0.098063f, -0.033549f, 0.164626f, 0.225042f, 0.383903f, 0.115152f, 0.070214f, 0.178495f, 0.131589f, -0.031925f, -0.054434f, 0.161811f, 0.168569f, 0.186966f, 0.05374f, -0.088555f, -0.011657f, 0.234741f, 0.616812f, 0.804581f, 0.526694f, 0.102792f, -0.787353f, -1.0f, -0.84418f, -0.41317f, 0.548439f, -0.141362f, -0.04791f, 0.055929f, 0.005251f, 0.269486f, 0.403203f, 0.010311f, 0.035969f, 0.044029f, -0.275353f, -0.378354f, -0.294564f, -0.030132f, -0.117213f, -0.201314f, -0.177326f, -0.142597f, 0.233554f, 0.562542f, 0.92915f, 0.805591f, 0.305207f, -0.200144f, -1.0f, -1.0f, -0.337385f, -0.131537f, 0.181971f, -0.104251f, -0.099732f, -0.14128f, 0.157888f, 0.091755f, -0.065694f, -0.462334f, -0.404186f, -0.346409f, -0.603767f, -0.860664f, -0.841897f, -0.83446f, -0.730303f, -0.19303f, 0.237447f, 0.314324f, 0.510494f, 0.729647f, 0.713053f, 0.45319f, -0.148298f, -0.531205f, -0.578779f, -0.320561f, -0.091943f, 0.004648f, 0.060583f, -0.079168f, -0.032475f, -0.021682f, 0.371797f, 0.151423f, -0.579612f, -0.704787f, -0.567132f, -0.647165f, -0.856135f, -0.905334f, -0.979783f, -0.988231f, -0.501506f, 0.548139f, 0.753842f, 0.651033f, 0.614806f, 0.53713f, 0.350149f, 0.036832f, -0.237942f, -0.420746f, -0.237386f, 0.163305f, 0.020132f, 0.141367f, 0.209506f, 0.0443f, 0.058664f, -0.07101f, 0.272019f, -0.015852f, -0.634094f, -0.700257f, -0.49179f, -0.643388f, -0.802766f, -0.901402f, -0.454867f, -0.218346f, 0.200121f, 0.80727f, 0.931481f, 0.550552f, -0.065238f, 0.076409f, -0.043856f, 0.049506f, -0.117078f, -0.270632f, -0.311518f, -0.264715f, 0.470802f, 0.370933f, 0.285194f, 0.054061f, -0.103177f, -0.035737f, 0.127632f, 0.013806f, -0.35836f, -0.567168f, -0.426888f, -0.426041f, -0.398713f, -0.255026f, 0.170262f, 0.040923f, 0.233949f, 0.720655f, 0.518982f, -0.038273f, -0.23056f, -0.089615f, -0.012438f, 0.019965f, -0.018667f, -0.057437f, -0.085853f, -0.023086f, 0.457923f, 0.381437f, 0.12397f, 0.007429f, -0.15197f, -0.219361f, 0.074566f, 0.237009f, -0.061708f, -0.175664f, -0.001661f, -0.070507f, 0.058418f, 0.194915f, 0.519876f, 0.226987f, 0.225139f, 0.354287f, 0.297496f, 0.304087f, 0.004767f, -0.017893f, 0.069054f, 0.08906f, 0.216371f, 0.420459f, 0.423001f, 0.370241f, 0.280758f, 0.782957f, -0.035935f, -0.022624f, -0.115656f, -0.33923f, 0.480672f, 0.449323f, -0.020556f, 0.014414f, -0.027722f, 0.311094f, 0.569123f, 0.756037f, 0.732112f, 0.492229f, 0.362653f, 0.233312f, 0.335645f, 0.138272f, 0.065849f, 0.043198f, 0.091064f, 0.100814f, 0.30553f, 0.342057f, 0.504714f, 0.635748f, 0.392575f, 0.862444f, -0.097894f, 0.031925f, -0.269675f, -0.037341f, 0.605101f, 0.729952f, 0.123367f, 0.082135f, 0.195084f, 0.747697f, 0.979607f, 0.834385f, 0.771563f, 0.560593f, 0.242837f, -0.014723f, 0.146848f, -0.028375f, -0.080353f, 0.006581f, 0.003878f, 0.004061f, 0.240616f, 0.109603f, 0.420427f, 0.740175f, 0.445847f, 0.438893f, 0.178003f, -0.198875f, -0.132401f, -0.162486f, 0.514591f, 0.377258f, -0.001364f, -0.040231f, 0.42935f, 0.996463f, 1.0f, 0.808867f, 0.526469f, 0.240847f, -0.25239f, -0.444287f, -0.313239f, -0.2087f, -0.35287f, -0.067582f, -0.255633f, -0.031933f, -0.094848f, -0.353153f, 0.031645f, 0.458771f, 0.193824f, 0.18484f, 0.072834f, -0.12679f, -0.382559f, -0.312518f, 0.278151f, 0.044393f, -0.148638f, -0.074008f, 0.174771f, 0.461472f, 0.474889f, 0.098767f, -0.086767f, -0.326432f, -0.4475f, -0.53535f, -0.220052f, -0.081537f, -0.294181f, -0.329502f, -0.490025f, -0.19755f, -0.208088f, -0.451406f, -0.258462f, -0.057677f, -0.069788f, -0.420079f, -0.058019f, 0.035414f, -0.190594f, -0.854846f, -0.337216f, -0.309066f, -0.184466f, -0.137109f, 0.018092f, 0.088975f, -0.064992f, -0.214632f, 0.040621f, -0.148416f, -0.224626f, -0.1182f, 0.060644f, 0.088561f, -0.14649f, -0.431818f, -0.40818f, -0.191663f, -0.048084f, -0.17613f, -0.456966f, -0.576215f, -0.450901f, -0.106329f, -0.069942f, -0.011559f, -0.246897f, -1.0f, -0.792458f, -0.44454f, 0.028743f, -0.021146f, -0.096283f, 0.029159f, -0.107554f, -0.17121f, -0.102948f, -0.076132f, 0.092258f, 0.243279f, 0.253052f, 0.389099f, 0.164432f, 0.133441f, 0.021478f, 0.102987f, 0.202749f, -0.026941f, -0.375391f, -0.380641f, -0.268692f, -0.421623f, 0.078119f, -0.0355f, -0.127508f, -0.952932f, -0.423659f, -0.046481f, 0.267242f, 0.495794f, 0.054367f, 0.017563f, 0.019026f, -0.04779f, 0.11442f, 0.247495f, 0.287186f, 0.137367f, 0.175746f, 0.227504f, 0.298239f, 0.28127f, 0.26163f, 0.234312f, 0.41258f, -0.011314f, -0.322309f, -0.405363f, -0.271849f, -0.252188f, 0.090429f, 0.023155f, 0.014268f, -0.525771f, 0.108968f, 0.530251f, 0.439981f, 0.588218f, 0.156918f, 0.112827f, 0.233268f, 0.171719f, 0.153601f, 0.082234f, -0.127579f, -0.279053f, -0.106635f, 0.104001f, 0.153372f, 0.242187f, 0.416185f, 0.328521f, 0.322428f, -0.174577f, -0.285457f, -0.442784f, -0.403007f, -0.298633f, 0.005481f, 0.034529f, -0.023185f, -0.689415f, 0.43959f, 0.441178f, 0.312613f, 0.090291f, -0.242297f, 0.089616f, 0.220302f, 0.286906f, 0.155237f, -0.121474f, -0.293408f, -0.144825f, 0.081145f, 0.335269f, 0.167058f, -0.125309f, -0.319583f, -0.33022f, -0.15769f, -0.39776f, -0.256351f, -0.234906f, 0.265284f, 0.132864f, -0.014156f, -0.002214f, 0.010592f, -0.300144f, 0.205349f, 0.352029f, 0.194744f, -0.158034f, -0.477776f, -0.130799f, 0.1869f, 0.395949f, 0.413944f, 0.118439f, -0.053434f, 0.0948f, 0.104861f, -0.440662f, -0.443444f, -0.207009f, -0.388499f, -0.5861f, -0.450681f, -0.311499f, -0.091688f, -0.174509f, -0.034461f, 0.136858f, 0.011308f, 0.008343f, 0.001612f, 0.008733f, -0.169646f, 0.303884f, 0.106028f, -0.430548f, -0.431714f, -0.455844f, -0.698365f, -0.616042f, -0.436817f, -0.316156f, -0.217716f, -0.204747f, -0.131754f, -0.096161f, -0.058409f, -0.138789f, -0.435246f, -0.582881f, -0.506728f, -0.352145f, 0.163907f, -0.038626f, 0.0429f, -0.002084f, 0.012867f, -0.023216f, 0.031647f, 0.006732f, -0.027709f, -0.046988f, -0.001523f, -0.019431f, -0.054513f, -0.096841f, 0.148828f, 0.207932f, 0.347597f, 0.57927f, 0.282458f, 0.296323f, 0.432141f, 0.162805f, -0.032753f, 0.143676f, -0.103643f, -0.155301f, -0.084821f, 0.106941f, 0.113977f, 0.026162f, 0.001414f, -0.021295f, 0.002249f},
