//#include "__fc_builtin.h"
#include <float.h>
#include <math.h>
#include <stdbool.h>
#include <stdint.h>
#include <string.h>
#include<stdio.h>
#define MAX(X,Y) ( X > Y ? X : Y)
#define MIN(X,Y) ( X < Y ? X : Y)
#define CLIP(X,L) ( MAX(MIN(X,L), -L) )
#define binarise(X,Y) ( X>Y? 1:-1 )
#define INPUT_LAYER_SIZE_ROW 10
#define INPUT_LAYER_SIZE_COL 784

#define SECOND_LAYER_SIZE_ROW 10
#define SECOND_LAYER_SIZE_COL 10

#define IMAGE_SIZE 784
#define GAMMA 0.5

/* layer_1_MatMul*/
static const float tensor_layer_1_MatMul_weights[INPUT_LAYER_SIZE_ROW][784] =
{
  {0.01874f, -0.015426f, -0.006586f, 0.017101f, -0.033285f, 0.021756f, -0.007009f, 0.018507f, 0.005303f, -0.004035f, 0.010244f, 0.0021f, 0.300404f, 0.184269f, 0.139332f, 0.11849f, 0.005514f, 0.000195f, 0.031558f, 0.011452f, -0.012962f, -0.021232f, -0.005648f, -0.015067f, -0.011107f, 0.002048f, 0.021628f, 0.01975f, -0.034575f, 0.022478f, 0.010315f, 0.034215f, 0.14692f, 0.242012f, 0.344359f, 0.329564f, 0.210655f, 0.20296f, 0.117811f, 0.193703f, 0.376433f, 0.664084f, 0.201571f, 0.422699f, -0.185667f, -0.329373f, -0.34895f, -0.027642f, -0.183285f, -0.351349f, -0.191041f, 0.135498f, 0.019718f, -0.008343f, 0.035911f, 0.028966f, -0.001334f, -0.023501f, -0.115922f, -0.369719f, 0.087859f, 0.178519f, 0.240986f, 0.146132f, 0.045469f, -0.361792f, -0.386991f, -0.203281f, -0.574579f, -0.928489f, -0.971901f, -0.995594f, -0.999612f, -0.999416f, -1.0f, -1.0f, -1.0f, -1.0f, -1.0f, -0.762832f, -0.691628f, -0.674569f, 0.00251f, -0.005748f, 0.021314f, -0.020345f, 0.04395f, -0.385666f, -0.512702f, 0.130986f, 0.22426f, 0.112117f, -0.033963f, -0.534728f, -0.710193f, -0.199561f, -0.334828f, -0.225208f, -0.507191f, -0.882748f, -0.821067f, -0.99948f, -0.951182f, -0.983163f, -1.0f, -1.0f, -1.0f, -0.654772f, -0.985316f, -0.242262f, 0.1208f, 0.027015f, 0.034203f, -0.242546f, -0.097183f, -0.324823f, -0.546418f, -0.291924f, 0.06941f, -0.05086f, -0.299443f, -0.314189f, -0.376853f, -0.151158f, -0.070301f, -0.053436f, -0.169052f, 0.02218f, -0.146734f, -0.055398f, -0.305964f, -0.242745f, -0.055304f, -0.117285f, -0.196744f, -0.619898f, -0.856493f, -0.831054f, -0.480927f, 0.28814f, -0.016027f, -0.003821f, -0.407165f, 0.25104f, -0.334285f, -0.20206f, -0.173379f, -0.203232f, -0.126539f, -0.133333f, -0.066538f, 0.105498f, 0.00655f, 0.085352f, 0.180432f, 0.375068f, 0.003926f, 0.062586f, 0.201448f, 0.061881f, -0.108481f, 0.00639f, -0.080825f, -0.913543f, -1.0f, -0.999429f, -1.0f, -0.309357f, -0.028123f, -0.264571f, -0.295402f, 0.120039f, -0.094105f, -0.110665f, -0.032177f, 0.029312f, -0.104317f, -0.210929f, -0.017396f, 0.012805f, -0.042852f, -0.068625f, 0.043898f, 0.083379f, 0.00921f, 0.024615f, -0.001298f, 0.050739f, 0.035729f, 0.165312f, 0.038441f, -0.826781f, -1.0f, -1.0f, -1.0f, 0.123932f, 0.167286f, -0.132715f, 0.024833f, 0.188859f, -0.226125f, 0.120181f, 0.046146f, 0.054246f, -0.033679f, 0.056241f, 0.013334f, 0.002217f, -0.039291f, -0.04482f, -0.05255f, 0.21666f, 0.081145f, 0.166878f, 0.147597f, 0.027153f, -0.024829f, -0.01591f, 0.033064f, -0.271592f, -1.0f, -1.0f, -1.0f, -0.509397f, 0.092075f, -0.020839f, 0.620306f, -0.003722f, -0.520185f, -0.220035f, -0.039047f, 0.087519f, -0.009308f, -0.019903f, 0.002889f, 0.01066f, -0.007297f, -0.017354f, 0.009492f, 0.134766f, 0.486988f, 0.352508f, 0.361645f, -0.022822f, -0.037008f, -0.021034f, 0.017533f, -0.093449f, -1.0f, -1.0f, -1.0f, -0.702215f, 0.128373f, -0.080703f, 0.081746f, -0.39932f, -0.594959f, -0.362555f, -0.065281f, 0.042463f, -0.011416f, 0.047256f, 0.194255f, 0.016747f, -0.018995f, -0.023961f, 0.112361f, 0.230701f, 0.518533f, 0.381016f, 0.597614f, 0.377184f, -0.000755f, -0.033703f, 0.064537f, 0.053208f, -0.947256f, -1.0f, -1.0f, -0.300689f, 0.11179f, -0.156436f, -0.284376f, -0.557441f, -0.569434f, -0.145365f, -0.077947f, 0.021787f, 0.038081f, 0.111894f, 0.016623f, 0.037814f, 0.042559f, 0.046504f, 0.196093f, 0.000526f, 0.0084f, 0.410267f, 0.797563f, 0.624796f, 0.136006f, 0.063325f, 0.496618f, 0.389271f, -0.38281f, -1.0f, -1.0f, -0.297033f, 0.018381f, 0.119133f, -0.362904f, -0.998629f, -0.607601f, -0.037887f, 0.02601f, 0.068215f, 0.028227f, -0.018721f, -0.018496f, -0.020463f, -0.023562f, -0.020684f, -0.817977f, -0.936412f, -0.968567f, -0.64445f, 0.044602f, 0.598158f, 0.287396f, 0.567488f, 0.846325f, 0.988477f, 0.381363f, -1.0f, -1.0f, -0.213837f, -0.012769f, -0.052681f, -0.526009f, -0.998961f, -0.35964f, 0.038739f, 0.136038f, 0.01894f, 0.015016f, -0.160227f, -0.017438f, 0.133105f, 0.005939f, -0.956964f, -1.0f, -1.0f, -1.0f, -1.0f, -0.937446f, 0.117122f, 0.191174f, 0.778656f, 0.990669f, 0.999849f, 0.64756f, -0.984031f, -0.59287f, 0.116277f, 0.176448f, 0.206542f, -0.546063f, -0.603643f, -0.272947f, 0.144026f, 0.138745f, 0.025097f, 0.008731f, -0.052253f, 0.480897f, 0.05135f, -0.984008f, -1.0f, -1.0f, -1.0f, -1.0f, -1.0f, -1.0f, -0.20403f, 0.007977f, 0.646063f, 0.990052f, 1.0f, 0.308666f, -0.896056f, -0.453086f, -0.335772f, 0.221465f, 0.007028f, -0.024804f, -0.660475f, -0.320031f, 0.229922f, 0.129877f, 0.147866f, 0.099009f, 0.468927f, 0.814126f, -0.107778f, -0.985626f, -1.0f, -1.0f, -1.0f, -1.0f, -1.0f, -1.0f, -0.195438f, 0.029899f, 0.559816f, 0.737525f, 0.730297f, 0.117309f, -0.547652f, -0.322761f, -0.022222f, 0.256406f, 0.29958f, -0.292379f, -0.960821f, -0.090395f, 0.226688f, 0.038031f, 0.231675f, 0.317396f, 0.763421f, 0.622814f, -0.962556f, -1.0f, -1.0f, -1.0f, -1.0f, -1.0f, -1.0f, -0.501964f, -0.052323f, 0.029589f, 0.145812f, 0.097516f, 0.30551f, 0.045551f, -0.522452f, -0.222138f, -0.077951f, 0.21977f, -0.076486f, -0.739727f, -1.0f, -0.091516f, 0.035234f, 0.083157f, 0.202602f, 0.269491f, 0.534611f, 0.402618f, -0.987787f, -1.0f, -1.0f, -1.0f, -1.0f, -1.0f, -0.649583f, 0.049711f, -0.037505f, 0.022545f, 0.002303f, -0.0767f, -0.020831f, 0.109019f, -0.596614f, -0.44258f, -0.188739f, -0.033866f, -0.158288f, -1.0f, -1.0f, -0.240683f, -0.027642f, 0.009934f, 0.075126f, 0.173282f, 0.359106f, 0.403357f, -0.994661f, -1.0f, -1.0f, -1.0f, -1.0f, -0.824692f, -0.033644f, 0.060417f, -0.013498f, 0.020432f, 0.056468f, 0.07522f, 0.023073f, 0.134905f, -0.609639f, -0.122211f, 0.077644f, -0.119954f, -0.060649f, -0.965461f, -1.0f, -0.222458f, 0.004763f, 0.004663f, 0.085882f, 0.05685f, 0.341975f, 0.739565f, -0.344099f, -0.999453f, -1.0f, -1.0f, -0.551175f, -0.079895f, -0.018842f, -0.031219f, -0.083901f, -0.068964f, -0.070126f, 0.012912f, 0.021019f, -0.020108f, -0.854051f, -0.250859f, -0.363048f, -0.087744f, 0.415671f, -0.437898f, -1.0f, -0.381766f, -0.030404f, 0.000933f, -0.016473f, 0.00934f, 0.371636f, 0.72838f, 0.478142f, -0.079641f, -0.362515f, -0.138548f, -0.02362f, -0.040347f, 0.05523f, 0.014849f, 0.045155f, -0.022448f, -0.023141f, -0.096661f, -0.038043f, -0.14962f, -0.568148f, -0.254734f, -0.346469f, -0.015408f, 0.458416f, -0.145898f, -1.0f, -0.2751f, -0.01454f, -0.095889f, 0.019724f, 0.025891f, 0.119565f, 0.573806f, 0.784881f, 0.360666f, 0.004091f, -0.052267f, -0.032588f, 0.015163f, 0.113551f, -0.027421f, -0.077229f, -0.004501f, 0.022123f, -0.067115f, -0.317449f, -0.58023f, -0.204064f, -0.22435f, 0.259856f, -0.113909f, 0.449953f, -0.105709f, -0.845716f, 0.05077f, -0.01107f, -0.038886f, -0.070123f, 0.043462f, 0.113276f, 0.307471f, 0.432375f, 0.152078f, 0.037957f, -0.008226f, 0.005502f, -0.017216f, -0.051112f, -0.024339f, 0.023306f, 0.006467f, -0.071617f, -0.4027f, -0.903004f, -0.600876f, -0.125245f, 0.18443f, -0.199396f, -0.116678f, 0.286856f, 0.131135f, -0.90737f, -0.378524f, -0.00697f, 0.135099f, -0.020455f, 0.085815f, 0.096233f, 0.167298f, 0.517718f, 0.481591f, 0.416633f, 0.165938f, 0.050755f, 0.040141f, -0.013873f, -0.114723f, -0.03502f, -0.293638f, -0.297362f, -0.673555f, -0.729006f, -0.607524f, -0.151261f, 0.255942f, -0.195518f, 0.02309f, 0.016144f, 0.055312f, -0.759314f, -0.444028f, -0.041085f, 0.005399f, 0.008525f, -0.022562f, 0.091192f, -0.004318f, 0.134704f, 0.323255f, 0.331927f, 0.323475f, 0.096173f, -0.117133f, -0.016381f, -0.131532f, -0.266861f, -0.519587f, -0.86492f, -0.831189f, -1.0f, -0.802679f, -0.418457f, 0.008974f, -0.003667f, -0.032748f, 0.00696f, -0.133899f, -0.36585f, -0.332704f, -0.412296f, -0.29828f, -0.662596f, -0.459296f, -0.481132f, -0.509123f, -0.393299f, -0.015796f, -0.09628f, -0.130122f, -0.044707f, -0.105784f, -0.086503f, -0.030352f, -0.495525f, -0.984217f, -1.0f, -1.0f, -0.708457f, -0.2895f, 0.127479f, 0.294499f, 0.025478f, -0.02244f, -0.020482f, 0.078472f, 0.005376f, -0.554343f, -1.0f, -1.0f, -1.0f, -0.999441f, -1.0f, -1.0f, -1.0f, -1.0f, -1.0f, -1.0f, -1.0f, -1.0f, -0.914085f, -0.822877f, -0.828529f, -0.962449f, -0.99038f, -0.861845f, -0.659332f, -0.395078f, 0.283411f, 0.20788f, -0.013467f, 0.002733f, -0.013382f, 0.033961f, 0.256342f, -0.126639f, -1.0f, -1.0f, -0.998648f, -0.998452f, -1.0f, -1.0f, -1.0f, -1.0f, -1.0f, -1.0f, -1.0f, -0.792981f, -0.306173f, -0.382937f, -0.229349f, -0.238974f, -0.517551f, -0.67296f, -0.414445f, 0.195785f, 0.165848f, -0.012127f, 0.028631f, 0.027566f, 0.023126f, -0.014589f, -0.006735f, 0.032615f, -0.359558f, -0.84082f, -0.778267f, -1.0f, -0.81259f, -0.694936f, -0.725766f, -1.0f, -1.0f, -0.970506f, -0.642682f, -0.417296f, -0.543501f, -0.806999f, -0.50225f, -0.564552f, -0.446554f, -0.379902f, -0.325725f, -0.016676f, 0.007117f, -0.003756f, 0.002842f},
  {-0.026208f, -0.021277f, -0.029758f, -0.024509f, 0.031068f, 0.014429f, -0.0329f, -0.0048f, 0.004027f, 0.02024f, 0.034284f, 0.009785f, 0.272668f, 0.283188f, 0.136947f, 0.05093f, 0.009388f, 0.034127f, 0.023589f, 0.036699f, -0.014932f, -0.003308f, 0.008528f, 0.029874f, -0.031669f, -0.016379f, 0.006341f, -0.019482f, 0.014502f, -0.001274f, -0.008094f, 0.020315f, -0.182004f, -0.107763f, 0.443221f, 0.429764f, -0.03486f, -0.196497f, -0.445038f, -0.231385f, 0.005707f, -0.017371f, 0.420262f, 0.296861f, -0.544888f, -0.431898f, -0.093686f, 0.018342f, -0.028428f, -0.054238f, 0.239183f, 0.251725f, 0.033055f, -0.033349f, -0.007195f, 0.028858f, 0.016611f, -0.016657f, 0.111851f, 0.228533f, -0.035339f, 0.508106f, 0.346752f, -0.050935f, -0.288942f, -0.407453f, -0.608894f, -0.541634f, -0.469893f, -0.310213f, 0.067529f, 0.299096f, 0.072843f, -0.42019f, -0.82524f, -0.911384f, -0.694007f, -0.923626f, -0.745331f, -0.771924f, -0.499697f, 0.037792f, -0.00991f, -0.02872f, 0.009005f, 0.0234f, 0.12361f, 0.167896f, 0.033049f, 0.105376f, 0.43137f, -0.250586f, -1.0f, -1.0f, -0.998435f, -1.0f, -1.0f, -0.695843f, -0.423813f, 0.028664f, -0.317061f, -1.0f, -1.0f, -1.0f, -1.0f, -1.0f, -0.999207f, -0.997422f, -0.988404f, -0.666089f, -0.336167f, -0.018751f, -0.015774f, 0.208658f, 0.014314f, -0.140764f, 0.020576f, -0.359244f, -0.26899f, -0.977891f, -1.0f, -0.951501f, -0.779837f, -0.124065f, -0.030795f, 0.00196f, -0.046131f, -0.092824f, -0.174835f, -0.080225f, 0.011235f, -0.091047f, 0.103073f, 0.233754f, 0.393792f, 0.047422f, -0.617183f, -0.978998f, -0.692731f, -0.252212f, 0.006793f, -0.032108f, 0.049402f, 0.261059f, 0.283132f, -0.158658f, -0.518156f, -1.0f, -0.959095f, -0.982194f, -0.757093f, 0.012612f, -0.03899f, 0.006331f, 0.108093f, 0.041234f, 0.029669f, -0.006929f, 0.029224f, 0.047592f, 0.228092f, 0.639537f, 0.576285f, 0.207705f, -0.499593f, -0.986725f, -0.780961f, -0.156406f, 0.002656f, -0.258324f, -0.261958f, 0.081089f, 0.123187f, -0.459864f, -0.846011f, -1.0f, -0.99067f, -1.0f, -0.644961f, -0.111277f, 0.016524f, 0.037369f, -0.006096f, -0.049294f, -0.045952f, -0.148247f, 0.025841f, -0.053114f, 0.012269f, 0.054068f, 0.10026f, -0.23788f, -0.902482f, -1.0f, -0.992681f, 0.008982f, 0.222957f, -0.241319f, -0.231756f, 0.16718f, -0.051178f, -0.116806f, -0.660253f, -0.920439f, -0.964767f, -0.990709f, -0.562864f, -0.161623f, 0.043973f, 0.026692f, -0.127888f, 0.01866f, 0.0329f, 0.01708f, -0.023149f, 0.034176f, -0.036761f, -0.051156f, -0.096415f, -0.762689f, -1.0f, -1.0f, -0.627947f, -0.209846f, 0.153577f, -0.353534f, -0.243511f, 0.265496f, 0.038162f, -0.053305f, -0.431373f, -0.58914f, -0.937294f, -0.810592f, -0.660258f, -0.17994f, -0.048417f, 0.00722f, -0.014626f, 0.159429f, -0.000995f, -0.011716f, 0.105375f, -0.058774f, -0.058823f, -0.072079f, -0.501716f, -1.0f, -1.0f, -1.0f, -1.0f, -0.309473f, -0.065525f, -0.571987f, -0.268743f, -0.02035f, 0.001673f, -0.233502f, -0.19279f, -0.161678f, -0.467657f, -0.493311f, -0.470786f, -0.183371f, -0.232681f, 0.007848f, 0.47683f, 0.968145f, 0.479649f, 0.01376f, -0.008655f, -0.099124f, -0.035105f, -0.193802f, -0.726126f, -1.0f, -1.0f, -1.0f, -1.0f, -0.784079f, -0.064508f, -0.17415f, -0.133038f, -0.250553f, -0.127124f, -0.20063f, -0.059578f, -0.018386f, -0.064841f, -0.22519f, -0.455211f, -0.678201f, -0.987593f, -0.045082f, 1.0f, 1.0f, 0.988436f, -0.054633f, -0.138929f, -0.072141f, -0.072231f, -0.083437f, -0.379461f, -0.79175f, -1.0f, -1.0f, -0.998828f, -0.264679f, -0.261268f, 0.033981f, -0.069898f, -0.285942f, -0.091702f, 0.004751f, 0.030719f, -0.071786f, 0.006233f, -0.085859f, -0.575313f, -0.997996f, -0.998798f, 0.127049f, 1.0f, 1.0f, 0.884177f, -0.285018f, -0.020316f, -0.005032f, -0.105562f, 0.034709f, -0.000775f, -0.05691f, -0.912368f, -1.0f, -0.35326f, 0.181077f, 0.388566f, -0.41462f, -0.456791f, -0.15011f, -0.348559f, 0.03111f, 0.034335f, 0.072181f, 0.05284f, -0.00113f, -0.94888f, -1.0f, -1.0f, 0.582746f, 1.0f, 1.0f, 0.038608f, -0.415645f, -0.062305f, -0.044738f, 0.056194f, 0.242302f, 0.224472f, 0.319339f, 0.017715f, -0.924998f, -0.692501f, 0.095083f, 0.133768f, -0.40931f, -0.344359f, 0.026687f, -0.298328f, -0.037857f, 0.005908f, 0.01156f, 0.102651f, -0.229539f, -1.0f, -1.0f, -1.0f, 0.999556f, 1.0f, 1.0f, -0.371726f, -0.513569f, -0.109215f, -0.020182f, 0.023548f, 0.097358f, 0.143451f, 0.13732f, -0.159771f, -0.818876f, -0.889511f, -0.10365f, -0.198483f, -0.025417f, -0.220084f, 0.208585f, 0.037623f, -0.009327f, 0.028632f, -0.018694f, -0.032481f, -0.428851f, -0.998946f, -1.0f, -1.0f, 1.0f, 1.0f, 0.997544f, -0.72803f, -0.85914f, -0.155091f, 0.006438f, -0.001357f, 0.048707f, -0.025441f, -0.048878f, -0.044175f, -0.08601f, -0.409573f, -0.22738f, -0.192685f, 0.010845f, -0.123817f, 0.084525f, 0.112971f, -0.060943f, 0.029691f, 0.041296f, -0.060135f, -0.504111f, -0.997669f, -0.894942f, 0.020468f, 1.0f, 1.0f, 0.299529f, -1.0f, -1.0f, -0.422853f, -0.040133f, -0.072186f, -0.10082f, -0.095678f, -0.125827f, -0.307531f, -0.640143f, -0.521009f, -0.234311f, 0.138119f, -0.044926f, 0.117713f, -0.161573f, -0.027736f, 0.188661f, 0.048752f, 0.047156f, -0.008986f, -0.434938f, -0.534752f, -0.48992f, 0.116917f, 1.0f, 1.0f, -0.036838f, -1.0f, -1.0f, -0.679967f, -0.000959f, 0.008477f, -0.032007f, 0.004405f, -0.055515f, -0.402977f, -0.942912f, -0.54744f, -0.327606f, 0.011408f, 0.074111f, 0.229575f, -0.245931f, -0.076403f, 0.067163f, -0.149167f, -0.133343f, -0.062335f, -0.063003f, -0.013914f, -0.25067f, 0.345843f, 0.950175f, 0.989661f, -0.046425f, -0.765459f, -0.999721f, -0.656316f, -0.016285f, 0.022486f, -0.104142f, -0.104866f, -0.197622f, -0.877836f, -0.875185f, -0.640143f, -0.480066f, -0.030499f, -0.044519f, 0.124339f, -0.09973f, -0.072468f, -0.135378f, -0.519762f, -0.449188f, 0.005158f, 0.062474f, -0.023818f, -0.007425f, 0.219083f, 0.604463f, 0.600241f, 0.024806f, -0.463519f, -0.586352f, -0.476154f, -0.008072f, 0.032997f, 0.014512f, -0.178056f, -0.381962f, -0.860384f, -0.869292f, -0.787266f, 0.253188f, 0.19197f, -0.170272f, -0.307477f, -0.087473f, -0.231203f, -0.397128f, -0.609023f, -0.180275f, 0.040572f, -0.0346f, -0.053292f, -0.006224f, -0.037171f, 0.212221f, 0.047011f, -0.109564f, -0.242159f, -0.199913f, -0.252712f, -0.080486f, -0.002594f, 0.089579f, -0.11806f, -0.129599f, -0.484775f, -0.749466f, -0.023953f, 0.591789f, -0.018522f, -0.20548f, -0.539051f, -0.39526f, -0.324046f, -0.461714f, -0.269784f, 0.007661f, -0.019979f, 0.051745f, 0.006525f, 0.023463f, -0.07357f, 0.061748f, 0.09178f, -0.022502f, 0.022235f, 0.042077f, -0.11403f, -0.281346f, -0.178058f, -0.097274f, -0.063816f, -0.288911f, -0.398763f, -0.399278f, 0.127389f, 0.15468f, 0.123614f, -0.055644f, -0.297777f, -0.62911f, -0.439214f, -0.101575f, -0.020232f, 0.06013f, 0.000192f, 0.162307f, 0.079589f, 0.056657f, -0.030466f, -0.016207f, 0.043582f, 0.060056f, 0.010673f, 0.007836f, 0.059333f, -0.198035f, -0.27993f, -0.079419f, -0.553945f, -0.502379f, -0.4529f, -0.536948f, 0.266758f, 0.203969f, 0.142101f, 0.056812f, -0.168749f, -0.644315f, -0.510844f, 0.440935f, 0.359697f, 0.061467f, -0.045359f, 0.000774f, -0.114745f, -0.106348f, -0.43202f, -0.154785f, -0.065941f, 0.053859f, 0.410764f, 0.575209f, 0.525536f, 0.162304f, -0.175404f, -0.547529f, -0.848948f, -0.799204f, -0.265707f, -0.059609f, 0.306272f, 0.235903f, 0.008609f, 0.03245f, -0.320556f, -1.0f, 0.031165f, 0.729115f, 0.705559f, 0.242314f, 0.003629f, -0.028553f, 0.018674f, -0.12061f, -0.026633f, -0.01799f, -0.141369f, 0.176593f, 0.793769f, 0.998602f, 0.555691f, 0.022224f, -0.271791f, -0.59792f, -0.61435f, -0.748841f, -0.178121f, -0.209154f, 0.336379f, 0.000541f, 0.019568f, -0.02911f, -0.232828f, -0.682565f, -0.865952f, -0.145264f, -0.08007f, -0.574555f, -0.831457f, -0.716899f, -0.985734f, -0.906792f, -0.759493f, -0.901075f, -0.645067f, -0.779602f, -0.653358f, 0.002992f, 0.080156f, 0.007836f, 0.004723f, 0.117467f, -0.054498f, -0.02219f, -0.197292f, -0.257866f, -0.234907f, -0.034387f, -0.001328f, -0.004941f, 0.031806f, -0.66231f, -0.98998f, -0.998601f, -1.0f, -1.0f, -0.998588f, -1.0f, -1.0f, -1.0f, -1.0f, -1.0f, -0.99895f, -0.995137f, -0.974562f, -0.675679f, -0.30016f, -0.026187f, 0.250613f, 0.166465f, 0.024932f, 0.101773f, 0.016066f, 0.066967f, -0.214489f, 0.005716f, -0.023413f, 0.026046f, 0.034519f, -0.238362f, -0.936693f, -1.0f, -1.0f, -0.990374f, -0.999682f, -0.673302f, -0.291917f, -0.373838f, -0.705802f, -1.0f, -0.854253f, -0.602259f, -0.395359f, -0.38738f, -0.325989f, -0.134572f, -0.168076f, -0.333744f, -0.541274f, -0.330757f, 0.204688f, -0.186319f, 0.023479f, 0.016049f, 0.015888f, 0.011198f, -0.026294f, -0.020447f, -0.293739f, -0.249692f, -0.280868f, -0.185487f, 0.063464f, 0.372686f, 0.017222f, 0.046411f, -0.206758f, -0.048998f, 0.2844f, 0.004897f, -0.207008f, -0.320835f, -0.333316f, 0.021649f, 0.467313f, -0.234546f, -0.392721f, -0.314352f, -0.034429f, -0.001758f, 0.002424f, -0.015518f},
  {0.028599f, -0.00905f, -0.03362f, -0.020894f, 0.001575f, -0.026148f, 0.008588f, 0.035173f, 0.001892f, -0.008368f, 0.034077f, 0.026796f, 0.100352f, 0.138322f, 0.144389f, 0.114088f, 0.004065f, 0.035168f, 0.002318f, -0.031441f, 0.020032f, 0.032482f, 0.030371f, 0.002114f, 0.007139f, 0.00621f, -0.014208f, -0.004781f, 0.029566f, 0.004074f, 0.03409f, -0.023287f, -0.216092f, -0.137941f, -0.101307f, -0.224268f, -0.622513f, -0.615192f, -0.587447f, -0.513435f, -0.585833f, -0.504518f, -0.421829f, -0.332981f, 0.201053f, -0.456847f, -0.868935f, -0.670784f, -0.541062f, -0.490176f, -0.588901f, -0.235886f, 0.002179f, -0.002334f, 0.013382f, 0.017101f, -0.01733f, -0.013638f, 0.1655f, -0.072776f, -0.600579f, -0.157734f, -0.340046f, -0.934255f, -0.622081f, -0.303245f, -0.469925f, -0.240685f, -0.372521f, -0.615532f, -0.978824f, -0.959526f, -0.91284f, -0.925353f, -0.948723f, -0.988021f, -0.983868f, -0.965274f, -0.943875f, -0.84006f, -0.335315f, -0.117458f, -0.020137f, 0.019944f, 0.033203f, -0.010437f, 0.062394f, -0.181714f, -0.219723f, -0.443379f, -0.094015f, -0.085561f, 0.145948f, 0.70211f, 0.795199f, 0.484831f, 0.458413f, 0.352898f, 0.007498f, -0.115232f, -0.109332f, -0.325331f, -0.585107f, -0.687067f, -0.638143f, -0.800157f, -0.987496f, -0.965917f, -0.746139f, -0.081208f, -0.326717f, -0.004549f, -0.010516f, -0.230775f, -0.211314f, -0.301874f, -0.741673f, -0.206634f, 0.105697f, 0.101735f, 0.420894f, 0.88022f, 0.728043f, 0.683543f, 0.58455f, 0.487578f, 0.244804f, 0.02539f, -0.012605f, -0.090775f, 0.009662f, -0.044583f, -0.099533f, -0.370011f, -0.985339f, -1.0f, -0.88365f, -0.608896f, 0.442427f, -0.142528f, -0.001677f, 0.017117f, -0.51235f, 0.068543f, 0.144647f, 0.10294f, -0.019622f, 0.025119f, 0.341081f, 0.534414f, 0.808802f, 0.829269f, 0.86176f, 0.662612f, 0.376973f, 0.231707f, 0.134108f, 0.091201f, 0.019859f, -0.122037f, -0.052748f, -0.025243f, -0.361255f, -1.0f, -0.921111f, -0.438467f, -0.340745f, -0.307746f, 0.005675f, -0.00918f, -0.011946f, -0.097388f, 0.20943f, 0.144971f, 0.013948f, 0.090182f, 0.025448f, 0.276712f, 0.366421f, 0.308282f, 0.203889f, 0.170119f, 0.117565f, 0.054539f, 0.043527f, 0.046333f, -0.00402f, -0.005026f, -0.038168f, 0.023094f, -0.285235f, -1.0f, -0.966344f, -0.873056f, 0.028821f, -0.149528f, 0.198133f, 0.015318f, -0.02711f, -0.224221f, -0.088772f, 0.352873f, 0.243409f, 0.02857f, -0.009039f, 0.032443f, 0.023237f, 0.001608f, -0.085037f, -0.051619f, 0.071494f, -0.087f, -0.048124f, -0.056585f, -0.07555f, 0.031144f, -0.034793f, 0.046383f, -0.010905f, -0.948632f, -1.0f, -0.949997f, -0.003455f, -0.119079f, 0.209363f, 0.61085f, 0.042842f, -0.506757f, -0.053609f, 0.433252f, 0.387964f, 0.300159f, 0.120862f, 0.102912f, 0.192002f, 0.246603f, 0.282024f, 0.430909f, 0.322421f, 0.173408f, -0.140048f, 0.020438f, -0.057158f, 0.000494f, 0.016002f, 0.02065f, -0.161714f, -0.79882f, -1.0f, -1.0f, -0.014939f, 0.199082f, 0.34029f, -0.232904f, -0.102469f, -0.664594f, 0.224966f, 0.777987f, 0.540578f, 0.093133f, -0.202344f, -0.133884f, 0.000831f, 0.049139f, -0.00086f, -0.087189f, -0.055623f, -0.018976f, 0.036739f, -0.013245f, -0.001883f, -0.013056f, 0.078829f, -0.104382f, -0.104403f, -0.61217f, -1.0f, -0.997959f, -0.291484f, 0.063529f, 0.287342f, -0.064032f, -0.076457f, -0.24704f, 0.058044f, 0.463179f, -0.011579f, -0.978426f, -0.991508f, -0.987455f, -1.0f, -1.0f, -1.0f, -1.0f, -0.988696f, -0.989718f, 0.009153f, 0.158595f, 0.052943f, -0.002907f, 0.03499f, -0.074072f, -0.176339f, -0.507607f, -0.950673f, -0.682628f, -0.318954f, 0.141122f, 0.326996f, 0.063297f, 0.271627f, -0.06034f, -0.247098f, -0.683581f, -1.0f, -1.0f, -1.0f, -1.0f, -1.0f, -1.0f, -1.0f, -1.0f, -0.994575f, -0.998023f, -0.122803f, 0.088059f, 0.048587f, 0.148456f, 0.132837f, -0.057967f, -0.488622f, -0.853978f, -0.333402f, -0.104539f, -0.432145f, 0.226603f, 0.208684f, 0.050162f, 0.235696f, -0.425033f, -0.920125f, -0.989873f, -1.0f, -1.0f, -1.0f, -1.0f, -1.0f, -1.0f, -1.0f, -1.0f, -0.99877f, -1.0f, -0.226917f, -0.168998f, -0.010912f, 0.187452f, 0.12577f, -0.344963f, -1.0f, -1.0f, -0.671504f, 0.470923f, -0.240056f, 0.348308f, 0.154808f, -0.12355f, 0.051367f, -0.378426f, -1.0f, -1.0f, -0.96613f, -1.0f, -1.0f, -1.0f, -1.0f, -0.996544f, -0.982327f, -0.993214f, -0.998714f, -0.522778f, -0.11547f, -0.054917f, -0.077219f, 0.016821f, -0.175864f, -1.0f, -1.0f, -1.0f, -0.938333f, 0.496596f, 0.167323f, 0.185996f, 0.213214f, -0.346896f, -0.242878f, -0.077174f, -0.603097f, -0.926822f, -0.938406f, -0.986714f, -0.843256f, -0.584926f, -0.392298f, 0.005961f, -0.050281f, -0.199731f, 0.003602f, -0.072694f, -0.002733f, -0.232667f, -0.014113f, -0.065106f, -0.469072f, -1.0f, -1.0f, -1.0f, -0.804258f, 0.434188f, 0.994548f, 0.317316f, 0.289926f, -0.265053f, -0.387109f, 0.423769f, 0.214308f, -0.053837f, -0.04072f, -0.138474f, -0.062971f, -0.01072f, 0.184553f, 0.279864f, 0.108375f, 0.311901f, -0.002805f, -0.142094f, -0.122145f, -0.088777f, -0.006626f, 0.028346f, -0.376073f, -0.880905f, -1.0f, -0.914631f, 0.013182f, 0.992751f, 1.0f, 0.334363f, 0.221592f, -0.339851f, -0.495633f, 0.631133f, 0.85549f, 1.0f, 0.980518f, 0.302402f, -0.023231f, -0.043103f, -0.039814f, 0.068325f, 0.343399f, 0.235369f, -0.076234f, 0.179354f, 0.271425f, 0.101887f, 0.013858f, -0.012447f, -0.029177f, 0.034323f, -0.297331f, 0.028268f, 0.933943f, 0.997379f, 1.0f, 0.493456f, 0.013504f, -0.258891f, -0.385134f, 0.710284f, 1.0f, 1.0f, 1.0f, 0.507673f, 0.03181f, 0.023063f, -0.027866f, 0.104528f, 0.266962f, 0.087604f, 0.146028f, 0.49911f, 0.337502f, 0.019439f, 0.013547f, -0.010042f, -0.008454f, 0.090014f, 0.433467f, 0.940243f, 0.997079f, 0.989103f, 1.0f, 0.660572f, 0.346056f, 0.126634f, -0.619883f, 0.407799f, 1.0f, 1.0f, 1.0f, 0.538085f, -0.007154f, 0.048423f, 0.185525f, 0.192323f, 0.456749f, 0.707359f, 0.580956f, 0.551849f, 0.416495f, 0.045051f, -0.010359f, -0.08003f, 0.040922f, 0.024149f, 0.504622f, 0.975739f, 0.998637f, 0.995084f, 0.808934f, 0.376598f, 0.1983f, 0.001659f, -0.838296f, -0.179377f, 0.676785f, 0.834653f, 0.804207f, 0.399645f, 0.297806f, 0.306778f, 0.026549f, 0.166494f, 0.274146f, 0.484546f, 0.279747f, 0.018978f, 0.002336f, 0.003461f, 0.031638f, -0.049149f, -0.053555f, -0.012958f, 0.533896f, 1.0f, 1.0f, 1.0f, 0.899331f, -0.117335f, -0.014103f, -0.234257f, -0.911435f, -0.452715f, 0.435004f, 0.326303f, 0.191229f, 0.165833f, 0.163472f, 0.256238f, -0.002493f, 0.027928f, -0.024712f, -0.091425f, -0.017235f, 0.015311f, 0.065909f, 0.022744f, 0.020264f, 0.045748f, 0.127785f, 0.149728f, 0.802159f, 1.0f, 1.0f, 1.0f, 0.490221f, -0.122989f, -0.110712f, -0.191427f, -0.987019f, -0.311058f, 0.014404f, 0.013699f, 0.039951f, 0.023982f, 0.014562f, 0.340746f, 0.111151f, 0.149631f, -0.00902f, 0.010675f, 0.101616f, -0.007874f, 0.006643f, 0.016699f, -0.005694f, 0.134845f, 0.096108f, 0.242622f, 0.707504f, 1.0f, 0.923341f, 0.890852f, 0.66178f, 0.239079f, -0.143483f, -0.063889f, -0.756999f, 0.054747f, 0.075818f, -0.110492f, 0.093688f, 0.327924f, 0.210342f, 0.15107f, -0.005857f, 0.010591f, 0.030518f, -0.040482f, -0.083678f, -0.274416f, -0.232882f, -0.157898f, 0.256042f, 0.189049f, 0.568188f, 0.67499f, 0.716847f, 0.759941f, 0.63088f, 0.446632f, -0.190478f, 0.221879f, 0.031052f, 0.021982f, -0.799642f, -0.469703f, -0.033348f, -0.046674f, -0.021675f, 0.083161f, -0.300674f, -0.503322f, -0.642794f, -0.919551f, -0.974261f, -1.0f, -0.973968f, -0.926112f, -0.748106f, -0.429386f, 0.109199f, 0.3205f, 0.421719f, 0.664177f, 0.741187f, 0.732134f, 0.196458f, 0.416324f, -0.036956f, -0.018986f, 0.011608f, 0.03412f, -0.428369f, -0.767765f, -0.961309f, -0.499363f, -0.585072f, -0.614894f, -0.719383f, -0.9319f, -0.852679f, -0.51488f, -0.238932f, -0.097612f, -0.024689f, -0.141211f, -0.31459f, -0.564505f, -0.581821f, -0.850666f, -0.459719f, -0.033049f, 0.165629f, 0.090415f, 0.045127f, 0.407165f, 0.366196f, 0.000221f, -0.025526f, -0.013925f, -0.278901f, -0.426548f, -0.709511f, -1.0f, -1.0f, -1.0f, -1.0f, -1.0f, -1.0f, -0.766565f, -0.610737f, -0.565706f, -0.382361f, -0.47416f, -0.587843f, -0.816217f, -1.0f, -1.0f, -1.0f, -1.0f, -1.0f, -1.0f, -0.587782f, 0.423395f, 0.206569f, 0.006204f, -0.009442f, 0.01221f, 0.01122f, 0.193885f, -0.191783f, -0.414536f, -0.525772f, -0.39848f, -0.16661f, -0.106372f, -0.049328f, -0.094787f, -0.449203f, -0.45382f, -0.148851f, 0.01159f, -0.004706f, 0.034675f, -0.085284f, -0.174837f, -0.200512f, -0.046586f, 0.016334f, -0.023107f, 0.018944f, -0.166906f, -0.002657f, 0.032308f, -0.003216f, -0.020557f, 0.007017f, -0.018474f, 0.464872f, 0.789066f, 0.62225f, 0.654581f, 0.753389f, 0.381273f, -0.093905f, 0.052266f, -0.180222f, -0.176587f, 0.470354f, 0.648643f, 0.225449f, 0.330411f, 0.66257f, 0.715985f, 0.700264f, 0.493906f, 0.077344f, 0.220073f, 0.017272f, -0.012942f, 0.006763f, -0.032391f},
  {0.005953f, 0.03127f, 0.031254f, -0.000352f, 0.013166f, -0.005709f, -0.009807f, 0.000905f, -0.020585f, 0.014598f, 0.017727f, -0.009463f, -0.114207f, -0.07084f, 0.141189f, 0.087191f, 0.034125f, -0.033432f, -0.029892f, 0.001228f, 0.033224f, 0.002517f, 0.010132f, 0.005289f, -0.004053f, 0.025708f, 0.026435f, -0.020372f, -0.02117f, -0.027552f, -0.008467f, -0.000586f, 0.197689f, 0.245972f, 0.341687f, 0.362007f, 0.114259f, 0.160792f, 0.415326f, 0.427063f, 0.398241f, 0.31486f, 0.519759f, 0.276537f, 0.702123f, 0.973053f, 0.309324f, 0.428574f, 0.186431f, 0.461391f, 0.677264f, 0.26857f, 0.022589f, -0.027412f, -0.034045f, 0.004209f, 0.010589f, -0.027254f, 0.170435f, -0.388556f, 0.550665f, 0.157598f, 0.04448f, -0.010017f, -0.055717f, -0.12554f, -0.191169f, 0.044359f, 0.10471f, 0.20113f, 0.170599f, -0.131238f, 0.057826f, 0.162729f, 0.153176f, 0.25819f, 0.214628f, 0.00202f, 0.05394f, 0.406359f, 0.40971f, 0.055087f, 0.012675f, -0.011518f, -0.030593f, 0.005809f, 0.022375f, -0.173459f, -0.036076f, 0.220938f, -0.231979f, -0.325031f, -0.458893f, -0.697591f, -0.627594f, 0.059407f, 0.397702f, 0.180134f, 0.280026f, 0.093767f, 0.027189f, 0.237742f, 0.083772f, 0.020635f, 0.356647f, 0.222586f, -0.013595f, -0.015216f, 0.147198f, -0.209986f, 0.283167f, 0.008767f, 0.03119f, 0.231407f, 0.110825f, 0.370092f, 0.220744f, 0.456321f, 0.318039f, 0.097911f, 0.306533f, 0.168396f, 0.177801f, 0.189374f, 0.207519f, 0.189703f, 0.227932f, 0.244018f, 0.031132f, -0.091979f, -0.035073f, -0.041979f, -0.430118f, -0.920058f, -1.0f, -1.0f, -0.575918f, 0.374496f, 0.330477f, 0.253889f, -0.003539f, -0.011075f, 0.167189f, 0.295992f, 0.394383f, 0.393424f, 0.408075f, 0.325693f, 0.206803f, 0.013895f, 0.048163f, 0.002689f, 0.010948f, -0.02675f, -0.124374f, -0.007582f, 0.026784f, -0.208982f, -0.157035f, 0.017619f, -0.108071f, -0.68201f, -1.0f, -1.0f, -1.0f, -0.558778f, 0.033712f, -0.359514f, -0.017117f, 0.099069f, -0.238815f, 0.706556f, 0.668768f, 0.479397f, 0.304506f, 0.029397f, 0.080248f, 0.035863f, 0.026249f, 0.165969f, 0.262426f, 0.271649f, -0.056765f, -0.001762f, 0.119546f, -0.025569f, 0.109156f, -0.203245f, -0.013357f, -0.099061f, -0.849678f, -1.0f, -1.0f, -1.0f, 0.101971f, 0.430771f, -0.210639f, 0.038195f, -0.30666f, 0.424592f, 0.694202f, 0.478663f, 0.119482f, 0.04097f, -0.029512f, 0.002431f, 0.000873f, -0.027177f, 0.179694f, 0.211476f, 0.015916f, 0.040968f, -0.002819f, 0.067473f, 0.044099f, -0.036515f, 0.123498f, -0.014286f, -0.573666f, -0.999921f, -1.0f, -1.0f, 0.575693f, 0.67011f, -0.174578f, -0.500617f, -0.907737f, 0.331705f, 0.785898f, 0.358009f, -0.084385f, -0.003182f, -0.009216f, -0.427463f, -0.296496f, -0.294042f, -0.094408f, 0.031288f, 0.029633f, 0.000157f, -0.091384f, -0.03889f, 0.166239f, 0.100073f, 0.06758f, 0.098525f, -0.140357f, -1.0f, -1.0f, -1.0f, 0.500088f, 0.856547f, -0.091065f, -0.344972f, -1.0f, -0.051045f, 0.601231f, -0.02939f, 0.134019f, 0.074631f, -0.676956f, -0.993142f, -0.952154f, -0.970212f, -0.972993f, -0.68401f, -0.037673f, 0.235134f, 0.108499f, -0.090062f, -0.010932f, 0.021888f, 0.191843f, 0.213393f, 0.080201f, -0.980598f, -1.0f, -0.809811f, 0.265049f, 0.293347f, -0.027416f, -0.693514f, -1.0f, 0.20345f, 0.398237f, 0.073914f, -0.007994f, -0.562992f, -0.98108f, -1.0f, -1.0f, -0.982044f, -0.981153f, -0.013916f, 0.756118f, 0.695417f, 0.38549f, 0.015344f, -0.037787f, -0.075697f, 0.254054f, 0.074279f, -0.359768f, -0.938478f, -0.892983f, 0.061099f, 0.324949f, 0.203458f, 0.186469f, -0.609158f, -0.712114f, 0.277373f, 0.022248f, -0.457806f, -0.705209f, -0.963889f, -0.977045f, -0.98825f, -0.994894f, -0.995309f, -0.274775f, 0.530846f, 0.949064f, 0.896854f, 0.657781f, 0.253505f, 0.178932f, 0.069518f, 0.169949f, -0.642959f, -1.0f, -1.0f, -0.286392f, 0.705359f, 0.770113f, 0.372607f, 0.218674f, -0.451766f, -0.938801f, -0.086253f, -0.07347f, -0.55132f, -0.953216f, -0.990877f, -0.989807f, -0.985058f, -0.979198f, -0.533994f, 0.092249f, 0.399898f, 0.984581f, 1.0f, 0.669771f, 0.346747f, 0.04705f, 0.064689f, -0.366024f, -1.0f, -0.995211f, -0.976194f, 0.007469f, 0.704047f, 0.947925f, 0.345037f, -0.118829f, 0.01143f, -0.437002f, -0.353643f, -0.419833f, -0.587176f, -0.795221f, -0.841974f, -0.584652f, -0.519015f, -0.3257f, -0.047906f, 0.531239f, 0.434345f, 0.513816f, 0.102633f, 0.23538f, 0.000919f, -0.001612f, -0.16983f, -0.542902f, -1.0f, -0.980979f, -0.734871f, -0.018554f, 0.00816f, 0.289226f, -0.224579f, -0.250191f, 0.225308f, -0.014585f, -0.316532f, -0.394271f, -0.61513f, -0.709958f, -0.390098f, -0.061417f, 0.00558f, -0.115644f, 0.081943f, 0.51969f, -0.003143f, -0.004415f, -0.153031f, 0.079777f, -0.044498f, 0.007583f, -0.016465f, -0.064123f, -0.251631f, -0.264087f, -0.351349f, 0.080392f, -0.202003f, -0.595214f, -0.318647f, -0.247052f, 0.230102f, 0.148837f, 0.692117f, 0.20363f, -0.206976f, -0.086761f, -0.258891f, -0.177557f, 0.039956f, -0.041154f, 0.022107f, 0.076996f, -0.193045f, -0.078046f, -0.023811f, 0.071721f, -0.031397f, 0.071454f, 0.409911f, 0.211844f, 0.180473f, 0.343756f, 0.086042f, -0.232574f, -0.755646f, -0.93513f, -0.247269f, -0.208329f, 0.271878f, 0.413737f, 1.0f, 0.714882f, 0.122134f, -0.162959f, -0.029671f, -0.410165f, -0.910283f, -0.936163f, -0.974349f, -1.0f, -0.998664f, -0.995768f, -0.529489f, -0.009629f, 0.031314f, 0.30423f, 0.56216f, 0.333117f, 0.274389f, 0.402946f, 0.208326f, -0.432023f, -1.0f, -1.0f, -0.178737f, 0.002602f, -0.018739f, 0.591733f, 0.998081f, 0.994777f, 0.162861f, -0.338105f, -0.218728f, -0.827677f, -0.996439f, -1.0f, -1.0f, -1.0f, -1.0f, -0.999263f, -0.854055f, 0.20225f, 0.192282f, 0.136131f, 0.484572f, 0.046741f, 0.178964f, 0.413668f, 0.048106f, -1.0f, -1.0f, -1.0f, 0.036506f, -0.276041f, -0.335518f, 0.782018f, 0.997426f, 0.980261f, 0.461082f, 0.008072f, -0.01657f, -0.796284f, -1.0f, -1.0f, -1.0f, -1.0f, -1.0f, -1.0f, -0.373431f, 0.498081f, 0.13747f, 0.137332f, 0.185405f, 0.011509f, 0.075464f, 0.148598f, -0.558812f, -1.0f, -1.0f, -0.998176f, 0.460898f, 0.241716f, -0.036213f, 0.89051f, 1.0f, 0.987618f, 0.474289f, 0.08595f, 0.154128f, -0.121285f, -1.0f, -1.0f, -1.0f, -1.0f, -1.0f, -0.961352f, -0.036073f, 0.154212f, 0.070836f, 0.1428f, 0.175927f, -0.013047f, -0.020286f, -0.309181f, -0.992689f, -1.0f, -0.99659f, -0.871139f, 0.279339f, 0.00527f, -0.207355f, 0.776267f, 1.0f, 0.986199f, 0.373977f, 0.123162f, 0.11705f, 0.027966f, -0.115455f, -0.594859f, -0.923862f, -0.952851f, -0.41317f, -0.046265f, -0.011591f, 0.025503f, -0.023367f, 0.07763f, -0.022949f, 0.080432f, -0.027905f, -0.769886f, -0.995884f, -1.0f, -1.0f, -0.515216f, 0.027834f, -0.163021f, -0.311241f, 0.706934f, 0.991522f, 0.972532f, 0.415589f, 0.137422f, -0.015378f, -0.01726f, 0.070414f, 0.027962f, -0.123452f, -0.084919f, 0.021186f, -0.019621f, -0.010821f, 0.018439f, 0.007183f, 0.098415f, 0.120979f, 0.038611f, -0.532743f, -0.994288f, -1.0f, -1.0f, -1.0f, -0.44431f, -0.2369f, -0.171277f, -0.052843f, 0.528397f, 0.846501f, 0.988457f, 0.774252f, 0.548763f, 0.197814f, -0.0886f, -0.007797f, 0.115169f, 0.119593f, -0.018218f, -0.009457f, 0.009443f, 0.003182f, 0.042411f, 0.006284f, -0.0117f, 0.191046f, -0.012902f, -0.793406f, -1.0f, -1.0f, -1.0f, -0.985524f, 0.0779f, -0.24938f, 0.03485f, 0.027964f, 0.275937f, 1.0f, 1.0f, 0.980916f, 1.0f, 1.0f, 0.371895f, 0.220142f, 0.083546f, 0.051294f, 0.064983f, 0.199972f, 0.007662f, -0.009798f, -0.248411f, 0.003308f, 0.407383f, 0.37563f, -0.149763f, -0.966746f, -1.0f, -1.0f, -0.521808f, -0.342537f, -0.037132f, 0.018706f, -0.006199f, -0.001523f, 0.235825f, 0.806513f, 1.0f, 1.0f, 0.989752f, 0.994706f, 1.0f, 1.0f, 0.887044f, 0.381608f, 0.086409f, 0.010282f, 0.012926f, -0.035273f, 0.057046f, 0.090376f, -0.148832f, -0.328855f, -0.823035f, -0.697106f, -0.541157f, -0.554917f, -0.345653f, -0.170608f, 0.062337f, 0.028837f, -0.002914f, -0.023242f, 0.28158f, -0.00943f, 0.165618f, 0.242927f, 0.155896f, 0.312237f, 0.668521f, 0.862856f, 0.879316f, 0.653598f, 0.37339f, 0.124369f, 0.096409f, -0.030547f, -0.144495f, -0.731748f, -0.800488f, -0.72785f, -0.709827f, -0.420984f, -0.072883f, -0.040885f, 0.135317f, 0.326933f, 0.217732f, 0.001964f, 0.005668f, 0.026316f, -0.033364f, 0.219711f, 0.02556f, -0.464241f, -0.563337f, -0.154385f, -0.276055f, -0.844948f, -0.997654f, -1.0f, -1.0f, -1.0f, -1.0f, -1.0f, -0.869269f, -0.936764f, -0.57977f, -0.172956f, -0.032811f, 0.174732f, 0.214357f, 0.022987f, 0.194194f, -0.173542f, 0.021032f, -0.01073f, 0.018758f, 0.01124f, -0.022606f, -0.006981f, -0.188451f, 0.422857f, 0.720572f, 0.979976f, 0.265706f, 0.068101f, -0.466356f, -0.382167f, -0.758605f, -0.534618f, -0.256969f, -0.087411f, 0.002215f, -0.117304f, -0.344427f, -0.410839f, -0.257889f, 0.138489f, 0.126431f, -0.049782f, -0.015006f, 0.026455f, 0.031398f, 0.003709f},
  {-0.00053f, -0.028194f, 0.020154f, -0.011036f, 0.00236f, -0.008279f, 0.01135f, 0.007323f, -0.009239f, -0.006738f, -0.001113f, -0.029307f, -0.322244f, -0.336873f, -0.114779f, -0.11926f, -0.004789f, 0.023646f, 0.002147f, 0.031627f, 0.006162f, 0.015829f, 0.004455f, -0.021237f, -0.034507f, -0.015201f, 0.026936f, 0.017252f, -0.012675f, -0.023223f, 0.034162f, 0.002864f, -0.247427f, -0.336811f, -0.277147f, -0.440908f, -0.429908f, -0.73291f, -1.0f, -1.0f, -0.989192f, -0.986385f, -0.839237f, -1.0f, -1.0f, -1.0f, -1.0f, -1.0f, -1.0f, -0.718395f, -0.18203f, -0.174925f, -0.028902f, 0.003909f, -0.016659f, 0.024053f, 0.030222f, -0.009384f, -0.165863f, -0.095166f, -0.387145f, -0.162089f, -0.509551f, -1.0f, -1.0f, -0.996887f, -0.982684f, -0.99737f, -1.0f, -1.0f, -1.0f, -1.0f, -1.0f, -1.0f, -1.0f, -1.0f, -1.0f, -0.849629f, -0.806906f, -0.795043f, -0.388714f, -0.272842f, 0.024698f, -0.002488f, -0.019501f, 0.029588f, -0.111958f, -0.379382f, -0.249319f, -0.348734f, -0.520973f, -0.845522f, -1.0f, -0.996473f, -0.998077f, -1.0f, -1.0f, -1.0f, -1.0f, -1.0f, -1.0f, -0.996649f, -0.972298f, -0.998483f, -0.834027f, -0.064615f, 0.002472f, -0.146816f, -0.674954f, -0.316332f, -0.193932f, 0.014618f, -0.031637f, 0.21849f, -0.372415f, -0.129297f, -0.483778f, 0.132974f, -0.249873f, -0.129471f, -0.242307f, -0.48303f, -0.997003f, -0.976195f, -0.988902f, -0.996732f, -1.0f, -1.0f, -0.98564f, -0.98002f, -0.793928f, -0.351935f, -0.026901f, -0.006615f, 0.00249f, 0.1166f, 0.376307f, -0.202531f, -0.419864f, -0.37069f, 0.021337f, -0.028876f, -0.46922f, 0.107809f, -0.309914f, 0.133204f, 0.109773f, -0.088904f, -0.010767f, -0.006525f, -0.182301f, -0.033245f, -0.005194f, -0.005641f, 0.239128f, 0.010104f, 0.193234f, 0.372259f, 0.327942f, 0.070134f, 0.00234f, -0.006833f, 0.152835f, 0.226101f, 0.014517f, -0.286561f, -0.993157f, -0.614644f, 0.000174f, 0.15447f, 0.029172f, 0.043225f, 0.034677f, 0.206075f, 0.004941f, 0.100624f, 0.010148f, 0.0336f, 0.050006f, 0.068725f, -0.0118f, -0.768367f, -1.0f, -1.0f, -1.0f, -0.65469f, -0.122708f, 0.045416f, -0.025775f, 0.263734f, 0.650663f, 0.64774f, 0.153356f, -0.156427f, -0.19767f, -0.439473f, 0.249586f, 0.392835f, -0.324218f, -0.018392f, -0.160082f, 0.091555f, -0.08399f, 0.025034f, -0.010479f, 0.044711f, -0.009893f, -0.099586f, -0.997045f, -1.0f, -1.0f, -1.0f, -1.0f, -1.0f, -0.221725f, -0.045471f, -0.056636f, 0.131113f, 0.362012f, 0.286611f, -0.087434f, -0.14265f, -0.209678f, 0.056241f, 0.10654f, 0.113034f, -0.529454f, 0.009618f, -0.045716f, 0.096105f, 0.042269f, 0.073165f, -0.032207f, 0.070959f, -0.006133f, -0.251574f, -0.995873f, -1.0f, -1.0f, -1.0f, -1.0f, -0.832853f, -0.085054f, 0.002331f, 0.089532f, 0.025164f, 0.071172f, 0.057805f, -0.178076f, -0.655445f, -0.817488f, -0.411201f, -0.101896f, -0.120771f, -0.408122f, -0.114089f, -0.145925f, 0.050638f, 0.015309f, 0.035786f, 0.00317f, -0.055238f, -0.075111f, -0.534936f, -0.999439f, -1.0f, -1.0f, -1.0f, -0.820773f, -0.110948f, -0.01459f, 0.007485f, -0.004323f, -0.002429f, 0.025372f, 0.028348f, -1.0f, -1.0f, -0.917253f, -0.301968f, -0.126449f, 0.14834f, -0.386455f, -0.118931f, -0.012273f, -0.049836f, -0.096824f, 0.017085f, 0.000637f, -0.022293f, 0.035291f, -0.20922f, 0.016777f, -0.659646f, -1.0f, -0.694806f, 0.023773f, 0.274807f, -0.054707f, 0.024587f, -0.008213f, 0.035453f, 0.017167f, -0.177348f, -0.749829f, -0.95011f, -1.0f, 0.039476f, 0.096517f, -0.125617f, -0.651585f, -0.211372f, -0.107781f, -0.122745f, -0.091177f, -0.029285f, -0.035154f, 0.02327f, 0.603312f, 0.993855f, 0.960322f, -0.240449f, -1.0f, -0.007144f, 0.774826f, 0.4586f, -0.06776f, 0.068064f, -0.156886f, -0.012158f, -0.010814f, -0.157148f, -0.961155f, -0.925825f, -0.745422f, -0.031878f, 0.221739f, -0.374688f, -0.618076f, -0.407871f, -0.268616f, -0.075768f, -0.031606f, 0.006596f, 0.009514f, 0.302955f, 1.0f, 1.0f, 0.994709f, -0.001962f, -0.706447f, 0.025642f, 0.620652f, 0.126968f, -0.005797f, 0.021791f, -0.15402f, -0.067225f, -0.082597f, -0.194831f, -0.330302f, -0.499803f, -0.314892f, -0.316941f, 0.198733f, -0.094772f, -0.484191f, -0.378328f, -0.104286f, 0.035079f, 0.226853f, 0.119952f, 0.149691f, 0.950221f, 0.975707f, 1.0f, 1.0f, 0.050501f, -0.370281f, 0.005714f, 0.325786f, 0.122254f, 0.037051f, -0.006939f, 0.079837f, -0.000906f, 0.090557f, -0.044552f, -0.174781f, -0.000486f, -0.293087f, -0.562101f, 0.185658f, 0.215913f, -0.232943f, -0.299201f, 0.219539f, 0.139205f, 0.483265f, 0.344669f, 0.270869f, 0.919857f, 0.976992f, 1.0f, 0.804782f, 0.059987f, -0.09731f, 0.050478f, 0.48123f, 0.537905f, 0.115127f, 0.265108f, 0.226286f, 0.061068f, 0.034461f, 0.083744f, -0.068798f, 0.045059f, -0.42475f, -0.449124f, 0.073948f, 0.307301f, 0.080087f, 0.172564f, 0.288606f, 0.108543f, 0.248451f, 0.070098f, 0.159217f, 0.238866f, 0.280108f, 0.320974f, 0.310775f, -0.131947f, 0.110434f, 0.677156f, 0.994258f, 0.624339f, 0.121395f, 0.222155f, -0.067775f, -0.065926f, 0.013288f, 0.091108f, -0.242195f, -0.487361f, -0.643647f, -0.373314f, -0.269334f, 0.267924f, -0.093903f, -0.172524f, -0.041882f, 0.146134f, -0.028829f, -0.000819f, -0.04871f, 0.025083f, -0.006331f, -0.031252f, -0.05519f, 0.015419f, 0.827572f, 0.982999f, 0.996901f, 0.435403f, 0.151679f, 0.073977f, 0.084963f, 0.005536f, 0.105743f, -0.0327f, -0.441197f, -0.857641f, -0.726079f, -0.386433f, 0.032346f, 0.229886f, -0.090626f, -0.524873f, -0.232508f, -0.14426f, 0.100107f, 0.198239f, 0.117921f, 0.090252f, -0.041904f, 0.007868f, 0.248135f, 0.786914f, 1.0f, 0.972655f, 0.753213f, 0.097298f, 0.027578f, -0.130017f, -0.027106f, -0.093592f, -0.225426f, -0.172186f, -0.640533f, -0.832342f, -0.862137f, -0.488275f, -0.006704f, 0.184433f, 0.092658f, -0.287602f, -0.204182f, -0.027758f, -0.020357f, 0.04875f, -0.008845f, -0.101687f, -0.60159f, -0.772529f, -0.025207f, 0.624184f, 0.681101f, 0.338798f, -0.022456f, -0.2739f, -0.42707f, -0.219329f, -0.121182f, -0.197442f, -0.538673f, -0.445453f, -0.644771f, -0.548952f, -0.435105f, 0.095904f, 0.1828f, -0.08657f, 0.011048f, -0.424267f, -0.267946f, -0.120485f, -0.580928f, -1.0f, -0.999968f, -1.0f, -1.0f, -0.995466f, -0.992854f, -0.330077f, -0.045113f, -0.30121f, -0.265745f, -0.312278f, -0.579476f, -0.29215f, -0.249748f, -0.160557f, -0.762236f, -0.667796f, -0.641971f, -0.472697f, -0.140235f, 0.254567f, 0.031174f, -0.211198f, -0.021042f, -0.670005f, -0.780605f, -0.577161f, -0.896336f, -1.0f, -1.0f, -1.0f, -0.992007f, -0.984123f, -0.984726f, -0.783553f, -0.277423f, -0.147522f, -0.02079f, -0.066241f, -0.393861f, -0.19143f, -0.141033f, -0.100766f, -0.41689f, -0.395007f, -0.276148f, -0.328757f, 0.049384f, -0.30804f, 0.120482f, -0.091739f, 0.09535f, -0.064803f, -0.477956f, -0.494907f, -0.862062f, -1.0f, -0.963912f, -1.0f, -0.864338f, -0.42107f, -0.27998f, -0.203025f, -0.033108f, 0.008072f, -0.052843f, 0.013101f, -0.15885f, -0.045206f, -0.014456f, -0.112451f, -0.054662f, 0.103926f, -0.169028f, -0.570631f, -0.330861f, 0.202878f, 0.132392f, -0.017894f, 0.17465f, 0.053858f, -0.192795f, -0.659936f, -0.601044f, -0.40949f, -0.136316f, -0.176964f, 0.007577f, 0.022886f, -0.045395f, -0.00905f, -0.0558f, -0.013039f, -0.022037f, 0.01929f, 0.057323f, 0.056897f, -0.033911f, 0.205869f, 0.089162f, 0.021712f, 0.046205f, -0.127697f, 0.273426f, 0.227784f, 0.012244f, -0.019863f, -0.149096f, -0.454293f, -0.710202f, -1.0f, -0.688561f, -0.080001f, -0.070792f, -0.035973f, -0.017396f, -0.144111f, -0.251654f, -0.205181f, -0.103478f, -0.017224f, -0.014982f, -0.033849f, 0.041422f, 0.09122f, 0.10189f, 0.276075f, -0.030714f, 0.072703f, -0.333125f, -0.092513f, 0.059977f, -0.014591f, -0.014402f, 0.032413f, 0.178317f, -0.054578f, -0.786522f, -0.781706f, -0.295685f, -0.314384f, -0.192263f, -0.161961f, -0.353657f, -0.349159f, -0.661471f, -0.717886f, -0.658195f, -0.533599f, -0.581945f, -0.676787f, -0.4653f, -0.244414f, -0.451663f, -0.140783f, -0.2251f, -0.329684f, -0.806914f, 0.16928f, 0.334008f, -0.009352f, 0.027799f, -0.035335f, 0.05918f, 0.087043f, -0.643319f, -0.874945f, -0.540889f, -0.964233f, -1.0f, -0.993951f, -1.0f, -1.0f, -0.997011f, -0.996264f, -1.0f, -1.0f, -1.0f, -1.0f, -0.996676f, -0.904082f, -0.949575f, -1.0f, -0.714571f, -0.384122f, -0.670723f, -0.190812f, 0.229879f, -0.021281f, -0.029337f, -0.024515f, 0.018491f, 0.208725f, -0.413886f, -0.595678f, -1.0f, -0.998467f, -0.92924f, -0.95575f, -0.999246f, -1.0f, -1.0f, -1.0f, -1.0f, -1.0f, -1.0f, -1.0f, -0.999606f, -0.910511f, -0.994592f, -1.0f, -0.98296f, -0.317406f, -0.108558f, 0.19375f, 0.027209f, -0.020496f, -0.015373f, -0.018671f, -0.030865f, 0.012768f, 0.336978f, 0.305902f, -0.022572f, -0.557111f, -0.667879f, -0.362136f, -0.942781f, -0.806881f, -0.909826f, -0.978973f, -1.0f, -0.844737f, -0.393569f, -0.549206f, -0.718097f, -0.721344f, -0.819804f, -0.669376f, -0.618446f, -0.30666f, -0.020713f, -0.02948f, 0.011117f, -0.021548f},
  
  {0.035316f, -0.022688f, 0.017244f, -0.011343f, -0.029698f, -0.035164f, 0.015169f, -0.011234f, -0.023325f, 0.034903f, 0.020604f, 0.023173f, -0.146304f, -0.05253f, 0.139779f, 0.044705f, 0.016816f, -0.009031f, -0.008323f, -0.00408f, -0.014398f, -0.024829f, -0.004351f, -0.01312f, -0.011629f, -0.015955f, 0.016195f, -0.006147f, 0.027168f, 0.010125f, -0.012229f, 0.035194f, -0.159632f, -0.321875f, -0.186617f, -0.357823f, -0.288574f, 0.141724f, 0.333781f, 0.412926f, 0.269098f, 0.12378f, 0.511615f, 0.419303f, 0.298795f, 0.288158f, 0.234532f, -0.256722f, -0.287399f, -0.16615f, 0.016867f, 0.11142f, -0.035853f, -0.020687f, 0.004228f, 0.023888f, -0.030094f, 0.014459f, -0.122992f, -0.135196f, 0.486579f, 0.433432f, -0.18685f, -0.47269f, -0.245307f, 0.106629f, 0.115448f, -0.478077f, -0.652187f, -0.779137f, -1.0f, -0.96182f, -0.824216f, -0.680475f, -0.584181f, -0.357602f, -0.308306f, -0.533763f, -0.483315f, -0.678354f, -0.750896f, -0.462123f, -0.028948f, -0.003257f, 0.020568f, -0.020409f, 0.176983f, -0.240213f, -0.288677f, -0.108304f, -0.271213f, -0.594352f, -0.549048f, -0.257525f, -0.347753f, -0.781756f, -0.369857f, -0.520712f, -0.715788f, -0.781471f, -0.876091f, -0.876188f, -0.810635f, -0.958157f, -0.798333f, -0.401932f, -0.187413f, -0.846531f, -0.649904f, -0.252103f, -0.297274f, 0.017356f, 0.016416f, -0.207875f, 0.089881f, -0.644831f, -0.619342f, -0.94257f, -0.507933f, -0.395789f, -0.75941f, -0.508918f, -0.459815f, -0.397769f, -0.560118f, -0.821049f, -0.432886f, -0.099946f, -0.017424f, -0.02158f, -0.075728f, -0.078043f, -0.058228f, 0.174949f, 0.310038f, 0.501605f, 0.570354f, 0.230269f, -0.409211f, -0.366556f, 0.031274f, 0.010068f, -0.228783f, -0.604198f, -0.566328f, -0.690411f, -0.445803f, -0.165846f, -0.208717f, -0.164192f, -0.020535f, -0.13537f, -0.493621f, -0.743203f, -0.463553f, -0.416336f, -0.19083f, -0.056308f, -0.014947f, 0.010714f, 0.351799f, 0.524646f, 0.80179f, 0.995144f, 0.989923f, 0.73476f, 0.151119f, -0.460715f, 0.004227f, 0.009114f, 0.041709f, -0.999906f, -0.944398f, -0.681838f, -0.258665f, -0.317984f, -0.057336f, 0.017171f, 0.039529f, 0.030883f, -0.137343f, -0.057438f, -0.005606f, -0.243405f, -0.261974f, -0.116067f, -0.035992f, -0.001348f, -0.000924f, 0.382583f, 0.997122f, 1.0f, 1.0f, 1.0f, 0.811464f, 0.053857f, -0.026794f, 0.020208f, 0.063269f, -0.997305f, -0.991148f, -0.757971f, -0.238805f, -0.012224f, 0.123075f, 0.019354f, 0.224665f, 0.267355f, 0.012542f, -0.011137f, -0.072402f, -0.125108f, -0.055012f, -0.03506f, -0.013841f, 0.002827f, -0.007413f, 0.18541f, 1.0f, 1.0f, 1.0f, 1.0f, 1.0f, 0.301938f, 0.036067f, 0.138925f, -0.280421f, -0.974844f, -0.980582f, -0.51397f, -0.136845f, -0.004419f, 0.017119f, -0.062445f, -0.001897f, 0.19132f, -0.045142f, -0.240114f, -0.401261f, 0.013244f, 0.006588f, -0.018225f, -0.026122f, -0.099343f, -0.021182f, 0.412375f, 1.0f, 1.0f, 1.0f, 1.0f, 1.0f, 0.295255f, -0.234561f, -0.328372f, -0.20143f, -0.91033f, -0.913504f, -0.139704f, -0.032231f, 0.019152f, 0.100874f, 0.023637f, 0.018144f, 0.334042f, 0.277383f, 0.094202f, -0.139568f, -0.22099f, -0.523544f, -0.632872f, -0.679816f, -0.803969f, -0.915533f, -0.570002f, 0.666924f, 1.0f, 1.0f, 1.0f, 1.0f, 0.571773f, -0.302373f, -0.468689f, -0.573116f, -0.963414f, -0.416948f, -0.088839f, 0.010187f, 0.005483f, -0.007618f, 0.005697f, 0.229593f, 0.989369f, 1.0f, 1.0f, 0.247006f, -0.131348f, -0.70906f, -0.964234f, -0.97868f, -0.987363f, -0.999184f, -0.994994f, -0.97363f, 0.287031f, 1.0f, 1.0f, 1.0f, 0.369013f, -0.121469f, -0.40217f, -0.556457f, -0.918817f, -0.022076f, 0.043011f, 0.06915f, 0.09912f, 0.037094f, 0.006025f, 0.717684f, 1.0f, 1.0f, 1.0f, 0.348491f, -0.474428f, -0.935597f, -0.979622f, -0.997193f, -1.0f, -1.0f, -1.0f, -1.0f, -1.0f, -0.23496f, 1.0f, 1.0f, -0.268826f, -0.094598f, -0.537125f, -0.791165f, -0.444234f, 0.117108f, 0.18451f, 0.360456f, 0.217974f, 0.105118f, -0.005311f, 0.950697f, 1.0f, 0.999586f, 1.0f, 0.244765f, -0.217167f, -0.690766f, -1.0f, -1.0f, -1.0f, -1.0f, -1.0f, -1.0f, -1.0f, -0.980388f, 0.461427f, 0.317053f, -0.385707f, -0.202952f, -0.199665f, -0.84949f, -0.267024f, 0.104053f, 0.062708f, 0.021766f, -0.006627f, 0.057129f, 0.047144f, 0.978053f, 0.98445f, 0.962818f, 0.950569f, -0.082633f, -0.284044f, -0.276017f, -0.615534f, -0.552735f, -0.572935f, -0.999316f, -0.996069f, -0.996483f, -1.0f, -1.0f, -0.276635f, 0.033323f, -0.598592f, 0.217327f, -0.002317f, -0.319054f, -0.155737f, -0.098795f, -0.903954f, -0.929109f, -0.595178f, -0.036205f, 0.152654f, 0.712181f, 0.917745f, 0.892354f, -0.054741f, -0.425765f, -0.028126f, -0.025669f, -0.329734f, -0.043834f, 0.070574f, -0.245583f, -0.999873f, -0.987677f, -0.991601f, -1.0f, -0.428793f, -0.253626f, -0.428316f, 0.056573f, -0.091769f, -0.396971f, -0.024541f, -0.679941f, -0.990825f, -0.997749f, -0.958363f, -0.274849f, 0.188089f, 0.150827f, 0.135314f, 0.067353f, -0.524972f, -0.507614f, -0.08712f, -0.162506f, -0.245055f, -0.03835f, 0.004255f, -0.049596f, -0.656441f, -0.93726f, -0.98578f, -0.991604f, -0.377006f, -0.72388f, -0.401134f, -0.21401f, -0.258742f, -0.432817f, 0.3159f, -0.707992f, -0.991877f, -0.992895f, -0.998206f, -0.998361f, -0.646207f, -0.383479f, -0.319637f, 0.017764f, -0.234539f, -0.298463f, -0.14659f, -0.312635f, -0.157809f, -0.178873f, -0.073098f, -0.044242f, -0.204859f, -0.269523f, -0.418455f, -0.414632f, -0.858957f, -0.873498f, -0.301277f, -0.035524f, -0.25106f, -0.676806f, 0.365735f, -0.227949f, -0.829625f, -0.45741f, -0.992854f, -0.995083f, -0.995021f, -1.0f, -0.990518f, -0.872492f, -0.661113f, -0.356459f, -0.119148f, -0.02352f, -0.003215f, 0.014454f, -0.090961f, -0.002943f, 0.153359f, 0.050649f, 0.113334f, 0.016153f, -1.0f, -1.0f, -0.306809f, -0.272748f, -0.317572f, -0.773936f, -0.188306f, 0.077576f, -0.044646f, 0.614359f, -0.149939f, -0.994834f, -0.997152f, -0.999884f, -0.987456f, -0.793974f, -0.367523f, -0.163759f, 0.005955f, 0.018676f, 0.038219f, -0.045178f, -0.05845f, 0.019093f, 0.20707f, 0.298776f, 0.2815f, 0.232335f, -1.0f, -1.0f, -0.254656f, 0.114363f, -0.124649f, -0.651278f, -0.667001f, 0.053822f, 0.068195f, 0.321317f, 0.103278f, 0.151089f, -0.097306f, -0.157398f, 0.026038f, 0.030955f, 0.083632f, 0.004725f, -0.025486f, 0.009038f, -0.034566f, -0.023829f, -0.010605f, 0.093646f, 0.270069f, 0.40811f, 0.524775f, 0.231294f, -0.944093f, -0.696205f, -0.312114f, -0.02264f, -0.163228f, -0.539611f, -0.605632f, 0.023872f, -0.008048f, 0.035519f, -0.002988f, 0.185525f, 0.417897f, 0.566051f, 0.68907f, 0.23013f, 0.035836f, -0.105596f, -0.104634f, 0.13718f, -0.034704f, 0.010871f, 0.098212f, 0.298137f, 0.459566f, 0.784914f, 0.531206f, 0.064458f, -0.316658f, -0.323158f, 0.035049f, 0.171128f, 0.041055f, -0.620928f, -0.35135f, -0.056198f, -0.05503f, -0.00793f, 0.064738f, 0.003446f, 0.001882f, 0.006212f, 0.105171f, -0.016782f, 0.027305f, -0.073338f, -0.051954f, -0.001021f, 0.002302f, -0.026741f, 0.205031f, 0.710914f, 0.989789f, 0.907151f, 0.61225f, -0.121412f, -0.119209f, -0.264565f, 0.17416f, 0.1178f, 0.161245f, -0.738044f, -0.615807f, -0.102684f, -0.049722f, -0.047847f, 0.010854f, 0.030482f, -0.003231f, -0.06393f, 0.053296f, 0.073058f, 0.082154f, -0.007329f, -0.016685f, 0.002275f, -0.055052f, 0.251591f, 0.525525f, 0.998831f, 0.846189f, 0.555923f, 0.542713f, 0.304845f, 0.034548f, -0.165574f, 0.209388f, -0.028732f, 0.010703f, -0.174156f, -0.0894f, 0.071488f, 0.039401f, -0.050766f, 0.076648f, 0.041627f, -0.012749f, 0.041637f, 0.068596f, 0.088861f, 0.025579f, 0.089944f, -0.020564f, -0.104522f, -0.059213f, 0.000442f, 0.404954f, 0.684506f, 0.202113f, 0.124342f, 0.421877f, 0.117411f, -0.100996f, -0.097387f, 0.006874f, -0.003356f, -0.035863f, -0.398687f, 0.045173f, -0.02663f, -0.024103f, 0.048304f, 0.235929f, -0.003221f, 0.111936f, 0.015273f, 0.019534f, 0.017895f, 0.016072f, 0.008441f, -0.017447f, -0.080416f, -0.04592f, -0.030852f, -0.216495f, -0.328859f, -0.380296f, -0.080724f, 0.136515f, 0.149884f, 0.126647f, 0.333552f, 0.013386f, 0.028929f, -0.029254f, 0.045387f, 0.27697f, 0.353458f, -0.286517f, -0.044079f, -0.034281f, 0.034321f, 0.155851f, -0.023866f, 0.091629f, 0.048605f, 0.123323f, -0.014392f, 0.084614f, -0.162373f, -0.298156f, -0.806343f, -0.812859f, -0.801647f, -0.105131f, 0.29502f, 0.302615f, 0.218255f, 0.328631f, 0.221001f, 0.002625f, -0.035678f, -0.035332f, 0.004895f, 0.206957f, -0.303389f, -1.0f, -1.0f, -0.989484f, -0.991655f, -1.0f, -0.967643f, -0.9502f, -0.945795f, -0.952686f, -0.983564f, -1.0f, -0.914896f, -0.996998f, -0.995639f, -0.984819f, -0.950668f, -0.738024f, -0.681157f, -0.51579f, -0.244249f, 0.156128f, -0.0202f, 0.000748f, 0.006766f, -0.005215f, -0.032508f, -0.021529f, 0.051745f, -0.286746f, -0.266594f, 0.17918f, -0.06832f, -0.33045f, -0.44418f, -0.237951f, -0.506813f, -0.995869f, -1.0f, -0.993991f, -0.990453f, -0.984212f, -0.894418f, -0.678092f, -0.40021f, -0.321903f, -0.24194f, -0.174422f, 0.002787f, 0.002423f, 0.021232f, -0.018725f},
  {0.000716f, 0.010224f, -0.002216f, -0.006116f, 0.017963f, 0.015311f, -0.025183f, -0.008295f, -0.02117f, 0.01903f, 0.00602f, 0.004095f, 0.063214f, 0.037811f, -0.118395f, -0.142221f, 0.020045f, 0.015979f, 0.03157f, -0.004947f, 0.005092f, -0.034676f, 0.030061f, 0.003097f, 0.012308f, -0.031991f, -0.005271f, 0.030244f, -0.016857f, 0.010313f, 0.021191f, 0.019758f, -0.172219f, -0.144505f, 0.247321f, 0.516211f, 0.448177f, 0.478727f, 0.354641f, 0.639174f, 0.668829f, 0.525268f, 0.155371f, 0.072621f, 0.352062f, 0.708775f, 1.0f, 1.0f, 0.44078f, 0.306485f, 0.392555f, 0.182275f, 0.011119f, 0.02481f, -0.016762f, 0.023266f, -0.007113f, 0.001087f, -0.164375f, -0.059252f, -0.626732f, -0.38069f, 0.344684f, 0.384137f, 0.457024f, 0.778388f, 0.994578f, 0.968636f, 1.0f, 1.0f, 0.997445f, 0.999405f, 1.0f, 0.983623f, 1.0f, 0.771052f, 0.70113f, 1.0f, 0.894718f, 0.684283f, 0.050577f, -0.285308f, -0.010842f, -0.0283f, 0.016304f, 0.021312f, -0.297778f, 0.008047f, -0.561484f, 0.090059f, 0.252977f, 0.237455f, 0.389497f, 0.28674f, 0.150911f, 0.397595f, 0.716937f, 0.817288f, 0.997079f, 1.0f, 1.0f, 1.0f, 1.0f, 1.0f, 1.0f, 1.0f, 1.0f, 0.980794f, 0.925f, 0.533052f, 0.303649f, -0.004091f, 0.00492f, 0.201252f, -0.161705f, -0.02116f, -0.662748f, -0.045217f, 0.055547f, -0.167973f, -0.074952f, -0.187211f, -0.131037f, -0.054911f, -0.205904f, -0.161149f, -0.09561f, -0.02373f, 0.339487f, 0.86951f, 0.986269f, 1.0f, 1.0f, 1.0f, 0.977708f, 0.917122f, 0.659389f, 0.331531f, -0.290688f, 0.273981f, 0.007904f, -0.018364f, -0.190477f, -0.2665f, -0.29467f, -0.211574f, -0.085044f, -0.297127f, 0.022535f, -0.147058f, 0.067182f, -0.02282f, -0.107271f, -0.176847f, -0.145438f, -0.079246f, -0.060372f, -0.001109f, 0.054839f, 0.363964f, 0.319835f, -0.011147f, -0.030597f, -0.019462f, 0.149683f, -0.224112f, -0.26869f, 0.120498f, -0.033689f, 0.115153f, 0.308287f, -0.370381f, -0.347034f, -0.073402f, 0.011538f, -0.065289f, 0.046859f, -0.080138f, 0.027686f, 0.019046f, 0.026014f, -0.001666f, 0.011142f, 0.001361f, -0.2654f, -0.716853f, -1.0f, -0.991071f, -0.978136f, -0.979977f, -0.941163f, -1.0f, -0.919308f, -0.720906f, -0.184531f, -0.031814f, -0.212568f, 0.417704f, 0.058513f, -0.344108f, -0.445083f, 0.017559f, -0.154346f, 0.037603f, -0.147288f, -0.098433f, -0.047036f, 0.001833f, -0.043621f, -0.134614f, -0.000385f, -0.064397f, -0.616944f, -1.0f, -1.0f, -1.0f, -1.0f, -1.0f, -1.0f, -1.0f, -1.0f, -0.991361f, -0.136064f, -0.145023f, -0.258091f, 0.197918f, 0.048994f, 0.093852f, -0.473213f, -0.199688f, -0.251275f, -0.031963f, -0.12253f, -0.076462f, -0.095113f, 0.008235f, -0.06581f, -0.020089f, -0.124251f, -0.449265f, -1.0f, -1.0f, -1.0f, -1.0f, -1.0f, -1.0f, -1.0f, -1.0f, -1.0f, -1.0f, -0.536515f, -0.083269f, -0.096922f, 0.307587f, 0.154852f, -0.007075f, -0.224193f, -0.217352f, -0.010778f, -0.086738f, 0.060153f, -0.062781f, -0.009487f, -0.031004f, -0.048052f, -0.243055f, -0.136251f, -0.866472f, -1.0f, -1.0f, -1.0f, -1.0f, -0.999929f, -0.999799f, -0.987845f, -0.960318f, -0.955729f, -1.0f, -0.96508f, -0.383229f, -0.043971f, 0.843151f, 0.11059f, 0.042225f, -0.356101f, -0.064249f, -0.084745f, -0.043117f, 0.048452f, -0.082434f, 0.009547f, -0.000894f, -0.129336f, 0.103122f, 0.002199f, -0.976475f, -1.0f, -1.0f, -0.999793f, -0.998368f, -0.998409f, -0.99873f, -0.921826f, -0.607785f, -0.890085f, -1.0f, -1.0f, -0.280468f, 0.101378f, 0.248802f, -0.089272f, 0.050023f, -0.541071f, -0.0471f, -0.040387f, -0.034477f, -0.007527f, -0.002969f, -0.002892f, -0.024764f, 0.26759f, 0.549733f, -0.041477f, -0.999661f, -1.0f, -1.0f, -0.868675f, -0.457848f, -0.180799f, 0.073379f, 0.168644f, 0.455561f, 0.253449f, -0.231939f, -0.757947f, -0.366369f, 0.158635f, -0.3052f, -0.126238f, -0.104723f, -0.743862f, -0.125297f, 0.09163f, 0.081072f, -0.033489f, -0.005837f, -0.066188f, 0.266185f, 0.722969f, 0.564573f, -0.107776f, -0.341481f, 3.2e-05f, -0.00292f, 0.008758f, 0.027464f, 0.033436f, 0.388585f, 0.623961f, 1.0f, 1.0f, 0.146728f, -0.666308f, -0.493318f, 0.166491f, -0.467565f, 0.066225f, -0.013233f, -0.742473f, -0.163981f, 0.100046f, 0.004643f, 0.012599f, 0.040489f, 0.161599f, 0.469937f, 0.641674f, -5.1e-05f, -0.049899f, 0.091816f, 0.051726f, -0.01208f, 0.018285f, 0.124034f, -0.032665f, 0.234576f, 0.638619f, 1.0f, 1.0f, 0.236485f, -1.0f, -0.587924f, 0.242462f, -0.248382f, -0.077534f, -0.189464f, -1.0f, -0.075151f, 0.00162f, -0.020658f, 0.009972f, 0.08283f, 0.071831f, 0.439592f, 0.261951f, -0.232701f, 0.0406f, 0.017111f, 0.119292f, -0.00168f, 0.023203f, 0.027842f, 0.000778f, 0.189327f, 0.320098f, 0.931324f, 0.864999f, 0.161154f, -0.998806f, -0.310155f, 0.172545f, 0.081298f, 0.020279f, -0.853982f, -1.0f, -0.353935f, -0.051398f, 0.022043f, -0.022544f, 0.077113f, 0.021754f, 0.405826f, 0.04556f, -0.23931f, 0.051028f, -0.078262f, -0.042626f, 0.012038f, -0.096273f, 0.047571f, 0.081969f, 0.195019f, 0.11161f, 0.36399f, 0.422774f, 0.293137f, -1.0f, -0.163351f, -0.207569f, 0.258491f, 0.52624f, -1.0f, -1.0f, -0.574449f, -0.006256f, -0.006479f, -0.119336f, -0.017514f, 0.326047f, 0.821718f, 0.012067f, -0.198058f, -0.041979f, -0.015634f, 0.010526f, -0.224349f, 0.008831f, 0.005112f, 0.000408f, 0.021725f, 0.102534f, 0.113534f, 0.254671f, -0.014751f, -1.0f, -0.01731f, 0.027336f, 0.075134f, 0.300948f, -1.0f, -0.978753f, -0.801827f, -0.118396f, -0.040281f, 0.016897f, 0.140435f, 1.0f, 0.994416f, 0.662197f, -0.03197f, 0.000292f, 0.001891f, -0.135151f, -0.050663f, -0.003373f, 0.041926f, 0.033403f, -0.001728f, 0.038778f, 0.017486f, -0.254831f, -0.402179f, -1.0f, -0.273971f, 0.028149f, 0.202587f, 0.16354f, -0.771261f, -0.952308f, -0.948117f, -0.480251f, -0.004821f, 0.082767f, 0.674318f, 1.0f, 1.0f, 0.999898f, 0.420882f, -0.020092f, 0.01299f, 0.178998f, 0.11091f, 0.028424f, 0.005892f, -0.047241f, 0.071768f, 0.043742f, 0.007781f, -0.694373f, -1.0f, -1.0f, -0.441575f, -0.084731f, 0.009324f, 0.043014f, -0.3495f, -0.612536f, -0.888242f, -0.708101f, -0.119589f, -0.034154f, 0.572946f, 1.0f, 1.0f, 1.0f, 0.74435f, 0.008977f, 0.080921f, 0.177145f, 0.012916f, -0.01589f, 0.047304f, -0.022526f, -0.038191f, 0.06322f, -0.294692f, -0.914239f, -1.0f, -1.0f, -0.345043f, 0.002135f, -0.149279f, -0.171409f, -0.044068f, -0.571106f, -0.671213f, -0.859506f, -0.512022f, -0.505563f, 0.003675f, 0.966073f, 0.998182f, 1.0f, 1.0f, 0.83762f, 0.781241f, 0.592643f, 0.198303f, 0.166366f, 0.056401f, 0.061134f, -0.131184f, -0.135905f, -0.54093f, -1.0f, -1.0f, -0.422739f, 0.302338f, 0.149564f, -0.153427f, -0.23548f, -0.07921f, -0.644124f, -0.629936f, -0.818237f, -0.560225f, -0.441262f, -0.492548f, -0.016166f, 0.91758f, 0.988979f, 1.0f, 1.0f, 0.944607f, 0.627387f, 0.415735f, 0.298281f, 0.083677f, 0.057852f, -0.239835f, -0.467257f, -0.799278f, -0.647156f, -0.763984f, -0.084324f, 0.23459f, 0.164944f, 0.18909f, 0.144892f, -0.029743f, -0.127152f, -0.326638f, -0.594086f, -0.616224f, -0.648104f, -0.867649f, -0.964458f, -0.802648f, -0.215407f, -0.006154f, -0.065168f, 0.020805f, 0.018876f, -0.01681f, -0.105192f, -0.08077f, -0.229294f, -0.343982f, -0.577916f, -0.890369f, -0.446782f, -0.359303f, 0.019009f, 0.223228f, -0.027044f, -0.007938f, 0.547036f, 0.160467f, 0.201963f, 0.158187f, 0.273933f, -0.02868f, -0.387259f, -0.932771f, -1.0f, -1.0f, -1.0f, -1.0f, -1.0f, -1.0f, -1.0f, -0.996705f, -0.779663f, -0.720469f, -0.624698f, -0.370675f, -0.201075f, -0.535006f, -0.3359f, -0.327111f, -0.126351f, -0.024069f, 0.010893f, 0.031311f, 0.078947f, 0.215747f, 0.297912f, 0.197579f, 0.060406f, 0.042168f, 0.222297f, 0.05978f, 0.038758f, -0.072015f, -0.101093f, -0.091396f, -0.140277f, -0.39845f, -0.338903f, -0.666435f, -0.959252f, -1.0f, -0.700701f, -0.274231f, 0.01328f, -0.009649f, 0.201691f, -0.248842f, -0.087169f, -0.012308f, -0.003828f, 0.014757f, 0.173425f, -0.087269f, -0.281952f, 0.111519f, 0.047373f, 0.029748f, 0.23169f, 0.161135f, -0.011318f, 0.137106f, 0.184721f, -0.033944f, -0.072895f, -0.088265f, -0.052707f, 0.149965f, -0.267117f, -0.082238f, 0.129723f, 0.163757f, 0.425392f, 0.14479f, 0.239328f, -0.382383f, -0.1777f, -0.01601f, 0.009544f, 0.000946f, 0.010782f, -0.213165f, 0.010272f, 0.136686f, 0.132975f, 0.349036f, 0.370513f, 0.230959f, 0.208264f, 0.719814f, 0.578024f, 0.394318f, 0.403174f, 0.096995f, 0.205543f, 0.411488f, 0.239226f, 0.27509f, 0.222481f, 0.013502f, 0.086669f, 0.258721f, 0.249527f, 0.135107f, 0.004264f, -0.019797f, 0.028425f, 0.017633f, 0.031145f, -0.016104f, 0.446362f, -0.04657f, -0.037162f, -0.023964f, 0.030507f, -0.018688f, -0.028827f, 0.522895f, 0.48539f, 0.444705f, 0.208894f, 0.156822f, 0.890247f, 0.995886f, 1.0f, 0.163965f, 0.500805f, 0.087405f, -0.057109f, -0.081253f, 0.013666f, -0.002303f, 0.011475f, -0.01824f},
  {-0.036073f, 0.012561f, 0.018755f, 0.018348f, 0.029088f, -0.035357f, 0.010097f, 0.027836f, -0.01877f, 0.019386f, 0.01794f, 0.007079f, 0.274107f, 0.257464f, 0.174242f, 0.124969f, 0.013716f, 0.02669f, -0.027189f, -0.033753f, 0.013402f, -0.002022f, -0.017314f, -0.033893f, -0.022684f, 0.009127f, -0.007095f, -0.03156f, -0.004137f, -0.00233f, -0.03385f, 0.020887f, 0.147342f, 0.030739f, 0.035878f, 0.061271f, 0.090978f, 0.056029f, 0.035938f, -0.150275f, -0.309892f, -0.180634f, -0.265521f, -0.243438f, -0.487429f, 1.3e-05f, -0.008565f, -0.285198f, -0.153709f, 0.173776f, 0.062662f, 0.173661f, 0.005254f, 0.021506f, 0.026761f, -0.030479f, -0.016342f, -0.003734f, 0.142133f, -0.113401f, 0.065313f, -0.508787f, -0.064103f, -0.163043f, 0.161415f, -0.009045f, -0.165546f, -0.262687f, -0.171409f, -0.037098f, 0.306673f, -0.006682f, -0.026419f, 0.081213f, 0.281478f, 0.279257f, 0.016099f, 0.035654f, 0.300436f, 0.1166f, 0.005647f, 0.293753f, -0.000557f, 0.027397f, 0.010298f, -0.033686f, 0.10701f, 0.071504f, -0.230492f, -0.299122f, 0.126683f, -0.023631f, 0.175551f, 0.052373f, -0.180592f, -0.161944f, -0.161458f, -0.025091f, 0.13251f, 0.018059f, 0.018527f, 0.036483f, 0.014767f, -0.072597f, 0.176642f, 0.324881f, 0.609138f, 0.162819f, 0.103007f, 0.398752f, 0.332823f, 0.007438f, -0.022799f, -0.256061f, -0.086355f, 0.180575f, -0.067294f, -0.042708f, 0.185405f, -0.131362f, -0.034835f, -0.044979f, -0.179749f, -0.056808f, -0.184319f, -0.041204f, 0.0546f, 0.05577f, -0.028917f, -0.090725f, -0.058918f, 0.027558f, -0.00099f, 0.138492f, 0.110492f, 0.215751f, 0.290276f, 0.517998f, 0.077189f, -0.111764f, -0.01369f, 0.006793f, -0.442129f, 0.025566f, -0.112075f, 0.052044f, 0.229652f, 0.043991f, 0.028053f, 0.097482f, -0.032281f, -0.330349f, -0.355433f, -0.390014f, -0.261267f, -0.386608f, -0.375176f, -0.604532f, -0.483699f, -0.758687f, -0.959236f, -0.608248f, -0.551692f, -0.575019f, -0.033977f, 0.00787f, -0.48916f, -0.134572f, 0.035056f, 0.155532f, 0.185078f, -0.127708f, -0.233106f, -0.008535f, 0.097285f, 0.265447f, 0.382112f, 0.296629f, 0.325794f, 0.178251f, 0.088029f, -0.172349f, -0.107811f, -0.218394f, -0.092112f, -0.13572f, -0.100106f, -0.058776f, -0.082579f, -0.071928f, -0.103656f, -0.68834f, -0.96831f, -1.0f, -0.948872f, -0.416887f, -0.218533f, -0.117428f, 0.459607f, 0.173481f, 0.029954f, 0.255575f, 0.23846f, 0.410147f, 0.605631f, 0.689863f, 0.921303f, 0.992934f, 0.912573f, 0.332041f, -0.040654f, -0.175003f, -0.044987f, 0.025838f, -0.039169f, 0.000874f, 0.01036f, 0.015811f, 0.133329f, -0.089843f, -0.893556f, -1.0f, -0.771416f, -0.369194f, -0.296155f, 0.622233f, 0.527906f, 0.323595f, 0.188856f, 0.355505f, 0.413428f, 0.648202f, 0.607541f, 0.572648f, 0.670749f, 0.706072f, 0.553899f, 0.079277f, -0.002774f, 0.147383f, 0.442558f, 0.492181f, -0.010157f, -0.039631f, -0.022626f, -0.045466f, 0.073725f, -0.013519f, -0.916876f, -1.0f, -1.0f, -0.293132f, 0.078993f, 0.331345f, 0.406257f, 0.487777f, 0.246231f, 0.18006f, 0.039018f, 0.290807f, 0.247069f, 0.027891f, 0.027192f, 0.096063f, 0.219258f, 0.191574f, 0.329813f, 0.683157f, 0.975816f, 0.960679f, 0.10221f, 0.103201f, -0.008282f, -0.011324f, 0.025502f, -0.163224f, -0.88396f, -1.0f, -1.0f, -0.486269f, 0.070258f, 0.030364f, 0.71783f, 0.84401f, 0.557605f, 0.24361f, 0.071941f, 0.1103f, -0.071928f, -0.023888f, -0.059919f, -0.073116f, 0.141724f, 0.562404f, 0.227343f, 0.772436f, 1.0f, 1.0f, 0.400465f, 0.053636f, 0.160494f, 0.134241f, 0.044694f, -0.22376f, -1.0f, -1.0f, -1.0f, -0.340807f, 0.17626f, 0.281572f, 0.999957f, 1.0f, 0.952414f, 0.209267f, -0.004089f, -0.016866f, -0.021811f, 0.034502f, 0.058039f, 0.13249f, 0.564867f, 0.564971f, -0.201973f, 0.478731f, 1.0f, 0.998468f, 0.338787f, -0.024911f, 0.064392f, 0.051844f, -0.000135f, -0.247732f, -1.0f, -0.854423f, -0.830687f, -0.262526f, 0.3438f, 0.472823f, 1.0f, 1.0f, 0.925004f, 0.159379f, -0.068516f, 0.081424f, 0.15722f, -0.181333f, -0.480579f, -0.452031f, -0.762436f, -1.0f, -1.0f, -1.0f, 0.698075f, 0.612427f, 0.016002f, -0.107214f, -0.022906f, 0.000425f, -0.165283f, -0.336186f, -0.705768f, -0.415421f, -0.538277f, -0.354909f, -0.149579f, 0.161343f, 0.835935f, 0.994222f, 0.563291f, 0.072762f, 0.06448f, 0.000291f, -0.180887f, -1.0f, -1.0f, -1.0f, -1.0f, -1.0f, -1.0f, -1.0f, 0.012285f, 0.040511f, -0.317451f, -0.108606f, 0.067123f, -0.025052f, -0.027269f, -0.137595f, -0.173355f, -0.018506f, -0.78681f, -0.228887f, -0.22754f, -0.038635f, 0.727968f, 0.620528f, 0.142802f, 0.02771f, 0.0314f, -0.141651f, -0.769206f, -1.0f, -1.0f, -1.0f, -1.0f, -1.0f, -1.0f, -1.0f, -0.002189f, -0.09801f, -0.006667f, 0.122633f, 0.145002f, 0.01648f, 0.357195f, 0.064658f, -0.226067f, 0.039144f, -0.766999f, -0.177289f, -0.052287f, 0.079926f, 0.271927f, 0.327618f, -0.05919f, -0.196213f, -0.06246f, -0.305861f, -0.999919f, -1.0f, -1.0f, -1.0f, -1.0f, -1.0f, -1.0f, -0.580173f, 0.020927f, -0.008486f, 0.112032f, 0.222567f, 0.311415f, 0.269674f, 0.393975f, -0.01123f, -0.013892f, -0.204312f, -0.682787f, -0.046198f, 0.244025f, -0.055284f, -0.02462f, 0.193743f, 0.101314f, -0.105907f, -0.034997f, -0.073867f, -0.568275f, -0.992483f, -0.992282f, -0.998f, -0.996244f, -0.999078f, -0.998862f, 0.088374f, 0.005112f, 0.139975f, 0.109082f, 0.113782f, 0.183435f, 0.147942f, 0.079545f, -0.127385f, -0.164157f, -0.863349f, -0.932632f, -0.093781f, 0.030797f, -0.091283f, -0.026987f, 0.18074f, 0.122423f, -0.093458f, -0.284018f, -0.075646f, -0.12178f, 0.039791f, -0.281802f, -0.281028f, -0.240348f, -0.14391f, -0.000425f, 0.139776f, -0.080193f, -0.003143f, 0.027704f, 0.033335f, -0.008777f, -0.218381f, -0.300716f, -0.200115f, -0.379412f, -0.53996f, -0.69576f, -0.163443f, -0.072883f, 0.114798f, 0.23927f, 0.13845f, -0.042993f, -0.322383f, -0.488533f, -0.36775f, -0.158141f, 0.058525f, -0.225431f, -0.014622f, 0.030766f, 0.211281f, 0.033178f, 0.0477f, -0.154308f, -0.015667f, -0.048805f, -0.063792f, -0.228804f, -0.482448f, -0.651949f, -0.717461f, -0.725978f, -0.040732f, -0.21196f, 0.366031f, 0.155902f, 0.109429f, 0.228017f, -0.216373f, 0.044989f, -0.416846f, -0.693618f, -0.433936f, -0.28261f, -0.075291f, -0.066991f, -0.062011f, 0.020309f, -0.032646f, -0.011425f, -0.139217f, -0.104522f, -0.07482f, -0.432377f, -0.520777f, -0.627286f, -0.934582f, -0.930309f, -0.738155f, -0.780314f, -0.130952f, -0.153019f, 0.272834f, 0.012843f, 0.132386f, 0.114501f, -0.58037f, -0.231201f, -0.4802f, -0.740516f, -0.538982f, -0.251585f, -0.029603f, 0.054553f, -0.145166f, -0.05573f, -0.025725f, 0.023309f, -0.025798f, -0.206139f, -0.201562f, -0.58313f, -0.890642f, -1.0f, -0.993828f, -0.700455f, -0.657986f, -0.775834f, -0.199867f, -0.104393f, -0.050556f, -0.130551f, 0.100046f, -0.182581f, -0.740726f, -0.244527f, -0.35452f, -0.277881f, -0.139227f, -0.026468f, 0.069587f, -0.020648f, -0.02634f, -0.002607f, 0.018214f, -0.027125f, -0.084856f, -0.010903f, -0.203351f, -0.629086f, -1.0f, -1.0f, -0.917995f, -0.789391f, -0.800297f, -0.154921f, 0.126376f, -0.273421f, 0.164005f, -0.135361f, 0.016874f, -0.546535f, -0.908015f, -0.555402f, -0.223341f, -0.053274f, 0.039517f, 0.041606f, -0.025056f, 0.00203f, -0.088031f, -0.01933f, -0.018438f, -0.006475f, -0.01131f, 0.000978f, -0.279764f, -0.496584f, -1.0f, -1.0f, -0.989871f, -0.859191f, -0.896361f, -0.088083f, 0.083972f, -0.180787f, 0.214237f, 0.027352f, -0.022712f, -0.919676f, -0.994637f, -0.125593f, 0.032004f, 0.194364f, 0.164731f, -0.112747f, -0.095207f, -0.000974f, -0.04938f, -0.136717f, -0.110158f, -0.102033f, -0.046831f, -0.05613f, -0.162181f, -0.423377f, -1.0f, -1.0f, -1.0f, -1.0f, -1.0f, -0.751648f, -0.308584f, -0.224269f, -0.015018f, -0.017289f, -0.000865f, -0.311508f, -0.325938f, 0.471566f, 0.936905f, 0.71493f, 0.580837f, 0.08052f, 0.103401f, 0.145131f, -0.009052f, 0.022816f, 0.008588f, 0.057321f, 0.191091f, 0.119691f, 0.054519f, -0.20087f, -0.579989f, -1.0f, -0.993121f, -0.968512f, -1.0f, -0.959622f, -0.439982f, -0.005172f, -0.006219f, -0.034862f, -0.000677f, -0.208297f, 0.151499f, 0.684916f, 0.898464f, 0.906676f, 0.998258f, 0.736491f, 0.893493f, 0.929748f, 0.934652f, 0.645866f, 0.680116f, 0.824092f, 0.703088f, 0.483403f, 0.396325f, 0.229169f, -0.153496f, -0.682207f, -0.55004f, -0.596802f, -0.747355f, -0.246215f, -0.155893f, 0.192547f, -0.0085f, -0.028157f, 0.015213f, -0.020956f, -0.209218f, -0.059621f, 0.393659f, 0.317087f, 0.537869f, 0.372484f, 0.478935f, 0.526139f, 0.420534f, 0.245207f, 0.832845f, 0.855633f, 0.921667f, 0.816444f, 0.819525f, 0.734163f, 0.206518f, -0.607691f, 0.100497f, 0.11476f, -0.10096f, -0.05107f, -0.187009f, 0.007572f, -0.020034f, 0.010519f, 0.028999f, -0.031108f, 0.030038f, -0.214612f, 0.040679f, -0.145556f, -0.646918f, -0.177102f, -0.025183f, 0.258709f, -0.042231f, 0.308297f, 0.76598f, 0.636631f, 0.216372f, 0.298665f, 0.629656f, 0.546115f, 0.054823f, -0.038449f, 0.355086f, 0.49875f, 0.345256f, 0.004688f, -0.032906f, 0.031124f, 0.011437f},
  {0.018589f, 0.020384f, 0.01216f, -0.017797f, 0.022551f, 0.003455f, -0.016867f, 0.021105f, -0.000492f, 0.007143f, 0.024379f, 0.028067f, 0.274739f, 0.251226f, 0.14278f, 0.121433f, 0.014276f, 0.023295f, -0.010004f, -0.01591f, -0.007527f, 0.021564f, 0.029733f, -0.014455f, 0.019085f, 0.035265f, 0.026101f, 0.00384f, -0.005912f, 0.035714f, 0.012823f, -0.012588f, 0.178801f, 0.060387f, -0.191477f, -0.156935f, -0.243386f, -0.035563f, 0.769906f, 0.587118f, 0.450345f, 0.335173f, 0.320673f, 0.2881f, 0.17251f, 0.135481f, -0.163947f, -0.037669f, 0.00581f, -0.249885f, -0.231183f, 0.183947f, 0.029845f, -0.016489f, 0.02749f, -0.02063f, -0.028632f, 0.010321f, 0.138952f, 0.049057f, -0.138075f, 0.022615f, 0.083755f, 0.067881f, 0.083147f, 0.541497f, 0.906268f, 0.929195f, 0.485645f, 0.281425f, -0.07712f, 0.105919f, -0.049227f, -0.13359f, 0.069267f, 0.067566f, 0.405204f, 0.246325f, -0.155689f, -0.005212f, -0.256942f, -0.196766f, 0.028339f, 0.031029f, -0.002769f, -0.01117f, -0.086441f, 0.172821f, 0.209309f, 0.077811f, 0.05222f, 0.156846f, 0.101354f, 0.412777f, 0.25085f, -0.101032f, -0.324158f, -0.430813f, -0.799394f, -0.999737f, -1.0f, -1.0f, -0.988272f, -0.732099f, -0.158385f, 0.297727f, 0.48335f, 0.47505f, 0.301558f, -0.146623f, -0.336593f, 0.033617f, -0.006723f, 0.253458f, -0.057575f, 0.512641f, -0.003673f, -0.096163f, -0.199068f, -0.620931f, -0.428034f, -0.211819f, 0.057386f, 0.056546f, 0.092084f, 0.029028f, 0.010779f, 0.032061f, 0.014745f, -0.262832f, -0.545096f, -0.666755f, -0.252966f, -0.055596f, -0.086149f, -0.271471f, -0.264206f, 0.010248f, 0.198787f, 0.068721f, -0.003856f, 0.028991f, 0.357743f, 0.17425f, -0.192985f, -0.356465f, -0.467311f, -0.521556f, -0.491207f, -0.080193f, 0.023368f, 0.229259f, 0.189584f, 0.391119f, 0.67317f, 0.659608f, 0.632978f, 0.747724f, 0.07583f, 0.086303f, 0.032146f, 0.110115f, -0.036388f, -0.450245f, -0.436454f, 0.087948f, -0.051371f, 0.180825f, 0.029462f, 0.275418f, -0.340176f, -0.231179f, -0.414136f, -0.3451f, -0.66111f, -0.580307f, -0.140915f, 0.032547f, -0.027724f, 0.01148f, 0.168176f, 0.123821f, 0.069916f, 0.378326f, 0.233283f, 0.218491f, 0.016199f, 0.02512f, -0.03065f, 0.00892f, 0.061571f, 0.030256f, -0.282871f, -0.253246f, -0.216977f, -0.401219f, 0.217246f, 0.127498f, -0.07459f, -0.565643f, -0.247517f, -0.329064f, -0.319009f, -0.212504f, 0.084996f, 0.001453f, 0.020719f, -0.000432f, -0.024396f, -0.178913f, -0.366603f, 0.019646f, 0.035178f, -0.144784f, 0.127979f, -0.127252f, 0.014384f, 0.020213f, 0.048724f, 0.588514f, 0.447629f, -0.241171f, -0.419524f, 0.105269f, 0.294525f, -0.192092f, 0.079747f, -0.283506f, -0.074642f, -0.053864f, 0.029866f, 0.127623f, 0.057314f, 0.158278f, 0.103613f, 0.043788f, 0.239953f, 0.101535f, -0.151634f, -0.241822f, 0.04291f, 0.028487f, -0.035055f, 0.026169f, -0.009862f, 0.072875f, 0.177324f, 0.538304f, 0.588384f, -0.122079f, 0.01465f, 0.448533f, 0.109298f, -0.515028f, -0.01143f, -0.194651f, -0.00458f, 0.021419f, 0.114384f, 0.132033f, 0.12312f, 0.113366f, 0.016351f, 0.197535f, 0.283872f, 0.153874f, -0.459315f, -0.897928f, -0.500968f, 0.008825f, -0.049848f, 0.033723f, 0.074612f, 0.182964f, 0.437649f, 0.780366f, 0.650162f, -0.020259f, 0.492195f, 0.109064f, -0.01301f, -0.211458f, 0.091232f, -0.631161f, -0.026772f, 0.030245f, 0.471961f, 0.448875f, 0.304355f, 0.096875f, 0.154799f, 0.45632f, 0.945494f, 0.613942f, -0.545129f, -0.919763f, -0.310758f, 0.029707f, 0.035087f, 0.158851f, 0.09898f, 0.272056f, 0.57342f, 0.986642f, 0.877638f, 0.415204f, 0.668636f, 0.357487f, 0.115179f, -0.111869f, -0.062932f, -0.914195f, -0.346426f, 0.239652f, 0.573956f, 0.610524f, 0.464679f, 0.259151f, 0.190334f, 0.933664f, 0.9412f, 0.94949f, 0.154227f, -0.278822f, 0.005939f, -8.3e-05f, -0.006216f, 0.060454f, 0.022018f, 0.299419f, 0.86487f, 0.974867f, 0.987162f, 0.867046f, 0.345902f, 0.106543f, 0.347589f, 0.115143f, -0.185099f, -0.329684f, -0.154877f, 0.259634f, 0.032928f, 0.060185f, 0.009148f, 0.146628f, 0.067737f, 0.918286f, 0.975745f, 0.932126f, 0.645753f, 0.209919f, 0.058251f, -0.055167f, 0.086275f, 0.125572f, 0.083166f, 0.378758f, 0.562413f, 0.781088f, 0.846081f, 0.485301f, 0.298546f, -0.359143f, 0.120255f, 0.062503f, -0.11158f, -0.427424f, -0.262827f, -0.655379f, -0.975626f, -0.843463f, -0.697096f, -0.479979f, -0.158413f, 0.996011f, 0.988948f, 0.96034f, 0.832306f, 0.483651f, 0.178757f, 0.035178f, 0.071325f, 0.000835f, 0.002621f, -0.088093f, -0.054314f, -0.121327f, -0.022196f, 0.13292f, 0.134429f, -0.106233f, 0.226339f, 0.100827f, -0.068963f, -0.587316f, -0.482503f, -1.0f, -0.998086f, -1.0f, -1.0f, -0.996828f, -0.383607f, 1.0f, 1.0f, 1.0f, 0.980375f, 0.254236f, 0.027746f, -0.060803f, -0.493788f, -0.494684f, -0.463524f, -0.578737f, -0.747034f, -0.638825f, -0.265307f, 0.023466f, -0.11573f, -0.203984f, 0.173139f, -0.077251f, 0.14766f, 0.041994f, -0.184467f, -1.0f, -0.990738f, -1.0f, -1.0f, -0.967762f, -0.108703f, 1.0f, 0.992294f, 1.0f, 1.0f, 0.076361f, -0.031275f, -0.940635f, -1.0f, -0.973274f, -0.809098f, -0.785665f, -0.678447f, -0.392766f, -0.366725f, -0.148531f, -0.485739f, -0.029567f, -0.23851f, -0.090176f, 0.056397f, 0.000399f, -0.178722f, -0.717636f, -0.995556f, -0.957052f, -0.607695f, -0.071585f, 0.467858f, 0.989627f, 1.0f, 1.0f, 0.258132f, 0.035693f, 0.078619f, -0.860056f, -1.0f, -0.980073f, -0.616139f, -0.802853f, -0.699371f, -0.096883f, -0.273674f, -0.689391f, -0.770203f, -0.159735f, 0.021935f, -0.199091f, 0.229294f, -0.130328f, -0.073486f, -0.23898f, -0.461882f, -0.180574f, 0.384768f, 0.92761f, 0.991229f, 1.0f, 1.0f, 0.973248f, -0.070845f, -0.131499f, -0.026487f, -0.200491f, -0.483153f, -0.658784f, -0.419299f, -0.582501f, -0.32727f, 0.018546f, 0.074413f, -0.903762f, -0.724239f, 0.206602f, -0.194618f, -0.418074f, -0.325241f, -0.959458f, -0.585377f, -0.226402f, -0.294785f, 0.132831f, 0.820795f, 1.0f, 1.0f, 1.0f, 1.0f, -0.089179f, -0.632052f, -0.190486f, 0.026547f, -0.014697f, 0.049638f, -0.145013f, -0.344555f, -0.423871f, -0.081715f, -0.015763f, -0.169475f, -0.830148f, -0.484288f, 0.286207f, -0.193273f, -0.004034f, -0.196109f, -0.992377f, -0.764937f, -0.14707f, -0.097734f, 0.152418f, 0.592433f, 1.0f, 1.0f, 1.0f, 0.178621f, -1.0f, -0.935f, -0.102577f, 0.037901f, 0.016412f, 0.011115f, -0.041365f, -0.293255f, -0.462021f, 0.047304f, 0.045682f, -0.518389f, -0.999822f, -0.336447f, -0.022501f, 0.031658f, 0.411461f, -0.001262f, -0.991707f, -1.0f, -0.196101f, -0.022638f, 0.123816f, 0.039524f, 0.221489f, 0.323666f, -0.000141f, -0.461168f, -0.939097f, -0.90884f, -0.259526f, -0.105668f, -0.173744f, 0.011722f, -0.004306f, -0.293507f, -0.160189f, 0.026551f, -0.325327f, -0.890919f, -1.0f, -0.515793f, -0.228974f, -0.179158f, 0.205734f, -0.477269f, -0.9868f, -0.999802f, -0.12102f, 0.000791f, 0.026667f, -0.063855f, -0.012779f, -0.152513f, -0.129695f, 0.046291f, -0.006095f, -0.046237f, -0.125829f, -0.005795f, -0.089686f, -0.012166f, -0.010012f, -0.131959f, -0.001185f, 0.007137f, -0.861801f, -0.909903f, -1.0f, -0.603223f, -0.223464f, -0.123539f, 0.088802f, -0.462919f, -0.992912f, -0.99029f, -0.267805f, 0.046952f, 0.026436f, -0.034513f, -0.086256f, 0.004493f, 0.242207f, 0.89699f, 1.0f, 1.0f, 0.595083f, 0.075232f, 0.077773f, 0.220878f, 0.001515f, 0.004672f, 0.293226f, -0.063415f, -0.685341f, -0.963281f, -0.763286f, -0.364789f, -0.203141f, -0.016617f, -0.02143f, -0.012831f, -0.996033f, -0.992971f, -0.91206f, -0.277295f, -0.201039f, -0.161157f, -0.024389f, 0.007353f, 0.456558f, 1.0f, 1.0f, 0.997463f, 0.991243f, 0.738474f, 0.669413f, 0.584052f, 0.580383f, 0.540197f, 0.467571f, 0.061118f, -0.036548f, -0.542751f, -0.251888f, -0.449993f, -0.008263f, -0.004809f, -0.001011f, -0.011964f, -0.687874f, -0.99791f, -0.999398f, -0.594365f, -0.217786f, -0.053085f, 0.031695f, 0.080013f, 0.01384f, -0.002678f, 0.073469f, 0.249452f, 0.50202f, 0.707519f, 0.506217f, 0.682847f, 0.888848f, 0.757659f, 0.36355f, 0.325831f, -0.155624f, -0.637289f, -0.444018f, -0.347035f, -0.005402f, -0.000984f, 0.010862f, -0.080494f, -0.242112f, -0.681253f, -0.894736f, -0.931168f, -1.0f, -0.986205f, -0.925832f, -0.864985f, -0.926428f, -0.93056f, -0.910328f, -0.506178f, -0.276569f, -0.223908f, -0.072946f, -0.037104f, -0.011323f, -0.188505f, -0.714423f, -0.609539f, -0.137553f, -0.144671f, -0.052046f, -0.219166f, -0.003326f, -0.017716f, 0.004945f, -0.016484f, 0.178272f, -0.479299f, -1.0f, -1.0f, -1.0f, -1.0f, -1.0f, -1.0f, -0.973181f, -0.416838f, -0.697556f, -0.781578f, -0.928514f, -0.66752f, -0.324665f, -0.302923f, -0.737803f, -0.721998f, -0.26653f, -0.14044f, 0.22624f, 0.231799f, -0.110178f, 0.003839f, 0.027102f, 0.034446f, 0.031308f, 0.036152f, -0.025644f, -0.217399f, -0.031724f, -0.367447f, -0.134531f, -0.381192f, -0.721376f, -1.0f, -0.549067f, -0.311979f, -0.413505f, -0.140388f, -0.019753f, 0.028767f, -0.185242f, -0.530308f, -0.532826f, -0.156904f, 0.172698f, -0.127707f, -0.035882f, -0.023703f, 0.026152f, -0.003281f, 0.026082f},
  {0.030165f, -0.001254f, -0.018484f, -0.006268f, 0.016397f, 0.023042f, -0.023263f, -0.031152f, -0.02979f, 0.013707f, 0.02143f, 0.030275f, -0.062028f, -0.027423f, 0.146497f, 0.117781f, -0.027471f, 0.003813f, -0.013283f, 0.028699f, 0.026987f, 0.024739f, 0.026202f, -0.003193f, -0.001977f, 0.022685f, -0.030265f, 0.017097f, 0.023634f, -0.002239f, 0.008611f, -0.028056f, -0.057749f, -0.107528f, -0.169467f, -0.341712f, -0.284722f, -0.135104f, -0.473823f, -0.785753f, -0.602369f, -0.57025f, -0.259498f, -0.554307f, -0.246807f, -0.356658f, -0.926859f, -0.595679f, -0.51802f, -0.282893f, -0.104207f, -0.131016f, 0.004303f, 0.008463f, 0.002744f, 0.010265f, -0.035056f, -0.004448f, -0.117379f, 0.143096f, -0.232368f, -0.317188f, -0.308748f, -0.432597f, -0.078973f, 0.094744f, -0.777682f, -0.954549f, -1.0f, -1.0f, -1.0f, -1.0f, -0.993563f, -0.872316f, -0.901598f, -0.796504f, -0.124791f, 0.006361f, 0.107592f, 0.581017f, 0.130497f, -0.139814f, 0.019536f, 0.009331f, -0.035629f, -0.025587f, -0.148022f, 0.140219f, 0.154881f, 0.106944f, 0.11622f, -0.25191f, -0.046226f, -0.062459f, -0.226766f, -0.209998f, -0.173426f, -0.396765f, -0.991307f, -1.0f, -1.0f, -0.978583f, -0.938919f, -0.491807f, -0.366533f, 0.029023f, 0.136196f, 0.473552f, 0.235006f, -0.125185f, 0.336612f, 0.001961f, 0.000509f, 0.20715f, -0.078504f, -0.02596f, -0.146489f, 0.019523f, 0.059121f, -0.197456f, -0.168994f, 0.250667f, 0.380589f, 0.128054f, -0.063124f, -0.300957f, -0.63714f, -0.687894f, -1.0f, -1.0f, -0.983625f, -0.557411f, -0.592618f, -0.325169f, -0.139145f, -0.368604f, 0.081528f, 0.78977f, 0.411723f, 0.099219f, 0.017788f, 0.009654f, 0.054598f, 0.117511f, 0.184129f, -0.007977f, -0.716158f, -0.916256f, -0.632422f, -0.536147f, -0.314231f, -0.247931f, -0.673091f, -0.845305f, -0.938763f, -0.980093f, -1.0f, -1.0f, -1.0f, -0.998627f, -0.999896f, -1.0f, -1.0f, -0.998994f, -0.955438f, -0.972621f, -0.204706f, 0.292903f, 0.007271f, -0.187021f, -0.353184f, -0.497901f, -0.409737f, -0.825967f, -0.996533f, -0.998753f, -0.999844f, -0.989114f, -0.435112f, -0.002412f, 0.65857f, 0.978512f, 0.99418f, 0.998359f, 1.0f, 0.994321f, 0.475279f, -0.053538f, -0.268872f, -1.0f, -1.0f, -1.0f, -1.0f, -0.999894f, -0.988957f, -0.501321f, 0.257317f, -0.569604f, -0.340372f, -0.793569f, -0.930705f, -0.997272f, -1.0f, -1.0f, -1.0f, -0.842953f, -0.255751f, 0.421832f, 0.981053f, 0.997779f, 1.0f, 1.0f, 1.0f, 0.996458f, 0.950886f, 0.006988f, 0.037666f, -0.539359f, -1.0f, -1.0f, -1.0f, -0.999624f, -0.987144f, -0.452741f, 0.304613f, -0.716585f, -0.812529f, -0.965035f, -0.962409f, -0.997842f, -1.0f, -1.0f, -0.797238f, -0.763241f, -0.176657f, 0.055697f, 0.854802f, 1.0f, 1.0f, 0.999745f, 0.999919f, 0.928626f, 0.056118f, -0.344809f, -0.019878f, -0.1983f, -1.0f, -1.0f, -1.0f, -0.95084f, -1.0f, -0.28027f, -0.108292f, -0.61317f, -0.911711f, -0.889273f, -0.877644f, -0.872917f, -0.49943f, -0.495189f, -0.332458f, -0.351092f, -0.095182f, 0.037436f, 0.023232f, 0.11449f, 0.091176f, -0.084149f, -0.077795f, -0.106084f, -0.20332f, -0.266882f, 0.00094f, -0.141662f, -0.496904f, -1.0f, -1.0f, -1.0f, -0.978118f, -0.354344f, -0.093147f, -0.250372f, -0.999826f, -0.964462f, -0.889769f, -0.253761f, 0.023218f, 0.050714f, -0.014501f, -0.100428f, -0.000122f, -0.027088f, 0.004502f, -0.39288f, -0.589611f, -0.708858f, -0.33128f, -0.184301f, 0.005875f, -0.065232f, -0.014207f, -0.011102f, -0.086759f, -0.669787f, -0.997081f, -0.994464f, -0.999097f, -0.4312f, -0.35383f, -0.776006f, -0.999845f, -0.993155f, -0.337737f, 0.295157f, 0.622177f, 0.558335f, 0.531079f, 0.094595f, 0.019426f, 0.217784f, -0.020446f, -0.207226f, -0.282416f, 0.020759f, 0.100136f, 0.091138f, -0.006525f, 0.163679f, 0.290931f, 0.548879f, 0.536008f, 0.030588f, -0.983036f, -0.99857f, -0.992428f, -0.328561f, -0.147353f, -1.0f, -1.0f, -0.463915f, 0.431853f, 0.745148f, 0.916524f, 0.868443f, 0.662243f, 0.114033f, 0.133176f, 0.039615f, -0.023883f, 0.124369f, 0.228869f, 0.416489f, 0.155981f, 0.067348f, 0.381206f, 0.576634f, 0.809073f, 0.988941f, 0.988089f, 0.552301f, -0.916436f, -0.999717f, -1.0f, -0.217603f, -0.166801f, -0.684573f, -1.0f, 0.04845f, 0.751165f, 0.999359f, 0.962761f, 0.728798f, 0.551677f, 0.050231f, 0.13024f, 0.049135f, 0.108705f, 0.039129f, 0.206996f, 0.364165f, 0.424089f, 0.192077f, 0.580389f, 0.686749f, 0.841851f, 0.996251f, 0.601571f, -0.064679f, -0.999952f, -1.0f, -1.0f, -0.169148f, -0.185261f, -0.422532f, -1.0f, 0.352827f, 0.758974f, 0.767656f, 0.692324f, 0.280899f, 0.157787f, -0.003181f, -0.000191f, -0.001452f, -0.019766f, 0.021933f, 0.087195f, 0.369332f, 0.804545f, 0.533905f, 0.283241f, 0.083313f, -0.012129f, 0.002632f, -0.191403f, -0.6893f, -0.999524f, -0.990627f, -0.587138f, -0.210955f, -0.20765f, -0.258236f, -0.67811f, 0.343292f, 0.469822f, 0.09436f, -0.043405f, 0.001104f, -0.053859f, -0.079154f, -0.021971f, 0.010903f, 0.003528f, -0.01008f, -0.074773f, 0.400515f, 0.789974f, 0.331448f, -0.056661f, -0.35959f, -0.676065f, -0.632134f, -0.417648f, -0.78205f, -1.0f, -0.960038f, -0.225085f, -0.079021f, 0.270674f, -0.374079f, -0.764607f, -0.045975f, 0.039587f, -0.050917f, -0.333038f, -0.214747f, 0.002347f, -0.102671f, -0.001112f, 0.027729f, 0.012276f, -0.330488f, -0.301442f, -0.03039f, 0.264642f, -0.016995f, 0.000753f, -0.580016f, -0.649891f, -0.701594f, -0.142606f, -0.753021f, -1.0f, -0.838048f, -0.249784f, -0.057759f, 0.020749f, -0.161568f, -0.560662f, -0.282085f, -0.380421f, -0.254468f, -0.197788f, 0.032559f, 0.08154f, 0.096756f, 0.005547f, 0.006192f, -0.008627f, -0.034133f, -0.135102f, 0.021936f, -0.040736f, 0.012127f, 0.03308f, -0.257472f, -0.354506f, -0.276707f, -0.119202f, -0.652156f, -0.94189f, -0.295926f, -0.180026f, 0.151462f, -0.212093f, -0.102909f, -0.363282f, -0.363663f, -0.195465f, -0.323476f, 0.000201f, 0.033994f, -0.002402f, -0.033976f, -0.050104f, 0.081265f, 0.00138f, 0.053357f, 0.06758f, -0.012263f, 0.040304f, 0.038158f, -0.029172f, -0.032914f, 0.00336f, -0.066731f, -0.042371f, -0.483446f, -0.910323f, -0.189193f, 0.064734f, -0.085589f, -0.140764f, -0.3351f, -0.512868f, -0.388904f, -0.104161f, -0.037152f, -0.071878f, -0.105767f, -0.437642f, -0.833997f, -0.892731f, -0.627818f, -0.507386f, -0.201026f, -0.07056f, -0.14845f, 0.01541f, -0.011414f, -0.056863f, -0.025728f, 0.079672f, -0.001921f, -0.018074f, -0.273696f, -0.549297f, -0.071059f, -0.015704f, 0.026848f, 0.02363f, -0.025832f, -0.26783f, -0.461569f, -0.099764f, 0.102378f, -0.100115f, -0.22985f, -0.306855f, -0.809842f, -0.987871f, -0.791388f, -0.674525f, -0.139313f, -0.092576f, -0.106549f, 0.024477f, -0.078999f, -0.061936f, -0.042362f, 0.081069f, 0.047913f, -0.169629f, -0.372435f, -0.264512f, 0.030269f, -0.515936f, -0.043979f, 0.109014f, 0.264541f, -0.112725f, -0.405771f, -0.07361f, -0.034658f, -0.069334f, -0.139628f, 0.03561f, -0.036558f, -0.255462f, -0.408792f, -0.312315f, -0.062361f, 0.001408f, -0.162262f, -0.155762f, -0.157571f, -0.142047f, -0.073611f, -0.01854f, 0.134901f, -0.037414f, -0.202465f, 0.066106f, 0.012099f, -0.536907f, 0.103878f, 0.113289f, 0.182507f, -0.605436f, -0.285312f, -0.102427f, -0.232801f, -0.369812f, -0.151338f, 0.125891f, 0.003239f, -0.128644f, -0.092853f, -0.026222f, -0.050727f, -0.086672f, -0.64768f, -0.728426f, -0.30256f, -0.296657f, -0.266845f, -0.063163f, 0.338272f, 0.326762f, 0.122291f, 0.128675f, 0.135117f, 0.15728f, 0.142011f, -0.011849f, -0.01883f, -0.734973f, -0.446809f, -0.444319f, -0.382693f, -0.257674f, -0.143029f, 0.027003f, -0.402012f, -0.292556f, -0.371061f, -0.303846f, -0.48296f, -0.596466f, -0.991007f, -0.913091f, -0.388174f, 0.035149f, 0.087104f, 0.371834f, 0.780667f, 0.963823f, 0.732932f, 0.115747f, -0.077177f, 0.036104f, -0.008932f, 0.027077f, -0.026179f, -0.150542f, -0.765366f, -0.325616f, 0.245369f, 0.23485f, 0.15421f, 0.005563f, -0.067077f, -0.062932f, -0.113103f, -0.090907f, -0.003883f, -0.184776f, -0.296922f, 0.047033f, 0.638329f, 1.0f, 0.986527f, 0.983349f, 0.994508f, 1.0f, 1.0f, 0.187511f, 0.087292f, 0.335616f, 0.023295f, -0.011007f, 0.029261f, 0.088713f, -0.578995f, 0.084413f, 0.706888f, 0.613729f, 0.543941f, 0.491602f, 0.60344f, 0.721188f, 0.824427f, 0.991466f, 1.0f, 1.0f, 1.0f, 1.0f, 1.0f, 1.0f, 1.0f, 0.999329f, 0.99975f, 1.0f, 0.657351f, 0.232105f, 0.190696f, 0.23991f, 0.002663f, -0.032978f, 0.019189f, 0.019373f, 0.22587f, 0.461626f, 0.100579f, 0.174814f, -0.21271f, -0.562005f, -0.172197f, -0.247052f, -0.038759f, -0.098887f, -0.227652f, 0.357445f, 0.033413f, 0.108705f, 0.655219f, 1.0f, 0.946914f, 0.83886f, 0.754897f, 0.455513f, -0.090048f, -0.323624f, 0.164707f, -0.021719f, 0.007814f, -0.024787f, 0.008233f, -0.003237f, -0.004137f, -0.515485f, -0.391885f, -0.277456f, -0.455292f, -0.47667f, -0.561779f, -0.442846f, -0.981557f, -0.839906f, -1.0f, -0.790229f, -1.0f, -1.0f, -1.0f, -0.674743f, -0.64572f, -0.072954f, -0.222053f, -0.126093f, -0.308335f, 0.032895f, 0.00629f, 0.00317f, -0.025489f}
};
/* layer_1_Add*/
static const float tensor_layer_1_Add_bias[INPUT_LAYER_SIZE_ROW] =
{ 0.030652f, -0.000525f, 0.025923f, 0.016816f, -0.028974f, 0.029099f, 0.0015f, 0.007299f, -0.02564f, 0.013615f };

static const float tensor_layer_1_batch_mean[INPUT_LAYER_SIZE_ROW] =
{ 73.531914f, 32.348434f, 11.564623f, -22.940798f, 54.457569f, 8.319769f, -16.508955f, -25.689482f, 67.006004f, 52.159012f };

static const float tensor_layer_1_batch_var[INPUT_LAYER_SIZE_ROW] =
{ 4450.822266f, 3768.517578f, 2882.433105f, 3026.820312f, 3068.190918f, 2061.874512f, 3632.432861f, 3931.787109f, 2253.001953f, 2617.933594f };

static const float eps = 0.00001;

/* layer_1_MatMul*/
static int tensor_layer_1_MatMul_output[1][INPUT_LAYER_SIZE_ROW];
/* layer_1_Add*/
static float tensor_layer_1_Add_output[1][INPUT_LAYER_SIZE_ROW];
/* layer_1_BN*/
static float tensor_layer_1_BN_output[1][INPUT_LAYER_SIZE_ROW];
/* layer_1_Tanh*/
static float tensor_layer_1_Relu_output[1][INPUT_LAYER_SIZE_ROW];

/* layer_1_MatMul*/
static const float tensor_layer_2_MatMul_weights[SECOND_LAYER_SIZE_ROW][SECOND_LAYER_SIZE_COL] =
{
    {-0.091251f, -0.094097f, -0.013265f, 0.14415f, 0.090977f, 0.01941f, 0.185827f, 0.302819f, -0.048519f, 0.175023f},
	{0.141867f, -0.131075f, -0.270823f, 0.011347f, -0.158307f, -0.196214f, -0.214649f, -0.301497f, -0.204451f, -0.108703f},
	{-0.024059f, 0.185895f, 0.098928f, 0.157015f, -0.089312f, 0.047041f, 0.312196f, 0.15455f, 0.191329f, -0.070706f},
	{0.263328f, -0.121198f, -0.010041f, -0.167424f, -0.305679f, 0.196336f, 0.234717f, 0.129856f, 0.04399f, -0.303939f},
	{-0.228681f, 0.007126f, 0.169195f, -0.069686f, -0.233611f, 0.02646f, 0.157539f, -0.08243f, 0.189806f, -0.135262f},

	{-0.179555f, 0.111625f, -0.269125f, 0.10588f, 0.033006f, 0.285643f, -0.177478f, -0.068493f, -0.174863f, 0.060497f},
	{-0.266396f, -0.228411f, -0.053257f, 0.314924f, -0.044299f, -0.025538f, -0.298711f, -0.283098f, 0.007833f, -0.07442f},
	{0.150997f, -0.179862f, 0.007797f, -0.01386f, -0.196268f, -0.013963f, -0.180135f, 0.089248f, 0.082271f, -0.227001f},
	{-0.21958f, -0.248355f, 0.12117f, 0.224803f, -0.204592f, -0.159262f, -0.315333f, -0.261082f, 0.136813f, 0.094796f},
	{0.313582f, 0.191604f, -0.199317f, 0.067556f, 0.259229f, -0.002081f, -0.081256f, 0.009135f, -0.078251f, 0.168602f}
};
/* layer_1_Add*/
static const float tensor_layer_2_Add_bias[SECOND_LAYER_SIZE_ROW] =
{ -0.182215f, -0.149773f, -0.066907f, -0.079385f, 0.164109f, -0.181214f, -0.273818f, 0.012883f, -0.077623f, -0.05504f };

static const float tensor_layer_2_batch_mean[SECOND_LAYER_SIZE_ROW] =
{ 0.0f, 0.0f, 0.0f, 0.0f, 0.0f, 0.0f, 0.0f, 0.0f, 0.0f, 0.0f };

static const float tensor_layer_2_batch_var[SECOND_LAYER_SIZE_ROW] =
{ 1.0f, 1.0f, 1.0f, 1.0f, 1.0f, 1.0f, 1.0f, 1.0f, 1.0f, 1.0f };


/* layer_2_MatMul*/
static float tensor_layer_2_MatMul_output[1][SECOND_LAYER_SIZE_COL];
/* layer_2_Add*/
static float tensor_layer_2_Add_output[1][SECOND_LAYER_SIZE_COL];
/* layer_2_BN*/
static float tensor_layer_2_BN_output[1][SECOND_LAYER_SIZE_COL];
/* layer_2_Tanh*/
static float tensor_layer_2_Relu_output[1][SECOND_LAYER_SIZE_COL];


static inline uint32_t binarise_123(float x) {

	uint32_t result = 0;

	if (x >= 0 ) {
		result = 1;
	}
	else if (x < -1) {
		result = -1;
	}

	return result;
}

static inline float relu(float x) {
	float result = 0.0f;

	if (x >= result) {
		return x;
	}

	return result;

}

//node_layer_1_MatMul(tensor_input, tensor_layer_1_MatMul_weights, tensor_layer_1_MatMul_output)
static inline void node_layer_1_MatMul(const int A[1][1][1][INPUT_LAYER_SIZE_ROW], 
	const float Weights[INPUT_LAYER_SIZE_ROW][INPUT_LAYER_SIZE_COL], 
	const float tensor_layer_1_Add_bias[INPUT_LAYER_SIZE_ROW],
	int Y[1][INPUT_LAYER_SIZE_ROW])
{

	printf("node_layer_1_MatMul \n");

	/* MatMul */
	for (uint32_t r = 0; r < 1; r++)
		for (uint32_t c = 0; c < INPUT_LAYER_SIZE_ROW; c++) {
			Y[r][c] = 0;
			for (uint32_t i = 0; i < INPUT_LAYER_SIZE_COL; i++) {
				Y[r][c] += binarise(A[0][0][r][i],1) * binarise(Weights[c][i],1) + binarise(tensor_layer_1_Add_bias[c],1);
				//printf("A[0][0][%d][%d] : %d\n", r, i, A[0][0][r][i]);
				//printf("Y[%d][%d]: %d\n", r, c, Y[r][c]);
			}
		}

	printf("\n\n");
}

static inline void node_layer_1_ReLU(const float tensor_layer_1_Add_output[1][INPUT_LAYER_SIZE_ROW], float tensor_layer_1_Relu_output[1][INPUT_LAYER_SIZE_ROW])
{
	printf("node_layer_1_ReLU \n");
	for (unsigned i0 = 0; i0 < 1; i0++) {
		for (unsigned i1 = 0; i1 < INPUT_LAYER_SIZE_ROW; i1++) {
			tensor_layer_1_Relu_output[i0][i1] = relu(tensor_layer_1_Add_output[i0][i1]);
			printf("tensor_layer_1_Relu_output[%d][%d]: %f\n", i0, i1, tensor_layer_1_Relu_output[i0][i1]);
		}
	}
}

static inline void node_layer_1_BN(const int Y[1][INPUT_LAYER_SIZE_ROW], float tensor_layer_1_BN_output[1][INPUT_LAYER_SIZE_ROW])
{
	printf("node_layer_1_BN \n");
	for (unsigned i0 = 0; i0 < 1; i0++) {
		for (unsigned i1 = 0; i1 < INPUT_LAYER_SIZE_ROW; i1++) {
			tensor_layer_1_BN_output[i0][i1] = ((float)Y[i0][i1] - tensor_layer_1_batch_mean[i1]) / (tensor_layer_1_batch_var[i1] + eps) * GAMMA;
			//printf("tensor_layer_1_BN_output[%d][%d]: %f\n", i0, i1, tensor_layer_1_BN_output[i0][i1]);
		}
	}
}

static inline void node_layer_2_MatMul(const float A[1][SECOND_LAYER_SIZE_ROW], 
	const float B[SECOND_LAYER_SIZE_ROW][SECOND_LAYER_SIZE_COL], float Y[1][SECOND_LAYER_SIZE_ROW])
{
	/* MatMul */
	printf("node_layer_2_MatMul\n");
	for (uint32_t r = 0; r < 1; r++)
		for (uint32_t c = 0; c < INPUT_LAYER_SIZE_ROW; c++) {
			Y[r][c] = 0;
			for (uint32_t i = 0; i < INPUT_LAYER_SIZE_COL; i++)
			{
				Y[r][c] += A[r][i] * binarise(B[c][i],1);
				printf("Y[%d][%d]: %f\n", r, c, Y[r][c]);
			}
			
		}
}

static inline void node_layer_2_Add(const float tensor_layer_2_MatMul_output[1][SECOND_LAYER_SIZE_COL], 
	const float tensor_layer_2_Add_bias[SECOND_LAYER_SIZE_COL], float tensor_layer_2_Add_output[1][SECOND_LAYER_SIZE_COL])
{
	printf("node_layer_2_Add\n");
	for (unsigned i0 = 0; i0 < 1; i0++) {
		for (unsigned i1 = 0; i1 < SECOND_LAYER_SIZE_COL; i1++) {
			tensor_layer_2_Add_output[i0][i1] = tensor_layer_2_MatMul_output[0][i1] + tensor_layer_2_Add_bias[i1];
			printf("tensor_layer_2_Add_output[%d][%d]: %f\n", i0,i1, tensor_layer_2_Add_output[i0][i1]);
		}
	}
}

static inline void node_layer_2_BN(const float A[1][1][1][SECOND_LAYER_SIZE_ROW], float tensor_layer_1_BN_output[1][SECOND_LAYER_SIZE_ROW])
{
	printf("node_layer_2_BN \n");
	for (unsigned i0 = 0; i0 < 1; i0++) {
		for (unsigned i1 = 0; i1 < SECOND_LAYER_SIZE_ROW; i1++) {
			tensor_layer_2_BN_output[i0][i1] = (A[0][0][i0][i1] - tensor_layer_2_batch_mean[i1]) / (tensor_layer_2_batch_var[i1] + eps);
			printf("tensor_layer_2_BN_output[%d][%d]: %f\n", i0, i1, tensor_layer_2_BN_output[i0][i1]);
		}
	}
}

static inline void node_layer_2_ReLU(const float tensor_layer_2_Add_output[1][SECOND_LAYER_SIZE_ROW], 
	float tensor_layer_2_Relu_output[1][SECOND_LAYER_SIZE_ROW])
{
	printf("node_layer_2_ReLU \n");
	for (unsigned i0 = 0; i0 < 1; i0++) {
		for (unsigned i1 = 0; i1 < SECOND_LAYER_SIZE_ROW; i1++) {
			tensor_layer_2_Relu_output[i0][i1] = relu(tensor_layer_2_Add_output[i0][i1]);
			printf("tensor_layer_2_Relu_output[%d][%d]: %f\n", i0, i1, tensor_layer_2_Relu_output[i0][i1]);
		}
	}
}

static inline void node_layer_softmax(const float tensor_layer_1_Add_output[1][INPUT_LAYER_SIZE_ROW], float tensor_output[1][INPUT_LAYER_SIZE_ROW])
{
	printf("node_layer_softmax \n");

	float m = -INFINITY;
	for (unsigned i0 = 0; i0 < 1; i0++) {
		for (unsigned i1 = 0; i1 < INPUT_LAYER_SIZE_ROW; i1++) {
			if (tensor_layer_1_Add_output[i0][i1] > m) {
				m = tensor_layer_1_Add_output[i0][i1];
			}
		}
	}

	float sum = 0.0;
	for (unsigned i0 = 0; i0 < 1; i0++) {
		for (unsigned i1 = 0; i1 < INPUT_LAYER_SIZE_ROW; i1++) {
			sum += exp(tensor_layer_1_Add_output[i0][i1] - m);
		}
	}

	float offset = m + log(sum);
	for (unsigned i0 = 0; i0 < 1; i0++) {
		for (unsigned i1 = 0; i1 < INPUT_LAYER_SIZE_ROW; i1++) {
			tensor_output[i0][i1] = exp(tensor_layer_1_Add_output[i0][i1] - offset);
		}
	}
}

static inline float RoughSigmoid(float value)
{
    float x = fabsf(value);
    float x2 = x*x;
    float e = 1.0f + x + x2*0.555f + x2*x2*0.143f;
    return 1.0f / (1.0f + (value > 0 ? 1.0f / e : e));
}


static inline void node_layer_Sigmoid(const float tensor_layer_2_Add_output[1][SECOND_LAYER_SIZE_ROW],
        float tensor_layer_2_Relu_output[1][SECOND_LAYER_SIZE_ROW])
{
        printf("node_layer_2_ReLU \n");
        for (unsigned i0 = 0; i0 < 1; i0++) {
                for (unsigned i1 = 0; i1 < SECOND_LAYER_SIZE_ROW; i1++) {
                        tensor_layer_2_Relu_output[i0][i1] = RoughSigmoid(tensor_layer_2_Add_output[i0][i1]);
                        printf("tensor_layer_2_Relu_output[%d][%d]: %f\n", i0, i1, tensor_layer_2_Relu_output[i0][i1]);
                }
        }
}



void entry(const int tensor_input[1][1][1][INPUT_LAYER_SIZE_ROW], float tensor_output[1][INPUT_LAYER_SIZE_ROW]) {

	printf("tensor_input[0][0][0][0] : %d\n", tensor_input[0][0][0][0]);

	node_layer_1_MatMul(tensor_input, tensor_layer_1_MatMul_weights, tensor_layer_1_Add_bias, tensor_layer_1_MatMul_output);
	node_layer_1_BN(tensor_layer_1_MatMul_output, tensor_layer_1_BN_output);
	node_layer_1_ReLU(tensor_layer_1_BN_output, tensor_layer_1_Relu_output);
        //node_layer_1_ReLU(tensor_layer_1_BN_output, tensor_output);

	//node_layer_2_MatMul(tensor_layer_1_Relu_output, tensor_layer_2_MatMul_weights, tensor_layer_2_MatMul_output);
	//node_layer_2_Add(tensor_layer_2_MatMul_output, tensor_layer_1_Add_bias, tensor_layer_2_Add_output);
	//node_layer_2_BN(tensor_layer_2_Relu_output, tensor_layer_2_BN_output);
	//node_layer_2_ReLU(tensor_layer_2_BN_output, tensor_layer_2_Relu_output);
	//node_layer_2_ReLU(tensor_layer_2_BN_output, tensor_output);

	node_layer_Sigmoid(tensor_layer_1_Relu_output, tensor_output);
}

int main()
{
	int tensor_input[1][1][1][INPUT_LAYER_SIZE_COL];
	float tensor_output[1][INPUT_LAYER_SIZE_ROW];

        for(int i=0;i<10;i++){
		tensor_input[0][0][0][i] = nondet_int();
		__ESBMC_assume((tensor_input[0][0][0][i] == -1) || (tensor_input[0][0][0][i] == 1 ));
	}


        for(int i=0;i<10;i++)
                printf("tensor_output[0][%d]: %f ",i, tensor_output[0][i]);

	entry(tensor_input, tensor_output);

	printf("Successful!!");


	for(int i=0;i<10;i++){
		__ESBMC_assert(tensor_output[0][i] >= 0, "");
        }

	return 0;
}


